0 0.005 3.7245e-302 -694.066 -289.995 408.676 0.241317
1 0.015 1.50533e-293 -674.248 -270.177 408.676 0.209485
2 0.025 6.47539e-291 -668.184 -264.113 408.676 0.199146
3 0.035 2.43654e-289 -664.557 -260.485 408.676 0.193714
4 0.045 1.66377e-288 -662.635 -258.564 408.676 0.189375
5 0.055 8.01669e-288 -661.063 -256.992 408.676 0.185507
6 0.065 1.95441e-287 -660.172 -256.101 408.676 0.181389
7 0.075 2.86475e-287 -659.789 -255.718 408.676 0.177027
8 0.085 2.45144e-287 -659.945 -255.874 408.676 0.172889
9 0.095 2.49704e-287 -659.927 -255.856 408.676 0.168892
10 0.105 1.68915e-287 -660.318 -256.247 408.676 0.164049
11 0.115 9.73417e-288 -660.869 -256.798 408.676 0.159402
12 0.125 4.5849e-288 -661.622 -257.551 408.676 0.155309
13 0.135 2.97035e-288 -662.056 -257.985 408.676 0.150932
14 0.145 1.54016e-288 -662.713 -258.642 408.676 0.145968
15 0.155 8.22117e-289 -663.34 -259.269 408.676 0.140955
16 0.165 4.21948e-289 -664.007 -259.936 408.676 0.136454
17 0.175 3.04492e-289 -664.334 -260.263 408.676 0.130979
18 0.185 1.92779e-289 -664.791 -260.72 408.676 0.124546
19 0.195 1.51229e-289 -665.033 -260.962 408.676 0.11934
20 0.205 1.16287e-289 -665.296 -261.225 408.676 0.113979
21 0.215 1.5448e-289 -665.012 -260.941 408.676 0.108316
22 0.225 2.01391e-289 -664.747 -260.676 408.676 0.102283
23 0.235 3.25501e-289 -664.267 -260.196 408.676 0.0962089
24 0.245 5.55638e-289 -663.732 -259.661 408.676 0.0901921
25 0.255 1.49165e-288 -662.745 -258.674 408.676 0.0837954
26 0.265 5.22689e-288 -661.491 -257.42 408.676 0.0768761
27 0.275 2.03206e-287 -660.133 -256.062 408.676 0.0713109
28 0.285 1.10241e-286 -658.442 -254.371 408.676 0.0635278
29 0.295 3.1853e-286 -657.381 -253.31 408.676 0.0623726
30 0.305 2.16905e-285 -655.462 -251.391 408.676 0.0569954
31 0.315 5.50527e-284 -652.228 -248.157 408.676 0.0466201
32 0.325 9.39634e-284 -651.694 -247.623 408.676 0.0495963
33 0.335 1.91487e-282 -648.679 -244.608 408.676 0.0417047
34 0.345 1.0347e-281 -646.992 -242.921 408.676 0.0398243
35 0.355 1.15557e-280 -644.579 -240.508 408.676 0.0359717
36 0.365 3.00499e-279 -641.321 -237.25 408.676 0.0296473
37 0.375 4.78061e-278 -638.554 -234.483 408.676 0.0254548
38 0.385 2.49767e-276 -634.598 -230.527 408.676 0.0194022
39 0.395 1.49601e-274 -630.506 -226.434 408.676 0.013235
40 0.405 1.1736e-274 -630.748 -226.677 408.676 0.016475
41 0.415 1.41491e-273 -628.259 -224.188 408.676 0.0130729
42 0.425 3.42359e-269 -618.165 -214.094 408.676 -0.00166161
43 0.435 9.48799e-270 -619.448 -215.377 408.676 0.00132832
44 0.445 9.32808e-268 -614.86 -210.789 408.676 -0.0050303
45 0.455 2.84574e-266 -611.442 -207.371 408.676 -0.00841679
46 0.465 2.00788e-265 -609.488 -205.417 408.676 -0.0096363
47 0.475 3.29809e-263 -604.387 -200.316 408.676 -0.015194
48 0.485 4.26706e-260 -597.221 -193.15 408.676 -0.0226207
49 0.495 3.60979e-259 -595.086 -191.015 408.676 -0.0249334
50 0.505 5.40485e-257 -590.077 -186.006 408.676 -0.0301138
51 0.515 3.6416e-255 -585.867 -181.796 408.676 -0.0331315
52 0.525 7.47907e-253 -580.542 -176.471 408.676 -0.0390187
53 0.535 1.55125e-249 -572.905 -168.834 408.676 -0.0466722
54 0.545 3.26684e-249 -572.16 -168.089 408.676 -0.0464824
55 0.555 6.99036e-247 -566.794 -162.723 408.676 -0.0517746
56 0.565 3.31765e-244 -560.632 -156.56 408.676 -0.0570411
57 0.575 8.03103e-240 -550.537 -146.466 408.676 -0.0663529
58 0.585 7.28312e-239 -548.332 -144.261 408.676 -0.0679798
59 0.595 2.8721e-235 -540.052 -135.981 408.676 -0.0754844
60 0.605 1.95057e-232 -533.532 -129.461 408.676 -0.0807069
61 0.615 2.29696e-232 -533.368 -129.297 408.676 -0.0803332
62 0.625 1.04729e-228 -524.943 -120.872 408.676 -0.0879335
63 0.635 4.64744e-221 -507.335 -103.264 408.676 -0.1025
64 0.645 7.44813e-223 -511.469 -107.397 408.676 -0.0983503
65 0.655 7.32601e-217 -497.67 -93.5985 408.676 -0.109675
66 0.665 4.7607e-215 -493.495 -89.4244 408.676 -0.112746
67 0.675 3.19014e-210 -482.383 -78.3118 408.676 -0.122127
68 0.685 2.85848e-207 -475.585 -71.5138 408.676 -0.127641
69 0.695 1.14076e-204 -469.596 -65.5246 408.676 -0.131264
70 0.705 3.06304e-199 -457.095 -53.024 408.676 -0.142089
71 0.715 3.61312e-194 -445.417 -41.3459 408.676 -0.151099
72 0.725 4.22514e-190 -436.05 -31.9791 408.676 -0.158295
73 0.735 5.45935e-185 -424.281 -20.2099 408.676 -0.167299
74 0.745 6.90175e-181 -414.836 -10.7651 408.676 -0.174468
75 0.755 8.98825e-178 -407.664 -3.5932 408.676 -0.179713
76 0.765 1.18908e-171 -393.569 10.5022 408.676 -0.190699
77 0.775 1.52632e-167 -384.109 19.9622 408.676 -0.197877
78 0.785 2.63027e-161 -369.749 34.3219 408.676 -0.208389
79 0.795 5.50344e-158 -362.103 41.968 408.676 -0.214001
80 0.805 8.012e-150 -343.307 60.7642 408.676 -0.228443
81 0.815 5.57094e-141 -322.947 81.1241 408.676 -0.244688
82 0.825 7.07201e-135 -308.893 95.1782 408.676 -0.255309
83 0.835 6.64505e-128 -292.837 111.234 408.676 -0.2681
84 0.845 1.30799e-121 -278.344 125.727 408.676 -0.27879
85 0.855 8.83961e-113 -258.013 146.058 408.676 -0.295094
86 0.865 2.33927e-104 -238.619 165.452 408.676 -0.311256
87 0.875 8.72534e-96 -218.882 185.189 408.676 -0.327452
88 0.885 1.47627e-85 -195.33 208.741 408.676 -0.347294
89 0.895 4.45979e-72 -164.291 239.78 408.676 -0.3743
90 0.905 7.39925e-67 -152.272 251.799 408.676 -0.385072
91 0.915 1.62253e-53 -121.553 282.518 408.676 -0.4139
92 0.925 5.14846e-50 -113.491 290.58 408.676 -0.421026
93 0.935 8.29722e-39 -87.6849 316.386 408.676 -0.447605
94 0.945 1.80313e-28 -63.8829 340.188 408.676 -0.474746
95 0.955 9.2307e-16 -34.6188 369.452 408.676 -0.514697
96 0.965 8.07496e-13 -27.8448 376.226 408.676 -0.524742
97 0.975 3.63773e-05 -10.2216 393.849 408.676 -0.559308
98 0.985 1.28738 0.252612 404.324 408.676 -0.581798
99 0.995 98.7126 4.59221 408.663 408.676 -0.592357
