0 0.005 1.49787e-210 -483.139 73.0068 560.751 0.248879
1 0.015 2.74079e-203 -466.417 89.7291 560.751 0.213716
2 0.025 9.2004e-202 -462.903 93.2427 560.751 0.211206
3 0.035 9.97988e-201 -460.519 95.6266 560.751 0.207433
4 0.045 2.7548e-200 -459.504 96.642 560.751 0.203839
5 0.055 4.85297e-200 -458.937 97.2082 560.751 0.20015
6 0.065 3.93282e-200 -459.148 96.998 560.751 0.196134
7 0.075 1.88384e-200 -459.884 96.2619 560.751 0.191702
8 0.085 5.4668e-201 -461.121 95.0247 560.751 0.188304
9 0.095 1.84985e-201 -462.205 93.9411 560.751 0.183917
10 0.105 3.56871e-202 -463.85 92.2957 560.751 0.179187
11 0.115 6.99784e-203 -465.479 90.6665 560.751 0.175363
12 0.125 1.23563e-203 -467.213 88.9324 560.751 0.172477
13 0.135 2.1817e-204 -468.947 87.1984 560.751 0.166241
14 0.145 2.23593e-205 -471.225 84.9204 560.751 0.158333
15 0.155 3.55901e-206 -473.063 83.0826 560.751 0.154393
16 0.165 7.27094e-207 -474.651 81.4944 560.751 0.153259
17 0.175 1.4733e-207 -476.248 79.898 560.751 0.145815
18 0.185 1.76854e-208 -478.368 77.7781 560.751 0.139417
19 0.195 4.82278e-209 -479.667 76.4787 560.751 0.136111
20 0.205 6.50161e-210 -481.671 74.4748 560.751 0.128996
21 0.215 3.17281e-210 -482.388 73.7574 560.751 0.127628
22 0.225 7.83737e-211 -483.787 72.3591 560.751 0.119418
23 0.235 2.86619e-211 -484.792 71.3532 560.751 0.114135
24 0.245 1.99317e-211 -485.156 70.9899 560.751 0.119665
25 0.255 5.74369e-212 -486.4 69.7457 560.751 0.103578
26 0.265 4.11071e-212 -486.734 69.4112 560.751 0.0978931
27 0.275 2.86361e-212 -487.096 69.0497 560.751 0.0916395
28 0.285 2.42024e-212 -487.264 68.8815 560.751 0.085296
29 0.295 2.28274e-212 -487.323 68.823 560.751 0.078938
30 0.305 3.77029e-212 -486.821 69.3248 560.751 0.0732544
31 0.315 5.78926e-212 -486.392 69.7536 560.751 0.067444
32 0.325 1.1351e-211 -485.719 70.4269 560.751 0.0600635
33 0.335 1.99547e-211 -485.155 70.9911 560.751 0.0538216
34 0.345 9.23313e-211 -483.623 72.523 560.751 0.046005
35 0.355 2.51712e-210 -482.62 73.5259 560.751 0.0430264
36 0.365 1.3563e-209 -480.936 75.2101 560.751 0.0348735
37 0.375 4.3499e-209 -479.77 76.3755 560.751 0.0310308
38 0.385 1.72237e-208 -478.394 77.7516 560.751 0.0297962
39 0.395 3.48499e-207 -475.387 80.759 560.751 0.0178431
40 0.405 1.71164e-206 -473.795 82.3506 560.751 0.0170293
41 0.415 1.52076e-205 -471.611 84.5349 560.751 0.0121903
42 0.425 8.35641e-205 -469.907 86.2387 560.751 0.00978579
43 0.435 7.50279e-204 -467.712 88.4336 560.751 0.0066437
44 0.445 2.23638e-202 -464.317 91.8283 560.751 -0.00126398
45 0.455 1.58769e-201 -462.357 93.7883 560.751 -0.00560215
46 0.465 2.6984e-200 -459.524 96.6213 560.751 -0.00849713
47 0.475 8.73948e-199 -456.047 100.099 560.751 -0.0146828
48 0.485 9.10061e-198 -453.704 102.442 560.751 -0.0184562
49 0.495 3.7246e-197 -452.294 103.851 560.751 -0.017985
50 0.505 2.36098e-194 -445.842 110.303 560.751 -0.0301881
51 0.515 1.06996e-193 -444.331 111.814 560.751 -0.0314457
52 0.525 8.28101e-192 -439.982 116.163 560.751 -0.0367553
53 0.535 2.83735e-189 -434.146 122 560.751 -0.0443973
54 0.545 4.28253e-189 -433.734 122.412 560.751 -0.0436815
55 0.555 5.10916e-186 -426.65 129.496 560.751 -0.0534353
56 0.565 5.21572e-184 -422.024 134.122 560.751 -0.059083
57 0.575 9.24949e-184 -421.451 134.695 560.751 -0.0581119
58 0.585 3.19768e-181 -415.605 140.54 560.751 -0.0661187
59 0.595 2.08111e-178 -409.127 147.018 560.751 -0.0735351
60 0.605 5.06015e-178 -408.239 147.907 560.751 -0.0732079
61 0.615 1.06016e-174 -400.591 155.554 560.751 -0.0822436
62 0.625 4.6357e-172 -394.511 161.635 560.751 -0.0878649
63 0.635 1.41782e-170 -391.09 165.055 560.751 -0.0914973
64 0.645 9.25414e-166 -380.004 176.142 560.751 -0.104161
65 0.655 1.08989e-162 -372.933 183.213 560.751 -0.111468
66 0.665 6.7712e-162 -371.106 185.04 560.751 -0.113133
67 0.675 2.06866e-156 -358.476 197.669 560.751 -0.125898
68 0.685 1.2328e-158 -363.599 192.546 560.751 -0.11982
69 0.695 3.16274e-153 -351.144 205.002 560.751 -0.133088
70 0.705 3.33219e-149 -341.882 214.264 560.751 -0.142096
71 0.715 9.15274e-147 -336.266 219.88 560.751 -0.147392
72 0.725 4.92336e-144 -329.978 226.167 560.751 -0.152843
73 0.735 1.34424e-140 -322.066 234.08 560.751 -0.160058
74 0.745 1.5504e-138 -317.318 238.827 560.751 -0.165026
75 0.755 1.26437e-133 -306.009 250.136 560.751 -0.175923
76 0.765 1.9503e-128 -294.063 262.083 560.751 -0.186946
77 0.775 9.14369e-124 -283.307 272.838 560.751 -0.197598
78 0.785 1.929e-116 -266.443 289.703 560.751 -0.2141
79 0.795 3.63711e-113 -258.901 297.245 560.751 -0.221292
80 0.805 3.25422e-112 -256.71 299.436 560.751 -0.222523
81 0.815 1.44835e-98 -225.283 330.863 560.751 -0.2537
82 0.825 9.86857e-98 -223.364 332.782 560.751 -0.255226
83 0.835 5.6613e-93 -212.407 343.739 560.751 -0.266256
84 0.845 3.24287e-88 -201.451 354.695 560.751 -0.276949
85 0.855 1.03544e-82 -188.777 367.368 560.751 -0.28925
86 0.865 1.49428e-73 -167.687 388.459 560.751 -0.311142
87 0.875 2.68139e-68 -155.589 400.556 560.751 -0.323649
88 0.885 2.88007e-60 -137.097 419.048 560.751 -0.343488
89 0.895 1.67194e-54 -123.826 432.32 560.751 -0.357426
90 0.905 1.10974e-45 -103.512 452.633 560.751 -0.381058
91 0.915 4.64125e-38 -85.9632 470.182 560.751 -0.403075
92 0.925 3.71769e-33 -74.6722 481.473 560.751 -0.414903
93 0.935 1.85711e-25 -56.9456 499.2 560.751 -0.439742
94 0.945 8.83586e-17 -36.9651 519.181 560.751 -0.472792
95 0.955 3.38271e-11 -24.1098 532.036 560.751 -0.49493
96 0.965 2.13014e-06 -13.0593 543.086 560.751 -0.51942
97 0.975 0.0383628 -3.26067 552.885 560.751 -0.544338
98 0.985 15.5686 2.74525 558.891 560.751 -0.560049
99 0.995 84.3931 4.43549 560.581 560.751 -0.569256
