0 0.005 0.0726377 -2.62227 2.4012 9.62864 0.273702
1 0.015 10.2071 2.32308 7.34655 9.62864 0.271815
2 0.025 45.4326 3.81623 8.8397 9.62864 0.270309
3 0.035 35.2392 3.56216 8.58563 9.62864 0.268668
4 0.045 7.82557 2.0574 7.08086 9.62864 0.26698
5 0.055 1.1697 0.156745 5.18021 9.62864 0.266057
6 0.065 0.0466648 -3.06476 1.9587 9.62864 0.264124
7 0.075 0.00653093 -5.03121 -0.00773917 9.62864 0.273673
8 0.085 1.9629e-08 -17.7463 -12.7228 9.62864 0.224916
9 0.095 1.51487e-13 -29.5183 -24.4948 9.62864 0.208594
10 0.105 5.69828e-13 -28.1934 -23.17 9.62864 0.2107
11 0.115 1.51735e-15 -34.1218 -29.0983 9.62864 0.2035
12 0.125 1.05609e-24 -55.2075 -50.184 9.62864 0.181631
13 0.135 1.79188e-26 -59.2839 -54.2605 9.62864 0.178241
14 0.145 9.95569e-31 -69.082 -64.0585 9.62864 0.169105
15 0.155 7.75432e-35 -78.5422 -73.5188 9.62864 0.16182
16 0.165 8.41175e-37 -83.066 -78.0426 9.62864 0.158029
17 0.175 6.39014e-38 -85.6435 -80.62 9.62864 0.156668
18 0.185 5.10713e-43 -97.3805 -92.3571 9.62864 0.147283
19 0.195 8.02979e-44 -99.2306 -94.2071 9.62864 0.145752
20 0.205 5.20069e-48 -108.875 -103.852 9.62864 0.138431
21 0.215 2.45449e-48 -109.626 -104.603 9.62864 0.138545
22 0.225 2.14954e-50 -114.364 -109.341 9.62864 0.135086
23 0.235 8.63097e-55 -124.487 -119.463 9.62864 0.125518
24 0.245 3.36677e-56 -127.731 -122.707 9.62864 0.123562
25 0.255 3.12658e-57 -130.107 -125.084 9.62864 0.122047
26 0.265 7.10112e-59 -133.892 -128.869 9.62864 0.118644
27 0.275 8.96905e-61 -138.264 -133.24 9.62864 0.115206
28 0.285 1.19418e-63 -144.885 -139.862 9.62864 0.109071
29 0.295 1.88477e-65 -149.034 -144.011 9.62864 0.105523
30 0.305 3.73443e-67 -152.956 -147.932 9.62864 0.101739
31 0.315 4.89856e-68 -154.987 -149.963 9.62864 0.100111
32 0.325 1.66583e-70 -160.671 -155.647 9.62864 0.0929222
33 0.335 1.19461e-71 -163.306 -158.282 9.62864 0.0906479
34 0.345 2.02936e-71 -162.776 -157.752 9.62864 0.0934357
35 0.355 6.46263e-73 -166.223 -161.199 9.62864 0.0896931
36 0.365 1.233e-75 -172.484 -167.461 9.62864 0.0814093
37 0.375 1.42219e-76 -174.644 -169.621 9.62864 0.0804357
38 0.385 1.07557e-77 -177.226 -172.203 9.62864 0.0761745
39 0.395 6.13014e-78 -177.788 -172.765 9.62864 0.0771066
40 0.405 3.59486e-80 -182.927 -177.904 9.62864 0.0695358
41 0.415 6.38178e-81 -184.656 -179.632 9.62864 0.0671145
42 0.425 3.7246e-82 -187.497 -182.474 9.62864 0.0635144
43 0.435 4.62398e-83 -189.583 -184.56 9.62864 0.0594934
44 0.445 5.86258e-84 -191.649 -186.625 9.62864 0.0585069
45 0.455 1.34677e-85 -195.422 -190.399 9.62864 0.0502159
46 0.465 2.08042e-86 -197.29 -192.266 9.62864 0.046553
47 0.475 2.95138e-87 -199.243 -194.219 9.62864 0.0435834
48 0.485 1.02357e-87 -200.302 -195.278 9.62864 0.0426214
49 0.495 1.08714e-88 -202.544 -197.52 9.62864 0.0387082
50 0.505 1.48152e-89 -204.537 -199.514 9.62864 0.0341729
51 0.515 3.15871e-90 -206.082 -201.059 9.62864 0.0289146
52 0.525 5.16196e-91 -207.894 -202.87 9.62864 0.0249339
53 0.535 7.75659e-92 -209.789 -204.766 9.62864 0.0178214
54 0.545 3.41828e-92 -210.609 -205.585 9.62864 0.0193498
55 0.555 4.2752e-93 -212.688 -207.664 9.62864 0.00880054
56 0.565 1.72965e-93 -213.592 -208.569 9.62864 0.00687987
57 0.575 4.48256e-94 -214.943 -209.919 9.62864 0.0017474
58 0.585 1.24572e-94 -216.223 -211.2 9.62864 -0.00415701
59 0.595 4.92129e-95 -217.152 -212.129 9.62864 -0.00997298
60 0.605 2.089e-95 -218.009 -212.985 9.62864 -0.014519
61 0.615 8.52073e-96 -218.906 -213.882 9.62864 -0.0203597
62 0.625 4.16602e-96 -219.621 -214.598 9.62864 -0.0236391
63 0.635 2.68339e-96 -220.061 -215.038 9.62864 -0.0288621
64 0.645 1.14918e-96 -220.909 -215.886 9.62864 -0.0434011
65 0.655 7.38918e-97 -221.351 -216.327 9.62864 -0.0520034
66 0.665 4.58177e-97 -221.829 -216.805 9.62864 -0.0607579
67 0.675 4.74623e-97 -221.793 -216.77 9.62864 -0.0694977
68 0.685 4.68499e-97 -221.806 -216.783 9.62864 -0.0787119
69 0.695 5.3337e-97 -221.677 -216.653 9.62864 -0.0891786
70 0.705 5.68703e-97 -221.613 -216.589 9.62864 -0.0976775
71 0.715 9.40433e-97 -221.11 -216.086 9.62864 -0.106273
72 0.725 1.54486e-96 -220.613 -215.59 9.62864 -0.116298
73 0.735 3.0425e-96 -219.935 -214.912 9.62864 -0.126958
74 0.745 5.30011e-96 -219.38 -214.357 9.62864 -0.137256
75 0.755 1.17901e-95 -218.581 -213.557 9.62864 -0.14503
76 0.765 3.94525e-95 -217.373 -212.35 9.62864 -0.157719
77 0.775 1.11634e-94 -216.333 -211.309 9.62864 -0.166563
78 0.785 4.14672e-94 -215.021 -209.997 9.62864 -0.177203
79 0.795 1.05852e-93 -214.084 -209.06 9.62864 -0.186363
80 0.805 5.39649e-93 -212.455 -207.431 9.62864 -0.198727
81 0.815 2.61405e-92 -210.877 -205.853 9.62864 -0.21122
82 0.825 1.17155e-91 -209.377 -204.353 9.62864 -0.221374
83 0.835 4.59257e-91 -208.011 -202.987 9.62864 -0.235703
84 0.845 2.4205e-90 -206.349 -201.325 9.62864 -0.245934
85 0.855 1.19562e-89 -204.751 -199.728 9.62864 -0.258786
86 0.865 5.24803e-89 -203.272 -198.249 9.62864 -0.271023
87 0.875 1.62033e-88 -202.145 -197.121 9.62864 -0.282468
88 0.885 6.23292e-88 -200.798 -195.774 9.62864 -0.294868
89 0.895 1.73918e-87 -199.771 -194.748 9.62864 -0.307822
90 0.905 3.77662e-87 -198.996 -193.973 9.62864 -0.321237
91 0.915 4.65512e-87 -198.787 -193.763 9.62864 -0.333334
92 0.925 5.92073e-87 -198.546 -193.523 9.62864 -0.345669
93 0.935 3.69563e-87 -199.018 -193.994 9.62864 -0.359142
94 0.945 1.2311e-87 -200.117 -195.094 9.62864 -0.372419
95 0.955 1.81004e-88 -202.034 -197.011 9.62864 -0.385654
96 0.965 1.86789e-89 -204.305 -199.282 9.62864 -0.397469
97 0.975 2.74169e-91 -208.527 -203.503 9.62864 -0.415321
98 0.985 4.6158e-94 -214.914 -209.89 9.62864 -0.43951
99 0.995 5.94892e-100 -228.475 -223.452 9.62864 -0.479525
