0 0.005 0.110284 -2.2047 3.35064 10.1605 0.27344
1 0.015 9.29737 2.22973 7.78507 10.1605 0.272001
2 0.025 44.0615 3.78559 9.34093 10.1605 0.27009
3 0.035 37.2205 3.61686 9.1722 10.1605 0.26832
4 0.045 8.11698 2.09396 7.6493 10.1605 0.266468
5 0.055 1.13037 0.122542 5.67788 10.1605 0.2646
6 0.065 0.0625071 -2.77248 2.78287 10.1605 0.262446
7 0.075 0.000492732 -7.61554 -2.0602 10.1605 0.251458
8 0.085 3.52294e-10 -21.7666 -16.2112 10.1605 0.215505
9 0.095 5.35376e-13 -28.2558 -22.7005 10.1605 0.208514
10 0.105 6.8717e-18 -39.5191 -33.9638 10.1605 0.196174
11 0.115 2.3384e-19 -42.8996 -37.3443 10.1605 0.192688
12 0.125 4.56532e-26 -58.3487 -52.7934 10.1605 0.178291
13 0.135 2.27155e-31 -70.5597 -65.0043 10.1605 0.167248
14 0.145 2.39597e-31 -70.5063 -64.951 10.1605 0.167269
15 0.155 4.47489e-37 -83.6972 -78.1418 10.1605 0.156183
16 0.165 7.49837e-40 -90.0887 -84.5334 10.1605 0.151027
17 0.175 3.10819e-41 -93.2719 -87.7166 10.1605 0.149437
18 0.185 2.72025e-43 -98.0104 -92.4551 10.1605 0.145883
19 0.195 4.96418e-47 -106.619 -101.064 10.1605 0.138603
20 0.205 3.23697e-49 -111.652 -106.097 10.1605 0.134627
21 0.215 5.06059e-52 -118.113 -112.558 10.1605 0.129308
22 0.225 5.29379e-55 -124.976 -119.42 10.1605 0.123889
23 0.235 7.84242e-56 -126.885 -121.33 10.1605 0.122228
24 0.245 3.40419e-58 -132.325 -126.77 10.1605 0.118376
25 0.255 3.92419e-60 -136.788 -131.233 10.1605 0.114817
26 0.265 2.89519e-59 -134.789 -129.234 10.1605 0.117033
27 0.275 7.30555e-63 -143.074 -137.519 10.1605 0.10946
28 0.285 1.1205e-63 -144.949 -139.394 10.1605 0.107657
29 0.295 1.20515e-64 -147.179 -141.623 10.1605 0.106239
30 0.305 2.37375e-68 -155.711 -150.156 10.1605 0.0966906
31 0.315 3.65481e-67 -152.977 -147.422 10.1605 0.100848
32 0.325 5.30055e-70 -159.513 -153.958 10.1605 0.0934652
33 0.335 3.79716e-73 -166.754 -161.199 10.1605 0.0854384
34 0.345 1.16092e-73 -167.939 -162.384 10.1605 0.0839219
35 0.355 4.76138e-74 -168.831 -163.275 10.1605 0.0840882
36 0.365 8.31047e-75 -170.576 -165.021 10.1605 0.0826838
37 0.375 3.31576e-76 -173.798 -168.242 10.1605 0.0792646
38 0.385 1.36645e-78 -179.289 -173.734 10.1605 0.0707979
39 0.395 3.76021e-80 -182.882 -177.327 10.1605 0.0661719
40 0.405 6.62143e-80 -182.316 -176.761 10.1605 0.0675227
41 0.415 2.51607e-82 -187.889 -182.334 10.1605 0.0605568
42 0.425 3.11067e-82 -187.677 -182.122 10.1605 0.0604024
43 0.435 5.89574e-84 -191.643 -186.088 10.1605 0.0549758
44 0.445 4.40514e-85 -194.237 -188.682 10.1605 0.0514421
45 0.455 3.77907e-85 -194.39 -188.835 10.1605 0.0521697
46 0.465 2.26031e-87 -199.509 -193.954 10.1605 0.0409314
47 0.475 3.71761e-86 -196.709 -191.154 10.1605 0.0485915
48 0.485 5.33808e-88 -200.953 -195.397 10.1605 0.040835
49 0.495 2.87917e-89 -203.873 -198.317 10.1605 0.0350673
50 0.505 1.25285e-90 -207.007 -201.452 10.1605 0.0244763
51 0.515 1.8065e-88 -202.036 -196.481 10.1605 0.0396433
52 0.525 1.502e-91 -209.128 -203.573 10.1605 0.0189994
53 0.535 7.60281e-91 -207.507 -201.951 10.1605 0.0281224
54 0.545 2.53223e-92 -210.909 -205.353 10.1605 0.016838
55 0.555 3.78764e-93 -212.809 -207.253 10.1605 0.00932043
56 0.565 7.29929e-94 -214.455 -208.9 10.1605 0.00272211
57 0.575 1.94251e-94 -215.779 -210.224 10.1605 -0.00281987
58 0.585 4.27263e-95 -217.293 -211.738 10.1605 -0.0105113
59 0.595 4.84564e-95 -217.168 -211.612 10.1605 -0.00570683
60 0.605 1.2874e-95 -218.493 -212.938 10.1605 -0.01743
61 0.615 5.35649e-96 -219.37 -213.815 10.1605 -0.0230195
62 0.625 2.06341e-96 -220.324 -214.768 10.1605 -0.0284403
63 0.635 9.33976e-97 -221.116 -215.561 10.1605 -0.0409488
64 0.645 5.91607e-97 -221.573 -216.018 10.1605 -0.0455651
65 0.655 3.81872e-97 -222.011 -216.455 10.1605 -0.0551075
66 0.665 2.66372e-97 -222.371 -216.816 10.1605 -0.063388
67 0.675 2.69562e-97 -222.359 -216.804 10.1605 -0.0696665
68 0.685 2.78709e-97 -222.326 -216.77 10.1605 -0.080068
69 0.695 3.1933e-97 -222.19 -216.634 10.1605 -0.0897991
70 0.705 3.82967e-97 -222.008 -216.453 10.1605 -0.0969619
71 0.715 5.73964e-97 -221.603 -216.048 10.1605 -0.106184
72 0.725 1.00857e-96 -221.04 -215.484 10.1605 -0.11929
73 0.735 2.1139e-96 -220.3 -214.744 10.1605 -0.128932
74 0.745 4.91839e-96 -219.455 -213.9 10.1605 -0.145632
75 0.755 7.66956e-96 -219.011 -213.456 10.1605 -0.145212
76 0.765 2.17701e-95 -217.968 -212.412 10.1605 -0.155207
77 0.775 7.42933e-95 -216.74 -211.185 10.1605 -0.166592
78 0.785 2.19902e-94 -215.655 -210.1 10.1605 -0.177482
79 0.795 6.83466e-94 -214.521 -208.966 10.1605 -0.190409
80 0.805 3.61312e-93 -212.856 -207.301 10.1605 -0.199238
81 0.815 1.3086e-92 -211.569 -206.014 10.1605 -0.207357
82 0.825 8.64772e-92 -209.681 -204.125 10.1605 -0.224523
83 0.835 2.38929e-91 -208.664 -203.109 10.1605 -0.231929
84 0.845 1.60578e-90 -206.759 -201.204 10.1605 -0.246078
85 0.855 6.53096e-90 -205.356 -199.801 10.1605 -0.257504
86 0.865 3.35916e-89 -203.718 -198.163 10.1605 -0.271008
87 0.875 1.03328e-88 -202.595 -197.039 10.1605 -0.283478
88 0.885 3.90755e-88 -201.265 -195.709 10.1605 -0.294503
89 0.895 1.11117e-87 -200.219 -194.664 10.1605 -0.308693
90 0.905 2.43406e-87 -199.435 -193.88 10.1605 -0.320779
91 0.915 3.08801e-87 -199.197 -193.642 10.1605 -0.333592
92 0.925 3.93509e-87 -198.955 -193.4 10.1605 -0.34538
93 0.935 2.5578e-87 -199.386 -193.83 10.1605 -0.359157
94 0.945 8.07028e-88 -200.539 -194.984 10.1605 -0.37228
95 0.955 1.24147e-88 -202.411 -196.856 10.1605 -0.38515
96 0.965 1.49728e-89 -204.526 -198.971 10.1605 -0.395049
97 0.975 2.5838e-91 -208.586 -203.031 10.1605 -0.415386
98 0.985 6.4522e-95 -216.881 -211.326 10.1605 -0.452451
99 0.995 2.62123e-101 -231.597 -226.042 10.1605 -0.491247
