0 0.005 0.131815 -2.02635 3.38547 10.017 0.276455
1 0.015 10.542 2.35537 7.76719 10.017 0.275714
2 0.025 45.6992 3.82208 9.2339 10.017 0.273936
3 0.035 35.5617 3.57127 8.98309 10.017 0.272315
4 0.045 7.11232 1.96183 7.37365 10.017 0.2706
5 0.055 0.908734 -0.0957031 5.31612 10.017 0.268915
6 0.065 0.0440574 -3.12226 2.28956 10.017 0.265564
7 0.075 0.000190496 -8.56588 -3.15405 10.017 0.251749
8 0.085 2.37601e-11 -24.463 -19.0512 10.017 0.215581
9 0.095 2.57364e-14 -31.2909 -25.879 10.017 0.208581
10 0.105 1.81574e-19 -43.1526 -37.7408 10.017 0.196195
11 0.115 5.21732e-21 -46.7023 -41.2905 10.017 0.192692
12 0.125 5.07392e-28 -62.8483 -57.4364 10.017 0.178294
13 0.135 1.48074e-33 -75.5928 -70.1809 10.017 0.16729
14 0.145 1.56263e-33 -75.5389 -70.1271 10.017 0.16729
15 0.155 1.70786e-39 -89.2656 -83.8538 10.017 0.156236
16 0.165 2.22816e-42 -95.9074 -90.4956 10.017 0.151052
17 0.175 8.54958e-44 -99.1679 -93.756 10.017 0.14945
18 0.185 6.29839e-46 -104.079 -98.6668 10.017 0.145887
19 0.195 8.08336e-50 -113.039 -107.628 10.017 0.138621
20 0.205 4.35039e-52 -118.264 -112.852 10.017 0.134666
21 0.215 5.25775e-55 -124.982 -119.571 10.017 0.129349
22 0.225 4.23187e-58 -132.107 -126.695 10.017 0.123937
23 0.235 5.78226e-59 -134.098 -128.686 10.017 0.122258
24 0.245 2.08442e-61 -139.723 -134.311 10.017 0.118434
25 0.255 2.02282e-63 -144.358 -138.947 10.017 0.11488
26 0.265 1.65934e-62 -142.254 -136.842 10.017 0.117046
27 0.275 2.90673e-66 -150.904 -145.492 10.017 0.109536
28 0.285 4.0819e-67 -152.867 -147.455 10.017 0.107697
29 0.295 4.09656e-68 -155.166 -149.754 10.017 0.106254
30 0.305 5.08968e-72 -164.159 -158.747 10.017 0.0967611
31 0.315 9.56957e-71 -161.225 -155.813 10.017 0.100861
32 0.325 9.71276e-74 -168.118 -162.706 10.017 0.0934956
33 0.335 4.72708e-77 -175.746 -170.334 10.017 0.0855475
34 0.345 1.34239e-77 -177.005 -171.593 10.017 0.0840141
35 0.355 5.55242e-78 -177.887 -172.476 10.017 0.0841963
36 0.365 9.04277e-79 -179.702 -174.29 10.017 0.0827401
37 0.375 3.05435e-80 -183.09 -177.678 10.017 0.0792785
38 0.385 8.38534e-83 -188.988 -183.576 10.017 0.070958
39 0.395 1.84213e-84 -192.806 -187.394 10.017 0.0662769
40 0.405 3.46484e-84 -192.174 -186.763 10.017 0.0676507
41 0.415 9.40268e-87 -198.084 -192.672 10.017 0.0607018
42 0.425 1.15231e-86 -197.881 -192.469 10.017 0.0604981
43 0.435 1.68337e-88 -202.107 -196.695 10.017 0.05516
44 0.445 1.06089e-89 -204.871 -199.459 10.017 0.0516575
45 0.455 9.38726e-90 -204.993 -199.581 10.017 0.0522177
46 0.465 3.2978e-92 -210.645 -205.233 10.017 0.0414523
47 0.475 7.76567e-91 -207.486 -202.074 10.017 0.0486372
48 0.485 7.70063e-93 -212.099 -206.687 10.017 0.0410792
49 0.495 3.15762e-94 -215.293 -209.881 10.017 0.0355012
50 0.505 8.26508e-96 -218.936 -213.524 10.017 0.0250927
51 0.515 2.44644e-93 -213.246 -207.834 10.017 0.039677
52 0.525 7.63842e-97 -221.318 -215.906 10.017 0.0197953
53 0.535 5.94406e-96 -219.266 -213.854 10.017 0.0284636
54 0.545 1.16564e-97 -223.197 -217.786 10.017 0.0178149
55 0.555 1.22832e-98 -225.448 -220.036 10.017 0.0108296
56 0.565 1.74091e-99 -227.402 -221.99 10.017 0.00469622
57 0.575 3.61386e-100 -228.974 -223.562 10.017 -5.80292e-05
58 0.585 5.48151e-101 -230.86 -225.448 10.017 -0.007739
59 0.595 8.01048e-101 -230.48 -225.069 10.017 -0.00228414
60 0.605 1.22383e-101 -232.359 -226.947 10.017 -0.0133163
61 0.615 4.03805e-102 -233.468 -228.056 10.017 -0.0174723
62 0.625 1.22437e-102 -234.661 -229.249 10.017 -0.0221064
63 0.635 2.97271e-103 -236.077 -230.665 10.017 -0.0350824
64 0.645 1.56755e-103 -236.717 -231.305 10.017 -0.0380168
65 0.655 6.47591e-104 -237.601 -232.189 10.017 -0.0470054
66 0.665 3.05982e-104 -238.35 -232.939 10.017 -0.054521
67 0.675 2.33897e-104 -238.619 -233.207 10.017 -0.0599807
68 0.685 1.493e-104 -239.068 -233.656 10.017 -0.0697326
69 0.695 1.14716e-104 -239.332 -233.92 10.017 -0.0756821
70 0.705 9.02401e-105 -239.572 -234.16 10.017 -0.0857658
71 0.715 8.80542e-105 -239.596 -234.184 10.017 -0.0944841
72 0.725 9.11519e-105 -239.561 -234.15 10.017 -0.10408
73 0.735 1.16222e-104 -239.319 -233.907 10.017 -0.114675
74 0.745 1.30165e-104 -239.205 -233.793 10.017 -0.127736
75 0.755 1.78233e-104 -238.891 -233.479 10.017 -0.133365
76 0.765 3.0344e-104 -238.359 -232.947 10.017 -0.144292
77 0.775 5.95951e-104 -237.684 -232.272 10.017 -0.155829
78 0.785 1.03274e-103 -237.134 -231.722 10.017 -0.166899
79 0.795 1.82907e-103 -236.562 -231.151 10.017 -0.177433
80 0.805 6.00043e-103 -235.374 -229.963 10.017 -0.188456
81 0.815 1.39442e-102 -234.531 -229.119 10.017 -0.198438
82 0.825 4.46591e-102 -233.367 -227.955 10.017 -0.2119
83 0.835 8.09569e-102 -232.772 -227.361 10.017 -0.221291
84 0.845 2.78114e-101 -231.538 -226.126 10.017 -0.234882
85 0.855 6.64655e-101 -230.667 -225.255 10.017 -0.245817
86 0.865 1.77576e-100 -229.684 -224.272 10.017 -0.259156
87 0.875 3.00801e-100 -229.157 -223.745 10.017 -0.271441
88 0.885 6.56919e-100 -228.376 -222.964 10.017 -0.283098
89 0.895 9.6926e-100 -227.987 -222.575 10.017 -0.296221
90 0.905 1.14832e-99 -227.818 -222.406 10.017 -0.309391
91 0.915 7.74678e-100 -228.211 -222.799 10.017 -0.322585
92 0.925 5.66846e-100 -228.524 -223.112 10.017 -0.333891
93 0.935 1.84255e-100 -229.647 -224.236 10.017 -0.348767
94 0.945 3.23359e-101 -231.388 -225.976 10.017 -0.359751
95 0.955 2.65472e-102 -233.887 -228.476 10.017 -0.372419
96 0.965 1.92886e-103 -236.509 -231.098 10.017 -0.384171
97 0.975 1.06622e-105 -241.707 -236.295 10.017 -0.410954
98 0.985 4.09582e-110 -251.874 -246.463 10.017 -0.450997
99 0.995 2.47462e-117 -268.496 -263.085 10.017 -0.490907
