0 0.005 9.2927e-257 -589.535 -107.732 486.408 0.252643
1 0.015 8.9444e-246 -564.245 -82.442 486.408 0.212711
2 0.025 8.70126e-244 -559.667 -77.8644 486.408 0.201501
3 0.035 1.14189e-242 -557.093 -75.2901 486.408 0.199881
4 0.045 4.44202e-242 -555.734 -73.9316 486.408 0.196362
5 0.055 1.3163e-241 -554.648 -72.8453 486.408 0.193305
6 0.065 1.62583e-241 -554.437 -72.6341 486.408 0.189607
7 0.075 1.23333e-241 -554.713 -72.9104 486.408 0.185538
8 0.085 5.27243e-242 -555.563 -73.7602 486.408 0.18155
9 0.095 2.9581e-242 -556.141 -74.3382 486.408 0.177354
10 0.105 9.9406e-243 -557.232 -75.4287 486.408 0.172254
11 0.115 3.21789e-243 -558.359 -76.5566 486.408 0.168657
12 0.125 8.42603e-244 -559.699 -77.8966 486.408 0.161944
13 0.135 2.61959e-244 -560.868 -79.0649 486.408 0.156749
14 0.145 1.06925e-244 -561.764 -79.9609 486.408 0.155169
15 0.155 2.60091e-245 -563.177 -81.3746 486.408 0.148071
16 0.165 6.62335e-246 -564.545 -82.7425 486.408 0.142587
17 0.175 2.79375e-246 -565.409 -83.6057 486.408 0.138411
18 0.185 8.67537e-247 -566.578 -84.7752 486.408 0.133114
19 0.195 4.16608e-247 -567.312 -85.5087 486.408 0.127399
20 0.205 1.76728e-247 -568.169 -86.3662 486.408 0.12266
21 0.215 1.04276e-247 -568.697 -86.8938 486.408 0.115826
22 0.225 6.99926e-248 -569.095 -87.2924 486.408 0.109727
23 0.235 4.42686e-248 -569.553 -87.7506 486.408 0.105811
24 0.245 3.37297e-248 -569.825 -88.0225 486.408 0.0993159
25 0.255 3.36897e-248 -569.826 -88.0236 486.408 0.0938885
26 0.265 5.62764e-248 -569.313 -87.5106 486.408 0.087848
27 0.275 1.09216e-247 -568.65 -86.8475 486.408 0.0791193
28 0.285 3.74013e-247 -567.419 -85.6165 486.408 0.0657767
29 0.295 3.54095e-247 -567.474 -85.6713 486.408 0.0711334
30 0.305 1.1523e-246 -566.294 -84.4913 486.408 0.0646849
31 0.315 7.18178e-246 -564.464 -82.6615 486.408 0.0510086
32 0.325 1.15398e-245 -563.99 -82.1873 486.408 0.0548747
33 0.335 3.2158e-245 -562.965 -81.1624 486.408 0.0529046
34 0.345 2.72578e-244 -560.828 -79.0252 486.408 0.0456276
35 0.355 8.32157e-243 -557.409 -75.6065 486.408 0.0342077
36 0.365 1.05626e-242 -557.171 -75.368 486.408 0.0368047
37 0.375 6.43109e-241 -553.062 -71.259 486.408 0.0265466
38 0.385 7.20609e-241 -552.948 -71.1452 486.408 0.0281797
39 0.395 2.31894e-240 -551.779 -69.9765 486.408 0.0268791
40 0.405 4.11727e-238 -546.6 -64.7972 486.408 0.0149706
41 0.415 6.14924e-238 -546.199 -64.3961 486.408 0.0159289
42 0.425 2.389e-236 -542.539 -60.7364 486.408 0.0102721
43 0.435 7.00103e-236 -541.464 -59.6612 486.408 0.00827606
44 0.445 1.40772e-235 -540.766 -58.9627 486.408 0.00940868
45 0.455 1.90439e-232 -533.556 -51.7527 486.408 -0.00294972
46 0.465 1.92683e-232 -533.544 -51.741 486.408 -0.00285267
47 0.475 4.19406e-230 -528.161 -46.358 486.408 -0.00845017
48 0.485 4.45143e-228 -523.496 -41.6933 486.408 -0.0156161
49 0.495 5.00084e-222 -509.564 -27.7614 486.408 -0.0323
50 0.505 8.51408e-225 -515.94 -34.1371 486.408 -0.0250753
51 0.515 1.28873e-224 -515.525 -33.7225 486.408 -0.024254
52 0.525 2.01438e-222 -510.474 -28.6707 486.408 -0.0304612
53 0.535 2.89026e-220 -505.507 -23.7045 486.408 -0.0355549
54 0.545 9.05365e-220 -504.366 -22.5627 486.408 -0.0370932
55 0.555 6.32757e-217 -497.816 -16.0132 486.408 -0.0446928
56 0.565 1.7976e-215 -494.469 -12.6665 486.408 -0.0465431
57 0.575 2.21238e-212 -487.354 -5.55111 486.408 -0.0556537
58 0.585 8.08922e-211 -483.755 -1.95206 486.408 -0.0591729
59 0.595 9.49588e-207 -474.384 7.4186 486.408 -0.0678604
60 0.605 5.9205e-205 -470.252 11.5513 486.408 -0.0718852
61 0.615 3.59309e-201 -461.541 20.2623 486.408 -0.0808933
62 0.625 5.28045e-197 -451.945 29.8576 486.408 -0.0898967
63 0.635 2.68182e-200 -459.531 22.2723 486.408 -0.0823054
64 0.645 5.40932e-197 -451.921 29.8817 486.408 -0.0898036
65 0.655 6.87685e-192 -440.168 41.6347 486.408 -0.100602
66 0.665 2.02931e-192 -441.389 40.4142 486.408 -0.0987385
67 0.675 1.96477e-188 -432.211 49.5922 486.408 -0.107878
68 0.685 1.62519e-180 -413.98 67.8232 486.408 -0.124098
69 0.695 1.26698e-179 -411.926 69.8768 486.408 -0.12584
70 0.705 3.67721e-180 -413.163 68.6397 486.408 -0.123882
71 0.715 1.87653e-172 -395.415 86.3876 486.408 -0.140296
72 0.725 5.72529e-167 -382.787 99.016 486.408 -0.150902
73 0.735 1.5011e-161 -370.31 111.493 486.408 -0.1619
74 0.745 5.71648e-157 -359.763 122.04 486.408 -0.17089
75 0.755 1.0383e-158 -363.771 118.032 486.408 -0.166947
76 0.765 3.21425e-154 -353.431 128.372 486.408 -0.176286
77 0.775 8.67112e-148 -338.623 143.18 486.408 -0.188898
78 0.785 4.25707e-144 -330.124 151.679 486.408 -0.195988
79 0.795 9.27611e-137 -313.227 168.576 486.408 -0.210497
80 0.805 2.93347e-131 -300.562 181.24 486.408 -0.22129
81 0.815 1.82769e-128 -294.128 187.675 486.408 -0.226503
82 0.825 8.38978e-116 -264.973 216.83 486.408 -0.2519
83 0.835 8.57494e-116 -264.951 216.852 486.408 -0.25181
84 0.845 7.9858e-107 -244.299 237.504 486.408 -0.269785
85 0.855 5.28911e-98 -223.988 257.815 486.408 -0.287888
86 0.865 5.22563e-94 -214.789 267.013 486.408 -0.29495
87 0.875 1.64966e-82 -188.311 293.491 486.408 -0.3203
88 0.885 2.02098e-77 -176.595 305.207 486.408 -0.330838
89 0.895 6.84052e-63 -143.14 338.663 486.408 -0.3635
90 0.905 3.82151e-58 -132.209 349.594 486.408 -0.374028
91 0.915 4.65174e-52 -118.197 363.606 486.408 -0.388322
92 0.925 2.20653e-43 -98.2197 383.583 486.408 -0.410035
93 0.935 1.08223e-30 -68.9985 412.804 486.408 -0.444499
94 0.945 1.24545e-24 -55.0425 426.76 486.408 -0.462465
95 0.955 1.43249e-18 -41.0871 440.716 486.408 -0.480293
96 0.965 7.82291e-10 -20.9688 460.834 486.408 -0.516041
97 0.975 0.00328379 -5.71876 476.084 486.408 -0.553391
98 0.985 5.66335 1.73402 483.537 486.408 -0.571268
99 0.995 94.3334 4.54683 486.35 486.408 -0.5807
