0 0.005 5.44562e-212 -486.453 67.1848 558.243 0.252866
1 0.015 3.9353e-203 -466.055 87.5832 558.243 0.214589
2 0.025 1.43645e-201 -462.457 91.1806 558.243 0.209615
3 0.035 1.38965e-200 -460.188 93.4501 558.243 0.206595
4 0.045 3.59812e-200 -459.237 94.4014 558.243 0.20352
5 0.055 7.07225e-200 -458.561 95.0772 558.243 0.200037
6 0.065 5.62081e-200 -458.791 94.8475 558.243 0.196663
7 0.075 2.6171e-200 -459.555 94.0831 558.243 0.192872
8 0.085 6.82082e-201 -460.9 92.7384 558.243 0.188856
9 0.095 2.32822e-201 -461.974 91.6635 558.243 0.185271
10 0.105 3.87302e-202 -463.768 89.8699 558.243 0.178969
11 0.115 9.76181e-203 -465.146 88.4917 558.243 0.178809
12 0.125 8.45708e-204 -467.592 86.0457 558.243 0.167543
13 0.135 1.23854e-204 -469.513 84.1246 558.243 0.160368
14 0.145 5.21876e-205 -470.378 83.2603 558.243 0.162058
15 0.155 4.1588e-206 -472.907 80.7307 558.243 0.1515
16 0.165 5.54737e-207 -474.922 78.7162 558.243 0.146643
17 0.175 1.42329e-207 -476.282 77.3559 558.243 0.14294
18 0.185 2.54969e-208 -478.002 75.6363 558.243 0.139316
19 0.195 5.48542e-209 -479.538 74.0998 558.243 0.132116
20 0.205 1.38353e-209 -480.916 72.7224 558.243 0.128362
21 0.215 3.58553e-210 -482.266 71.3721 558.243 0.122063
22 0.225 1.05324e-210 -483.491 70.147 558.243 0.114986
23 0.235 4.67472e-211 -484.303 69.3347 558.243 0.11316
24 0.245 1.60155e-211 -485.374 68.2635 558.243 0.10693
25 0.255 7.88593e-212 -486.083 67.5551 558.243 0.101231
26 0.265 7.29071e-212 -486.161 67.4766 558.243 0.0981469
27 0.275 5.38853e-212 -486.464 67.1743 558.243 0.0906472
28 0.285 4.9566e-212 -486.547 67.0907 558.243 0.0833229
29 0.295 4.65467e-212 -486.61 67.0279 558.243 0.0787102
30 0.305 6.71903e-212 -486.243 67.3949 558.243 0.0720486
31 0.315 1.05391e-211 -485.793 67.8451 558.243 0.0644341
32 0.325 1.82465e-211 -485.244 68.394 558.243 0.0609264
33 0.335 3.43232e-211 -484.612 69.0258 558.243 0.0564369
34 0.345 1.19299e-210 -483.366 70.2716 558.243 0.0494551
35 0.355 8.69552e-210 -481.38 72.258 558.243 0.0381419
36 0.365 1.47297e-209 -480.853 72.785 558.243 0.0398084
37 0.375 2.30457e-208 -478.103 75.5352 558.243 0.0281435
38 0.385 3.15724e-208 -477.788 75.85 558.243 0.029657
39 0.395 8.58122e-208 -476.788 76.8499 558.243 0.0281839
40 0.405 3.38291e-206 -473.114 80.5242 558.243 0.0159539
41 0.415 5.78512e-206 -472.577 81.0608 558.243 0.0171251
42 0.425 1.08983e-204 -469.641 83.9967 558.243 0.0111284
43 0.435 2.50926e-204 -468.807 84.8307 558.243 0.00928207
44 0.445 5.77123e-204 -467.974 85.6635 558.243 0.0102296
45 0.455 1.63551e-201 -462.328 91.3104 558.243 -0.00249768
46 0.465 1.69014e-201 -462.295 91.3432 558.243 -0.00222714
47 0.475 1.7906e-199 -457.632 96.0061 558.243 -0.00823785
48 0.485 7.8369e-198 -453.853 99.785 558.243 -0.0152665
49 0.495 1.07852e-192 -442.021 111.617 558.243 -0.0322999
50 0.505 4.53181e-195 -447.493 106.145 558.243 -0.0250216
51 0.515 7.73388e-195 -446.958 106.68 558.243 -0.0238989
52 0.525 5.48471e-193 -442.697 110.941 558.243 -0.0303861
53 0.535 4.20731e-191 -438.357 115.281 558.243 -0.0353314
54 0.545 1.08945e-190 -437.405 116.233 558.243 -0.0368483
55 0.555 2.93773e-188 -431.808 121.83 558.243 -0.0445272
56 0.565 6.59766e-187 -428.697 124.941 558.243 -0.046457
57 0.575 2.60328e-184 -422.719 130.919 558.243 -0.055594
58 0.585 6.16438e-183 -419.554 134.084 558.243 -0.0590358
59 0.595 2.44412e-179 -411.269 142.369 558.243 -0.0677748
60 0.605 9.1873e-178 -407.642 145.996 558.243 -0.0718673
61 0.615 1.81301e-174 -400.055 153.583 558.243 -0.0808812
62 0.625 8.66867e-171 -391.582 162.056 558.243 -0.0898917
63 0.635 1.14984e-173 -398.208 155.43 558.243 -0.0820648
64 0.645 9.01519e-171 -391.543 162.095 558.243 -0.0897372
65 0.655 2.98242e-166 -381.136 172.502 558.243 -0.100535
66 0.665 1.10987e-166 -382.125 171.513 558.243 -0.0986787
67 0.675 3.43162e-163 -374.088 179.55 558.243 -0.107851
68 0.685 3.75244e-156 -357.881 195.757 558.243 -0.124094
69 0.695 2.35849e-155 -356.043 197.595 558.243 -0.125805
70 0.705 8.75021e-156 -357.034 196.604 558.243 -0.123824
71 0.715 5.75057e-149 -341.336 212.302 558.243 -0.140291
72 0.725 4.68788e-144 -330.027 223.611 558.243 -0.150857
73 0.735 3.11099e-139 -318.924 234.714 558.243 -0.1619
74 0.745 3.86408e-135 -309.497 244.141 558.243 -0.170881
75 0.755 1.15168e-136 -313.01 240.628 558.243 -0.166879
76 0.765 1.10919e-132 -303.838 249.8 558.243 -0.17627
77 0.775 6.20592e-127 -290.603 263.035 558.243 -0.188895
78 0.785 1.26325e-123 -282.984 270.654 558.243 -0.195923
79 0.795 4.49407e-117 -267.9 285.738 558.243 -0.210492
80 0.805 3.70153e-112 -256.581 297.057 558.243 -0.22128
81 0.815 1.20677e-109 -250.794 302.844 558.243 -0.226457
82 0.825 2.32872e-98 -224.808 328.83 558.243 -0.2519
83 0.835 2.41579e-98 -224.771 328.867 558.243 -0.251745
84 0.845 2.39261e-90 -206.36 347.278 558.243 -0.269722
85 0.855 1.65373e-82 -188.309 365.329 558.243 -0.287875
86 0.865 6.79422e-79 -179.988 373.65 558.243 -0.294887
87 0.875 9.06166e-69 -156.674 396.964 558.243 -0.320299
88 0.885 2.99764e-64 -146.268 407.37 558.243 -0.330759
89 0.895 1.72103e-51 -116.889 436.749 558.243 -0.3635
90 0.905 2.5984e-47 -107.267 446.371 558.243 -0.373957
91 0.915 5.33826e-42 -95.0337 458.604 558.243 -0.3882
92 0.925 1.69204e-34 -77.762 475.876 558.243 -0.409888
93 0.935 1.12014e-23 -52.846 500.792 558.243 -0.444497
94 0.945 1.3766e-18 -41.1269 512.511 558.243 -0.462405
95 0.955 1.72051e-13 -29.391 524.247 558.243 -0.480177
96 0.965 1.12173e-06 -13.7006 539.937 558.243 -0.515359
97 0.975 0.056126 -2.88016 550.758 558.243 -0.548178
98 0.985 16.0175 2.77368 556.412 558.243 -0.560124
99 0.995 83.9263 4.42994 558.068 558.243 -0.569115
