0 0.005 1.00966e-306 -704.581 -303.547 405.64 0.25248
1 0.015 2.45395e-293 -673.76 -272.725 405.64 0.211851
2 0.025 1.89079e-290 -667.113 -266.078 405.64 0.193264
3 0.035 2.77401e-289 -664.427 -263.392 405.64 0.192855
4 0.045 1.83445e-288 -662.538 -261.503 405.64 0.188523
5 0.055 7.88636e-288 -661.079 -260.045 405.64 0.186214
6 0.065 1.66243e-287 -660.334 -259.299 405.64 0.182069
7 0.075 2.28871e-287 -660.014 -258.979 405.64 0.177439
8 0.085 1.68519e-287 -660.32 -259.285 405.64 0.173615
9 0.095 1.67845e-287 -660.324 -259.289 405.64 0.169403
10 0.105 1.08413e-287 -660.761 -259.727 405.64 0.164906
11 0.115 6.29515e-288 -661.305 -260.27 405.64 0.160298
12 0.125 3.53363e-288 -661.882 -260.848 405.64 0.155367
13 0.135 2.13037e-288 -662.388 -261.354 405.64 0.150711
14 0.145 1.40353e-288 -662.806 -261.771 405.64 0.145827
15 0.155 7.31217e-289 -663.458 -262.423 405.64 0.141223
16 0.165 3.91747e-289 -664.082 -263.047 405.64 0.136138
17 0.175 3.00705e-289 -664.346 -263.312 405.64 0.131424
18 0.185 2.18047e-289 -664.668 -263.633 405.64 0.124553
19 0.195 2.21218e-289 -664.653 -263.619 405.64 0.119005
20 0.205 1.93827e-289 -664.785 -263.751 405.64 0.113472
21 0.215 3.02032e-289 -664.342 -263.307 405.64 0.105637
22 0.225 4.24063e-289 -664.002 -262.968 405.64 0.101497
23 0.235 5.26912e-289 -663.785 -262.751 405.64 0.095774
24 0.245 8.98286e-289 -663.252 -262.217 405.64 0.0909783
25 0.255 1.77348e-288 -662.572 -261.537 405.64 0.086341
26 0.265 8.14029e-288 -661.048 -260.013 405.64 0.0774377
27 0.275 5.96935e-287 -659.055 -258.021 405.64 0.0679705
28 0.285 1.10451e-285 -656.137 -255.103 405.64 0.0577078
29 0.295 3.38125e-286 -657.321 -256.286 405.64 0.0670356
30 0.305 2.66072e-285 -655.258 -254.224 405.64 0.0605665
31 0.315 1.09679e-283 -651.539 -250.505 405.64 0.0473798
32 0.325 9.43947e-284 -651.689 -250.655 405.64 0.0518497
33 0.335 3.08304e-283 -650.506 -249.471 405.64 0.0512882
34 0.345 7.13816e-282 -647.364 -246.329 405.64 0.0439446
35 0.355 1.00783e-279 -642.413 -241.379 405.64 0.0330359
36 0.365 8.98255e-280 -642.529 -241.494 405.64 0.0355521
37 0.375 2.11059e-277 -637.069 -236.034 405.64 0.0260041
38 0.385 1.89619e-277 -637.176 -236.142 405.64 0.0275956
39 0.395 7.30085e-277 -635.828 -234.793 405.64 0.0262667
40 0.405 6.49856e-274 -629.037 -228.002 405.64 0.0146486
41 0.415 8.69069e-274 -628.746 -227.711 405.64 0.0153141
42 0.425 7.24209e-272 -624.323 -223.289 405.64 0.00981689
43 0.435 2.79967e-271 -622.971 -221.936 405.64 0.00778758
44 0.445 4.84747e-271 -622.422 -221.387 405.64 0.00880841
45 0.455 3.48613e-267 -613.541 -212.507 405.64 -0.0032079
46 0.465 3.4993e-267 -613.538 -212.503 405.64 -0.00317686
47 0.475 1.6171e-264 -607.402 -206.367 405.64 -0.0085881
48 0.485 4.61097e-262 -601.749 -200.714 405.64 -0.0158243
49 0.495 5.02582e-255 -585.545 -184.51 405.64 -0.0323
50 0.505 3.18132e-258 -592.91 -191.875 405.64 -0.0250924
51 0.515 4.37274e-258 -592.592 -191.557 405.64 -0.0244921
52 0.525 1.57661e-255 -586.704 -185.669 405.64 -0.0304876
53 0.535 4.58808e-253 -581.031 -179.996 405.64 -0.0356984
54 0.545 1.77849e-252 -579.676 -178.641 405.64 -0.0372686
55 0.555 3.50481e-249 -572.09 -171.055 405.64 -0.0447879
56 0.565 1.27929e-247 -568.492 -167.458 405.64 -0.0465981
57 0.575 5.48153e-244 -560.129 -159.095 405.64 -0.0556806
58 0.585 3.25821e-242 -556.044 -155.01 405.64 -0.0592425
59 0.595 1.25926e-237 -545.482 -144.448 405.64 -0.0679396
60 0.605 1.35681e-235 -540.802 -139.768 405.64 -0.0718936
61 0.615 2.83156e-231 -530.856 -129.822 405.64 -0.0808978
62 0.625 1.43017e-226 -520.026 -118.992 405.64 -0.0898988
63 0.635 2.59511e-230 -528.641 -127.606 405.64 -0.0824667
64 0.645 1.45073e-226 -520.012 -118.978 405.64 -0.0898446
65 0.655 8.1097e-221 -506.778 -105.744 405.64 -0.100644
66 0.665 1.85355e-221 -508.254 -107.22 405.64 -0.0987822
67 0.675 6.27119e-217 -497.825 -96.7904 405.64 -0.10789
68 0.685 4.79321e-208 -477.37 -76.3359 405.64 -0.124099
69 0.695 4.75285e-207 -475.076 -74.0418 405.64 -0.125863
70 0.705 1.05634e-207 -476.58 -75.5457 405.64 -0.123929
71 0.715 5.10393e-199 -456.584 -55.5498 405.64 -0.140299
72 0.725 6.68594e-193 -442.499 -41.4643 405.64 -0.150942
73 0.735 7.89952e-187 -428.517 -27.482 405.64 -0.1619
74 0.745 1.03266e-181 -416.736 -15.7012 405.64 -0.170895
75 0.755 1.09681e-183 -421.281 -20.2461 405.64 -0.167013
76 0.765 1.21724e-178 -409.664 -8.62895 405.64 -0.176294
77 0.775 1.85064e-171 -393.127 7.90809 405.64 -0.188899
78 0.785 2.41005e-167 -383.652 17.3825 405.64 -0.196032
79 0.795 3.8289e-159 -364.768 36.2662 405.64 -0.210499
80 0.805 5.3216e-153 -350.624 50.4109 405.64 -0.221295
81 0.815 6.7937e-150 -343.472 57.5628 405.64 -0.226543
82 0.825 1.01245e-135 -310.837 90.198 405.64 -0.2519
83 0.835 1.02517e-135 -310.824 90.2105 405.64 -0.25185
84 0.845 1.12353e-125 -287.707 113.328 405.64 -0.269829
85 0.855 8.88497e-116 -264.916 136.119 405.64 -0.287894
86 0.865 2.31889e-111 -254.746 146.289 405.64 -0.294996
87 0.875 2.36017e-98 -224.795 176.24 405.64 -0.3203
88 0.885 1.23221e-92 -211.629 189.406 405.64 -0.330899
89 0.895 3.66144e-76 -173.699 227.336 405.64 -0.3635
90 0.905 8.70259e-71 -161.32 239.715 405.64 -0.374086
91 0.915 7.54374e-64 -145.345 255.69 405.64 -0.388417
92 0.925 7.03377e-54 -122.389 278.646 405.64 -0.410137
93 0.935 3.86598e-39 -88.4486 312.586 405.64 -0.4445
94 0.945 5.23709e-32 -72.027 329.008 405.64 -0.462488
95 0.955 6.96548e-25 -55.6237 345.411 405.64 -0.480356
96 0.965 5.2079e-14 -30.586 370.449 405.64 -0.51631
97 0.975 4.10201e-05 -10.1014 390.933 405.64 -0.555005
98 0.985 1.60468 0.472927 401.508 405.64 -0.582562
99 0.995 98.3953 4.58899 405.624 405.64 -0.592387
