0 0.005 0.163327 -1.812 3.73989 10.1571 0.281469
1 0.015 11.841 2.47157 8.02346 10.1571 0.27917
2 0.025 48.0143 3.8715 9.42339 10.1571 0.27791
3 0.035 33.2835 3.50506 9.05695 10.1571 0.276551
4 0.045 5.97553 1.78767 7.33956 10.1571 0.275075
5 0.055 0.699396 -0.357539 5.19435 10.1571 0.273827
6 0.065 0.0229611 -3.77395 1.77794 10.1571 0.26622
7 0.075 8.38872e-06 -11.6886 -6.13673 10.1571 0.243937
8 0.085 3.21112e-11 -24.1618 -18.6099 10.1571 0.220401
9 0.095 5.41408e-18 -39.7575 -34.2056 10.1571 0.202938
10 0.105 8.10294e-23 -50.8672 -45.3153 10.1571 0.192195
11 0.115 1.20829e-24 -55.0728 -49.5209 10.1571 0.188929
12 0.125 3.05458e-28 -63.3557 -57.8039 10.1571 0.181502
13 0.135 1.16611e-32 -73.5291 -67.9772 10.1571 0.172752
14 0.145 3.17353e-37 -84.0408 -78.4889 10.1571 0.165168
15 0.155 2.00357e-39 -89.1059 -83.554 10.1571 0.161786
16 0.165 1.45023e-40 -91.7317 -86.1798 10.1571 0.160293
17 0.175 7.11587e-45 -101.654 -96.1021 10.1571 0.152725
18 0.185 4.07359e-48 -109.12 -103.568 10.1571 0.147401
19 0.195 2.74159e-50 -114.121 -108.569 10.1571 0.143801
20 0.205 1.14885e-53 -121.898 -116.346 10.1571 0.138597
21 0.215 1.84808e-54 -123.725 -118.174 10.1571 0.136767
22 0.225 4.43564e-58 -132.06 -126.508 10.1571 0.131057
23 0.235 2.55348e-60 -137.218 -131.666 10.1571 0.127485
24 0.245 4.75169e-57 -129.689 -124.137 10.1571 0.1333
25 0.255 1.35075e-63 -144.762 -139.21 10.1571 0.122263
26 0.265 1.02597e-65 -149.642 -144.09 10.1571 0.118787
27 0.275 2.48191e-68 -155.667 -150.115 10.1571 0.113021
28 0.285 1.08663e-68 -156.493 -150.941 10.1571 0.113314
29 0.295 1.61568e-72 -165.306 -159.754 10.1571 0.105907
30 0.305 1.53419e-72 -165.358 -159.806 10.1571 0.106111
31 0.315 4.4924e-74 -168.889 -163.337 10.1571 0.102489
32 0.325 1.06286e-77 -177.238 -171.686 10.1571 0.094332
33 0.335 5.89062e-78 -177.828 -172.276 10.1571 0.0952132
34 0.345 3.21443e-76 -173.829 -168.277 10.1571 0.0990992
35 0.355 2.58096e-81 -185.561 -180.009 10.1571 0.0880015
36 0.365 4.00143e-82 -187.425 -181.873 10.1571 0.086288
37 0.375 1.82729e-84 -192.814 -187.262 10.1571 0.0808154
38 0.385 8.2939e-86 -195.907 -190.355 10.1571 0.0765814
39 0.395 3.87495e-87 -198.97 -193.418 10.1571 0.0727042
40 0.405 3.58437e-88 -201.351 -195.799 10.1571 0.06985
41 0.415 2.46146e-90 -206.332 -200.78 10.1571 0.0641618
42 0.425 3.13466e-89 -203.788 -198.236 10.1571 0.0684114
43 0.435 2.56208e-92 -210.897 -205.345 10.1571 0.0584078
44 0.445 1.63764e-93 -213.647 -208.095 10.1571 0.0541664
45 0.455 1.2165e-94 -216.247 -210.695 10.1571 0.0514296
46 0.465 8.85256e-93 -211.96 -206.408 10.1571 0.0594858
47 0.475 1.22724e-96 -220.843 -215.292 10.1571 0.0449633
48 0.485 2.93606e-98 -224.576 -219.024 10.1571 0.0386018
49 0.495 2.7284e-99 -226.952 -221.4 10.1571 0.0330277
50 0.505 2.2146e-99 -227.161 -221.609 10.1571 0.0366262
51 0.515 1.43214e-100 -229.899 -224.347 10.1571 0.0301163
52 0.525 8.33198e-101 -230.441 -224.889 10.1571 0.031059
53 0.535 1.80511e-98 -225.063 -219.511 10.1571 0.0414967
54 0.545 1.68921e-102 -234.339 -228.788 10.1571 0.0235294
55 0.555 2.54866e-103 -236.231 -230.679 10.1571 0.0193539
56 0.565 3.11256e-104 -238.333 -232.782 10.1571 0.0156536
57 0.575 2.45275e-105 -240.874 -235.322 10.1571 0.00618866
58 0.585 3.15082e-106 -242.926 -237.374 10.1571 -0.00179939
59 0.595 1.15116e-106 -243.933 -238.381 10.1571 -0.00383158
60 0.605 2.83861e-107 -245.333 -239.781 10.1571 -0.00831035
61 0.615 4.77472e-108 -247.116 -241.564 10.1571 -0.0157316
62 0.625 2.3065e-108 -247.843 -242.292 10.1571 -0.0147492
63 0.635 6.87636e-109 -249.054 -243.502 10.1571 -0.0220524
64 0.645 7.64502e-109 -248.948 -243.396 10.1571 -0.0121635
65 0.655 6.20212e-110 -251.459 -245.908 10.1571 -0.0356197
66 0.665 1.98122e-110 -252.601 -247.049 10.1571 -0.0422728
67 0.675 1.50053e-110 -252.879 -247.327 10.1571 -0.0397127
68 0.685 5.19104e-111 -253.94 -248.388 10.1571 -0.0527408
69 0.695 1.99011e-111 -254.899 -249.347 10.1571 -0.0668854
70 0.705 9.94048e-112 -255.593 -250.041 10.1571 -0.0751198
71 0.715 7.31276e-112 -255.9 -250.348 10.1571 -0.0826585
72 0.725 4.78371e-112 -256.324 -250.772 10.1571 -0.0924733
73 0.735 3.50887e-112 -256.634 -251.082 10.1571 -0.102402
74 0.745 2.45897e-112 -256.99 -251.438 10.1571 -0.111955
75 0.755 2.27938e-112 -257.066 -251.514 10.1571 -0.12236
76 0.765 2.79095e-112 -256.863 -251.311 10.1571 -0.132325
77 0.775 3.09478e-112 -256.76 -251.208 10.1571 -0.14306
78 0.785 3.80692e-112 -256.553 -251.001 10.1571 -0.154438
79 0.795 4.19378e-112 -256.456 -250.904 10.1571 -0.164794
80 0.805 6.9239e-112 -255.955 -250.403 10.1571 -0.175333
81 0.815 1.06729e-111 -255.522 -249.97 10.1571 -0.187407
82 0.825 1.67972e-111 -255.068 -249.516 10.1571 -0.199357
83 0.835 2.19701e-111 -254.8 -249.248 10.1571 -0.210501
84 0.845 3.95499e-111 -254.212 -248.66 10.1571 -0.221995
85 0.855 6.06783e-111 -253.784 -248.232 10.1571 -0.234926
86 0.865 8.27283e-111 -253.474 -247.922 10.1571 -0.24785
87 0.875 8.27837e-111 -253.473 -247.921 10.1571 -0.259895
88 0.885 1.02014e-110 -253.264 -247.713 10.1571 -0.271774
89 0.895 8.5444e-111 -253.442 -247.89 10.1571 -0.285003
90 0.905 5.26083e-111 -253.927 -248.375 10.1571 -0.298336
91 0.915 2.0726e-111 -254.858 -249.306 10.1571 -0.310782
92 0.925 8.31332e-112 -255.772 -250.22 10.1571 -0.322702
93 0.935 1.48498e-112 -257.494 -251.942 10.1571 -0.336346
94 0.945 1.37314e-113 -259.875 -254.323 10.1571 -0.351075
95 0.955 6.29295e-115 -262.958 -257.406 10.1571 -0.361913
96 0.965 2.73551e-116 -266.094 -260.542 10.1571 -0.373668
97 0.975 6.1452e-119 -272.192 -266.64 10.1571 -0.401013
98 0.985 1.30497e-122 -280.649 -275.097 10.1571 -0.427554
99 0.995 3.26544e-130 -298.153 -292.601 10.1571 -0.474708
