0 0.005 1.80225e-210 -482.954 73.2981 560.857 0.248554
1 0.015 3.03975e-203 -466.313 89.9389 560.857 0.214621
2 0.025 1.07226e-201 -462.75 93.5021 560.857 0.209836
3 0.035 1.26123e-200 -460.285 95.967 560.857 0.206452
4 0.045 3.11561e-200 -459.381 96.8714 560.857 0.203422
5 0.055 5.64855e-200 -458.786 97.4663 560.857 0.200096
6 0.065 4.63085e-200 -458.984 97.2677 560.857 0.196129
7 0.075 2.26284e-200 -459.7 96.5515 560.857 0.191904
8 0.085 6.46707e-201 -460.953 95.2991 560.857 0.18793
9 0.095 2.12709e-201 -462.065 94.1871 560.857 0.183689
10 0.105 4.84769e-202 -463.544 92.7083 560.857 0.179622
11 0.115 7.76823e-203 -465.375 90.8772 560.857 0.175353
12 0.125 1.31812e-203 -467.149 89.1034 560.857 0.170021
13 0.135 3.67144e-204 -468.427 87.8252 560.857 0.16694
14 0.145 4.18124e-205 -470.599 85.6526 560.857 0.161478
15 0.155 5.13115e-206 -472.697 83.5547 560.857 0.153978
16 0.165 9.73837e-207 -474.359 81.8929 560.857 0.151941
17 0.175 2.40125e-207 -475.759 80.4928 560.857 0.148683
18 0.185 2.76607e-208 -477.92 78.3317 560.857 0.139116
19 0.195 8.97475e-209 -479.046 77.2061 560.857 0.138225
20 0.205 1.04847e-209 -481.193 75.059 560.857 0.128971
21 0.215 4.80728e-210 -481.973 74.2792 560.857 0.126944
22 0.225 1.34818e-210 -483.244 73.0078 560.857 0.120496
23 0.235 4.17395e-211 -484.417 71.8354 560.857 0.113627
24 0.245 1.50054e-211 -485.44 70.8123 560.857 0.108852
25 0.255 7.41787e-212 -486.144 70.1078 560.857 0.103591
26 0.265 5.53666e-212 -486.437 69.8153 560.857 0.0982907
27 0.275 3.73314e-212 -486.831 69.4212 560.857 0.0915783
28 0.285 2.96509e-212 -487.061 69.1908 560.857 0.0852518
29 0.295 2.71548e-212 -487.149 69.1029 560.857 0.078667
30 0.305 4.26002e-212 -486.699 69.5532 560.857 0.0733071
31 0.315 7.62682e-212 -486.116 70.1356 560.857 0.0663341
32 0.325 1.65536e-211 -485.341 70.9105 560.857 0.0584402
33 0.335 3.10472e-211 -484.713 71.5394 560.857 0.0524984
34 0.345 9.42953e-211 -483.602 72.6503 560.857 0.0477137
35 0.355 3.55802e-210 -482.274 73.9783 560.857 0.0418306
36 0.365 1.07852e-209 -481.165 75.0872 560.857 0.0382317
37 0.375 4.14169e-209 -479.819 76.4328 560.857 0.0326238
38 0.385 2.76166e-208 -477.922 78.3301 560.857 0.0277704
39 0.395 3.9048e-207 -475.273 80.979 560.857 0.0184263
40 0.405 1.60883e-205 -471.554 84.6975 560.857 0.00881999
41 0.415 1.41859e-205 -471.68 84.5717 560.857 0.0130405
42 0.425 1.82802e-204 -469.124 87.1278 560.857 0.00780835
43 0.435 4.05532e-202 -463.722 92.5298 560.857 -0.00423971
44 0.445 3.15191e-202 -463.974 92.2778 560.857 -0.00161952
45 0.455 1.4923e-200 -460.117 96.1352 560.857 -0.00831758
46 0.465 1.90024e-199 -457.572 98.6795 560.857 -0.0131907
47 0.475 3.59311e-198 -454.633 101.619 560.857 -0.0173973
48 0.485 9.72306e-197 -451.335 104.917 560.857 -0.0226176
49 0.495 2.59896e-196 -450.352 105.9 560.857 -0.0219038
50 0.505 8.87985e-195 -446.82 109.432 560.857 -0.0270029
51 0.515 5.02398e-193 -442.785 113.467 560.857 -0.0327701
52 0.525 2.0809e-189 -434.456 121.796 560.857 -0.0448242
53 0.535 8.64231e-190 -435.334 120.917 560.857 -0.0419185
54 0.545 1.90343e-188 -432.242 124.01 560.857 -0.0452708
55 0.555 1.87408e-184 -423.048 133.204 560.857 -0.0573378
56 0.565 4.41643e-185 -424.493 131.759 560.857 -0.055073
57 0.575 1.54297e-182 -418.637 137.615 560.857 -0.0620301
58 0.585 8.60613e-178 -407.708 148.544 560.857 -0.0754885
59 0.595 1.74653e-178 -409.303 146.949 560.857 -0.073475
60 0.605 2.9493e-176 -404.173 152.079 560.857 -0.0786577
61 0.615 3.20834e-175 -401.787 154.465 560.857 -0.0804022
62 0.625 5.16369e-173 -396.706 159.546 560.857 -0.0857776
63 0.635 1.1731e-170 -391.28 164.972 560.857 -0.091342
64 0.645 5.20769e-168 -385.184 171.068 560.857 -0.0982008
65 0.655 9.37972e-165 -377.688 178.564 560.857 -0.105793
66 0.665 3.29413e-163 -374.129 182.123 560.857 -0.109419
67 0.675 8.62536e-159 -363.956 192.296 560.857 -0.120166
68 0.685 3.8741e-156 -357.849 198.403 560.857 -0.125602
69 0.695 1.15853e-147 -338.333 217.919 560.857 -0.1457
70 0.705 1.51055e-150 -344.975 211.277 560.857 -0.138251
71 0.715 5.02354e-146 -334.563 221.689 560.857 -0.149211
72 0.725 3.83267e-141 -323.321 232.931 560.857 -0.160099
73 0.735 1.66417e-139 -319.55 236.702 560.857 -0.163665
74 0.745 1.39671e-134 -308.212 248.04 560.857 -0.174462
75 0.755 9.26534e-134 -306.32 249.932 560.857 -0.17626
76 0.765 3.78961e-127 -291.096 265.156 560.857 -0.190454
77 0.775 7.20764e-124 -283.545 272.707 560.857 -0.197721
78 0.785 1.41746e-120 -275.961 280.291 560.857 -0.204898
79 0.795 7.51969e-115 -262.78 293.472 560.857 -0.217677
80 0.805 6.29415e-110 -251.445 304.807 560.857 -0.2283
81 0.815 1.19916e-102 -234.682 321.57 560.857 -0.244694
82 0.825 6.89205e-100 -228.328 327.924 560.857 -0.249893
83 0.835 2.73039e-88 -201.623 354.629 560.857 -0.277095
84 0.845 3.87441e-85 -194.365 361.887 560.857 -0.284198
85 0.855 1.17777e-76 -174.833 381.419 560.857 -0.3041
86 0.865 1.55258e-73 -167.649 388.603 560.857 -0.310911
87 0.875 2.32486e-68 -155.732 400.52 560.857 -0.323733
88 0.885 3.44684e-58 -132.312 423.939 560.857 -0.349083
89 0.895 1.59164e-50 -114.664 441.587 560.857 -0.368898
90 0.905 3.77024e-45 -102.289 453.963 560.857 -0.383216
91 0.915 6.88058e-40 -90.1747 466.077 560.857 -0.397247
92 0.925 4.83557e-28 -62.8964 493.356 560.857 -0.433699
93 0.935 1.92697e-24 -54.6061 501.646 560.857 -0.444177
94 0.945 3.62527e-16 -35.5534 520.699 560.857 -0.474078
95 0.955 2.20755e-10 -22.234 534.018 560.857 -0.501414
96 0.965 1.62536e-05 -11.0272 545.225 560.857 -0.529207
97 0.975 0.0407368 -3.20062 553.051 560.857 -0.54621
98 0.985 15.6458 2.7502 559.002 560.857 -0.560136
99 0.995 84.3134 4.43454 560.686 560.857 -0.56934
