0 0.005 0 -828.584 -516.099 317.09 0.248661
1 0.015 0 -796.29 -483.804 317.09 0.209818
2 0.025 0 -789.676 -477.191 317.09 0.198423
3 0.035 0 -783.72 -471.235 317.09 0.180011
4 0.045 0 -781.473 -468.987 317.09 0.180625
5 0.055 0 -779.438 -466.953 317.09 0.1772
6 0.065 0 -777.994 -465.509 317.09 0.174175
7 0.075 0 -776.978 -464.493 317.09 0.168715
8 0.085 0 -776.578 -464.092 317.09 0.164602
9 0.095 0 -775.987 -463.502 317.09 0.16084
10 0.105 0 -775.747 -463.262 317.09 0.156213
11 0.115 0 -775.522 -463.037 317.09 0.151766
12 0.125 0 -775.576 -463.091 317.09 0.146933
13 0.135 0 -775.268 -462.783 317.09 0.142007
14 0.145 0 -775.141 -462.656 317.09 0.136735
15 0.155 0 -774.955 -462.47 317.09 0.131153
16 0.165 0 -774.872 -462.387 317.09 0.125704
17 0.175 0 -774.333 -461.848 317.09 0.121205
18 0.185 0 -773.785 -461.3 317.09 0.115101
19 0.195 0 -773.141 -460.656 317.09 0.10856
20 0.205 0 -772.538 -460.053 317.09 0.102918
21 0.215 0 -771.412 -458.927 317.09 0.0982446
22 0.225 0 -770.051 -457.566 317.09 0.0917923
23 0.235 0 -768.675 -456.189 317.09 0.0868704
24 0.245 0 -767.554 -455.069 317.09 0.0831203
25 0.255 0 -765.157 -452.672 317.09 0.0739882
26 0.265 0 -764.023 -451.538 317.09 0.0740046
27 0.275 0 -759.974 -447.489 317.09 0.0609804
28 0.285 0 -760.301 -447.815 317.09 0.0668864
29 0.295 0 -757.46 -444.975 317.09 0.0590056
30 0.305 0 -755.208 -442.723 317.09 0.0567589
31 0.315 0 -753.061 -440.576 317.09 0.0535425
32 0.325 0 -749.558 -437.073 317.09 0.0472513
33 0.335 0 -746.103 -433.618 317.09 0.0405058
34 0.345 2.47033e-323 -742.767 -430.282 317.09 0.0375965
35 0.355 1.18576e-322 -741.264 -428.778 317.09 0.0370269
36 0.365 2.94364e-320 -735.748 -423.263 317.09 0.027513
37 0.375 2.05848e-319 -733.803 -421.318 317.09 0.0262493
38 0.385 9.29357e-319 -732.295 -419.81 317.09 0.0261451
39 0.395 2.64462e-315 -724.342 -411.857 317.09 0.0145796
40 0.405 1.22671e-314 -722.807 -410.322 317.09 0.0148606
41 0.415 7.74212e-313 -718.662 -406.177 317.09 0.00995868
42 0.425 1.11709e-311 -715.993 -403.508 317.09 0.00775357
43 0.435 3.49629e-310 -712.55 -400.065 317.09 0.00460862
44 0.445 2.61333e-307 -705.933 -393.448 317.09 -0.00300864
45 0.455 1.02863e-305 -702.26 -389.775 317.09 -0.00695555
46 0.465 6.03875e-304 -698.188 -385.703 317.09 -0.0101627
47 0.475 2.19264e-301 -692.293 -379.808 317.09 -0.0157642
48 0.485 1.11229e-299 -688.367 -375.881 317.09 -0.0195724
49 0.495 3.4414e-299 -687.237 -374.752 317.09 -0.0189279
50 0.505 2.9174e-294 -675.889 -363.404 317.09 -0.0304763
51 0.515 2.52059e-293 -673.733 -361.248 317.09 -0.0321954
52 0.525 1.72808e-290 -667.203 -354.718 317.09 -0.0375046
53 0.535 1.24088e-286 -658.324 -345.838 317.09 -0.0447092
54 0.545 1.51754e-286 -658.122 -345.637 317.09 -0.044362
55 0.555 9.5605e-282 -647.071 -334.586 317.09 -0.053812
56 0.565 9.56398e-279 -640.163 -327.678 317.09 -0.0592594
57 0.575 1.26889e-278 -639.881 -327.395 317.09 -0.0587712
58 0.585 1.12146e-274 -630.794 -318.309 317.09 -0.0664455
59 0.595 1.49388e-270 -621.297 -308.812 317.09 -0.0736849
60 0.605 3.28169e-270 -620.51 -308.025 317.09 -0.0735139
61 0.615 2.86325e-265 -609.133 -296.648 317.09 -0.0825246
62 0.625 1.23979e-261 -600.76 -288.275 317.09 -0.0880213
63 0.635 1.69665e-259 -595.841 -283.356 317.09 -0.0916359
64 0.645 2.06617e-252 -579.526 -267.041 317.09 -0.104273
65 0.655 4.88446e-248 -569.455 -256.97 317.09 -0.111497
66 0.665 6.21648e-247 -566.911 -254.426 317.09 -0.113271
67 0.675 3.58578e-239 -549.041 -236.556 317.09 -0.1259
68 0.685 1.90136e-242 -556.583 -244.098 317.09 -0.120209
69 0.695 1.0741e-234 -538.733 -226.248 317.09 -0.133099
70 0.705 4.67725e-229 -525.749 -213.264 317.09 -0.1421
71 0.715 1.17197e-225 -517.923 -205.438 317.09 -0.147478
72 0.725 5.94001e-222 -509.392 -196.907 317.09 -0.152889
73 0.735 3.19201e-217 -498.5 -186.015 317.09 -0.160093
74 0.745 3.05882e-214 -491.635 -179.15 317.09 -0.165324
75 0.755 2.21353e-207 -475.841 -163.355 317.09 -0.176146
76 0.765 3.15077e-200 -459.369 -146.884 317.09 -0.187035
77 0.775 1.22833e-193 -444.193 -131.708 317.09 -0.197763
78 0.785 2.28753e-183 -420.546 -108.061 317.09 -0.2141
79 0.795 8.45326e-179 -410.028 -97.5431 317.09 -0.2213
80 0.805 1.35171e-177 -407.256 -94.7711 317.09 -0.222837
81 0.815 2.21083e-158 -363.015 -50.53 317.09 -0.2537
82 0.825 2.98844e-157 -360.411 -47.926 317.09 -0.255438
83 0.835 1.57014e-150 -344.937 -32.4515 317.09 -0.266297
84 0.845 7.63787e-144 -329.539 -17.0541 317.09 -0.277073
85 0.855 4.17732e-136 -311.722 0.763173 317.09 -0.289603
86 0.865 4.85229e-123 -281.639 30.8466 317.09 -0.311271
87 0.875 1.56669e-115 -264.348 48.1368 317.09 -0.32386
88 0.885 6.08066e-104 -237.664 74.8213 317.09 -0.343664
89 0.895 1.19542e-95 -218.567 93.918 317.09 -0.357869
90 0.905 1.32651e-82 -188.529 123.956 317.09 -0.381321
91 0.915 4.69509e-71 -161.937 150.548 317.09 -0.403099
92 0.925 5.61851e-64 -145.639 166.846 317.09 -0.415408
93 0.935 8.08135e-52 -117.645 194.84 317.09 -0.440253
94 0.945 3.26198e-37 -84.0133 228.472 317.09 -0.473203
95 0.955 1.47568e-27 -61.7807 250.704 317.09 -0.496209
96 0.965 5.17915e-18 -39.8019 272.683 317.09 -0.523372
97 0.975 2.39204e-08 -17.5485 294.937 317.09 -0.555975
98 0.985 0.258152 -1.35421 311.131 317.09 -0.592004
99 0.995 99.7418 4.60259 317.088 317.09 -0.60339
