0 0.005 0 -inf -inf 214.365 -nan
1 0.015 0 -933.249 -723.489 214.365 0.207116
2 0.025 0 -925.487 -715.727 214.365 0.195413
3 0.035 0 -919.568 -709.808 214.365 0.188126
4 0.045 0 -914.322 -704.562 214.365 0.175476
5 0.055 0 -911.553 -701.793 214.365 0.172325
6 0.065 0 -909 -699.24 214.365 0.16365
7 0.075 0 -907.535 -697.775 214.365 0.161199
8 0.085 0 -906.37 -696.61 214.365 0.156831
9 0.095 0 -904.747 -694.987 214.365 0.151009
10 0.105 0 -903.777 -694.017 214.365 0.147071
11 0.115 0 -902.682 -692.922 214.365 0.141204
12 0.125 0 -902.133 -692.373 214.365 0.13828
13 0.135 0 -900.994 -691.234 214.365 0.133041
14 0.145 0 -899.724 -689.964 214.365 0.126058
15 0.155 0 -898.93 -689.17 214.365 0.123342
16 0.165 0 -898.045 -688.285 214.365 0.118335
17 0.175 0 -896.606 -686.846 214.365 0.111533
18 0.185 0 -895.262 -685.502 214.365 0.106218
19 0.195 0 -893.31 -683.551 214.365 0.100112
20 0.205 0 -892.126 -682.366 214.365 0.0970179
21 0.215 0 -890.324 -680.564 214.365 0.0925973
22 0.225 0 -888.6 -678.84 214.365 0.0894005
23 0.235 0 -885.879 -676.119 214.365 0.0823213
24 0.245 0 -884.956 -675.196 214.365 0.0828097
25 0.255 0 -878.69 -668.93 214.365 0.0674438
26 0.265 0 -877.436 -667.676 214.365 0.0677034
27 0.275 0 -871.773 -662.013 214.365 0.0580488
28 0.285 0 -872.712 -662.952 214.365 0.0613224
29 0.295 0 -871.045 -661.285 214.365 0.0599683
30 0.305 0 -866.78 -657.02 214.365 0.0538631
31 0.315 0 -864.736 -654.976 214.365 0.0525643
32 0.325 0 -857.401 -647.641 214.365 0.0418938
33 0.335 0 -846.979 -637.219 214.365 0.0307011
34 0.345 0 -848.771 -639.011 214.365 0.0326359
35 0.355 0 -850.279 -640.519 214.365 0.0352643
36 0.365 0 -842.988 -633.228 214.365 0.0276471
37 0.375 0 -837.551 -627.791 214.365 0.0218306
38 0.385 0 -833.529 -623.769 214.365 0.0183537
39 0.395 0 -834.559 -624.799 214.365 0.0207525
40 0.405 0 -821.417 -611.657 214.365 0.00732734
41 0.415 0 -824.386 -614.626 214.365 0.0112024
42 0.425 0 -815.046 -605.286 214.365 0.00192556
43 0.435 0 -808.503 -598.743 214.365 -0.00339894
44 0.445 0 -806.108 -596.348 214.365 -0.00494752
45 0.455 0 -805.535 -595.775 214.365 -0.00508014
46 0.465 0 -794.922 -585.162 214.365 -0.0141258
47 0.475 0 -785.671 -575.911 214.365 -0.0214663
48 0.485 0 -785.354 -575.594 214.365 -0.0209892
49 0.495 0 -776.016 -566.256 214.365 -0.0285243
50 0.505 0 -771.231 -561.472 214.365 -0.0322279
51 0.515 0 -768.799 -559.039 214.365 -0.0340559
52 0.525 0 -761.365 -551.605 214.365 -0.0394427
53 0.535 0 -756.054 -546.294 214.365 -0.0425745
54 0.545 0 -750.533 -540.773 214.365 -0.0465416
55 0.555 1.96638e-321 -738.454 -528.694 214.365 -0.0556761
56 0.565 5.457e-318 -730.525 -520.765 214.365 -0.0609256
57 0.575 2.02065e-315 -724.611 -514.851 214.365 -0.0646332
58 0.585 2.07737e-306 -703.86 -494.1 214.365 -0.0791
59 0.595 6.02124e-312 -716.611 -506.851 214.365 -0.0699937
60 0.605 2.82566e-308 -708.157 -498.398 214.365 -0.0754175
61 0.615 2.04609e-300 -690.06 -480.3 214.365 -0.0878958
62 0.625 2.88237e-299 -687.414 -477.654 214.365 -0.089877
63 0.635 1.91622e-294 -676.31 -466.55 214.365 -0.0970984
64 0.645 9.06756e-291 -667.848 -458.088 214.365 -0.102383
65 0.655 2.54424e-288 -662.211 -452.451 214.365 -0.105959
66 0.665 6.63405e-282 -647.437 -437.677 214.365 -0.1151
67 0.675 3.03264e-277 -636.707 -426.947 214.365 -0.122288
68 0.685 5.50276e-271 -622.295 -412.535 214.365 -0.131204
69 0.695 5.46142e-266 -610.79 -401.03 214.365 -0.1385
70 0.705 1.20411e-266 -612.302 -402.542 214.365 -0.136693
71 0.715 1.51248e-249 -572.93 -363.17 214.365 -0.1619
72 0.725 1.27143e-254 -584.616 -374.857 214.365 -0.154687
73 0.735 1.00626e-245 -564.127 -354.367 214.365 -0.16729
74 0.745 7.30771e-243 -557.539 -347.779 214.365 -0.170848
75 0.755 2.98914e-234 -537.71 -327.95 214.365 -0.1835
76 0.765 2.02462e-230 -528.889 -319.129 214.365 -0.188896
77 0.775 2.74278e-225 -517.073 -307.313 214.365 -0.195989
78 0.785 2.25079e-216 -496.547 -286.787 214.365 -0.20869
79 0.795 5.64573e-210 -481.812 -272.052 214.365 -0.217587
80 0.805 4.2877e-201 -461.364 -251.604 214.365 -0.230277
81 0.815 1.90454e-193 -443.755 -233.995 214.365 -0.240915
82 0.825 1.22525e-179 -411.96 -202.2 214.365 -0.260898
83 0.835 2.20444e-173 -397.557 -187.797 214.365 -0.269889
84 0.845 7.12715e-166 -380.265 -170.505 214.365 -0.280493
85 0.855 1.41487e-153 -351.948 -142.189 214.365 -0.298586
86 0.865 7.63676e-144 -329.539 -119.779 214.365 -0.312992
87 0.875 4.60884e-133 -304.716 -94.9559 214.365 -0.329285
88 0.885 6.09661e-119 -272.2 -62.44 214.365 -0.3509
89 0.895 1.03276e-109 -250.95 -41.1896 214.365 -0.365298
90 0.905 6.58253e-96 -219.164 -9.40381 214.365 -0.386889
91 0.915 5.73665e-80 -182.46 27.3 214.365 -0.4139
92 0.925 1.06219e-73 -168.028 41.7316 214.365 -0.424691
93 0.935 1.11914e-58 -133.437 76.3226 214.365 -0.451653
94 0.945 3.27413e-41 -93.2199 116.54 214.365 -0.4859
95 0.955 6.03815e-37 -83.3976 126.362 214.365 -0.494746
96 0.965 1.01567e-21 -48.3387 161.421 214.365 -0.530695
97 0.975 2.82979e-11 -24.2882 185.472 214.365 -0.560026
98 0.985 0.050198 -2.99178 206.768 214.365 -0.603396
99 0.995 99.9498 4.60467 214.365 214.365 -0.614505
