0 0.005 0.152539 -1.88034 3.12435 9.60985 0.286605
1 0.015 13.1388 2.57557 7.58025 9.60985 0.282759
2 0.025 48.914 3.89006 8.89475 9.60985 0.2817
3 0.035 31.3757 3.44603 8.45072 9.60985 0.280542
4 0.045 5.66373 1.73408 6.73877 9.60985 0.279227
5 0.055 0.715316 -0.335031 4.66965 9.60985 0.277667
6 0.065 0.0347364 -3.35997 1.64472 9.60985 0.281898
7 0.075 0.0051744 -5.26403 -0.259349 9.60985 0.2737
8 0.085 1.92927e-11 -24.6713 -19.6666 9.60985 0.225019
9 0.095 1.59093e-17 -38.6796 -33.6749 9.60985 0.20877
10 0.105 7.88209e-17 -37.0794 -32.0747 9.60985 0.2107
11 0.115 7.80679e-20 -43.9967 -38.992 9.60985 0.2035
12 0.125 2.71563e-30 -68.0785 -63.0738 9.60985 0.181736
13 0.135 2.8754e-32 -72.6265 -67.6218 9.60985 0.178266
14 0.145 4.55961e-37 -83.6784 -78.6737 9.60985 0.169147
15 0.155 1.30988e-41 -94.1361 -89.1314 9.60985 0.161905
16 0.165 8.44612e-44 -99.18 -94.1754 9.60985 0.158124
17 0.175 5.29119e-45 -101.95 -96.9456 9.60985 0.156681
18 0.185 1.17379e-50 -114.969 -109.964 9.60985 0.147398
19 0.195 1.48796e-51 -117.034 -112.03 9.60985 0.145797
20 0.205 3.53762e-56 -127.681 -122.677 9.60985 0.138523
21 0.215 1.69247e-56 -128.419 -123.414 9.60985 0.138609
22 0.225 9.17843e-59 -133.636 -128.631 9.60985 0.135094
23 0.235 9.99508e-64 -145.063 -140.059 9.60985 0.125656
24 0.245 2.98552e-65 -148.574 -143.57 9.60985 0.123725
25 0.255 2.24347e-66 -151.163 -146.158 9.60985 0.12216
26 0.265 3.18722e-68 -155.417 -150.412 9.60985 0.11873
27 0.275 2.5028e-70 -160.264 -155.259 9.60985 0.11525
28 0.285 1.45553e-73 -167.713 -162.709 9.60985 0.109314
29 0.295 1.40975e-75 -172.35 -167.346 9.60985 0.105752
30 0.305 1.66951e-77 -176.787 -171.782 9.60985 0.102037
31 0.315 1.74301e-78 -179.046 -174.041 9.60985 0.100345
32 0.325 2.20541e-81 -185.718 -180.714 9.60985 0.093141
33 0.335 1.16367e-82 -188.66 -183.656 9.60985 0.0909476
34 0.345 2.86642e-82 -187.759 -182.754 9.60985 0.0935689
35 0.355 5.45617e-84 -191.72 -186.716 9.60985 0.0898225
36 0.365 3.41656e-87 -199.096 -194.092 9.60985 0.0818605
37 0.375 3.43716e-88 -201.393 -196.388 9.60985 0.0808227
38 0.385 1.44783e-89 -204.56 -199.555 9.60985 0.0765799
39 0.395 9.24024e-90 -205.009 -200.004 9.60985 0.0773071
40 0.405 1.95092e-92 -211.17 -206.165 9.60985 0.0699658
41 0.415 2.48754e-93 -213.229 -208.224 9.60985 0.0675914
42 0.425 8.98131e-95 -216.55 -211.546 9.60985 0.0641531
43 0.435 6.34976e-96 -219.2 -214.195 9.60985 0.0600093
44 0.445 7.10179e-97 -221.39 -216.386 9.60985 0.0591141
45 0.455 5.36071e-99 -226.277 -221.272 9.60985 0.0511856
46 0.465 5.05139e-100 -228.639 -223.634 9.60985 0.0476158
47 0.475 4.98e-101 -230.956 -225.951 9.60985 0.0452282
48 0.485 1.45974e-101 -232.183 -227.178 9.60985 0.0437649
49 0.495 9.35045e-103 -234.931 -229.926 9.60985 0.0402343
50 0.505 7.15288e-104 -237.501 -232.497 9.60985 0.0362963
51 0.515 7.25891e-105 -239.789 -234.785 9.60985 0.0307825
52 0.525 7.61041e-106 -242.045 -237.04 9.60985 0.028143
53 0.535 4.09133e-107 -244.968 -239.963 9.60985 0.020341
54 0.545 2.47269e-107 -245.471 -240.467 9.60985 0.0230993
55 0.555 7.38453e-109 -248.982 -243.978 9.60985 0.0128036
56 0.565 2.56362e-109 -250.04 -245.036 9.60985 0.0122999
57 0.575 3.61034e-110 -252.001 -246.996 9.60985 0.00829305
58 0.585 4.41371e-111 -254.102 -249.098 9.60985 0.0021732
59 0.595 8.95713e-112 -255.697 -250.692 9.60985 -0.00202585
60 0.605 2.53112e-112 -256.961 -251.956 9.60985 -0.00395232
61 0.615 6.86959e-113 -258.265 -253.26 9.60985 -0.00501014
62 0.625 2.57423e-113 -259.247 -254.242 9.60985 -0.00728016
63 0.635 1.38811e-113 -259.864 -254.859 9.60985 -0.00695796
64 0.645 8.13011e-115 -262.702 -257.697 9.60985 -0.0177793
65 0.655 1.46404e-115 -264.416 -259.411 9.60985 -0.028167
66 0.665 4.08252e-116 -265.693 -260.688 9.60985 -0.0297094
67 0.675 1.12177e-116 -266.985 -261.98 9.60985 -0.0402091
68 0.685 4.57784e-117 -267.881 -262.877 9.60985 -0.0428075
69 0.695 2.05779e-117 -268.681 -263.676 9.60985 -0.0424042
70 0.705 3.06186e-118 -270.586 -265.581 9.60985 -0.0664679
71 0.715 1.94771e-118 -271.038 -266.034 9.60985 -0.0681299
72 0.725 7.07078e-119 -272.052 -267.047 9.60985 -0.0816393
73 0.735 3.30403e-119 -272.812 -267.808 9.60985 -0.0920083
74 0.745 1.60059e-119 -273.537 -268.533 9.60985 -0.100333
75 0.755 8.98566e-120 -274.115 -269.11 9.60985 -0.111392
76 0.765 7.36342e-120 -274.314 -269.309 9.60985 -0.120221
77 0.775 4.96612e-120 -274.708 -269.703 9.60985 -0.131816
78 0.785 3.91062e-120 -274.947 -269.942 9.60985 -0.142448
79 0.795 2.61576e-120 -275.349 -270.344 9.60985 -0.153466
80 0.805 2.807e-120 -275.278 -270.273 9.60985 -0.163761
81 0.815 2.56965e-120 -275.366 -270.362 9.60985 -0.175836
82 0.825 2.42121e-120 -275.426 -270.421 9.60985 -0.187832
83 0.835 1.86148e-120 -275.689 -270.684 9.60985 -0.199155
84 0.845 2.05961e-120 -275.588 -270.583 9.60985 -0.210683
85 0.855 1.73755e-120 -275.758 -270.753 9.60985 -0.223318
86 0.865 1.35731e-120 -276.005 -271 9.60985 -0.236244
87 0.875 8.08779e-121 -276.522 -271.518 9.60985 -0.248694
88 0.885 5.96354e-121 -276.827 -271.822 9.60985 -0.26047
89 0.895 2.79121e-121 -277.586 -272.582 9.60985 -0.273404
90 0.905 9.59365e-122 -278.654 -273.65 9.60985 -0.286736
91 0.915 2.21136e-122 -280.122 -275.117 9.60985 -0.298954
92 0.925 5.03256e-123 -281.602 -276.597 9.60985 -0.312465
93 0.935 4.79453e-124 -283.953 -278.948 9.60985 -0.32649
94 0.945 2.7572e-125 -286.809 -281.804 9.60985 -0.337953
95 0.955 6.93042e-127 -290.492 -285.488 9.60985 -0.351976
96 0.965 1.12507e-128 -294.613 -289.608 9.60985 -0.368433
97 0.975 7.51611e-132 -301.924 -296.92 9.60985 -0.395944
98 0.985 1.44807e-136 -312.781 -307.777 9.60985 -0.435464
99 0.995 6.30108e-145 -332.034 -327.029 9.60985 -0.477825
