0 0.005 0.193097 -1.64456 4.05755 10.3073 0.284799
1 0.015 12.7087 2.54228 8.24439 10.3073 0.282642
2 0.025 48.9137 3.89006 9.59217 10.3073 0.281491
3 0.035 32.1248 3.46963 9.17174 10.3073 0.280351
4 0.045 5.44136 1.69403 7.39614 10.3073 0.279141
5 0.055 0.604471 -0.503402 5.19871 10.3073 0.277979
6 0.065 0.0139138 -4.27487 1.42723 10.3073 0.26932
7 0.075 1.83065e-06 -13.2108 -7.50873 10.3073 0.244175
8 0.085 2.52216e-12 -26.7059 -21.0038 10.3073 0.22046
9 0.095 1.99894e-19 -43.0565 -37.3544 10.3073 0.203009
10 0.105 1.88003e-24 -54.6308 -48.9286 10.3073 0.192267
11 0.115 2.43175e-26 -58.9786 -53.2765 10.3073 0.188955
12 0.125 4.45907e-30 -67.5826 -61.8805 10.3073 0.181531
13 0.135 1.16564e-34 -78.1346 -72.4325 10.3073 0.172766
14 0.145 2.2867e-39 -88.9737 -83.2716 10.3073 0.165211
15 0.155 1.24678e-41 -94.1854 -88.4833 10.3073 0.161811
16 0.165 8.45588e-43 -96.8763 -91.1742 10.3073 0.160295
17 0.175 2.99309e-47 -107.125 -101.423 10.3073 0.152758
18 0.185 1.36077e-50 -114.821 -109.119 10.3073 0.147424
19 0.195 7.83826e-53 -119.978 -114.276 10.3073 0.143826
20 0.205 2.62225e-56 -127.981 -122.279 10.3073 0.138613
21 0.215 3.89666e-57 -129.887 -124.185 10.3073 0.136777
22 0.225 7.31043e-61 -138.468 -132.766 10.3073 0.131093
23 0.235 3.60648e-63 -143.78 -138.078 10.3073 0.127526
24 0.245 8.62206e-60 -136.001 -130.299 10.3073 0.1333
25 0.255 1.52162e-66 -151.551 -145.849 10.3073 0.122288
26 0.265 9.94339e-69 -156.581 -150.879 10.3073 0.118807
27 0.275 1.8756e-71 -162.855 -157.153 10.3073 0.113066
28 0.285 8.31116e-72 -163.669 -157.966 10.3073 0.11333
29 0.295 8.98092e-76 -172.801 -167.099 10.3073 0.105973
30 0.305 8.59704e-76 -172.845 -167.143 10.3073 0.106144
31 0.315 2.15202e-77 -176.533 -170.831 10.3073 0.102514
32 0.325 3.58345e-81 -185.233 -179.531 10.3073 0.0944251
33 0.335 2.06139e-81 -185.786 -180.084 10.3073 0.0952659
34 0.345 1.32915e-79 -181.62 -175.918 10.3073 0.0990995
35 0.355 6.61257e-85 -193.831 -188.129 10.3073 0.088057
36 0.365 9.5168e-86 -195.769 -190.067 10.3073 0.0863297
37 0.375 3.43144e-88 -201.395 -195.692 10.3073 0.0808743
38 0.385 1.29808e-89 -204.669 -198.967 10.3073 0.0766817
39 0.395 5.12848e-91 -207.9 -202.198 10.3073 0.0728044
40 0.405 4.18975e-92 -210.405 -204.703 10.3073 0.0699135
41 0.415 2.25408e-94 -215.63 -209.928 10.3073 0.0643097
42 0.425 3.43992e-93 -212.905 -207.203 10.3073 0.0684335
43 0.435 1.83031e-96 -220.444 -214.742 10.3073 0.0585783
44 0.445 9.73318e-98 -223.378 -217.676 10.3073 0.0543129
45 0.455 6.42789e-99 -226.095 -220.393 10.3073 0.0516069
46 0.465 6.60152e-97 -221.463 -215.761 10.3073 0.0594917
47 0.475 4.91895e-101 -230.968 -225.266 10.3073 0.045288
48 0.485 8.99743e-103 -234.969 -229.267 10.3073 0.0392249
49 0.495 6.52807e-104 -237.593 -231.891 10.3073 0.0333629
50 0.505 6.19307e-104 -237.645 -231.943 10.3073 0.0369679
51 0.515 3.03181e-105 -240.662 -234.96 10.3073 0.0305975
52 0.525 1.8333e-105 -241.165 -235.463 10.3073 0.0314422
53 0.535 6.18298e-103 -235.344 -229.642 10.3073 0.0414986
54 0.545 2.68802e-107 -245.388 -239.686 10.3073 0.0239769
55 0.555 3.40336e-108 -247.454 -241.752 10.3073 0.020024
56 0.565 3.56092e-109 -249.712 -244.01 10.3073 0.0165439
57 0.575 1.87056e-110 -252.658 -246.956 10.3073 0.0072629
58 0.585 1.69929e-111 -255.057 -249.355 10.3073 -0.000768755
59 0.595 5.73859e-112 -256.142 -250.44 10.3073 -0.00240368
60 0.605 1.17279e-112 -257.73 -252.028 10.3073 -0.00663015
61 0.615 1.44582e-113 -259.823 -254.121 10.3073 -0.0135986
62 0.625 7.33018e-114 -260.503 -254.801 10.3073 -0.0124152
63 0.635 1.61557e-114 -262.015 -256.313 10.3073 -0.0191322
64 0.645 2.7705e-114 -261.476 -255.774 10.3073 -0.0092117
65 0.655 8.33691e-116 -264.979 -259.277 10.3073 -0.0314817
66 0.665 2.04526e-116 -266.384 -260.682 10.3073 -0.037056
67 0.675 1.94515e-116 -266.435 -260.732 10.3073 -0.0297321
68 0.685 3.81814e-117 -268.063 -262.361 10.3073 -0.0425228
69 0.695 7.60486e-118 -269.676 -263.974 10.3073 -0.0583066
70 0.705 2.62762e-118 -270.739 -265.037 10.3073 -0.0672499
71 0.715 1.44522e-118 -271.337 -265.635 10.3073 -0.0731331
72 0.725 6.31416e-119 -272.165 -266.463 10.3073 -0.0817907
73 0.735 3.05342e-119 -272.891 -267.189 10.3073 -0.0911474
74 0.745 1.3924e-119 -273.677 -267.974 10.3073 -0.101462
75 0.755 8.31349e-120 -274.192 -268.49 10.3073 -0.111317
76 0.765 6.79097e-120 -274.395 -268.693 10.3073 -0.119948
77 0.775 4.63423e-120 -274.777 -269.075 10.3073 -0.13164
78 0.785 3.50574e-120 -275.056 -269.354 10.3073 -0.142665
79 0.795 2.46444e-120 -275.408 -269.706 10.3073 -0.153253
80 0.805 2.57284e-120 -275.365 -269.663 10.3073 -0.16379
81 0.815 2.37718e-120 -275.444 -269.742 10.3073 -0.175406
82 0.825 2.21756e-120 -275.514 -269.812 10.3073 -0.187642
83 0.835 1.78496e-120 -275.731 -270.029 10.3073 -0.198987
84 0.845 1.95017e-120 -275.642 -269.94 10.3073 -0.21053
85 0.855 1.71454e-120 -275.771 -270.069 10.3073 -0.223356
86 0.865 1.34513e-120 -276.014 -270.312 10.3073 -0.235953
87 0.875 7.91786e-121 -276.544 -270.842 10.3073 -0.248385
88 0.885 5.83971e-121 -276.848 -271.146 10.3073 -0.260394
89 0.895 2.74984e-121 -277.601 -271.899 10.3073 -0.273803
90 0.905 9.5709e-122 -278.657 -272.955 10.3073 -0.286769
91 0.915 2.17145e-122 -280.14 -274.438 10.3073 -0.300026
92 0.925 5.25063e-123 -281.56 -275.858 10.3073 -0.311478
93 0.935 5.13056e-124 -283.885 -278.183 10.3073 -0.32587
94 0.945 2.49218e-125 -286.91 -281.208 10.3073 -0.340772
95 0.955 7.32634e-127 -290.437 -284.735 10.3073 -0.350677
96 0.965 1.69065e-128 -294.206 -288.504 10.3073 -0.36851
97 0.975 1.08434e-131 -301.558 -295.856 10.3073 -0.398809
98 0.985 7.0764e-136 -311.195 -305.493 10.3073 -0.426723
99 0.995 2.2772e-144 -330.749 -325.047 10.3073 -0.474376
