0 0.005 5.05442e-255 -585.539 -101.094 489.05 0.248521
1 0.015 7.96807e-246 -564.36 -79.9153 489.05 0.209811
2 0.025 5.72443e-244 -560.086 -75.6409 489.05 0.2031
3 0.035 1.01991e-242 -557.206 -72.7607 489.05 0.19981
4 0.045 3.68313e-242 -555.922 -71.4767 489.05 0.196765
5 0.055 1.02838e-241 -554.895 -70.4499 489.05 0.193103
6 0.065 1.40584e-241 -554.582 -70.1372 489.05 0.188891
7 0.075 1.17825e-241 -554.759 -70.3138 489.05 0.184485
8 0.085 5.542e-242 -555.513 -71.0681 489.05 0.18053
9 0.095 3.08919e-242 -556.098 -71.6525 489.05 0.176304
10 0.105 1.13624e-242 -557.098 -72.6527 489.05 0.172425
11 0.115 3.52159e-243 -558.269 -73.8241 489.05 0.166937
12 0.125 1.02146e-243 -559.507 -75.0618 489.05 0.162946
13 0.135 4.17447e-244 -560.402 -75.9566 489.05 0.159751
14 0.145 9.63469e-245 -561.868 -77.4228 489.05 0.153832
15 0.155 2.59784e-245 -563.179 -78.7335 489.05 0.148534
16 0.165 7.05328e-246 -564.482 -80.0373 489.05 0.144636
17 0.175 2.92781e-246 -565.362 -80.9165 489.05 0.13987
18 0.185 9.06176e-247 -566.534 -82.0893 489.05 0.13338
19 0.195 3.90783e-247 -567.376 -82.9304 489.05 0.129564
20 0.205 1.29371e-247 -568.481 -84.0358 489.05 0.12237
21 0.215 8.9194e-248 -568.853 -84.4077 489.05 0.117985
22 0.225 5.49776e-248 -569.337 -84.8916 489.05 0.111888
23 0.235 3.8366e-248 -569.697 -85.2514 489.05 0.105525
24 0.245 2.65038e-248 -570.066 -85.6212 489.05 0.100075
25 0.255 2.76416e-248 -570.024 -85.5792 489.05 0.0935362
26 0.265 4.1424e-248 -569.62 -85.1747 489.05 0.0877412
27 0.275 6.44723e-248 -569.177 -84.7323 489.05 0.0808584
28 0.285 1.10099e-247 -568.642 -84.1972 489.05 0.0748555
29 0.295 2.43984e-247 -567.847 -83.4014 489.05 0.0673727
30 0.305 6.53156e-247 -566.862 -82.4167 489.05 0.0644305
31 0.315 2.84631e-246 -565.39 -80.9448 489.05 0.0571375
32 0.325 1.74985e-245 -563.574 -79.1287 489.05 0.048809
33 0.335 6.61743e-245 -562.244 -77.7985 489.05 0.0435128
34 0.345 3.01207e-244 -560.728 -76.283 489.05 0.041814
35 0.355 2.13952e-243 -558.768 -74.3224 489.05 0.0372961
36 0.365 9.39014e-243 -557.289 -72.8434 489.05 0.0348385
37 0.375 7.36647e-242 -555.229 -70.7835 489.05 0.0289346
38 0.385 8.48816e-241 -552.784 -68.3392 489.05 0.0249348
39 0.395 3.76801e-239 -548.991 -64.5461 489.05 0.0159909
40 0.405 4.61315e-237 -544.184 -59.7386 489.05 0.00790066
41 0.415 2.49188e-237 -544.8 -60.3545 489.05 0.0115052
42 0.425 6.00154e-236 -541.618 -57.1729 489.05 0.00669467
43 0.435 5.71837e-233 -534.759 -50.3135 489.05 -0.00471959
44 0.445 3.29388e-233 -535.31 -50.8651 489.05 -0.00248418
45 0.455 3.45733e-231 -530.657 -46.2115 489.05 -0.00862432
46 0.465 8.1803e-230 -527.493 -43.0477 489.05 -0.0136681
47 0.475 2.58269e-228 -524.041 -39.5954 489.05 -0.0177016
48 0.485 1.34308e-226 -520.089 -35.6441 489.05 -0.0229628
49 0.495 3.31818e-226 -519.185 -34.7397 489.05 -0.0224173
50 0.505 2.14502e-224 -515.016 -30.5708 489.05 -0.0275521
51 0.515 2.48178e-222 -510.265 -25.8198 489.05 -0.0332572
52 0.525 4.4851e-218 -500.463 -16.0176 489.05 -0.0448715
53 0.535 1.31941e-218 -501.686 -17.2412 489.05 -0.042227
54 0.545 4.42007e-217 -498.175 -13.7297 489.05 -0.0456096
55 0.555 1.92564e-212 -487.493 -3.04763 489.05 -0.057411
56 0.565 3.46456e-213 -489.208 -4.76289 489.05 -0.0553304
57 0.575 2.8757e-210 -482.487 1.95858 489.05 -0.0622617
58 0.585 8.46047e-205 -469.895 14.5506 489.05 -0.0754955
59 0.595 1.3449e-205 -471.734 12.7115 489.05 -0.0735794
60 0.605 4.33998e-203 -465.957 18.4882 489.05 -0.0787871
61 0.615 5.87329e-202 -463.352 21.0934 489.05 -0.0805451
62 0.625 1.84707e-199 -457.601 26.8443 489.05 -0.0859179
63 0.635 8.38541e-197 -451.483 32.9624 489.05 -0.0914593
64 0.645 8.78022e-194 -444.529 39.9161 489.05 -0.0983654
65 0.655 4.05676e-190 -436.091 48.3544 489.05 -0.105888
66 0.665 2.23757e-188 -432.081 52.3645 489.05 -0.109504
67 0.675 2.2352e-183 -420.569 63.8764 489.05 -0.120239
68 0.685 1.97935e-180 -413.783 70.6626 489.05 -0.12569
69 0.695 7.20999e-171 -391.767 92.6786 489.05 -0.1457
70 0.705 3.7317e-174 -399.333 85.1122 489.05 -0.138323
71 0.715 4.85421e-169 -387.557 96.8881 489.05 -0.149244
72 0.725 1.43614e-163 -374.959 109.486 489.05 -0.1601
73 0.735 9.73986e-162 -370.743 113.703 489.05 -0.163684
74 0.745 3.1409e-156 -358.059 126.386 489.05 -0.174481
75 0.755 2.60765e-155 -355.942 128.503 489.05 -0.176282
76 0.765 6.28677e-148 -338.944 145.501 489.05 -0.190542
77 0.775 2.95454e-144 -330.489 153.956 489.05 -0.197788
78 0.785 1.42312e-140 -322.009 162.436 489.05 -0.204978
79 0.795 3.69697e-134 -307.239 177.206 489.05 -0.217689
80 0.805 1.16855e-128 -294.575 189.87 489.05 -0.228376
81 0.815 1.71051e-120 -275.773 208.672 489.05 -0.244698
82 0.825 1.88641e-117 -268.768 215.677 489.05 -0.24995
83 0.835 2.2122e-104 -238.675 245.77 489.05 -0.277098
84 0.845 7.62868e-101 -230.529 253.916 489.05 -0.284236
85 0.855 2.76553e-91 -208.518 275.927 489.05 -0.3041
86 0.865 8.57567e-88 -200.479 283.967 489.05 -0.311005
87 0.875 6.34181e-82 -186.965 297.48 489.05 -0.323802
88 0.885 2.20855e-70 -160.389 324.057 489.05 -0.349094
89 0.895 1.20547e-61 -140.271 344.174 489.05 -0.368899
90 0.905 1.70732e-55 -126.107 358.338 489.05 -0.383262
91 0.915 1.80066e-49 -112.239 372.207 489.05 -0.397368
92 0.925 1.18149e-35 -80.4237 404.021 489.05 -0.4337
93 0.935 1.75625e-31 -70.817 413.628 489.05 -0.444323
94 0.945 1.37858e-21 -48.0332 436.412 489.05 -0.474278
95 0.955 2.58088e-14 -31.2881 453.157 489.05 -0.50184
96 0.965 6.31305e-08 -16.5781 467.867 489.05 -0.530095
97 0.975 0.00222415 -6.10838 478.337 489.05 -0.554664
98 0.985 5.31863 1.67122 486.116 489.05 -0.570896
99 0.995 94.6791 4.55049 488.996 489.05 -0.580878
