0 0.005 0.092148 -2.38436 2.5458 9.53533 0.279164
1 0.015 11.2968 2.42452 7.35468 9.53533 0.27559
2 0.025 46.8928 3.84786 8.77803 9.53533 0.274215
3 0.035 33.7567 3.51918 8.44934 9.53533 0.272768
4 0.045 6.92944 1.93578 6.86594 9.53533 0.271206
5 0.055 0.98724 -0.0128424 4.91732 9.53533 0.27011
6 0.065 0.0375932 -3.28093 1.64923 9.53533 0.270394
7 0.075 0.00722603 -4.93007 9.58729e-05 9.53533 0.273696
8 0.085 2.05161e-09 -20.0046 -15.0745 9.53533 0.224963
9 0.095 7.19147e-15 -32.5659 -27.6357 9.53533 0.208674
10 0.105 2.98931e-14 -31.1411 -26.211 9.53533 0.2107
11 0.115 5.61776e-17 -37.418 -32.4879 9.53533 0.2035
12 0.125 1.35808e-26 -59.5611 -54.631 9.53533 0.181674
13 0.135 1.954e-28 -63.8025 -58.8723 9.53533 0.178252
14 0.145 6.97734e-33 -74.0426 -69.1125 9.53533 0.169121
15 0.155 3.82147e-37 -83.855 -78.9249 9.53533 0.161854
16 0.165 3.45059e-39 -88.5623 -83.6321 9.53533 0.158065
17 0.175 2.45232e-40 -91.2064 -86.2762 9.53533 0.156673
18 0.185 1.24564e-45 -103.397 -98.4665 9.53533 0.147329
19 0.195 1.81738e-46 -105.322 -100.391 9.53533 0.14577
20 0.205 8.26251e-51 -115.32 -110.39 9.53533 0.138468
21 0.215 3.91998e-51 -116.066 -111.136 9.53533 0.138571
22 0.225 2.90207e-53 -120.972 -116.041 9.53533 0.13509
23 0.235 7.34239e-58 -131.556 -126.626 9.53533 0.125572
24 0.245 2.606e-59 -134.895 -129.965 9.53533 0.123625
25 0.255 2.24786e-60 -137.345 -132.415 9.53533 0.122091
26 0.265 4.32917e-62 -141.295 -136.365 9.53533 0.118679
27 0.275 4.62792e-64 -145.833 -140.903 9.53533 0.115225
28 0.285 4.58744e-67 -152.75 -147.82 9.53533 0.109168
29 0.295 6.09717e-69 -157.071 -152.14 9.53533 0.105615
30 0.305 1.0066e-70 -161.174 -156.244 9.53533 0.101859
31 0.315 1.21957e-71 -163.285 -158.355 9.53533 0.100206
32 0.325 2.928e-74 -169.317 -164.387 9.53533 0.0930104
33 0.335 1.88216e-75 -172.061 -167.131 9.53533 0.0907647
34 0.345 3.65422e-75 -171.398 -166.468 9.53533 0.0934949
35 0.355 9.70771e-77 -175.026 -170.096 9.53533 0.089748
36 0.365 1.24435e-79 -181.686 -176.755 9.53533 0.0815945
37 0.375 1.36908e-80 -183.893 -178.963 9.53533 0.0806132
38 0.385 8.42253e-82 -186.681 -181.751 9.53533 0.0763462
39 0.395 5.01191e-82 -187.2 -182.27 9.53533 0.0771977
40 0.405 2.04302e-84 -192.703 -187.773 9.53533 0.0697351
41 0.415 3.22541e-85 -194.549 -189.619 9.53533 0.0673136
42 0.425 1.58517e-86 -197.562 -192.631 9.53533 0.0638036
43 0.435 1.61707e-87 -199.844 -194.914 9.53533 0.0597159
44 0.445 1.95858e-88 -201.955 -197.025 9.53533 0.0588023
45 0.455 3.02207e-90 -206.127 -201.197 9.53533 0.0506483
46 0.465 3.91613e-91 -208.17 -203.24 9.53533 0.0470444
47 0.475 4.8414e-92 -210.261 -205.33 9.53533 0.0443204
48 0.485 1.5953e-92 -211.371 -206.441 9.53533 0.0431675
49 0.495 1.40907e-93 -213.797 -208.867 9.53533 0.0394478
50 0.505 1.5517e-94 -216.004 -211.073 9.53533 0.035169
51 0.515 2.55752e-95 -217.807 -212.876 9.53533 0.0297951
52 0.525 3.49783e-96 -219.796 -214.866 9.53533 0.026397
53 0.535 3.70037e-97 -222.042 -217.112 9.53533 0.0190095
54 0.545 1.78672e-97 -222.77 -217.84 9.53533 0.0211981
55 0.555 1.3434e-98 -225.358 -220.428 9.53533 0.0107293
56 0.565 5.03432e-99 -226.34 -221.409 9.53533 0.00944889
57 0.575 1.03334e-99 -227.923 -222.993 9.53533 0.00490146
58 0.585 2.15819e-100 -229.489 -224.559 9.53533 -0.00102207
59 0.595 6.56839e-101 -230.679 -225.749 9.53533 -0.00603878
60 0.605 2.31401e-101 -231.722 -226.792 9.53533 -0.00927147
61 0.615 7.53697e-102 -232.844 -227.914 9.53533 -0.0127778
62 0.625 3.29898e-102 -233.67 -228.74 9.53533 -0.0144005
63 0.635 1.81398e-102 -234.268 -229.338 9.53533 -0.0159451
64 0.645 3.61331e-103 -235.882 -230.951 9.53533 -0.0321928
65 0.655 1.53359e-103 -236.739 -231.808 9.53533 -0.0409449
66 0.665 6.3473e-104 -237.621 -232.691 9.53533 -0.0484453
67 0.675 4.27458e-104 -238.016 -233.086 9.53533 -0.0576773
68 0.685 2.77089e-104 -238.45 -233.52 9.53533 -0.0655676
69 0.695 1.94382e-104 -238.804 -233.874 9.53533 -0.074919
70 0.705 1.31601e-104 -239.194 -234.264 9.53533 -0.0855941
71 0.715 1.42712e-104 -239.113 -234.183 9.53533 -0.0941977
72 0.725 1.43931e-104 -239.105 -234.175 9.53533 -0.104428
73 0.735 1.70187e-104 -238.937 -234.007 9.53533 -0.114848
74 0.745 1.84065e-104 -238.859 -233.929 9.53533 -0.124372
75 0.755 2.64941e-104 -238.495 -233.564 9.53533 -0.134262
76 0.765 5.12223e-104 -237.835 -232.905 9.53533 -0.14461
77 0.775 9.09223e-104 -237.261 -232.331 9.53533 -0.154872
78 0.785 1.96395e-103 -236.491 -231.561 9.53533 -0.16643
79 0.795 3.21414e-103 -235.999 -231.069 9.53533 -0.175763
80 0.805 9.14717e-103 -234.953 -230.023 9.53533 -0.187437
81 0.815 2.44848e-102 -233.968 -229.038 9.53533 -0.199539
82 0.825 6.53163e-102 -232.987 -228.057 9.53533 -0.21074
83 0.835 1.37696e-101 -232.241 -227.311 9.53533 -0.222562
84 0.845 4.26533e-101 -231.111 -226.18 9.53533 -0.233974
85 0.855 1.12418e-100 -230.141 -225.211 9.53533 -0.246985
86 0.865 2.72175e-100 -229.257 -224.327 9.53533 -0.259386
87 0.875 4.76203e-100 -228.698 -223.768 9.53533 -0.271302
88 0.885 1.01676e-99 -227.939 -223.009 9.53533 -0.283342
89 0.895 1.51196e-99 -227.543 -222.612 9.53533 -0.296362
90 0.905 1.71403e-99 -227.417 -222.487 9.53533 -0.309793
91 0.915 1.17356e-99 -227.796 -222.866 9.53533 -0.321996
92 0.925 8.22639e-100 -228.151 -223.221 9.53533 -0.334296
93 0.935 2.66644e-100 -229.278 -224.348 9.53533 -0.347914
94 0.945 4.69445e-101 -231.015 -226.085 9.53533 -0.360985
95 0.955 3.66286e-102 -233.565 -228.635 9.53533 -0.373823
96 0.965 2.10111e-103 -236.424 -231.494 9.53533 -0.386358
97 0.975 1.21284e-105 -241.578 -236.648 9.53533 -0.407192
98 0.985 5.47401e-109 -249.282 -244.352 9.53533 -0.437516
99 0.995 9.85969e-116 -264.811 -259.881 9.53533 -0.478715
