0 0.005 4.10373e-255 -585.747 -101.422 488.93 0.248791
1 0.015 6.98968e-246 -564.491 -80.1664 488.93 0.21153
2 0.025 3.90978e-244 -560.467 -76.1422 488.93 0.205753
3 0.035 7.27911e-243 -557.543 -73.2181 488.93 0.200621
4 0.045 3.21716e-242 -556.057 -71.732 488.93 0.196694
5 0.055 9.00859e-242 -555.027 -70.7023 488.93 0.19296
6 0.065 1.23172e-241 -554.715 -70.3895 488.93 0.188636
7 0.075 1.0002e-241 -554.923 -70.5977 488.93 0.184621
8 0.085 4.51608e-242 -555.718 -71.3929 488.93 0.180855
9 0.095 2.61781e-242 -556.263 -71.9382 488.93 0.176663
10 0.105 8.88789e-243 -557.343 -73.0184 488.93 0.172131
11 0.115 2.97403e-243 -558.438 -74.1132 488.93 0.167602
12 0.125 7.71999e-244 -559.787 -75.4619 488.93 0.163937
13 0.135 2.67929e-244 -560.845 -76.5201 488.93 0.159138
14 0.145 6.59734e-245 -562.247 -77.9216 488.93 0.153082
15 0.155 1.82385e-245 -563.532 -79.2073 488.93 0.148253
16 0.165 4.83698e-246 -564.86 -80.5346 488.93 0.145021
17 0.175 2.15692e-246 -565.667 -81.3422 488.93 0.139757
18 0.185 6.01748e-247 -566.944 -82.6188 488.93 0.132862
19 0.195 2.52763e-247 -567.811 -83.4862 488.93 0.129024
20 0.205 8.09416e-248 -568.95 -84.6249 488.93 0.122397
21 0.215 5.73779e-248 -569.294 -84.9689 488.93 0.11794
22 0.225 3.54091e-248 -569.777 -85.4516 488.93 0.111387
23 0.235 2.60607e-248 -570.083 -85.7582 488.93 0.105467
24 0.245 1.98848e-248 -570.354 -86.0287 488.93 0.100868
25 0.255 2.10536e-248 -570.297 -85.9715 488.93 0.0938126
26 0.265 3.02025e-248 -569.936 -85.6107 488.93 0.0884418
27 0.275 5.0338e-248 -569.425 -85.0998 488.93 0.0802297
28 0.285 8.46263e-248 -568.905 -84.5804 488.93 0.076436
29 0.295 1.79017e-247 -568.156 -83.8311 488.93 0.0698044
30 0.305 5.91371e-247 -566.961 -82.6362 488.93 0.0646084
31 0.315 1.74228e-246 -565.881 -81.5557 488.93 0.0599837
32 0.325 8.47378e-246 -564.299 -79.9739 488.93 0.0528736
33 0.335 3.43867e-245 -562.898 -78.5732 488.93 0.0457351
34 0.345 3.55997e-244 -560.561 -76.2359 488.93 0.0407228
35 0.355 1.24958e-243 -559.305 -74.9803 488.93 0.0393508
36 0.365 2.00228e-242 -556.531 -72.2062 488.93 0.0301416
37 0.375 9.18312e-242 -555.008 -70.6831 488.93 0.0280588
38 0.385 3.95978e-241 -553.547 -69.2217 488.93 0.0277201
39 0.395 3.6448e-239 -549.025 -64.6995 488.93 0.0155303
40 0.405 1.83947e-238 -547.406 -63.0807 488.93 0.0156827
41 0.415 2.93912e-237 -544.635 -60.3095 488.93 0.0110311
42 0.425 2.17945e-236 -542.631 -58.3059 488.93 0.00863807
43 0.435 2.84912e-235 -540.06 -55.7354 488.93 0.0056882
44 0.445 2.27314e-233 -535.681 -51.3561 488.93 -0.00218248
45 0.455 2.75529e-232 -533.186 -48.8611 488.93 -0.00641282
46 0.465 6.70033e-231 -529.995 -45.6699 488.93 -0.00930878
47 0.475 4.6228e-229 -525.761 -41.4359 488.93 -0.0152595
48 0.485 7.74638e-228 -522.942 -38.6171 488.93 -0.0191024
49 0.495 2.93765e-227 -521.609 -37.2841 488.93 -0.0184012
50 0.505 8.39684e-224 -513.651 -29.3261 488.93 -0.0303644
51 0.515 4.5258e-223 -511.967 -27.6416 488.93 -0.0318644
52 0.525 6.76096e-221 -506.96 -22.6351 488.93 -0.037122
53 0.535 5.91712e-218 -500.186 -15.8606 488.93 -0.0445433
54 0.545 8.24295e-218 -499.854 -15.5291 488.93 -0.0439683
55 0.555 3.29712e-214 -491.56 -7.23508 488.93 -0.0536225
56 0.565 6.76146e-212 -486.237 -1.91172 488.93 -0.0591726
57 0.575 1.07495e-211 -485.773 -1.4481 488.93 -0.058384
58 0.585 1.00252e-208 -478.935 5.38989 488.93 -0.0662935
59 0.595 1.63484e-205 -471.538 12.7867 488.93 -0.0736206
60 0.605 3.82809e-205 -470.688 13.6375 488.93 -0.073344
61 0.615 2.47245e-201 -461.914 22.4107 488.93 -0.082369
62 0.625 2.1707e-198 -455.137 29.1883 488.93 -0.0879343
63 0.635 1.04406e-196 -451.264 33.0615 488.93 -0.0915634
64 0.645 3.30226e-191 -438.599 45.7259 488.93 -0.104216
65 0.655 9.64624e-188 -430.619 53.7057 488.93 -0.111484
66 0.665 7.40297e-187 -428.582 55.7435 488.93 -0.113204
67 0.675 1.10549e-180 -414.365 69.9601 488.93 -0.1259
68 0.685 3.12073e-183 -420.235 64.0901 488.93 -0.119982
69 0.695 4.14398e-177 -406.136 78.1892 488.93 -0.133095
70 0.705 1.34176e-172 -395.751 88.5744 488.93 -0.142099
71 0.715 7.15168e-170 -389.472 94.853 488.93 -0.147434
72 0.725 7.58094e-167 -382.506 101.819 488.93 -0.152866
73 0.735 5.08662e-163 -373.695 110.63 488.93 -0.160076
74 0.745 1.09776e-160 -368.32 116.005 488.93 -0.165153
75 0.755 3.47503e-155 -355.655 128.67 488.93 -0.176015
76 0.765 2.11099e-149 -342.338 141.987 488.93 -0.186984
77 0.775 3.74129e-144 -330.253 154.072 488.93 -0.197663
78 0.785 6.15031e-136 -311.335 172.99 488.93 -0.2141
79 0.795 2.84385e-132 -302.896 181.429 488.93 -0.221297
80 0.805 2.98975e-131 -300.543 183.782 488.93 -0.222648
81 0.815 6.43617e-116 -265.238 219.087 488.93 -0.2537
82 0.825 5.33953e-115 -263.122 221.203 488.93 -0.255325
83 0.835 1.20575e-109 -250.795 233.53 488.93 -0.26628
84 0.845 2.62645e-104 -238.503 245.822 488.93 -0.277012
85 0.855 3.91428e-98 -224.289 260.036 488.93 -0.289417
86 0.865 8.59715e-88 -200.476 283.849 488.93 -0.311207
87 0.875 7.35812e-82 -186.816 297.509 488.93 -0.323757
88 0.885 9.36567e-73 -165.852 318.473 488.93 -0.34358
89 0.895 3.11192e-66 -150.835 333.49 488.93 -0.357624
90 0.905 3.91117e-56 -127.581 356.744 488.93 -0.381175
91 0.915 2.52872e-47 -107.294 377.031 488.93 -0.40309
92 0.925 8.96939e-42 -94.5148 389.81 488.93 -0.415121
93 0.935 9.91714e-33 -73.691 410.634 488.93 -0.43996
94 0.945 2.9082e-22 -49.5893 434.736 488.93 -0.473011
95 0.955 1.80984e-15 -33.9455 450.38 488.93 -0.495569
96 0.965 2.7257e-09 -19.7205 464.605 488.93 -0.521764
97 0.975 0.00147111 -6.52174 477.803 488.93 -0.550993
98 0.985 5.3747 1.6817 486.007 488.93 -0.571024
99 0.995 94.6238 4.54991 488.875 488.93 -0.580752
