0 0.005 0.119812 -2.12183 2.83356 9.56056 0.283338
1 0.015 12.2779 2.5078 7.46319 9.56056 0.279239
2 0.025 48.0228 3.87168 8.82707 9.56056 0.278017
3 0.035 32.4767 3.48052 8.43591 9.56056 0.276727
4 0.045 6.22365 1.82836 6.78375 9.56056 0.275282
5 0.055 0.838043 -0.176686 4.77871 9.56056 0.273907
6 0.065 0.0345002 -3.36679 1.5886 9.56056 0.276955
7 0.075 0.0066285 -5.01638 -0.0609846 9.56056 0.273699
8 0.085 2.02951e-10 -22.3181 -17.3627 9.56056 0.224996
9 0.095 3.38035e-16 -35.6234 -30.668 9.56056 0.20873
10 0.105 1.5394e-15 -34.1074 -29.152 9.56056 0.2107
11 0.115 2.08161e-18 -40.7134 -35.758 9.56056 0.2035
12 0.125 1.8569e-28 -63.8535 -58.8981 9.56056 0.181708
13 0.135 2.28339e-30 -68.2519 -63.2965 9.56056 0.17826
14 0.145 5.37186e-35 -78.9093 -73.9539 9.56056 0.169135
15 0.155 2.11125e-39 -89.0535 -84.0981 9.56056 0.161882
16 0.165 1.60328e-41 -93.9339 -88.9785 9.56056 0.158097
17 0.175 1.06853e-42 -96.6423 -91.6869 9.56056 0.156678
18 0.185 3.54338e-48 -109.259 -104.304 9.56056 0.147367
19 0.195 4.81173e-49 -111.256 -106.3 9.56056 0.145785
20 0.205 1.5673e-53 -121.588 -116.632 9.56056 0.138498
21 0.215 7.46923e-54 -122.329 -117.373 9.56056 0.138592
22 0.225 4.71402e-56 -127.394 -122.439 9.56056 0.135092
23 0.235 7.72676e-61 -138.413 -133.458 9.56056 0.125618
24 0.245 2.50938e-62 -141.84 -136.885 9.56056 0.123679
25 0.255 2.01712e-63 -144.361 -139.406 9.56056 0.122128
26 0.265 3.32313e-65 -148.467 -143.512 9.56056 0.118708
27 0.275 3.03257e-67 -153.164 -148.208 9.56056 0.115239
28 0.285 2.28243e-70 -160.356 -155.4 9.56056 0.109248
29 0.295 2.57854e-72 -164.839 -159.884 9.56056 0.10569
30 0.305 3.58726e-74 -169.114 -164.159 9.56056 0.101957
31 0.315 4.02791e-75 -171.301 -166.345 9.56056 0.100283
32 0.325 6.95879e-78 -177.662 -172.706 9.56056 0.0930819
33 0.335 4.03929e-79 -180.508 -175.553 9.56056 0.0908633
34 0.345 8.87339e-79 -179.721 -174.766 9.56056 0.0935375
35 0.355 1.98615e-80 -183.521 -178.565 9.56056 0.0897897
36 0.365 1.75805e-83 -190.55 -185.595 9.56056 0.0817415
37 0.375 1.84849e-84 -192.803 -187.847 9.56056 0.080736
38 0.385 9.35791e-86 -195.786 -190.831 9.56056 0.0764771
39 0.395 5.78046e-86 -196.268 -191.312 9.56056 0.0772612
40 0.405 1.67814e-88 -202.11 -197.154 9.56056 0.0698707
41 0.415 2.37263e-89 -204.066 -199.111 9.56056 0.067468
42 0.425 9.94404e-91 -207.238 -202.283 9.56056 0.0640063
43 0.435 8.4072e-92 -209.709 -204.753 9.56056 0.059881
44 0.445 9.77252e-93 -211.861 -206.905 9.56056 0.0589899
45 0.455 1.04163e-94 -216.402 -211.447 9.56056 0.0509578
46 0.465 1.14553e-95 -218.61 -213.654 9.56056 0.0473795
47 0.475 1.256e-96 -220.82 -215.865 9.56056 0.0448456
48 0.485 3.91062e-97 -221.987 -217.032 9.56056 0.0435219
49 0.495 2.92237e-98 -224.581 -219.626 9.56056 0.0399194
50 0.505 2.65866e-99 -226.978 -222.023 9.56056 0.0358349
51 0.515 3.42065e-100 -229.029 -224.073 9.56056 0.0303774
52 0.525 4.0469e-101 -231.163 -226.208 9.56056 0.0274149
53 0.535 3.03736e-102 -233.753 -228.797 9.56056 0.0197919
54 0.545 1.63578e-102 -234.372 -229.416 9.56056 0.0223478
55 0.555 7.63774e-104 -237.436 -232.48 9.56056 0.0119724
56 0.565 2.72848e-104 -238.465 -233.51 9.56056 0.0111396
57 0.575 4.58775e-105 -240.248 -235.293 9.56056 0.00693298
58 0.585 7.29294e-106 -242.087 -237.132 9.56056 0.000910006
59 0.595 1.78629e-106 -243.494 -238.538 9.56056 -0.00360894
60 0.605 5.53931e-107 -244.665 -239.709 9.56056 -0.00601971
61 0.615 1.59926e-107 -245.907 -240.952 9.56056 -0.00791838
62 0.625 6.52101e-108 -246.804 -241.849 9.56056 -0.0095827
63 0.635 3.48535e-108 -247.431 -242.475 9.56056 -0.00958989
64 0.645 3.46445e-109 -249.739 -244.784 9.56056 -0.0233488
65 0.655 9.65394e-110 -251.017 -246.062 9.56056 -0.0330556
66 0.665 3.0401e-110 -252.172 -247.217 9.56056 -0.0373461
67 0.675 1.3117e-110 -253.013 -248.058 9.56056 -0.0475644
68 0.685 6.29451e-111 -253.747 -248.792 9.56056 -0.0526558
69 0.695 3.11515e-111 -254.451 -249.495 9.56056 -0.0578225
70 0.705 1.14146e-111 -255.455 -250.499 9.56056 -0.0748546
71 0.715 8.68763e-112 -255.728 -250.772 9.56056 -0.081224
72 0.725 5.38235e-112 -256.206 -251.251 9.56056 -0.0925378
73 0.735 3.95368e-112 -256.515 -251.559 9.56056 -0.102992
74 0.745 2.7932e-112 -256.862 -251.907 9.56056 -0.11207
75 0.755 2.5087e-112 -256.97 -252.014 9.56056 -0.122712
76 0.765 3.07801e-112 -256.765 -251.81 9.56056 -0.132379
77 0.775 3.36573e-112 -256.676 -251.72 9.56056 -0.143247
78 0.785 4.28363e-112 -256.435 -251.479 9.56056 -0.154699
79 0.795 4.51089e-112 -256.383 -251.428 9.56056 -0.164721
80 0.805 7.66003e-112 -255.854 -250.898 9.56056 -0.17565
81 0.815 1.18112e-111 -255.42 -250.465 9.56056 -0.187704
82 0.825 1.86133e-111 -254.966 -250.01 9.56056 -0.199465
83 0.835 2.32529e-111 -254.743 -249.788 9.56056 -0.210687
84 0.845 4.24973e-111 -254.14 -249.185 9.56056 -0.222308
85 0.855 6.20779e-111 -253.761 -248.806 9.56056 -0.235094
86 0.865 8.45701e-111 -253.452 -248.497 9.56056 -0.247849
87 0.875 8.55311e-111 -253.441 -248.485 9.56056 -0.25992
88 0.885 1.05448e-110 -253.231 -248.276 9.56056 -0.271897
89 0.895 8.64972e-111 -253.429 -248.474 9.56056 -0.2849
90 0.905 5.30749e-111 -253.918 -248.962 9.56056 -0.298327
91 0.915 2.07662e-111 -254.856 -249.901 9.56056 -0.310585
92 0.925 8.26722e-112 -255.777 -250.822 9.56056 -0.323116
93 0.935 1.43329e-112 -257.53 -252.574 9.56056 -0.336863
94 0.945 1.39702e-113 -259.858 -254.902 9.56056 -0.349584
95 0.955 6.14453e-115 -262.982 -258.026 9.56056 -0.36196
96 0.965 1.92742e-116 -266.444 -261.488 9.56056 -0.376038
97 0.975 3.96603e-119 -272.63 -267.674 9.56056 -0.400413
98 0.985 3.92512e-123 -281.851 -276.895 9.56056 -0.436277
99 0.995 1.05678e-130 -299.281 -294.325 9.56056 -0.478181
