0 0.005 7.54837e-305 -700.267 -296.695 408.177 0.248719
1 0.015 2.30429e-293 -673.823 -270.251 408.177 0.210438
2 0.025 3.59927e-291 -668.772 -265.2 408.177 0.20141
3 0.035 1.72727e-289 -664.901 -261.329 408.177 0.192035
4 0.045 1.28988e-288 -662.89 -259.318 408.177 0.188678
5 0.055 5.94957e-288 -661.361 -257.789 408.177 0.185213
6 0.065 1.45939e-287 -660.464 -256.892 408.177 0.181135
7 0.075 2.02708e-287 -660.135 -256.563 408.177 0.177171
8 0.085 1.58871e-287 -660.379 -256.807 408.177 0.172945
9 0.095 1.60225e-287 -660.371 -256.799 408.177 0.169025
10 0.105 1.02036e-287 -660.822 -257.25 408.177 0.164446
11 0.115 6.3834e-288 -661.291 -257.719 408.177 0.15985
12 0.125 2.97322e-288 -662.055 -258.483 408.177 0.155244
13 0.135 1.9568e-288 -662.473 -258.901 408.177 0.150567
14 0.145 1.00876e-288 -663.136 -259.564 408.177 0.145471
15 0.155 5.51524e-289 -663.74 -260.168 408.177 0.140446
16 0.165 2.6456e-289 -664.474 -260.902 408.177 0.135325
17 0.175 2.26288e-289 -664.63 -261.059 408.177 0.13075
18 0.185 1.55308e-289 -665.007 -261.435 408.177 0.124553
19 0.195 1.21739e-289 -665.25 -261.678 408.177 0.119314
20 0.205 9.1659e-290 -665.534 -261.962 408.177 0.113366
21 0.215 1.3078e-289 -665.179 -261.607 408.177 0.108034
22 0.225 1.92044e-289 -664.795 -261.223 408.177 0.101693
23 0.235 3.24937e-289 -664.269 -260.697 408.177 0.0956291
24 0.245 5.02648e-289 -663.832 -260.26 408.177 0.0904764
25 0.255 1.43717e-288 -662.782 -259.21 408.177 0.0823738
26 0.265 3.74924e-288 -661.823 -258.251 408.177 0.0795213
27 0.275 2.77391e-287 -659.822 -256.25 408.177 0.066278
28 0.285 4.57073e-287 -659.322 -255.75 408.177 0.0702148
29 0.295 2.48615e-286 -657.629 -254.057 408.177 0.0630165
30 0.305 1.51876e-285 -655.819 -252.247 408.177 0.059312
31 0.315 7.80912e-285 -654.181 -250.61 408.177 0.0557046
32 0.325 9.74231e-284 -651.658 -248.086 408.177 0.0490565
33 0.335 1.07036e-282 -649.261 -245.689 408.177 0.0418412
34 0.345 1.9059e-281 -646.381 -242.81 408.177 0.038589
35 0.355 7.72589e-281 -644.982 -241.41 408.177 0.0377637
36 0.365 4.51599e-279 -640.914 -237.342 408.177 0.0282076
37 0.375 2.59656e-278 -639.164 -235.593 408.177 0.0268317
38 0.385 1.15211e-277 -637.674 -234.103 408.177 0.0266958
39 0.395 5.54295e-275 -631.498 -227.926 408.177 0.0147946
40 0.405 2.69447e-274 -629.917 -226.345 408.177 0.0151193
41 0.415 8.18672e-273 -626.503 -222.931 408.177 0.0103765
42 0.425 8.38746e-272 -624.176 -220.605 408.177 0.00806291
43 0.435 1.64711e-270 -621.199 -217.627 408.177 0.00505548
44 0.445 3.83944e-268 -615.747 -212.176 408.177 -0.0027027
45 0.455 8.2279e-267 -612.683 -209.111 408.177 -0.00678443
46 0.465 3.00578e-265 -609.085 -205.513 408.177 -0.00983016
47 0.475 4.62177e-263 -604.049 -200.477 408.177 -0.0155782
48 0.485 1.31261e-261 -600.703 -197.131 408.177 -0.019421
49 0.495 4.50742e-261 -599.469 -195.897 408.177 -0.0186988
50 0.505 6.54325e-257 -589.886 -186.314 408.177 -0.030442
51 0.515 4.37914e-256 -587.985 -184.413 408.177 -0.0320832
52 0.525 1.34629e-253 -582.257 -178.685 408.177 -0.0373566
53 0.535 3.22655e-250 -574.475 -170.903 408.177 -0.0446401
54 0.545 4.19071e-250 -574.213 -170.642 408.177 -0.0441884
55 0.555 6.25543e-246 -564.602 -161.031 408.177 -0.0537402
56 0.565 2.73312e-243 -558.523 -154.951 408.177 -0.0592267
57 0.575 3.94457e-243 -558.156 -154.584 408.177 -0.0585986
58 0.585 1.07976e-239 -550.241 -146.669 408.177 -0.0663919
59 0.595 4.78985e-236 -541.844 -138.272 408.177 -0.0736641
60 0.605 1.08392e-235 -541.027 -137.455 408.177 -0.0734417
61 0.615 2.41216e-231 -531.017 -127.445 408.177 -0.0824584
62 0.625 4.53021e-228 -523.479 -119.907 408.177 -0.0879849
63 0.635 3.58248e-226 -519.108 -115.536 408.177 -0.0916067
64 0.645 6.42129e-220 -504.709 -101.137 408.177 -0.104251
65 0.655 5.07219e-216 -495.735 -92.1627 408.177 -0.111493
66 0.665 4.94029e-215 -493.458 -89.8865 408.177 -0.113246
67 0.675 4.19466e-208 -477.504 -73.932 408.177 -0.1259
68 0.685 5.30799e-211 -484.176 -80.6043 408.177 -0.120109
69 0.695 4.21932e-204 -468.288 -64.7158 408.177 -0.133098
70 0.705 4.69535e-199 -456.668 -53.096 408.177 -0.1421
71 0.715 5.21231e-196 -449.656 -46.0838 408.177 -0.147461
72 0.725 1.16269e-192 -441.946 -38.3737 408.177 -0.15288
73 0.735 2.09632e-188 -432.146 -28.5739 408.177 -0.160086
74 0.745 9.13391e-186 -426.069 -22.4969 408.177 -0.16525
75 0.755 1.28024e-179 -411.916 -8.34378 408.177 -0.176088
76 0.765 3.48914e-173 -397.098 6.47434 408.177 -0.187012
77 0.775 2.67982e-167 -383.546 20.0259 408.177 -0.197718
78 0.785 4.18098e-158 -362.378 41.194 408.177 -0.2141
79 0.795 5.18809e-154 -352.952 50.6202 408.177 -0.221299
80 0.805 6.61218e-153 -350.407 53.1653 408.177 -0.222751
81 0.815 9.99086e-136 -310.85 92.722 408.177 -0.2537
82 0.825 1.04096e-134 -308.506 95.0656 408.177 -0.255393
83 0.835 1.05171e-128 -294.68 108.891 408.177 -0.266291
84 0.845 1.00012e-122 -280.915 122.657 408.177 -0.27705
85 0.855 8.21516e-116 -264.994 138.578 408.177 -0.28953
86 0.865 3.56283e-104 -238.198 165.374 408.177 -0.311247
87 0.875 1.70813e-97 -222.815 180.757 408.177 -0.323822
88 0.885 3.29275e-87 -199.133 204.439 408.177 -0.343633
89 0.895 7.55586e-80 -182.184 221.387 408.177 -0.357766
90 0.905 2.39011e-68 -155.704 247.867 408.177 -0.381259
91 0.915 3.10342e-58 -132.417 271.154 408.177 -0.403097
92 0.925 5.7973e-52 -117.977 285.595 408.177 -0.415285
93 0.935 1.93221e-41 -93.7473 309.825 408.177 -0.440118
94 0.945 5.25785e-29 -65.1152 338.457 408.177 -0.473131
95 0.955 7.36491e-21 -46.3576 357.214 408.177 -0.49596
96 0.965 4.27096e-13 -28.4818 375.09 408.177 -0.522879
97 0.975 1.51612e-05 -11.0968 392.475 408.177 -0.554376
98 0.985 1.38525 0.325878 403.898 408.177 -0.581488
99 0.995 98.6147 4.59122 408.163 408.177 -0.592208
