0 0.005 7.77416e-251 -575.898 -91.0179 489.485 0.234169
1 0.015 5.20047e-246 -564.787 -79.907 489.485 0.208759
2 0.025 3.09576e-244 -560.701 -75.8206 489.485 0.20641
3 0.035 6.08832e-243 -557.722 -72.8417 489.485 0.201293
4 0.045 2.73944e-242 -556.218 -71.3377 489.485 0.196063
5 0.055 7.37341e-242 -555.228 -70.3476 489.485 0.19268
6 0.065 9.8966e-242 -554.933 -70.0533 489.485 0.188895
7 0.075 8.42149e-242 -555.095 -70.2147 489.485 0.184948
8 0.085 4.14963e-242 -555.803 -70.9224 489.485 0.180772
9 0.095 2.25517e-242 -556.412 -71.5322 489.485 0.17621
10 0.105 8.326e-243 -557.409 -72.5287 489.485 0.171867
11 0.115 2.72012e-243 -558.528 -73.6474 489.485 0.167664
12 0.125 8.0495e-244 -559.745 -74.865 489.485 0.164543
13 0.135 2.43815e-244 -560.94 -76.0594 489.485 0.159298
14 0.145 5.76076e-245 -562.382 -77.5021 489.485 0.152721
15 0.155 1.59379e-245 -563.667 -78.7871 489.485 0.147648
16 0.165 3.69663e-246 -565.129 -80.2484 489.485 0.141342
17 0.175 1.86211e-246 -565.814 -80.9341 489.485 0.138831
18 0.185 6.60642e-247 -566.85 -81.9703 489.485 0.136065
19 0.195 2.28388e-247 -567.913 -83.0325 489.485 0.129044
20 0.205 8.38782e-248 -568.914 -84.0342 489.485 0.123249
21 0.215 5.27707e-248 -569.378 -84.4976 489.485 0.117578
22 0.225 3.07467e-248 -569.918 -85.0378 489.485 0.111657
23 0.235 2.04068e-248 -570.328 -85.4477 489.485 0.105392
24 0.245 1.48562e-248 -570.645 -85.7651 489.485 0.0998644
25 0.255 1.66291e-248 -570.533 -85.6524 489.485 0.0930234
26 0.265 2.56344e-248 -570.1 -85.2196 489.485 0.0874052
27 0.275 4.47367e-248 -569.543 -84.6628 489.485 0.0783121
28 0.285 7.58641e-248 -569.015 -84.1346 489.485 0.0754059
29 0.295 1.42452e-247 -568.385 -83.5045 489.485 0.0703249
30 0.305 5.09403e-247 -567.11 -82.2303 489.485 0.0637923
31 0.315 1.50597e-246 -566.026 -81.1464 489.485 0.0597251
32 0.325 1.21642e-245 -563.937 -79.0573 489.485 0.0485346
33 0.335 1.28176e-243 -559.28 -74.3998 489.485 0.0311872
34 0.345 6.93532e-244 -559.894 -75.014 489.485 0.0358598
35 0.355 8.31517e-244 -559.713 -74.8325 489.485 0.0404903
36 0.365 2.36941e-242 -556.363 -71.4828 489.485 0.0303913
37 0.375 3.29285e-241 -553.731 -68.8511 489.485 0.0235563
38 0.385 3.56946e-240 -551.348 -66.4679 489.485 0.0196252
39 0.395 4.85734e-240 -551.04 -66.1598 489.485 0.0231432
40 0.405 3.82902e-237 -544.37 -59.4899 489.485 0.00786089
41 0.415 1.36699e-237 -545.4 -60.5199 489.485 0.0126783
42 0.425 1.89759e-235 -540.467 -55.5868 489.485 0.00247544
43 0.435 1.18089e-233 -536.336 -51.4559 489.485 -0.00283208
44 0.445 6.56093e-233 -534.621 -49.7411 489.485 -0.00425171
45 0.455 1.1632e-232 -534.049 -49.1684 489.485 -0.00393329
46 0.465 6.73397e-230 -527.687 -42.8073 489.485 -0.0137606
47 0.475 2.37219e-227 -521.823 -36.9429 489.485 -0.0212938
48 0.485 4.35464e-227 -521.216 -36.3354 489.485 -0.0204603
49 0.495 1.50794e-224 -515.368 -30.4882 489.485 -0.0282293
50 0.505 3.36224e-223 -512.264 -27.3837 489.485 -0.0318028
51 0.515 1.63421e-222 -510.683 -25.8026 489.485 -0.0337017
52 0.525 2.35251e-220 -505.713 -20.8331 489.485 -0.0391335
53 0.535 1.23014e-218 -501.756 -16.8763 489.485 -0.0419192
54 0.545 4.65241e-217 -498.124 -13.2434 489.485 -0.0462503
55 0.555 1.22238e-213 -490.25 -5.36968 489.485 -0.0555346
56 0.565 3.20593e-211 -484.68 0.199684 489.485 -0.0605865
57 0.575 2.09657e-209 -480.5 4.38016 489.485 -0.0644951
58 0.585 2.82641e-203 -466.386 18.4944 489.485 -0.0790992
59 0.595 5.57427e-207 -474.917 9.96318 489.485 -0.069647
60 0.605 2.16156e-204 -468.957 15.9236 489.485 -0.0751611
61 0.615 5.20976e-199 -456.564 28.3162 489.485 -0.0876885
62 0.625 2.91052e-198 -454.844 30.0366 489.485 -0.0897243
63 0.635 6.98567e-195 -447.06 37.8199 489.485 -0.0970736
64 0.645 3.04761e-192 -440.982 43.8982 489.485 -0.102193
65 0.655 1.69508e-190 -436.963 47.9167 489.485 -0.105675
66 0.665 6.43196e-186 -426.42 58.4606 489.485 -0.115098
67 0.675 1.10922e-182 -418.967 65.9133 489.485 -0.122234
68 0.685 3.46244e-178 -408.618 76.262 489.485 -0.131094
69 0.695 1.19718e-174 -400.47 84.4103 489.485 -0.138498
70 0.705 6.06225e-175 -401.15 83.7298 489.485 -0.136656
71 0.715 7.49391e-163 -373.307 111.573 489.485 -0.1619
72 0.725 1.72532e-166 -381.684 103.196 489.485 -0.154606
73 0.735 4.27441e-160 -366.961 117.919 489.485 -0.167245
74 0.745 6.1492e-158 -361.992 122.888 489.485 -0.170768
75 0.755 7.62664e-152 -347.961 136.919 489.485 -0.183498
76 0.765 4.41071e-149 -341.601 143.279 489.485 -0.188851
77 0.775 2.40585e-145 -332.997 151.883 489.485 -0.195791
78 0.785 5.77483e-139 -318.306 166.574 489.485 -0.208639
79 0.795 2.55498e-134 -307.608 177.272 489.485 -0.217381
80 0.805 5.74864e-128 -292.982 191.898 489.485 -0.23017
81 0.815 2.02668e-122 -280.209 204.671 489.485 -0.240693
82 0.825 1.349e-112 -257.59 227.29 489.485 -0.260877
83 0.835 4.00346e-108 -247.292 237.588 489.485 -0.269839
84 0.845 1.0623e-102 -234.803 250.077 489.485 -0.280221
85 0.855 5.28298e-94 -214.779 270.102 489.485 -0.298417
86 0.865 3.91748e-87 -198.959 285.921 489.485 -0.312846
87 0.875 1.35355e-79 -181.601 303.279 489.485 -0.329221
88 0.885 9.06874e-70 -158.976 325.904 489.485 -0.350892
89 0.895 2.13434e-63 -144.305 340.575 489.485 -0.365268
90 0.905 7.06669e-54 -122.384 362.496 489.485 -0.386832
91 0.915 2.64896e-43 -98.037 386.843 489.485 -0.413897
92 0.925 3.58562e-39 -88.5239 396.356 489.485 -0.424579
93 0.935 1.71417e-29 -66.236 418.644 489.485 -0.451426
94 0.945 7.67342e-19 -41.7114 443.169 489.485 -0.485897
95 0.955 2.80986e-16 -35.8082 449.072 489.485 -0.493933
96 0.965 3.81265e-08 -17.0824 467.798 489.485 -0.529099
97 0.975 0.00269316 -5.91704 478.963 489.485 -0.554487
98 0.985 5.57165 1.71769 486.598 489.485 -0.571117
99 0.995 94.4257 4.54781 489.428 489.485 -0.580778
