0 0.005 0.107946 -2.22612 3.14672 9.97801 0.274262
1 0.015 9.78109 2.28045 7.65329 9.97801 0.271837
2 0.025 45.0746 3.80832 9.18116 9.97801 0.27039
3 0.035 36.3069 3.59201 8.96485 9.97801 0.26857
4 0.045 7.64533 2.03409 7.40694 9.97801 0.266702
5 0.055 1.02641 0.0260715 5.39891 9.97801 0.264901
6 0.065 0.0575835 -2.85452 2.51832 9.97801 0.261276
7 0.075 0.000139696 -8.87604 -3.5032 9.97801 0.243124
8 0.085 4.76448e-09 -19.1621 -13.7892 9.97801 0.220257
9 0.095 4.16544e-15 -33.112 -27.7391 9.97801 0.202738
10 0.105 1.71351e-19 -43.2106 -37.8377 9.97801 0.191998
11 0.115 3.45527e-21 -47.1144 -41.7415 9.97801 0.188857
12 0.125 1.75758e-24 -54.6981 -49.3253 9.97801 0.181429
13 0.135 1.52616e-28 -64.0496 -58.6768 9.97801 0.172716
14 0.145 8.50738e-33 -73.8444 -68.4715 9.97801 0.165062
15 0.155 7.36874e-35 -78.5932 -73.2204 9.97801 0.161725
16 0.165 6.12258e-36 -81.0811 -75.7082 9.97801 0.160288
17 0.175 6.14615e-40 -90.2876 -84.9147 9.97801 0.152642
18 0.185 5.80102e-43 -97.2531 -91.8803 9.97801 0.147343
19 0.195 5.48041e-45 -101.915 -96.5423 9.97801 0.143736
20 0.205 3.74445e-48 -109.204 -103.831 9.97801 0.13855
21 0.215 7.1496e-49 -110.86 -105.487 9.97801 0.136741
22 0.225 2.94618e-52 -118.654 -113.281 9.97801 0.130962
23 0.235 2.37537e-54 -123.474 -118.102 9.97801 0.127374
24 0.245 2.54458e-51 -116.498 -111.125 9.97801 0.133299
25 0.255 2.0501e-57 -130.529 -125.157 9.97801 0.122195
26 0.265 2.15932e-59 -135.083 -129.71 9.97801 0.118723
27 0.275 9.01084e-62 -140.562 -135.189 9.97801 0.112901
28 0.285 3.82419e-62 -141.419 -136.046 9.97801 0.113273
29 0.295 1.14947e-65 -149.529 -144.156 9.97801 0.105712
30 0.305 1.06648e-65 -149.604 -144.231 9.97801 0.106006
31 0.315 4.38502e-67 -152.795 -147.422 9.97801 0.102418
32 0.325 2.25306e-70 -160.369 -154.996 9.97801 0.0940898
33 0.335 1.1449e-70 -161.046 -155.673 9.97801 0.0950502
34 0.345 4.30351e-69 -157.419 -152.046 9.97801 0.099098
35 0.355 9.89517e-74 -168.099 -162.726 9.97801 0.0878229
36 0.365 1.79928e-74 -169.804 -164.431 9.97801 0.0861515
37 0.375 1.37887e-76 -174.675 -169.302 9.97801 0.0806156
38 0.385 9.36221e-78 -177.365 -171.992 9.97801 0.0762929
39 0.395 6.29829e-79 -180.064 -174.691 9.97801 0.0724248
40 0.405 7.5922e-80 -182.18 -176.807 9.97801 0.0696523
41 0.415 9.01289e-82 -186.613 -181.24 9.97801 0.0636833
42 0.425 7.56397e-81 -184.486 -179.113 9.97801 0.0683272
43 0.435 1.61681e-83 -190.634 -185.261 9.97801 0.0578657
44 0.445 1.53513e-84 -192.989 -187.616 9.97801 0.053704
45 0.455 1.48392e-85 -195.325 -189.952 9.97801 0.0508232
46 0.465 4.93735e-84 -191.82 -186.447 9.97801 0.0594525
47 0.475 2.80421e-87 -199.294 -193.921 9.97801 0.043921
48 0.485 1.26571e-88 -202.392 -197.019 9.97801 0.03677
49 0.495 1.91789e-89 -204.279 -198.906 9.97801 0.031979
50 0.505 1.12266e-89 -204.814 -199.442 9.97801 0.0352172
51 0.515 1.36575e-90 -206.921 -201.548 9.97801 0.028266
52 0.525 7.20251e-91 -207.561 -202.188 9.97801 0.0293766
53 0.535 5.46967e-89 -203.231 -197.858 9.97801 0.041477
54 0.545 3.01527e-92 -210.734 -205.361 9.97801 0.0213824
55 0.555 7.02867e-93 -212.19 -206.818 9.97801 0.0161441
56 0.565 1.2898e-93 -213.886 -208.513 9.97801 0.010828
57 0.575 2.48234e-94 -215.534 -210.161 9.97801 0.00150594
58 0.585 6.68375e-95 -216.846 -211.473 9.97801 -0.00614859
59 0.595 3.17375e-95 -217.591 -212.218 9.97801 -0.00995779
60 0.605 1.2511e-95 -218.522 -213.149 9.97801 -0.0156388
61 0.615 4.46811e-96 -219.551 -214.178 9.97801 -0.0241933
62 0.625 2.21082e-96 -220.255 -214.882 9.97801 -0.0265984
63 0.635 1.42032e-96 -220.697 -215.324 9.97801 -0.0354205
64 0.645 9.39212e-97 -221.111 -215.738 9.97801 -0.0375219
65 0.655 5.50172e-97 -221.646 -216.273 9.97801 -0.0528668
66 0.665 3.60841e-97 -222.067 -216.695 9.97801 -0.0612163
67 0.675 3.95659e-97 -221.975 -216.603 9.97801 -0.0693118
68 0.685 3.92912e-97 -221.982 -216.609 9.97801 -0.0789054
69 0.695 4.48355e-97 -221.85 -216.477 9.97801 -0.0888287
70 0.705 4.91554e-97 -221.758 -216.386 9.97801 -0.0976453
71 0.715 8.06022e-97 -221.264 -215.891 9.97801 -0.106426
72 0.725 1.34682e-96 -220.75 -215.378 9.97801 -0.116377
73 0.735 2.65456e-96 -220.072 -214.699 9.97801 -0.127254
74 0.745 4.1732e-96 -219.619 -214.247 9.97801 -0.134778
75 0.755 1.05042e-95 -218.696 -213.324 9.97801 -0.145595
76 0.765 3.62968e-95 -217.456 -212.084 9.97801 -0.157643
77 0.775 1.0005e-94 -216.442 -211.07 9.97801 -0.166547
78 0.785 3.7431e-94 -215.123 -209.75 9.97801 -0.17928
79 0.795 1.13259e-93 -214.016 -208.643 9.97801 -0.189956
80 0.805 4.49412e-93 -212.638 -207.265 9.97801 -0.197267
81 0.815 2.4643e-92 -210.936 -205.563 9.97801 -0.214012
82 0.825 1.12535e-91 -209.417 -204.044 9.97801 -0.223684
83 0.835 4.18112e-91 -208.105 -202.732 9.97801 -0.234495
84 0.845 2.09188e-90 -206.495 -201.122 9.97801 -0.244328
85 0.855 1.11923e-89 -204.817 -199.445 9.97801 -0.258062
86 0.865 5.14365e-89 -203.292 -197.919 9.97801 -0.271061
87 0.875 1.51579e-88 -202.212 -196.839 9.97801 -0.282026
88 0.885 5.96567e-88 -200.841 -195.469 9.97801 -0.294894
89 0.895 1.72435e-87 -199.78 -194.407 9.97801 -0.308025
90 0.905 3.70766e-87 -199.015 -193.642 9.97801 -0.321185
91 0.915 4.66319e-87 -198.785 -193.412 9.97801 -0.333449
92 0.925 5.871e-87 -198.555 -193.182 9.97801 -0.34582
93 0.935 3.74318e-87 -199.005 -193.632 9.97801 -0.359326
94 0.945 1.28866e-87 -200.071 -194.698 9.97801 -0.372668
95 0.955 1.85672e-88 -202.009 -196.636 9.97801 -0.385621
96 0.965 1.98831e-89 -204.243 -198.87 9.97801 -0.395524
97 0.975 3.46988e-91 -208.291 -202.918 9.97801 -0.41165
98 0.985 6.95703e-94 -214.503 -209.13 9.97801 -0.432037
99 0.995 1.3066e-99 -227.688 -222.316 9.97801 -0.475877
