0 0.005 0.134623 -2.00528 3.45898 10.0694 0.27795
1 0.015 10.8611 2.38519 7.84945 10.0694 0.27558
2 0.025 46.761 3.84505 9.30931 10.0694 0.27422
3 0.035 34.6772 3.54608 9.01034 10.0694 0.272628
4 0.045 6.6964 1.90157 7.36583 10.0694 0.270928
5 0.055 0.832416 -0.183423 5.28084 10.0694 0.269514
6 0.065 0.0371849 -3.29185 2.17241 10.0694 0.263722
7 0.075 3.57349e-05 -10.2394 -4.77512 10.0694 0.243601
8 0.085 3.98841e-10 -21.6425 -16.1782 10.0694 0.220335
9 0.095 1.49474e-16 -36.4394 -30.9752 10.0694 0.20285
10 0.105 3.65579e-21 -47.058 -41.5937 10.0694 0.192107
11 0.115 6.32123e-23 -51.1155 -45.6513 10.0694 0.188897
12 0.125 2.24422e-26 -59.0589 -53.5946 10.0694 0.181468
13 0.135 1.27759e-30 -68.8326 -63.3683 10.0694 0.172736
14 0.145 4.92137e-35 -78.9969 -73.5326 10.0694 0.165119
15 0.155 3.62479e-37 -83.9079 -78.4436 10.0694 0.161758
16 0.165 2.80738e-38 -86.466 -81.0017 10.0694 0.160291
17 0.175 1.94847e-42 -96.0415 -90.5773 10.0694 0.152687
18 0.185 1.42247e-45 -103.264 -97.7997 10.0694 0.147374
19 0.195 1.12868e-47 -108.1 -102.636 10.0694 0.143771
20 0.205 5.99856e-51 -115.64 -110.176 10.0694 0.138577
21 0.215 1.04898e-51 -117.384 -111.92 10.0694 0.136755
22 0.225 3.27093e-55 -125.457 -119.993 10.0694 0.131013
23 0.235 2.21729e-57 -130.451 -124.987 10.0694 0.127435
24 0.245 3.15944e-54 -123.189 -117.725 10.0694 0.1333
25 0.255 1.48848e-60 -137.757 -132.293 10.0694 0.122233
26 0.265 1.32523e-62 -142.479 -137.014 10.0694 0.118759
27 0.275 4.17515e-65 -148.239 -142.775 10.0694 0.112967
28 0.285 1.80219e-65 -149.079 -143.615 10.0694 0.113296
29 0.295 3.76498e-69 -157.553 -152.088 10.0694 0.105822
30 0.305 3.53887e-69 -157.615 -152.15 10.0694 0.106066
31 0.315 1.22246e-70 -160.98 -155.516 10.0694 0.102458
32 0.325 4.20677e-74 -168.955 -163.49 10.0694 0.094222
33 0.335 2.23735e-74 -169.586 -164.122 10.0694 0.0951437
34 0.345 1.02063e-72 -165.766 -160.301 10.0694 0.0990988
35 0.355 1.36327e-77 -176.989 -171.525 10.0694 0.0879266
36 0.365 2.28486e-78 -178.775 -173.311 10.0694 0.0862312
37 0.375 1.34072e-80 -183.914 -178.449 10.0694 0.0807334
38 0.385 7.39243e-82 -186.812 -181.347 10.0694 0.0764554
39 0.395 4.12331e-83 -189.698 -184.234 10.0694 0.072581
40 0.405 4.34178e-84 -191.949 -186.485 10.0694 0.0697664
41 0.415 3.87693e-86 -196.667 -191.203 10.0694 0.063961
42 0.425 4.05057e-85 -194.321 -188.857 10.0694 0.0683784
43 0.435 5.25276e-88 -200.969 -195.504 10.0694 0.0581797
44 0.445 4.07282e-89 -203.526 -198.061 10.0694 0.0539724
45 0.455 3.43257e-90 -205.999 -200.535 10.0694 0.0511817
46 0.465 1.71945e-88 -202.085 -196.621 10.0694 0.0594748
47 0.475 4.67329e-92 -210.296 -204.832 10.0694 0.0445267
48 0.485 1.5077e-93 -213.73 -208.266 10.0694 0.0377993
49 0.495 1.79317e-94 -215.859 -210.395 10.0694 0.0325866
50 0.505 1.23682e-94 -216.23 -210.766 10.0694 0.0360914
51 0.515 1.08154e-95 -218.667 -213.203 10.0694 0.0293921
52 0.525 6.01202e-96 -219.254 -213.79 10.0694 0.0304405
53 0.535 7.97832e-94 -214.366 -208.902 10.0694 0.0414918
54 0.545 1.72452e-97 -222.806 -217.342 10.0694 0.0227703
55 0.555 3.17492e-98 -224.498 -219.034 10.0694 0.0182056
56 0.565 4.63923e-99 -226.421 -220.957 10.0694 0.0139926
57 0.575 5.64829e-100 -228.527 -223.063 10.0694 0.00445621
58 0.585 1.04332e-100 -230.216 -224.752 10.0694 -0.00343164
59 0.595 4.2414e-101 -231.116 -225.652 10.0694 -0.00612367
60 0.605 1.2954e-101 -232.302 -226.838 10.0694 -0.0110436
61 0.615 3.09838e-102 -233.733 -228.269 10.0694 -0.0190318
62 0.625 1.45655e-102 -234.488 -229.023 10.0694 -0.0190032
63 0.635 6.18263e-103 -235.345 -229.88 10.0694 -0.0271784
64 0.645 4.61824e-103 -235.636 -230.172 10.0694 -0.0205286
65 0.655 1.07961e-103 -237.09 -231.625 10.0694 -0.0425894
66 0.665 4.79329e-104 -237.902 -232.437 10.0694 -0.0502855
67 0.675 3.80647e-104 -238.132 -232.668 10.0694 -0.054724
68 0.685 2.29714e-104 -238.637 -233.173 10.0694 -0.0658819
69 0.695 1.57625e-104 -239.014 -233.55 10.0694 -0.0772828
70 0.705 1.14513e-104 -239.333 -233.869 10.0694 -0.0855448
71 0.715 1.22504e-104 -239.266 -233.802 10.0694 -0.0942275
72 0.725 1.26348e-104 -239.235 -233.771 10.0694 -0.104223
73 0.735 1.48026e-104 -239.077 -233.612 10.0694 -0.11476
74 0.745 1.57322e-104 -239.016 -233.551 10.0694 -0.123399
75 0.755 2.35911e-104 -238.611 -233.146 10.0694 -0.134006
76 0.765 4.66396e-104 -237.929 -232.465 10.0694 -0.144998
77 0.775 8.23724e-104 -237.36 -231.896 10.0694 -0.154634
78 0.785 1.71484e-103 -236.627 -231.163 10.0694 -0.166323
79 0.795 3.06223e-103 -236.047 -230.583 10.0694 -0.177147
80 0.805 8.03967e-103 -235.082 -229.618 10.0694 -0.186712
81 0.815 2.19071e-102 -234.079 -228.615 10.0694 -0.199719
82 0.825 5.9062e-102 -233.088 -227.623 10.0694 -0.211273
83 0.835 1.28499e-101 -232.31 -226.846 10.0694 -0.222417
84 0.845 3.87661e-101 -231.206 -225.742 10.0694 -0.233411
85 0.855 1.08e-100 -230.182 -224.717 10.0694 -0.246632
86 0.865 2.66056e-100 -229.28 -223.816 10.0694 -0.25953
87 0.875 4.55749e-100 -228.742 -223.277 10.0694 -0.271006
88 0.885 9.75216e-100 -227.981 -222.517 10.0694 -0.283315
89 0.895 1.49181e-99 -227.556 -222.092 10.0694 -0.296464
90 0.905 1.69053e-99 -227.431 -221.967 10.0694 -0.309775
91 0.915 1.17184e-99 -227.797 -222.333 10.0694 -0.322104
92 0.925 8.15418e-100 -228.16 -222.696 10.0694 -0.334253
93 0.935 2.70466e-100 -229.264 -223.799 10.0694 -0.347749
94 0.945 4.81988e-101 -230.988 -225.524 10.0694 -0.361695
95 0.955 3.75334e-102 -233.541 -228.077 10.0694 -0.373986
96 0.965 2.57085e-103 -236.222 -230.758 10.0694 -0.382915
97 0.975 1.79744e-105 -241.185 -235.721 10.0694 -0.404918
98 0.985 1.22127e-108 -248.479 -243.015 10.0694 -0.429067
99 0.995 2.58345e-115 -263.848 -258.384 10.0694 -0.47518
