0 0.005 0 -inf -inf 213.825 -nan
1 0.015 0 -934.156 -724.936 213.825 0.209445
2 0.025 0 -925.482 -716.263 213.825 0.196537
3 0.035 0 -915.816 -706.596 213.825 0.172096
4 0.045 0 -913.93 -704.71 213.825 0.174953
5 0.055 0 -911.212 -701.992 213.825 0.170125
6 0.065 0 -909.354 -700.134 213.825 0.167997
7 0.075 0 -907.088 -697.868 213.825 0.158212
8 0.085 0 -906.111 -696.891 213.825 0.155729
9 0.095 0 -904.928 -695.708 213.825 0.152645
10 0.105 0 -903.835 -694.616 213.825 0.146943
11 0.115 0 -902.946 -693.726 213.825 0.143649
12 0.125 0 -901.981 -692.761 213.825 0.13511
13 0.135 0 -900.919 -691.699 213.825 0.132173
14 0.145 0 -899.964 -690.744 213.825 0.127807
15 0.155 0 -898.642 -689.422 213.825 0.119251
16 0.165 0 -897.729 -688.509 213.825 0.115468
17 0.175 0 -896.494 -687.275 213.825 0.111738
18 0.185 0 -895.004 -685.784 213.825 0.107173
19 0.195 0 -893.07 -683.851 213.825 0.0985103
20 0.205 0 -891.687 -682.467 213.825 0.0950774
21 0.215 0 -889.875 -680.655 213.825 0.0915088
22 0.225 0 -887.447 -678.227 213.825 0.0852703
23 0.235 0 -885.4 -676.181 213.825 0.0821208
24 0.245 0 -883.745 -674.525 213.825 0.0792633
25 0.255 0 -879.898 -670.678 213.825 0.0712809
26 0.265 0 -878.803 -669.583 213.825 0.0714348
27 0.275 0 -872.706 -663.486 213.825 0.0600409
28 0.285 0 -873.969 -664.749 213.825 0.0651967
29 0.295 0 -869.776 -660.557 213.825 0.0571223
30 0.305 0 -867.217 -657.997 213.825 0.0555739
31 0.315 0 -864.533 -655.313 213.825 0.0523821
32 0.325 0 -859.996 -650.776 213.825 0.0463695
33 0.335 0 -855.442 -646.222 213.825 0.0400402
34 0.345 0 -851.61 -642.39 213.825 0.0370378
35 0.355 0 -850.026 -640.807 213.825 0.0366399
36 0.365 0 -842.919 -633.7 213.825 0.0272611
37 0.375 0 -840.756 -631.537 213.825 0.0259233
38 0.385 0 -839.232 -630.012 213.825 0.0258244
39 0.395 0 -829.354 -620.134 213.825 0.01452
40 0.405 0 -827.86 -618.641 213.825 0.0147257
41 0.415 0 -822.877 -613.657 213.825 0.0096764
42 0.425 0 -819.845 -610.626 213.825 0.00757496
43 0.435 0 -815.86 -606.64 213.825 0.00429087
44 0.445 0 -807.972 -598.752 213.825 -0.00319389
45 0.455 0 -803.644 -594.424 213.825 -0.00703472
46 0.465 0 -799.02 -589.8 213.825 -0.0103711
47 0.475 0 -792.19 -582.971 213.825 -0.0158793
48 0.485 0 -787.626 -578.407 213.825 -0.0196429
49 0.495 0 -786.596 -577.376 213.825 -0.0191136
50 0.505 0 -773.318 -564.098 213.825 -0.030491
51 0.515 0 -770.868 -561.649 213.825 -0.0322515
52 0.525 0 -763.441 -554.221 213.825 -0.0375947
53 0.535 0 -753.352 -544.132 213.825 -0.0447611
54 0.545 0 -753.201 -543.982 213.825 -0.044501
55 0.555 2.37152e-322 -740.567 -531.348 213.825 -0.053854
56 0.565 5.93457e-319 -732.744 -523.524 213.825 -0.0592786
57 0.575 7.32937e-319 -732.533 -523.313 213.825 -0.0589108
58 0.585 2.33637e-314 -722.163 -512.944 213.825 -0.0664737
59 0.595 1.05153e-309 -711.449 -502.229 213.825 -0.0736942
60 0.605 2.25325e-309 -710.686 -501.467 213.825 -0.073568
61 0.615 8.96393e-304 -697.793 -488.573 213.825 -0.0825747
62 0.625 9.77482e-300 -688.496 -479.276 213.825 -0.0880472
63 0.635 2.45764e-297 -682.969 -473.749 213.825 -0.0916561
64 0.645 2.51269e-289 -664.526 -455.306 213.825 -0.104286
65 0.655 2.0033e-284 -653.239 -444.02 213.825 -0.111499
66 0.665 3.4414e-283 -650.396 -441.176 213.825 -0.113285
67 0.675 1.66317e-274 -630.4 -421.18 213.825 -0.1259
68 0.685 3.40568e-278 -638.893 -429.674 213.825 -0.120288
69 0.695 1.67501e-269 -618.88 -409.66 213.825 -0.1331
70 0.705 3.32108e-263 -604.38 -395.16 213.825 -0.1421
71 0.715 2.06071e-259 -595.646 -386.427 213.825 -0.147489
72 0.725 2.59687e-255 -586.205 -376.985 213.825 -0.152894
73 0.735 4.69416e-250 -574.1 -364.88 213.825 -0.160096
74 0.745 1.09065e-246 -566.349 -357.13 213.825 -0.165379
75 0.755 4.87971e-239 -548.733 -339.513 213.825 -0.176191
76 0.765 4.3363e-231 -530.43 -321.211 213.825 -0.187052
77 0.775 1.03154e-223 -513.445 -304.226 213.825 -0.1978
78 0.785 2.99951e-212 -487.05 -277.83 213.825 -0.2141
79 0.795 3.72676e-207 -475.32 -266.1 213.825 -0.2213
80 0.805 7.76768e-206 -472.283 -263.063 213.825 -0.222906
81 0.815 2.28431e-184 -422.85 -213.63 213.825 -0.2537
82 0.825 4.14867e-183 -419.95 -210.731 213.825 -0.255466
83 0.835 1.35394e-175 -402.649 -193.43 213.825 -0.266299
84 0.845 4.0486e-168 -385.436 -176.216 213.825 -0.277086
85 0.855 1.83241e-159 -365.505 -156.286 213.825 -0.289648
86 0.865 8.16033e-145 -331.776 -122.556 213.825 -0.311285
87 0.875 2.19682e-136 -312.365 -103.145 213.825 -0.32388
88 0.885 2.39463e-123 -282.345 -73.1251 213.825 -0.343682
89 0.895 5.17545e-114 -260.851 -51.6312 213.825 -0.357942
90 0.905 2.97499e-99 -226.866 -17.6461 213.825 -0.381368
91 0.915 4.10732e-86 -196.61 12.61 213.825 -0.4031
92 0.925 3.93914e-78 -178.231 30.9889 213.825 -0.415499
93 0.935 3.72977e-64 -146.049 63.1705 213.825 -0.440378
94 0.945 3.84463e-47 -106.875 102.345 213.825 -0.473247
95 0.955 8.46847e-36 -80.7567 128.463 213.825 -0.496372
96 0.965 2.89851e-24 -54.1978 155.022 213.825 -0.523577
97 0.975 3.44059e-12 -26.3954 182.824 213.825 -0.556805
98 0.985 0.0358583 -3.32818 205.891 213.825 -0.601831
99 0.995 99.9641 4.60481 213.824 213.825 -0.614358
