0.0 0.0 0.005 0.0 0.13086333999999997 0.02000000722831075 -2.087674 0.1445914309383522 2.824944 0.2277687324037259 9.517784 0.22350359056801558 0.27792459999999997 0.0005229705613187419 
1.0 0.0 0.015 0.0 11.148019999999999 0.19397751292355797 2.4105099999999995 0.017358987758520607 7.323129999999999 0.20746721720792757 9.517784 0.22350359056801558 0.27559199999999995 3.092313056348809e-05 
2.0 0.0 0.025 0.0 46.39512 0.2255235941537064 3.837136 0.004871673716514723 8.749756 0.22251622870433838 9.517784 0.22350359056801558 0.2740950000000001 5.708800216030626e-05 
3.0 0.0 0.035 0.0 34.60236 0.32947645572945666 3.543694000000001 0.009524936367172896 8.456314 0.22866915490462725 9.517784 0.22350359056801558 0.2725794 7.390025707328363e-05 
4.0 0.0 0.045 0.0 6.799356 0.1005192876059049 1.9162780000000001 0.014854672369320837 6.828896 0.23376232022462004 9.517784 0.22350359056801558 0.27101260000000005 0.00011498020696918825 
5.0 0.0 0.05500000000000001 4.16500117164066e-10 0.8809533999999999 0.0427672395476729 -0.13297246000000001 0.050578852473559345 4.779648 0.22556956864612956 9.517784 0.22350359056801558 0.2693874 0.00019609805710633574 
6.0 0.0 0.065 0.0 0.04180879999999999 0.005999779365210032 -3.224398 0.14071069842481848 1.6882236 0.29885789744687685 9.517784 0.22350359056801558 0.26613300000000006 0.0023929471034677225 
7.0 0.0 0.075 0.0 0.0014929699339999998 0.0012823160248016927 -9.54073 1.1776308787527603 -4.62808482542 1.2904614877194476 9.517784 0.22350359056801558 0.2490796 0.005938294203556993 
8.0 0.0 0.085 4.16500117164066e-10 1.4685903000000003e-09 8.278929177421609e-10 -22.02356 1.0302226309298406 -17.11096 1.0704858771978343 9.517784 0.22350359056801558 0.2201334 0.001816820378573646 
9.0 0.0 0.095 0.0 1.50514628e-14 6.4035940077539486e-15 -32.85034 0.8764659019494085 -27.9377 0.77796321866782 9.517784 0.22350359056801558 0.2071516 0.001004981058528399 
10.0 0.0 0.10500000000000001 8.33000234328132e-10 5.9797808807302e-15 5.347180798541976e-15 -42.15174 2.8913168664261035 -37.23912 2.930095387307382 9.517784 0.22350359056801558 0.1974114 0.003442559380461459 
11.0 0.0 0.11500000000000002 8.33000234328132e-10 1.1236577111187998e-17 1.0049118256058226e-17 -48.81714 2.849109777119871 -43.90456 2.93753522417691 9.517784 0.22350359056801558 0.1911468 0.0030192432614810478 
12.0 0.0 0.125 0.0 1.9287347039999998e-26 9.82174842033557e-27 -60.96144 1.1990547442381223 -56.04879999999999 1.1897352394546379 9.517784 0.22350359056801558 0.17984139999999998 0.0010075455165898938 
13.0 0.0 0.135 0.0 1.0463846414799999e-28 5.951957053968109e-29 -67.95484 1.9813320667874013 -63.042199999999994 1.884140085662481 9.517784 0.22350359056801558 0.1738844 0.0018368658002150522 
14.0 0.0 0.145 0.0 9.190686160799999e-31 8.201148118565594e-31 -75.17042 1.946748823531177 -70.2578 1.9414849246903503 9.517784 0.22350359056801558 0.167963 0.0017144572318958055 
15.0 0.0 0.155 0.0 2.1278757199999998e-37 6.540146581094456e-38 -85.32188 0.905592085389771 -80.40928 0.8632657859084955 9.517784 0.22350359056801558 0.1599892 0.0009109290817629637 
16.0 0.0 0.165 8.33000234328132e-10 7.743316878e-39 4.698399132685144e-39 -90.77288 1.7571554743733153 -85.86026 1.8247786733957723 9.517784 0.22350359056801558 0.15612399999999999 0.001582622684028062 
17.0 0.0 0.175 0.0 1.1588353016e-40 6.419470192399177e-41 -94.96558000000002 1.4953983986615598 -90.05296 1.4638687806220765 9.517784 0.22350359056801558 0.15325860000000002 0.001307394618314714 
18.0 0.0 0.185 0.0 8.20618498e-44 7.215586372047047e-44 -102.23082000000001 1.0486495934863458 -97.31802 0.8672047183450516 9.517784 0.22350359056801558 0.14786059999999998 0.0007834470805367608 
19.0 0.0 0.195 0.0 2.5559135867200003e-45 2.238723235049068e-45 -107.0192 1.7410696344489143 -102.1067 1.641333406715311 9.517784 0.22350359056801558 0.1443032 0.0015739205418320832 
20.0 0.0 0.205 0.0 4.0370961800000005e-50 2.265726968079775e-50 -115.04480000000001 0.8853803883072597 -110.13200000000002 0.6965866493115703 9.517784 0.22350359056801558 0.1384872 0.0009305057291604081 
21.0 0.0 0.215 0.0 1.0246918750000001e-51 6.701809335915467e-52 -119.686 1.366157238387998 -114.77359999999999 1.3547373649533874 9.517784 0.22350359056801558 0.13489639999999997 0.001381768825817496 
22.0 0.0 0.225 1.1780402288468105e-09 6.6691168374e-54 5.027372417296253e-54 -125.30259999999998 1.6740073739384986 -120.3896 1.5819330858161185 9.517784 0.22350359056801558 0.1308604 0.0016754607390208173 
23.0 0.0 0.23499999999999996 1.1780402288468105e-09 1.3232035200000002e-57 4.4356998841065904e-58 -131.5452 0.6143481358324968 -126.6326 0.5774664388519171 9.517784 0.22350359056801558 0.12569059999999999 0.0008341895036506569 
24.0 0.0 0.24500000000000002 1.666000468656264e-09 6.319051872884e-55 5.651739657018082e-55 -133.49259999999998 2.4559854983287472 -128.57999999999998 2.526777964127681 9.517784 0.22350359056801558 0.12468839999999999 0.0021471366346836208 
25.0 0.0 0.255 0.0 1.147479024e-60 4.185173603826765e-61 -139.53220000000002 1.2116149025161493 -134.6198 1.1973889727233944 9.517784 0.22350359056801558 0.1199836 0.0013025355764817277 
26.0 0.0 0.265 0.0 2.8778068000000003e-62 1.039775818679484e-62 -142.1314 0.4541769346836271 -137.21880000000002 0.5576448618963761 9.517784 0.22350359056801558 0.1180272 0.00039840947779863406 
27.0 0.0 0.275 0.0 4.52327138e-64 2.9921309011262187e-64 -147.848 1.0652568892049985 -142.93540000000002 1.0449068322098825 9.517784 0.22350359056801558 0.11317220000000001 0.0012061620255999746 
28.0 0.0 0.285 0.0 3.9231147999999995e-66 3.1533848793201176e-66 -152.2536 0.7528799426201949 -147.34099999999998 0.9233086157953482 9.517784 0.22350359056801558 0.1094458 0.000937124811324532 
29.0 0.0 0.295 0.0 2.31231954e-68 1.1355056111825643e-68 -156.9664 0.8945131234366779 -152.05339999999998 1.0274102432817382 9.517784 0.22350359056801558 0.1055062 0.000899335639236195 
30.0 0.0 0.305 0.0 1.5309459959999998e-69 8.177526817779185e-70 -160.625 1.1979783971341156 -155.7122 1.2385055316791584 9.517784 0.22350359056801558 0.10204346 0.0016471363148445487 
31.0 0.0 0.315 0.0 6.364637080000001e-69 5.605721637585521e-69 -160.32739999999998 1.1681658306942793 -155.415 1.1217607231494109 9.517784 0.22350359056801558 0.1028626 0.0012436531863827217 
32.0 0.0 0.325 0.0 3.9370786e-73 2.5152436794172863e-73 -167.75300000000001 0.639782775634662 -162.8402 0.47263299927100816 9.517784 0.22350359056801558 0.0953022 0.000997171115506138 
33.0 0.0 0.335 0.0 5.36018376e-75 3.8185177872008815e-75 -172.5396 0.8950277135373563 -167.627 0.9424739784199723 9.517784 0.22350359056801558 0.09041506 0.0013890400525830072 
34.0 0.0 0.345 0.0 2.0590987858000002e-73 1.8217881592885316e-73 -171.767 1.6391248396629767 -166.8542 1.6712604919641831 9.517784 0.22350359056801558 0.09222551999999999 0.002173665387570128 
35.0 0.0 0.355 0.0 3.1323563999999995e-77 1.4898541296309407e-77 -176.6192 0.4139324969117523 -171.707 0.3938132552379754 9.517784 0.22350359056801558 0.0874234 0.0008044750412535912 
36.0 0.0 0.365 0.0 2.9893014e-78 1.9237609483568292e-78 -179.726 0.7428956858129189 -174.8132 0.8260737691038594 9.517784 0.22350359056801558 0.08392932 0.0011528014734201728 
37.0 0.0 0.375 0.0 5.59634882e-79 4.8552040919442414e-79 -182.7476 0.9435329607380855 -177.8348 0.8045540081311188 9.517784 0.22350359056801558 0.08135718 0.0011576356229487756 
38.0 0.0 0.385 0.0 4.22489588e-81 2.857001881192553e-81 -186.3462 0.7748993431404586 -181.43339999999998 0.5823544350327615 9.517784 0.22350359056801558 0.0766326 0.001462541665731377 
39.0 0.0 0.395 0.0 1.2381768600000002e-82 8.46635200932666e-83 -189.8704 0.7974703304839742 -184.95780000000002 0.7525708684225655 9.517784 0.22350359056801558 0.07221311999999999 0.0015543920407414032 
40.0 0.0 0.4050000000000001 2.356080457693621e-09 2.9763340000000005e-84 3.736940808479574e-85 -192.36440000000002 0.12230277184140083 -187.45200000000003 0.32428900690364254 9.517784 0.22350359056801558 0.06926220000000001 0.00043024238749764655 
41.0 0.0 0.4149999999999999 3.332000937312528e-09 1.56564596e-85 5.8811277062637e-86 -195.9078 0.5970749634677055 -190.9952 0.49063431596152146 9.517784 0.22350359056801558 0.06523944000000001 0.001344157512674657 
42.0 0.0 0.425 0.0 9.251743600000001e-86 6.991838148848868e-86 -197.0482 0.6285734579184458 -192.1356 0.7549181465546654 9.517784 0.22350359056801558 0.06380806 0.001143791745240362 
43.0 0.0 0.43499999999999994 3.332000937312528e-09 9.727565999999999e-88 2.5337234886444895e-88 -200.6262 0.3775859531287732 -195.71359999999999 0.25675865710885054 9.517784 0.22350359056801558 0.05856922 0.0008225816343196859 
44.0 0.0 0.445 0.0 2.5828378e-88 1.6976022920689615e-88 -202.853 0.7014811187758286 -197.9404 0.5394981075025816 9.517784 0.22350359056801558 0.05608048 0.001453991540388047 
45.0 0.0 0.45499999999999996 3.332000937312528e-09 1.061972e-89 3.2473065913485905e-90 -205.1542 0.3538385394479668 -200.2416 0.2824588607217542 9.517784 0.22350359056801558 0.05268872 0.0008927224762041257 
46.0 0.0 0.465 0.0 3.51916782e-89 3.0580740227909253e-89 -206.84339999999997 1.248450258521628 -201.9308 1.2818362578740174 9.517784 0.22350359056801558 0.05019749999999999 0.002663645214062891 
47.0 0.0 0.475 2.356080457693621e-09 2.2050890000000002e-91 1.2693506581765652e-91 -209.481 0.5140528377508491 -204.56840000000003 0.6369691735072824 9.517784 0.22350359056801558 0.045621680000000005 0.0010358778659281828 
48.0 0.0 0.485 2.356080457693621e-09 9.148746e-93 2.5989833434196538e-93 -212.22959999999998 0.3915258969742297 -207.317 0.31316973033718654 9.517784 0.22350359056801558 0.041015640000000006 0.00083373968052379 
49.0 0.0 0.495 0.0 1.6109517999999997e-93 5.91363724613433e-94 -214.204 0.5251853767957858 -209.29159999999996 0.31973233806418155 9.517784 0.22350359056801558 0.038125559999999996 0.0015838674148046723 
50.0 0.0 0.505 0.0 2.12847416e-94 7.246163254965239e-95 -216.27939999999998 0.631419581580475 -211.3666 0.4857744826567444 9.517784 0.22350359056801558 0.03482136 0.0023052865027323546 
51.0 0.0 0.515 0.0 5.106377e-94 4.329189445600346e-94 -217.0308 0.8839571663832969 -212.118 0.9694330301780727 9.517784 0.22350359056801558 0.03217888 0.0017118859446586968 
52.0 0.0 0.525 0.0 3.6547404e-96 7.530694492436462e-97 -219.9384 0.3190499145895582 -215.02579999999998 0.3212393998287096 9.517784 0.22350359056801558 0.026174400000000004 0.001583284268601177 
53.0 0.0 0.535 0.0 1.6121975700000001e-94 1.4235371032681835e-94 -219.59120000000001 1.2409899725615328 -214.6788 1.4062888010645145 9.517784 0.22350359056801558 0.02761404 0.0034754054847859106 
54.0 0.0 0.545 0.0 2.3435039999999995e-97 6.173057523568045e-98 -222.6332 0.21736962069415644 -217.721 0.21927699378022866 9.517784 0.22350359056801558 0.02235584 0.0014169311428859264 
55.0 0.0 0.555 0.0 1.3291818e-97 1.0027935203451765e-97 -224.3186 0.6315640015069948 -219.406 0.5966769980465203 9.517784 0.22350359056801558 0.016649940000000002 0.0032817556252225702 
56.0 0.0 0.565 0.0 5.62842e-99 1.8715716355939993e-99 -226.468 0.30308427870983484 -221.55519999999996 0.21092205195931402 9.517784 0.22350359056801558 0.01031398 0.0017601651388957787 
57.0 0.0 0.575 0.0 1.330791e-99 3.841132172905274e-100 -227.926 0.3355904647056708 -223.0134 0.15108530041324145 9.517784 0.22350359056801558 0.0062754961599999996 0.002032759502533233 
58.0 0.0 0.585 0.0 1.8524642e-100 5.773941010676433e-101 -229.87640000000002 0.30746714946361575 -224.964 0.1652380101590536 9.517784 0.22350359056801558 -0.0020374860000000002 0.0015850542999900036 
59.0 0.0 0.595 0.0 7.800502e-101 1.0366252693829144e-101 -230.55700000000002 0.14654965028145747 -225.6446 0.16713314452544095 9.517784 0.22350359056801558 -0.002925816 0.0018110735508876498 
60.0 0.0 0.605 0.0 1.731324e-101 1.8863148247522195e-102 -232.0428 0.11184181686363125 -227.1304 0.15850819537027444 9.517784 0.22350359056801558 -0.010839202000000001 0.0009834625165501694 
61.0 0.0 0.615 0.0 5.5687400000000005e-102 8.397670607019533e-103 -233.20819999999998 0.16009407234838618 -228.2956 0.12950385322061242 9.517784 0.22350359056801558 -0.015623300000000001 0.001171554069089427 
62.0 0.0 0.625 0.0 2.060674e-102 3.6197753716605093e-103 -234.2156 0.17117396998594495 -229.30259999999998 0.17886410484731027 9.517784 0.22350359056801558 -0.019016119999999997 0.0011543052578586027 
63.0 0.0 0.635 3.332000937312528e-09 9.467932e-103 2.53952328802301e-103 -235.1178 0.29069535943888863 -230.20519999999996 0.23663159553187924 9.517784 0.22350359056801558 -0.026056840000000005 0.0027800435798886187 
64.0 0.0 0.645 0.0 3.919698e-103 5.669855831493427e-104 -235.87779999999998 0.19429614510545173 -230.9652 0.19841439463394575 9.517784 0.22350359056801558 -0.028975060000000004 0.0032031843583034646 
65.0 0.0 0.655 0.0 1.2946282e-103 1.904261100589727e-104 -236.97060000000002 0.16434417543155128 -232.0576 0.13029953184870602 9.517784 0.22350359056801558 -0.04273716 0.0011759631628924245 
66.0 0.0 0.665 3.332000937312528e-09 5.693194e-104 1.037565936524904e-104 -237.80719999999997 0.1741005226919611 -232.8946 0.1396345516002279 9.517784 0.22350359056801558 -0.05051426 0.0010918265534781222 
67.0 0.0 0.675 0.0 4.011864e-104 5.97457639526686e-105 -238.1332 0.14620134063010023 -233.2208 0.15269457096217348 9.517784 0.22350359056801558 -0.057653140000000005 0.0007769913886780683 
68.0 0.0 0.685 0.0 2.530016e-104 3.863687602754654e-105 -238.5964 0.1479195997863305 -233.6836 0.14859141293673506 9.517784 0.22350359056801558 -0.06697054 0.0006853032862025604 
69.0 0.0 0.695 0.0 1.775134e-104 2.5903194222489257e-105 -238.9438 0.13714587853965252 -234.03119999999998 0.1509411540968014 9.517784 0.22350359056801558 -0.0761764 0.000391279561438652 
70.0 0.0 0.705 0.0 1.251824e-104 1.684539503296968e-105 -239.2844 0.12336955864058767 -234.37179999999998 0.16385613201773722 9.517784 0.22350359056801558 -0.08532632 0.00020297345521069223 
71.0 0.0 0.715 0.0 1.3285164e-104 1.8196647618934636e-105 -239.228 0.1290292989978828 -234.3154 0.1568677404626428 9.517784 0.22350359056801558 -0.09453834 0.00014968018599713178 
72.0 0.0 0.725 0.0 1.3544138e-104 1.793517647873921e-105 -239.2058 0.12468276544389935 -234.29339999999996 0.1582869798951836 9.517784 0.22350359056801558 -0.10428679999999999 6.201896484499298e-05 
73.0 0.0 0.735 0.0 1.622634e-104 2.0793027586380956e-105 -239.02160000000003 0.11795646653315488 -234.10880000000003 0.15875450228820404 9.517784 0.22350359056801558 -0.1147866 4.9306875794322316e-05 
74.0 0.0 0.745 0.0 1.768714e-104 2.204402805042668e-105 -238.9328 0.11327820620424628 -234.01999999999998 0.15456623176095607 9.517784 0.22350359056801558 -0.12488340000000002 0.0006637038857795088 
75.0 0.0 0.755 0.0 2.578494e-104 3.3977955011565962e-105 -238.56059999999997 0.12110511139213109 -233.6476 0.15234660480648762 9.517784 0.22350359056801558 -0.134133 0.00019575719654480638 
76.0 0.0 0.765 0.0 4.948268000000001e-104 7.17497105183845e-105 -237.919 0.13860533900014202 -233.00639999999999 0.15035573817703357 9.517784 0.22350359056801558 -0.1446228 0.00010020554874585033 
77.0 0.0 0.775 0.0 9.078453999999998e-104 1.3840522985222796e-104 -237.3134 0.13766527521476266 -232.40080000000003 0.14830924447529645 9.517784 0.22350359056801558 -0.1551514 0.00018365872699078483 
78.0 0.0 0.785 0.0 1.868266e-103 3.1916854294369313e-104 -236.6096 0.16361359356761665 -231.69700000000003 0.14790185934187924 9.517784 0.22350359056801558 -0.16647019999999998 0.00010145004682184345 
79.0 0.0 0.795 0.0 3.2677720000000004e-103 5.727918419279376e-104 -236.0516 0.16353998899384328 -231.1392 0.14727020065061774 9.517784 0.22350359056801558 -0.17671399999999998 0.0002586098219348232 
80.0 0.0 0.805 0.0 9.284824e-103 1.5923809138559777e-103 -234.99960000000002 0.15016700036523642 -230.087 0.14210840932762317 9.517784 0.22350359056801558 -0.18765279999999998 0.00025939736313313974 
81.0 0.0 0.8149999999999998 6.664001874625056e-09 2.408558e-102 4.199124881724761e-103 -234.05239999999998 0.16087600194759652 -229.1398 0.14719766302990095 9.517784 0.22350359056801558 -0.1991528 0.00020307129782857667 
82.0 0.0 0.825 0.0 6.6350379999999995e-102 1.0499172786516102e-102 -233.0242 0.139552828692068 -228.1116 0.14802907822053077 9.517784 0.22350359056801558 -0.211245 0.00017164941014040556 
83.0 0.0 0.835 0.0 1.3841998e-101 2.327106286236877e-102 -232.29919999999998 0.15563634537482987 -227.3868 0.1468352546243767 9.517784 0.22350359056801558 -0.221935 0.00021509272418949508 
84.0 0.0 0.845 0.0 4.319498e-101 6.845949149878345e-102 -231.152 0.14209546087491534 -226.23919999999998 0.1436705676279123 9.517784 0.22350359056801558 -0.2339522 0.00022722559715399466 
85.0 0.0 0.8550000000000001 6.664001874625056e-09 1.1395042e-100 1.8838553039687515e-101 -230.18979999999996 0.15441849631689028 -225.277 0.1494857852850553 9.517784 0.22350359056801558 -0.2465156 0.00017169754803130857 
86.0 0.0 0.865 0.0 2.80647e-100 4.398998835371518e-101 -229.28040000000001 0.1426359281553265 -224.3678 0.15245626257754666 9.517784 0.22350359056801558 -0.25931960000000004 6.045533883533253e-05 
87.0 0.0 0.875 0.0 4.778748e-100 7.191675372006159e-101 -228.74540000000002 0.13962710337844614 -223.8326 0.15399599993975213 9.517784 0.22350359056801558 -0.27116640000000003 7.782164220965703e-05 
88.0 0.0 0.885 0.0 1.0256462000000001e-99 1.5487441335492435e-100 -227.9812 0.1388277782005322 -223.0686 0.15495201837404377 9.517784 0.22350359056801558 -0.2833346 6.091869992695735e-05 
89.0 0.0 0.8949999999999999 0.0 1.5360020000000002e-99 2.3409064438204257e-100 -227.579 0.1411147051132199 -222.66619999999998 0.15839833333239703 9.517784 0.22350359056801558 -0.2963696 4.347008168801345e-05 
90.0 0.0 0.905 4.712160915387242e-09 1.7544240000000001e-99 2.582642480344499e-100 -227.4418 0.13482533885861844 -222.5292 0.15755974104742007 9.517784 0.22350359056801558 -0.3097086 7.112670383640196e-05 
91.0 0.0 0.915 0.0 1.2068276e-99 1.7707875952526882e-100 -227.81600000000003 0.13558554494111189 -222.9034 0.15619131857826588 9.517784 0.22350359056801558 -0.32223159999999995 9.117657599149435e-05 
92.0 0.0 0.925 0.0 8.376440000000001e-100 1.1507284799986478e-100 -228.17520000000005 0.12641310056741586 -223.26279999999997 0.16125939353056487 9.517784 0.22350359056801558 -0.33423220000000003 9.390522880038e-05 
93.0 0.0 0.9350000000000002 0.0 2.7678360000000003e-100 3.873929550273206e-101 -229.28419999999997 0.12854614736325065 -224.3716 0.15864440740099828 9.517784 0.22350359056801558 -0.3479672 0.00018431785589040884 
94.0 0.0 0.945 0.0 4.827336e-101 6.327292569976512e-102 -231.02599999999998 0.12278534115372186 -226.11360000000005 0.16261134030547075 9.517784 0.22350359056801558 -0.361166 0.00034991907636861295 
95.0 0.0 0.9549999999999998 8.161702118890972e-09 3.842338e-102 5.33321485293064e-103 -233.5596 0.12558458504664208 -228.64719999999997 0.16210796402893826 9.517784 0.22350359056801558 -0.3735686 0.00035354056062588096 
96.0 0.0 0.9650000000000001 8.161702118890972e-09 2.347418e-103 2.862418928864189e-104 -236.34720000000002 0.11492724654386964 -231.4348 0.2059324937948955 9.517784 0.22350359056801558 -0.3852754 0.0007748173771921762 
97.0 0.0 0.975 0.0 1.7788e-105 3.25250392012062e-106 -241.2694 0.1674186608480601 -236.35680000000002 0.1525695644483876 9.517784 0.22350359056801558 -0.40615880000000004 0.0012237036700093987 
98.0 0.0 0.985 4.712160915387242e-09 5.2503366240000006e-107 4.644559186738858e-107 -248.42739999999998 1.291771917949109 -243.51499999999996 1.1254515538233998 9.517784 0.22350359056801558 -0.4291768 0.008795855207539291 
99.0 0.0 0.9949999999999999 4.712160915387242e-09 3.979943304e-114 3.2060198139511652e-114 -263.8028 1.3138582389292657 -258.8906 1.1342031070301408 9.517784 0.22350359056801558 -0.47540820000000006 0.004340457021095728 
