0.0 0.0 0.005 0.0 0.1071526 0.01842352200637 -2.30222 0.16330707122473198 2.6308719999999997 0.2460694703598969 9.53826 0.23283474340399918 0.2738252 0.0004176776173114107 
1.0 0.0 0.015 0.0 9.994112 0.20233478715041328 2.300966 0.02032060719565421 7.234058 0.2149104345423946 9.53826 0.23283474340399918 0.27188539999999994 4.153995669683989e-05 
2.0 0.0 0.025 0.0 44.87164 0.26982178503607945 3.803716 0.006024290564023458 8.736809999999998 0.23030290705938392 9.53826 0.23283474340399918 0.2702414 4.7697043919443495e-05 
3.0 0.0 0.035 0.0 36.17664 0.37730875696169597 3.5881420000000004 0.010442796330456418 8.521236 0.23850984547561271 9.53826 0.23283474340399918 0.2685368 5.3061775291673355e-05 
4.0 0.0 0.045 0.0 7.7097560000000005 0.128019882943235 2.041792 0.01672802185555304 6.974884 0.24676564081086924 9.53826 0.23283474340399918 0.2667596 7.70924639591706e-05 
5.0 0.0 0.05500000000000001 4.16500117164066e-10 1.0821952 0.042757430241210856 0.07489730000000001 0.040959035952912747 5.007988 0.23794454484017902 9.53826 0.23283474340399918 0.264969 0.0003287731132532941 
6.0 0.0 0.065 0.0 0.05706633999999999 0.003596574866241504 -2.873544 0.0633808651629163 2.0595480000000004 0.25503402150144555 9.53826 0.23283474340399918 0.262307 0.0017089307066111164 
7.0 0.0 0.075 0.0 0.00144530752 0.001139698094895994 -8.451697999999999 0.8931505492643466 -3.5186038340000003 1.0410060152363152 9.53826 0.23283474340399918 0.2488454 0.005974275665551504 
8.0 0.0 0.085 4.16500117164066e-10 1.4560213800000001e-08 8.085890167446769e-09 -19.53676 0.9455052065853418 -14.603640000000002 0.9779148873393734 9.53826 0.23283474340399918 0.220049 0.0018132815556334493 
9.0 0.0 0.095 0.0 3.1634928800000004e-13 1.331429109351089e-13 -29.73552 0.8286001068790663 -24.80242 0.7632282905657854 9.53826 0.23283474340399918 0.20708200000000004 0.0010130350832996682 
10.0 0.0 0.10500000000000001 8.33000234328132e-10 1.140030629858e-13 1.0192555916414968e-13 -38.56592 2.7252235671078457 -33.632859999999994 2.7812893576325495 9.53826 0.23283474340399918 0.1973628 0.0034585449240973807 
11.0 0.0 0.11500000000000002 8.33000234328132e-10 3.0351752416726004e-16 2.714211959158702e-16 -44.928700000000006 2.703661162793875 -39.995599999999996 2.8181737317631987 9.53826 0.23283474340399918 0.19112300000000002 0.003026143420262683 
12.0 0.0 0.125 0.0 1.50022751e-24 7.604450088420112e-25 -56.52544 1.1523440283527102 -51.59236 1.1405105630725267 9.53826 0.23283474340399918 0.17980480000000001 0.0010110932063860077 
13.0 0.0 0.135 0.0 9.564782431e-27 5.414431989644657e-27 -63.23094000000001 1.8950182404609486 -58.29786 1.7808770294661218 9.53826 0.23283474340399918 0.173867 0.0018421935620342648 
14.0 0.0 0.145 0.0 9.971122002600002e-29 8.890549106212977e-29 -70.15972000000001 1.8637647202153897 -65.22664 1.8609821911237612 9.53826 0.23283474340399918 0.16793680000000002 0.0017195716071158125 
15.0 0.0 0.155 0.0 4.4280337800000003e-35 1.314773262501877e-35 -79.92504 0.8647992879738089 -74.99196 0.796543592579736 9.53826 0.23283474340399918 0.15995579999999998 0.0009143148429293763 
16.0 0.0 0.165 8.33000234328132e-10 1.7361009594e-36 1.0210315575966831e-36 -85.1892 1.6827574054509546 -80.25609999999999 1.729195262080123 9.53826 0.23283474340399918 0.1561 0.0015858802476859898 
17.0 0.0 0.175 0.0 3.022216718e-38 1.6713504332086562e-38 -89.24322000000001 1.4338325233861795 -84.3101 1.3948472790953372 9.53826 0.23283474340399918 0.1532352 0.0013104537046383074 
18.0 0.0 0.185 0.0 2.78729582e-41 2.4422290494076976e-41 -96.24696 1.0119137637565163 -91.31389999999999 0.822211285741484 9.53826 0.23283474340399918 0.1478378 0.0007840174181739894 
19.0 0.0 0.195 0.0 9.3979515236e-43 8.193811807568759e-43 -100.86366000000001 1.6666039514172668 -95.93057999999999 1.547223582395291 9.53826 0.23283474340399918 0.14428239999999998 0.0015765626559072104 
20.0 0.0 0.205 0.0 2.3239947399999994e-47 1.2908121420722034e-47 -108.60719999999999 0.8434906235403943 -103.67440000000002 0.6275686799058401 9.53826 0.23283474340399918 0.13845860000000001 0.0009336097086037043 
21.0 0.0 0.215 0.0 6.568890717999999e-49 4.187966874260432e-49 -113.07480000000001 1.3021659924908509 -108.14180000000002 1.2758929547573263 9.53826 0.23283474340399918 0.1348668 0.0013848180645846288 
22.0 0.0 0.225 1.1780402288468105e-09 5.0209608757999994e-51 3.710267502215243e-51 -118.4956 1.5954304397247887 -113.56260000000002 1.4884802074597097 9.53826 0.23283474340399918 0.130827 0.0016806250027890785 
23.0 0.0 0.23499999999999996 1.1780402288468105e-09 1.45228624e-54 4.681532605029234e-55 -124.48780000000002 0.5761734044531549 -119.5548 0.5079629435301329 9.53826 0.23283474340399918 0.125644 0.0008296814328398482 
24.0 0.0 0.24500000000000002 1.666000468656264e-09 5.089377984038e-52 4.551834341220993e-52 -126.3872 2.354027194405304 -121.454 2.3969059722902055 9.53826 0.23283474340399918 0.12464919999999999 0.002155915608738268 
25.0 0.0 0.255 0.0 1.5905018379999998e-57 5.772435638371472e-58 -132.1986 1.1509830441846352 -127.26580000000001 1.1139511443503316 9.53826 0.23283474340399918 0.1199394 0.0013068473698179687 
26.0 0.0 0.265 0.0 4.7330774000000005e-59 1.67163551523405e-59 -134.7034 0.4401409410641968 -129.7706 0.5506609555799885 9.53826 0.23283474340399918 0.117998 0.0003988299888423314 
27.0 0.0 0.275 0.0 8.1975553e-61 5.27547501394297e-61 -140.1846 1.008196552265596 -135.2516 0.9774984644484868 9.53826 0.23283474340399918 0.11312 0.0012165956764678201 
28.0 0.0 0.285 0.0 8.485531799999999e-63 6.656064249408369e-63 -144.4094 0.7093944798210696 -139.47660000000002 0.8667660168688437 9.53826 0.23283474340399918 0.10938719999999999 0.0009443246221507225 
29.0 0.0 0.295 0.0 6.563524220000001e-65 3.1374140466033755e-65 -148.9314 0.8517746462534445 -143.9982 0.9951991720255199 9.53826 0.23283474340399918 0.105434 0.000913266664233224 
30.0 0.0 0.305 0.0 4.6171872400000005e-66 2.446614225389395e-66 -152.422 1.1197149280060235 -147.48899999999998 1.1319488327660754 9.53826 0.23283474340399918 0.10195396000000001 0.0016567174845698968 
31.0 0.0 0.315 0.0 1.7368627519999998e-65 1.5218682494938942e-65 -152.16559999999998 1.1083907469843561 -147.2326 1.0460148985559083 9.53826 0.23283474340399918 0.10283179999999999 0.0012530495089982216 
32.0 0.0 0.325 0.0 1.7447588e-69 1.0613196919187507e-69 -159.2242 0.5932922652453142 -154.291 0.4250355279269992 9.53826 0.23283474340399918 0.0952248 0.0009995801522639234 
33.0 0.0 0.335 0.0 2.8499733199999998e-71 1.933417023548437e-71 -163.7736 0.829797691007123 -158.8404 0.8510952285145568 9.53826 0.23283474340399918 0.09031373999999999 0.001391657842603677 
34.0 0.0 0.345 0.0 8.707143684e-70 7.676100593204998e-70 -163.089 1.5379552399208323 -158.156 1.545980569088621 9.53826 0.23283474340399918 0.09215054 0.0021872871933241384 
35.0 0.0 0.355 0.0 2.178861e-73 9.72273781582698e-74 -167.70839999999998 0.3805050958944297 -162.7752 0.3727778319600713 9.53826 0.23283474340399918 0.08731504 0.0008107021187096159 
36.0 0.0 0.365 0.0 2.257938e-74 1.389615261375867e-74 -170.6456 0.688239411833084 -165.7126 0.757949317566752 9.53826 0.23283474340399918 0.08381436 0.0011721720688021439 
37.0 0.0 0.375 0.0 4.390181399999999e-75 3.766875155237302e-75 -173.5428 0.8902298759314272 -168.6098 0.7583552940412458 9.53826 0.23283474340399918 0.08124534 0.001173577432162013 
38.0 0.0 0.385 0.0 4.4684912e-77 2.8941498839125714e-77 -176.912 0.7066558992895596 -171.97899999999998 0.4897425446088742 9.53826 0.23283474340399918 0.07648856 0.0014725242809815937 
39.0 0.0 0.395 0.0 1.58830042e-78 1.0208470074370503e-78 -180.222 0.7249971034414087 -175.2892 0.6773625557996943 9.53826 0.23283474340399918 0.07206340000000001 0.0015544171087579944 
40.0 0.0 0.4050000000000001 2.356080457693621e-09 5.333214e-80 6.783208535411541e-81 -182.57260000000002 0.12542140167430846 -177.6394 0.3303785223040956 9.53826 0.23283474340399918 0.06907405999999999 0.00041898286227502144 
41.0 0.0 0.4149999999999999 3.332000937312528e-09 3.0696592e-81 1.080375546514207e-81 -185.9196 0.5379960297255307 -180.9864 0.42422565693367925 9.53826 0.23283474340399918 0.06498736000000001 0.0013297366065804165 
42.0 0.0 0.425 0.0 1.7942202e-81 1.2910739358053016e-81 -186.9916 0.5789526820045244 -182.0586 0.6943016404987216 9.53826 0.23283474340399918 0.0635912 0.0011622582721581762 
43.0 0.0 0.43499999999999994 3.332000937312528e-09 2.8151188000000002e-83 7.06211413249851e-84 -190.3148 0.3429150798660267 -185.38179999999997 0.22065872292261784 9.53826 0.23283474340399918 0.05829758 0.0008067245524464478 
44.0 0.0 0.445 0.0 7.3014568e-84 4.555779845908996e-84 -192.42120000000003 0.6341359097211077 -187.4882 0.4719521501165084 9.53826 0.23283474340399918 0.05580252 0.0014620692934057236 
45.0 0.0 0.45499999999999996 3.332000937312528e-09 3.99704e-85 1.0766443728325521e-85 -194.5578 0.31367147144734653 -189.62460000000002 0.25363384632124786 9.53826 0.23283474340399918 0.05239386 0.0008978683416180511 
46.0 0.0 0.465 0.0 1.022823242e-84 8.75425381546339e-85 -196.12399999999997 1.121468073554466 -191.1908 1.1261964801932556 9.53826 0.23283474340399918 0.04979824 0.002732148427973834 
47.0 0.0 0.475 2.356080457693621e-09 1.10311e-86 5.967181408231528e-87 -198.5376 0.46325928808808464 -193.60440000000003 0.6074265453509421 9.53826 0.23283474340399918 0.045116619999999996 0.0011241418716158836 
48.0 0.0 0.485 2.356080457693621e-09 6.156304e-88 1.6314182768538547e-88 -201.06020000000004 0.35002084509012565 -196.127 0.31548274120392256 9.53826 0.23283474340399918 0.04038076 0.0009022323486109251 
49.0 0.0 0.495 0.0 1.1650652e-88 3.960064032691793e-89 -202.8954 0.45120377658255034 -197.9622 0.2514609154549488 9.53826 0.23283474340399918 0.037499500000000005 0.0015570454893804341 
50.0 0.0 0.505 0.0 1.7948449999999997e-89 5.842998230395079e-90 -204.8062 0.5283366653940599 -199.8734 0.35377773813461844 9.53826 0.23283474340399918 0.03398956 0.0022640378524397434 
51.0 0.0 0.515 0.0 3.863369999999999e-89 3.1765573393670956e-89 -205.42999999999998 0.7960830609942806 -200.49699999999999 0.9127047715453226 9.53826 0.23283474340399918 0.031380160000000004 0.0018865487830639176 
52.0 0.0 0.525 0.0 5.029546e-91 8.507630250808967e-92 -208.03939999999997 0.24885973559682117 -203.106 0.23783136883031 9.53826 0.23283474340399918 0.02502194 0.0015284898734633451 
53.0 0.0 0.535 0.0 1.116693658e-89 9.734183366115708e-90 -207.76819999999998 1.0715952743471053 -202.83499999999998 1.223632853433596 9.53826 0.23283474340399918 0.026733240000000002 0.0036966116100667105 
54.0 0.0 0.545 0.0 3.892940000000001e-92 6.930339511914255e-93 -210.54340000000002 0.15242272795779963 -205.6098 0.18769579643668177 9.53826 0.23283474340399918 0.02088108 0.001424988813822762 
55.0 0.0 0.555 0.0 1.831147e-92 1.1389288446310595e-92 -211.94879999999998 0.4719085843686346 -207.0154 0.4197011889430841 9.53826 0.23283474340399918 0.015030614000000001 0.0034629013218486016 
56.0 0.0 0.565 0.0 1.6756378e-93 4.372588612205269e-94 -213.7706 0.23469513842327971 -208.83779999999996 0.15117179632415867 9.53826 0.23283474340399918 0.007777768 0.0015556181311810432 
57.0 0.0 0.575 0.0 4.828642e-94 1.1285557455204419e-94 -215.02020000000002 0.25304788479495577 -210.0872 0.05194720396629018 9.53826 0.23283474340399918 0.0031423659999999997 0.0019018401315643754 
58.0 0.0 0.585 0.0 1.021313e-94 2.503238819304304e-95 -216.5656 0.2382223499174561 -211.63240000000002 0.13804422479600095 9.53826 0.23283474340399918 -0.005269426199999999 0.001427297478846072 
59.0 0.0 0.595 0.0 4.926325999999999e-95 4.71893815179647e-96 -217.1764 0.10372833749293467 -212.2434 0.17176975286130078 9.53826 0.23283474340399918 -0.007407593999999999 0.0014095719209138641 
60.0 0.0 0.605 0.0 1.6574860000000002e-95 1.7764682512445795e-96 -218.2688 0.10569291366547318 -213.33540000000002 0.17368905549483143 9.53826 0.23283474340399918 -0.015736 0.0007353606288073936 
61.0 0.0 0.615 0.0 6.88897e-96 9.51430189283481e-97 -219.16499999999996 0.13566075336083463 -214.2316 0.15983056028371573 9.53826 0.23283474340399918 -0.0221038 0.0006669865425928708 
62.0 0.0 0.625 0.0 3.0810779999999997e-96 4.6288631694099663e-97 -219.97780000000003 0.14698827163441566 -215.04480000000004 0.16811386616497986 9.53826 0.23283474340399918 -0.026887139999999997 0.000781937430028802 
63.0 0.0 0.635 3.332000937312528e-09 1.8771872e-96 3.460113915556422e-97 -220.50740000000002 0.1909761451058882 -215.57440000000003 0.16748363501263916 9.53826 0.23283474340399918 -0.035189200000000004 0.0017397461401020531 
64.0 0.0 0.645 0.0 1.0603378e-96 1.4750181066668985e-97 -221.03999999999996 0.1448331453938105 -216.1072 0.13025433581797347 9.53826 0.23283474340399918 -0.04166148 0.0014762138361090965 
65.0 0.0 0.655 0.0 6.558463999999999e-97 9.604127513255957e-98 -221.523 0.14574196375807416 -216.58980000000003 0.13380325854537706 9.53826 0.23283474340399918 -0.052983020000000006 0.0005703647341130732 
66.0 0.0 0.665 3.332000937312528e-09 4.241962e-97 6.468033104516399e-98 -221.95839999999998 0.1420838062652142 -217.0254 0.1435834530886665 9.53826 0.23283474340399918 -0.06153352000000001 0.00046063747168436926 
67.0 0.0 0.675 0.0 4.419686e-97 6.376692511489007e-98 -221.91379999999998 0.13883037132655165 -216.9808 0.14490808121221618 9.53826 0.23283474340399918 -0.06957139999999999 0.00010478866350955856 
68.0 0.0 0.685 0.0 4.388035999999999e-97 6.266565345105729e-98 -221.9188 0.13492617240112575 -216.98560000000003 0.15015234928481194 9.53826 0.23283474340399918 -0.079169 0.0002190874656381443 
69.0 0.0 0.695 0.0 4.937908000000001e-97 6.968893318592259e-98 -221.7998 0.1333777792551651 -216.8666 0.15803052869393996 9.53826 0.23283474340399918 -0.08909724 0.0001849009001609397 
70.0 0.0 0.705 0.0 5.32757e-97 6.925830691260075e-98 -221.71620000000001 0.12058504052022803 -216.783 0.17399149404881495 9.53826 0.23283474340399918 -0.09747841999999998 0.000131423645972409 
71.0 0.0 0.715 0.0 8.847577999999999e-97 1.2477788465345938e-97 -221.21639999999996 0.13234578951835643 -216.283 0.15616119876511478 9.53826 0.23283474340399918 -0.1066918 0.00023292271679667734 
72.0 0.0 0.725 0.0 1.4547259999999999e-96 1.871750119561903e-97 -220.71120000000002 0.1203778717201168 -215.77800000000002 0.16598698744188722 9.53826 0.23283474340399918 -0.11699580000000001 0.0005146199685200761 
73.0 0.0 0.735 0.0 2.909672e-96 3.6173135603538725e-97 -220.01459999999997 0.11431521335085643 -215.08140000000003 0.16736824070960052 9.53826 0.23283474340399918 -0.1275852 0.0003158240522814594 
74.0 0.0 0.745 0.0 5.228004e-96 5.642793312011344e-97 -219.41979999999998 0.09863930251674441 -214.4868 0.18839180449534654 9.53826 0.23283474340399918 -0.13832780000000003 0.0016844622738425169 
75.0 0.0 0.755 0.0 1.1607215999999998e-95 1.6586424893957111e-96 -218.6416 0.13086897263052855 -213.70880000000002 0.15078976092089236 9.53826 0.23283474340399918 -0.145728 0.0002862875477545067 
76.0 0.0 0.765 0.0 3.723482e-95 5.415859799470438e-96 -217.4828 0.1443405417724533 -212.5498 0.1572270714571294 9.53826 0.23283474340399918 -0.1566168 0.00042524067538385514 
77.0 0.0 0.775 0.0 1.119205e-94 1.7280469755513e-95 -216.38140000000004 0.13793871101880256 -211.4486 0.15212221401970094 9.53826 0.23283474340399918 -0.16656379999999998 1.0944953235099193e-05 
78.0 0.0 0.785 0.0 3.9813520000000004e-94 6.700483046670588e-95 -215.12839999999997 0.16223331347904704 -210.19520000000003 0.15028170878907718 9.53826 0.23283474340399918 -0.1779488 0.00033632049001104653 
79.0 0.0 0.795 0.0 1.146131e-93 1.99098037703238e-94 -214.07020000000003 0.15792286723801693 -209.13719999999998 0.15762167363384846 9.53826 0.23283474340399918 -0.18836400000000003 0.0007211083136379655 
80.0 0.0 0.805 0.0 5.5108659999999995e-93 9.487672400735611e-94 -212.4952 0.14902815840994083 -207.56180000000003 0.13565998672177781 9.53826 0.23283474340399918 -0.199038 0.0005020686008902 
81.0 0.0 0.8149999999999998 6.664001874625056e-09 2.5135880000000002e-92 4.371891736939511e-93 -210.99 0.17222775618628228 -206.05699999999996 0.1569919743271579 9.53826 0.23283474340399918 -0.21076419999999998 0.0009541492294189775 
82.0 0.0 0.825 0.0 1.2396313999999998e-91 1.927068374790268e-92 -209.37060000000002 0.13533324794023474 -204.4374 0.1575656307737509 9.53826 0.23283474340399918 -0.22312399999999996 0.0004638586853809443 
83.0 0.0 0.835 0.0 4.334808e-91 7.224302336608014e-92 -208.13559999999998 0.1628863653008655 -203.2022 0.15875450229737031 9.53826 0.23283474340399918 -0.2334336 0.0006409265542945964 
84.0 0.0 0.845 0.0 2.397968e-90 3.666265338504563e-91 -206.40839999999997 0.1364163040201624 -201.47500000000005 0.14913081504827863 9.53826 0.23283474340399918 -0.2453 0.00028987348964698936 
85.0 0.0 0.8550000000000001 6.664001874625056e-09 1.176013e-89 1.973278262741471e-90 -204.83379999999997 0.1610131423298082 -199.90099999999998 0.14919919571150386 9.53826 0.23283474340399918 -0.25809160000000003 0.00018260703161717835 
86.0 0.0 0.865 0.0 5.381503999999999e-89 8.560072303180632e-90 -203.3028 0.14546653223307032 -198.37 0.15623264703465717 9.53826 0.23283474340399918 -0.2709712 8.624077919759012e-05 
87.0 0.0 0.875 0.0 1.6109759999999999e-88 2.4072080497705244e-89 -202.20080000000002 0.13778835944276963 -197.2672 0.1565820934808947 9.53826 0.23283474340399918 -0.28258 0.0002179080540079559 
88.0 0.0 0.885 0.0 6.260588e-88 9.594065742755774e-89 -200.8462 0.1420454575082033 -195.9128 0.15529105575997793 9.53826 0.23283474340399918 -0.294823 7.226672815657853e-05 
89.0 0.0 0.8949999999999999 0.0 1.766408e-87 2.6963718134411614e-88 -199.8082 0.1415201469738823 -194.8752 0.16066646196147175 9.53826 0.23283474340399918 -0.308082 0.00014036951233533342 
90.0 0.0 0.905 4.712160915387242e-09 3.8307380000000003e-87 5.726808299945095e-88 -199.0322 0.13843103698481857 -194.09900000000002 0.15850400625087718 9.53826 0.23283474340399918 -0.3211216 7.774090301441658e-05 
91.0 0.0 0.915 0.0 4.795256000000001e-87 6.983374526379055e-88 -198.8048 0.13446379438027875 -193.87140000000002 0.15749275538725271 9.53826 0.23283474340399918 -0.33344440000000003 4.359321043808569e-05 
92.0 0.0 0.925 0.0 5.994472000000001e-87 8.302911612122575e-88 -198.57760000000002 0.12909178130145382 -193.64460000000003 0.16180744110336265 9.53826 0.23283474340399918 -0.3457026 8.374800295161643e-05 
93.0 0.0 0.9350000000000002 0.0 3.8160559999999996e-87 5.244342804249171e-88 -199.028 0.12671069410949312 -194.0948 0.1624360551166431 9.53826 0.23283474340399918 -0.3591914 3.6869065701645556e-05 
94.0 0.0 0.945 0.0 1.2773075999999998e-87 1.8003563045077526e-88 -200.1258 0.13339817090094241 -195.193 0.15999049971648205 9.53826 0.23283474340399918 -0.3725898 0.00010167296591504066 
95.0 0.0 0.9549999999999998 8.161702118890972e-09 1.8759259999999996e-88 2.5969185844150046e-89 -202.0416 0.12820065523005864 -197.1084 0.16201249334984835 9.53826 0.23283474340399918 -0.3855178 8.311986524327574e-05 
96.0 0.0 0.9650000000000001 8.161702118890972e-09 1.972364e-89 2.397090074335963e-90 -204.28339999999997 0.11059497277490246 -199.35039999999998 0.1824768697704598 9.53826 0.23283474340399918 -0.3966508 0.0005123385130847757 
97.0 0.0 0.975 0.0 3.564796e-91 5.599787015564078e-92 -208.31479999999996 0.13525129205539177 -203.3816 0.15729732356145498 9.53826 0.23283474340399918 -0.41290560000000004 0.0009118796675000213 
98.0 0.0 0.985 4.712160915387242e-09 5.160488399999999e-93 4.257517728670495e-93 -214.4698 0.8664070821506811 -209.5368 0.6871877996597875 9.53826 0.23283474340399918 -0.4312298 0.008845709673734607 
99.0 0.0 0.9949999999999999 4.712160915387242e-09 1.079052086e-98 8.116394119646629e-99 -227.6384 1.1056987871936785 -222.7056 0.899248068110644 9.53826 0.23283474340399918 -0.4759914 0.004314002286508273 
