0 0.005 0.287048 -1.2481 2.92079 8.77407 0.285748
1 0.015 14.4285 2.66921 6.83811 8.77407 0.285799
2 0.025 48.5981 3.88358 8.05248 8.77407 0.284946
3 0.035 30.9098 3.43107 7.59997 8.77407 0.284141
4 0.045 5.19428 1.64756 5.81646 8.77407 0.283344
5 0.055 0.580297 -0.544215 3.62468 8.77407 0.281325
6 0.065 0.0019507 -6.23957 -2.07067 8.77407 0.260977
7 0.075 2.53189e-08 -17.4917 -13.3228 8.77407 0.237675
8 0.085 4.18594e-15 -33.107 -28.9381 8.77407 0.215668
9 0.095 4.06945e-18 -40.043 -35.8741 8.77407 0.208772
10 0.105 2.0105e-27 -61.4714 -57.3025 8.77407 0.188432
11 0.115 1.81044e-29 -66.1814 -62.0125 8.77407 0.185389
12 0.125 1.91776e-31 -70.729 -66.5601 8.77407 0.181695
13 0.135 2.33445e-36 -82.0453 -77.8764 8.77407 0.172872
14 0.145 7.37691e-42 -94.7102 -90.5413 8.77407 0.163689
15 0.155 2.02781e-44 -100.607 -96.4379 8.77407 0.159973
16 0.165 3.80443e-49 -111.491 -107.322 8.77407 0.152922
17 0.175 2.67189e-50 -114.146 -109.978 8.77407 0.151018
18 0.185 2.46516e-50 -114.227 -110.058 8.77407 0.151182
19 0.195 4.62777e-55 -125.11 -120.941 8.77407 0.14392
20 0.205 2.00961e-57 -130.549 -126.381 8.77407 0.140366
21 0.215 6.16109e-61 -138.639 -134.471 8.77407 0.134998
22 0.225 2.77525e-63 -144.042 -139.873 8.77407 0.131434
23 0.235 2.01984e-66 -151.268 -147.099 8.77407 0.125975
24 0.245 7.36322e-68 -154.579 -150.41 8.77407 0.124159
25 0.255 6.95522e-71 -161.544 -157.375 8.77407 0.118636
26 0.265 2.56998e-72 -164.842 -160.673 8.77407 0.116918
27 0.275 3.09527e-75 -171.564 -167.395 8.77407 0.111282
28 0.285 2.49213e-77 -176.386 -172.217 8.77407 0.107628
29 0.295 2.38802e-80 -183.336 -179.167 8.77407 0.102087
30 0.305 1.66676e-81 -185.999 -181.83 8.77407 0.0997444
31 0.315 1.78245e-80 -183.629 -179.46 8.77407 0.102697
32 0.325 1.0272e-82 -188.785 -184.616 8.77407 0.0989437
33 0.335 1.11969e-86 -197.909 -193.74 8.77407 0.089512
34 0.345 1.59513e-85 -195.253 -191.084 8.77407 0.0933653
35 0.355 3.18712e-88 -201.468 -197.299 8.77407 0.0878282
36 0.365 1.31254e-90 -206.961 -202.792 8.77407 0.081743
37 0.375 3.70594e-89 -203.62 -199.451 8.77407 0.0864632
38 0.385 1.10911e-91 -209.432 -205.263 8.77407 0.0809154
39 0.395 1.06451e-94 -216.38 -212.212 8.77407 0.0729552
40 0.405 3.23405e-96 -219.874 -215.706 8.77407 0.069196
41 0.415 9.27153e-98 -223.426 -219.257 8.77407 0.0653797
42 0.425 1.56479e-98 -225.206 -221.037 8.77407 0.0639224
43 0.435 6.66139e-100 -228.362 -224.193 8.77407 0.0601093
44 0.445 4.87062e-100 -228.675 -224.506 8.77407 0.060893
45 0.455 2.78341e-102 -233.84 -229.671 8.77407 0.0535376
46 0.465 2.79362e-103 -236.139 -231.97 8.77407 0.0512874
47 0.475 1.91452e-105 -241.122 -236.953 8.77407 0.0436531
48 0.485 7.72679e-106 -242.029 -237.86 8.77407 0.0437104
49 0.495 1.57322e-106 -243.621 -239.452 8.77407 0.0425862
50 0.505 1.22786e-107 -246.171 -242.002 8.77407 0.0386411
51 0.515 6.81358e-109 -249.063 -244.894 8.77407 0.0328844
52 0.525 2.40926e-110 -252.405 -248.236 8.77407 0.0275909
53 0.535 2.21352e-111 -254.792 -250.623 8.77407 0.0237817
54 0.545 7.6718e-112 -255.852 -251.683 8.77407 0.0243333
55 0.555 3.13231e-113 -259.05 -254.881 8.77407 0.0156543
56 0.565 2.35313e-113 -259.336 -255.167 8.77407 0.0186092
57 0.575 1.72675e-114 -261.948 -257.78 8.77407 0.0120357
58 0.585 1.54424e-115 -264.363 -260.194 8.77407 0.00694706
59 0.595 1.39735e-116 -266.765 -262.596 8.77407 0.00144456
60 0.605 1.08461e-117 -269.321 -265.152 8.77407 -0.00691102
61 0.615 3.00224e-118 -270.606 -266.437 8.77407 -0.00894614
62 0.625 7.5482e-119 -271.986 -267.817 8.77407 -0.0102449
63 0.635 3.17171e-119 -272.853 -268.684 8.77407 -0.0111384
64 0.645 3.58176e-120 -275.034 -270.865 8.77407 -0.0185478
65 0.655 3.3628e-121 -277.4 -273.231 8.77407 -0.030061
66 0.665 1.96114e-121 -277.939 -273.77 8.77407 -0.0260673
67 0.675 4.07207e-122 -279.511 -275.342 8.77407 -0.0332907
68 0.685 1.03457e-122 -280.881 -276.712 8.77407 -0.0382648
69 0.695 3.29803e-123 -282.025 -277.856 8.77407 -0.0391141
70 0.705 7.01402e-124 -283.573 -279.404 8.77407 -0.0494479
71 0.715 1.13901e-124 -285.39 -281.221 8.77407 -0.0675838
72 0.725 3.57556e-125 -286.549 -282.38 8.77407 -0.0761183
73 0.735 1.49257e-125 -287.423 -283.254 8.77407 -0.0784984
74 0.745 4.14066e-126 -288.705 -284.536 8.77407 -0.0918752
75 0.755 1.82987e-126 -289.521 -285.353 8.77407 -0.0973675
76 0.765 8.93278e-127 -290.239 -286.07 8.77407 -0.110879
77 0.775 4.34855e-127 -290.958 -286.79 8.77407 -0.120429
78 0.785 2.10184e-127 -291.685 -287.517 8.77407 -0.131655
79 0.795 9.69101e-128 -292.46 -288.291 8.77407 -0.14215
80 0.805 6.93383e-128 -292.794 -288.626 8.77407 -0.152414
81 0.815 3.96471e-128 -293.353 -289.185 8.77407 -0.164445
82 0.825 2.24854e-128 -293.921 -289.752 8.77407 -0.176194
83 0.835 1.11828e-128 -294.619 -290.45 8.77407 -0.187422
84 0.845 7.67179e-129 -294.996 -290.827 8.77407 -0.198684
85 0.855 3.77354e-129 -295.705 -291.537 8.77407 -0.211495
86 0.865 1.75158e-129 -296.473 -292.304 8.77407 -0.224983
87 0.875 6.22331e-130 -297.508 -293.339 8.77407 -0.23681
88 0.885 2.72521e-130 -298.334 -294.165 8.77407 -0.249034
89 0.895 7.17917e-131 -299.667 -295.499 8.77407 -0.263046
90 0.905 1.4699e-131 -301.253 -297.085 8.77407 -0.275711
91 0.915 1.85864e-132 -303.321 -299.152 8.77407 -0.289861
92 0.925 3.03313e-133 -305.134 -300.965 8.77407 -0.299127
93 0.935 1.89929e-134 -307.905 -303.736 8.77407 -0.308738
94 0.945 3.61483e-136 -311.867 -307.698 8.77407 -0.332476
95 0.955 1.35387e-137 -315.151 -310.982 8.77407 -0.336886
96 0.965 7.1404e-140 -320.396 -316.227 8.77407 -0.361932
97 0.975 1.68761e-143 -328.746 -324.577 8.77407 -0.39549
98 0.985 3.40655e-144 -330.347 -326.178 8.77407 -0.392301
99 0.995 3.22102e-155 -355.731 -351.562 8.77407 -0.46078
