0.0 0.0 0.005 0.0 0.157212 0.0210845469156916 -1.8907859999999999 0.12445338734160732 3.032654 0.20395488649404742 9.528618 0.2142084355089715 0.2814672 0.0006420037632316244 
1.0 0.0 0.015 0.0 12.18862 0.17931145953339875 2.499968 0.01459785529451997 7.423408 0.20061639018584182 9.528618 0.2142084355089715 0.279163 5.1749396127241024e-05 
2.0 0.0 0.025 0.0 47.556239999999995 0.1878078413698951 3.861876 0.003951753636052258 8.785314 0.21496705385895876 9.528618 0.2142084355089715 0.2778332 6.373281731287589e-05 
3.0 0.0 0.035 0.0 33.222 0.26681370279651506 3.5030499999999996 0.008029992278975644 8.426490000000001 0.2179019339978311 9.528618 0.2142084355089715 0.2764878 8.941561384224408e-05 
4.0 0.0 0.045 0.0 6.105293999999999 0.06963602525132385 1.808832 0.011405681531588566 6.732272 0.21916454584443776 9.528618 0.2142084355089715 0.27513099999999996 0.00014184977970789375 
5.0 0.0 0.05500000000000001 4.16500117164066e-10 0.7364366 0.03714707513934312 -0.312626 0.05242426517787348 4.610816 0.21506066399227955 9.528618 0.2142084355089715 0.2735866 0.00012001653218994216 
6.0 0.0 0.065 0.0 0.03289856000000001 0.008054561909258625 -3.568054 0.2542480588496207 1.355385 0.37641601438302275 9.528618 0.2142084355089715 0.26961599999999997 0.0030646072113734517 
7.0 0.0 0.075 0.0 0.0013409376166000002 0.0011823841256284476 -10.740966 1.4457865198032522 -5.817520920000001 1.5412065103476422 9.528618 0.2142084355089715 0.24922800000000006 0.005911567995041289 
8.0 0.0 0.085 4.16500117164066e-10 1.4156878200000002e-10 8.07702043312079e-11 -24.54914 1.1105307345949509 -19.6257 1.165865272833885 9.528618 0.2142084355089715 0.2202 0.0018187398494564598 
9.0 0.0 0.095 0.0 7.103236159999999e-16 3.0506695778413424e-16 -35.96966 0.9214816237343031 -31.0462 0.7946951883584049 9.528618 0.2142084355089715 0.20720419999999998 0.0009982542121136184 
10.0 0.0 0.10500000000000001 8.33000234328132e-10 3.07916530115832e-16 2.753680768711748e-16 -45.71666 3.0471644725679083 -40.793220000000005 3.08353603480159 9.528618 0.2142084355089715 0.197451 0.0034291842878448327 
11.0 0.0 0.11500000000000002 8.33000234328132e-10 4.1634628041446003e-19 3.7236428832279687e-19 -52.66892 2.9857775037534346 -47.74548 3.063164936780263 9.528618 0.2142084355089715 0.1911654 0.003013779893754538 
12.0 0.0 0.125 0.0 2.6412302620000005e-28 1.3509025062625118e-28 -65.32978 1.2429113768567681 -60.40634 1.243482535012045 9.528618 0.2142084355089715 0.1798714 0.0010051522312565773 
13.0 0.0 0.135 0.0 1.2290638362199998e-30 7.0212206023018375e-31 -72.5959 2.062547168333406 -67.67244 1.9939945116474955 9.528618 0.2142084355089715 0.1738978 0.0018325012065481948 
14.0 0.0 0.145 0.0 9.1902896534e-33 8.205415015007148e-33 -80.08196000000001 2.0249426875049235 -75.15854 2.018942788213687 9.528618 0.2142084355089715 0.1679854 0.0017098015931680118 
15.0 0.0 0.155 0.0 1.150986298e-39 3.650146226513034e-40 -90.59778 0.9438891144197555 -85.67434 0.9359163956678784 9.528618 0.2142084355089715 0.1600172 0.0009079786517311825 
16.0 0.0 0.165 8.33000234328132e-10 3.9043974094000004e-41 2.4357311084308514e-41 -96.22576000000001 1.8272581038485105 -91.30222 1.919490249706932 9.528618 0.2142084355089715 0.156144 0.001580081466254226 
17.0 0.0 0.175 0.0 5.055755598000001e-43 2.8053893414247077e-43 -100.54939999999999 1.5532506607756609 -95.62592 1.5408639803435296 9.528618 0.2142084355089715 0.153278 0.0013050757832404952 
18.0 0.0 0.185 0.0 2.7928943200000004e-46 2.4625479506977388e-46 -108.0614 1.0833633407126526 -103.13792000000001 0.9122013753112876 9.528618 0.2142084355089715 0.1478796 0.0007830652897428654 
19.0 0.0 0.195 0.0 8.071291612200001e-48 7.09517544156223e-48 -113.0128 1.8113608894971265 -108.0892 1.7378813400228672 9.528618 0.2142084355089715 0.14432 0.0015719056205766352 
20.0 0.0 0.205 0.0 8.35241552e-53 4.728919371977903e-53 -121.3036 0.925243258824126 -116.38020000000002 0.7676918340060145 9.528618 0.2142084355089715 0.13851039999999998 0.0009275572478299744 
21.0 0.0 0.215 0.0 1.9136300822e-54 1.2794746324650626e-54 -126.10920000000002 1.4264794818011104 -121.1856 1.4425660913801752 9.528618 0.2142084355089715 0.1349204 0.0013790428738802406 
22.0 0.0 0.225 1.1780402288468105e-09 1.0689969150600002e-56 8.190600086438188e-57 -131.91 1.7481571325255856 -126.9864 1.6852222310424478 9.528618 0.2142084355089715 0.1308878 0.0016712108520472362 
23.0 0.0 0.23499999999999996 1.1780402288468105e-09 1.49129834e-60 5.177157482230306e-61 -138.3888 0.650499094542432 -133.4654 0.6460391071756222 9.528618 0.2142084355089715 0.1257296 0.0008379906252458653 
24.0 0.0 0.24500000000000002 1.666000468656264e-09 9.503548614153999e-58 8.500043775327247e-58 -140.38219999999998 2.551899345977681 -135.459 2.6474481600212183 9.528618 0.2142084355089715 0.12472019999999999 0.002139868994120954 
25.0 0.0 0.255 0.0 1.034903896e-63 3.7875384418828266e-64 -146.6368 1.2688134110260407 -141.7132 1.28533424135543 9.528618 0.2142084355089715 0.12001999999999999 0.0012991867610165596 
26.0 0.0 0.265 0.0 2.2080748000000003e-65 8.145058029843814e-66 -149.3258 0.4674842799509531 -144.40220000000002 0.5695120999581758 9.528618 0.2142084355089715 0.11805000000000002 0.00039854134038873166 
27.0 0.0 0.275 0.0 3.1728172e-67 2.1506724453836508e-67 -155.264 1.1184859409034906 -150.3406 1.1176472645698368 9.528618 0.2142084355089715 0.1132138 0.001197600848363206 
28.0 0.0 0.285 0.0 2.3307892999999997e-69 1.9089574892261148e-69 -159.83980000000003 0.7936886744802735 -154.916 0.9726715786943821 9.528618 0.2142084355089715 0.1094934 0.0009312072851949232 
29.0 0.0 0.295 0.0 1.061659108e-71 5.348573849338514e-72 -164.73200000000003 0.9344184501599128 -159.8088 1.0532314237621159 9.528618 0.2142084355089715 0.1055634 0.0008880795730115797 
30.0 0.0 0.305 0.0 6.638582060000001e-73 3.567219499632381e-73 -168.54879999999997 1.2715148257104811 -163.62560000000002 1.3371762965287544 9.528618 0.2142084355089715 0.10211624 0.0016383538669287423 
31.0 0.0 0.315 0.0 3.028247862e-72 2.676977453334179e-72 -168.21499999999997 1.2244719024958053 -163.2916 1.1841068735552231 9.528618 0.2142084355089715 0.10288680000000001 0.001236286193403211 
32.0 0.0 0.325 0.0 1.1922593800000002e-76 7.922092940671043e-77 -175.9852 0.6837902251429605 -171.0618 0.5138264609773113 9.528618 0.2142084355089715 0.09536381999999999 0.0009945260601514883 
33.0 0.0 0.335 0.0 1.369195056e-78 1.013643270973907e-78 -180.99460000000002 0.9563319758318249 -176.07139999999998 1.0320734314965168 9.528618 0.2142084355089715 0.09049647999999999 0.0013860050503227527 
34.0 0.0 0.345 0.0 6.4718629978000004e-77 5.7405662690480185e-77 -180.1398 1.7340624071813988 -175.21639999999996 1.7921565913736104 9.528618 0.2142084355089715 0.0922832 0.002162656342371601 
35.0 0.0 0.355 0.0 6.181339e-81 3.095351139036862e-81 -185.2114 0.4453257324707896 -180.28760000000003 0.43674281676743104 9.528618 0.2142084355089715 0.08750646000000001 0.000799545581239603 
36.0 0.0 0.365 0.0 5.472000000000001e-82 3.6498392211348154e-82 -188.47719999999998 0.7939735209701638 -183.554 0.879652158525172 9.528618 0.2142084355089715 0.08401922000000002 0.001137074702699608 
37.0 0.0 0.375 0.0 9.8407426e-83 8.603403597989582e-83 -191.61679999999998 0.9932438733770279 -186.69339999999997 0.8492255577885683 9.528618 0.2142084355089715 0.08143878 0.0011460442373310827 
38.0 0.0 0.385 0.0 5.62929192e-85 3.938632438858322e-85 -195.43080000000003 0.8389399215670726 -190.50740000000002 0.675421681616849 9.528618 0.2142084355089715 0.07674272 0.001453467324269763 
39.0 0.0 0.395 0.0 1.37701888e-86 9.868158821671626e-87 -199.157 0.8656791091392535 -194.23340000000002 0.8426705453495732 9.528618 0.2142084355089715 0.07232678000000001 0.0015545436566142552 
40.0 0.0 0.4050000000000001 2.356080457693621e-09 2.4109479999999996e-88 3.043200072082024e-89 -201.7854 0.12144187086260472 -196.8616 0.3156378431048595 9.528618 0.2142084355089715 0.06940362 0.0004384722635696951 
41.0 0.0 0.4149999999999999 3.332000937312528e-09 1.1760078e-89 4.6802347682554545e-90 -205.51140000000004 0.6541438129326338 -200.588 0.5718608222286887 9.528618 0.2142084355089715 0.06542532 0.001354453823915725 
42.0 0.0 0.425 0.0 6.9667826e-90 5.453249248596082e-90 -206.7176 0.6746460168118829 -201.7944 0.8100717301577941 9.528618 0.2142084355089715 0.06396584000000001 0.0011305126428659584 
43.0 0.0 0.43499999999999994 3.332000937312528e-09 5.030957199999999e-92 1.3498999686423708e-92 -210.5344 0.41106083248254704 -205.6108 0.3153040944848564 9.528618 0.2142084355089715 0.058766019999999995 0.0008358164460694396 
44.0 0.0 0.445 0.0 1.3672384399999997e-92 9.344808639625291e-93 -212.875 0.7647683570855168 -207.9516 0.6185726537759216 9.528618 0.2142084355089715 0.05627348 0.0014465989866995085 
45.0 0.0 0.45499999999999996 3.332000937312528e-09 4.316884e-94 1.484744645893293e-94 -215.33100000000005 0.3921251840893819 -210.4076 0.3035666121280402 9.528618 0.2142084355089715 0.05289428 0.0008911689435342333 
46.0 0.0 0.465 0.0 1.7987784764000002e-93 1.5773187055019786e-93 -217.1326 1.3656481128024547 -212.20899999999997 1.4244130299886044 9.528618 0.2142084355089715 0.050476 0.0026126385312936185 
47.0 0.0 0.475 2.356080457693621e-09 6.8082218e-96 4.084460923256359e-96 -219.97719999999998 0.5588673831975812 -215.0538 0.652723549446694 9.528618 0.2142084355089715 0.04598344 0.000975471259894409 
48.0 0.0 0.485 2.356080457693621e-09 2.1580492e-97 6.502064976646359e-98 -222.93419999999998 0.42771957168195573 -218.01059999999998 0.3218220129220553 9.528618 0.2142084355089715 0.04146632 0.0007785265485004187 
49.0 0.0 0.495 0.0 3.5785198e-98 1.3936147516894442e-98 -225.042 0.5966198119410785 -220.1184 0.40010504620587783 9.528618 0.2142084355089715 0.03852922 0.0015981112830838725 
50.0 0.0 0.505 0.0 4.1214889199999994e-99 1.4573710696715143e-99 -227.2654 0.7314457245756804 -222.342 0.6224602155944288 9.528618 0.2142084355089715 0.03534106 0.002322226789028157 
51.0 0.0 0.515 0.0 1.0627804400000001e-98 9.169481303537802e-99 -228.13739999999999 0.960584347156897 -223.21359999999999 1.0092356949698433 9.528618 0.2142084355089715 0.032701259999999996 0.0015965378603966717 
52.0 0.0 0.525 0.0 4.5279199999999996e-101 1.094008149684453e-101 -231.31419999999997 0.38851506020082877 -226.391 0.41463825197394166 9.528618 0.2142084355089715 0.02691552 0.0016222120624381988 
53.0 0.0 0.535 0.0 3.6303138819999996e-99 3.224607323079513e-99 -230.90640000000002 1.3934301733479266 -225.9828 1.5618907106450146 9.528618 0.2142084355089715 0.028157900000000003 0.0033341875955620673 
54.0 0.0 0.545 0.0 2.4703874e-102 8.42454596522215e-103 -234.18159999999997 0.2790617996144673 -229.25840000000002 0.27203729155646494 9.528618 0.2142084355089715 0.023170740000000002 0.0014009955784655417 
55.0 0.0 0.555 0.0 1.7052381599999998e-102 1.3984086530426307e-102 -236.1248 0.7759750202164694 -231.20120000000003 0.755071249616478 9.528618 0.2142084355089715 0.0175952 0.00313789033001474 
56.0 0.0 0.565 0.0 3.5931886e-104 1.439568665946008e-104 -238.5502 0.3773212318444512 -233.627 0.3052571375049773 9.528618 0.2142084355089715 0.01179403 0.0018433421343722375 
57.0 0.0 0.575 0.0 7.228126e-105 2.5083292099604466e-105 -240.1844 0.4210947256838461 -235.2612 0.26956326158906985 9.528618 0.2142084355089715 0.00809943 0.0020403833820495606 
58.0 0.0 0.585 0.0 6.734033999999999e-106 2.5323190746722265e-106 -242.51239999999999 0.37766785407398434 -237.58880000000005 0.24027108023127997 9.528618 0.2142084355089715 -9.326680000000011e-05 0.0016566387705655664 
59.0 0.0 0.595 0.0 2.652834e-106 5.983948979234366e-107 -243.21959999999999 0.21951211356470773 -238.2956 0.1946713332750863 9.528618 0.2142084355089715 -0.0004419614000000001 0.0019155116446850351 
60.0 0.0 0.605 0.0 3.918454e-107 5.127635034953255e-108 -245.05659999999997 0.13735052967317873 -240.13299999999998 0.1732743489500114 9.528618 0.2142084355089715 -0.007897343999999999 0.0010968851955700757 
61.0 0.0 0.615 0.0 1.0597902000000001e-107 1.8909483417214747e-108 -246.41420000000002 0.20432550501456506 -241.4906 0.13530812244156445 9.528618 0.2142084355089715 -0.011610116 0.00152694888581275 
62.0 0.0 0.625 0.0 3.442528e-108 7.763396491299408e-109 -247.5604 0.2132841484997335 -242.63739999999999 0.21805661650653932 9.528618 0.2142084355089715 -0.01439792 0.0013663871312040404 
63.0 0.0 0.635 3.332000937312528e-09 1.3885344e-108 5.301525445567226e-109 -248.7596 0.4226683427934458 -243.836 0.3713905760767631 9.528618 0.2142084355089715 -0.020406018 0.0031715141428061123 
64.0 0.0 0.645 0.0 4.964248e-109 1.211571250175243e-109 -249.59720000000002 0.3298434052663438 -244.67380000000003 0.3647846926590468 9.528618 0.2142084355089715 -0.021186939999999998 0.0037308166148016476 
65.0 0.0 0.655 0.0 7.628135999999999e-110 1.2183885789110156e-110 -251.3424 0.20717212167950383 -246.4192 0.17764580490984636 9.528618 0.2142084355089715 -0.03569316 0.0016128659253887225 
66.0 0.0 0.665 3.332000937312528e-09 2.5294099999999998e-110 6.016545079229443e-111 -252.4952 0.23625636922706345 -247.5718 0.18134285759373728 9.528618 0.2142084355089715 -0.04163728 0.001806141782120117 
67.0 0.0 0.675 0.0 1.2860467999999999e-110 2.1622300684754148e-111 -253.1112 0.1827075039500152 -248.18800000000002 0.21087474955138563 9.528618 0.2142084355089715 -0.047085379999999996 0.0019318844175364525 
68.0 0.0 0.685 0.0 5.382562e-111 9.525719149603347e-112 -253.98780000000002 0.18813705641958586 -249.0646 0.18611837093361439 9.528618 0.2142084355089715 -0.05575905999999999 0.001615435315597655 
69.0 0.0 0.695 0.0 2.5244060000000003e-111 4.0669246421934037e-112 -254.7214 0.1520475188923929 -249.7978 0.15828136972269444 9.528618 0.2142084355089715 -0.06323172 0.0015358704923006544 
70.0 0.0 0.705 0.0 1.1476086e-111 1.7451581228888111e-112 -255.4978 0.13284800337407388 -250.574 0.14717608500972576 9.528618 0.2142084355089715 -0.0731317 0.0007469222513757001 
71.0 0.0 0.715 0.0 7.8596620000000005e-112 1.0434917825700387e-112 -255.869 0.12625434645475664 -250.94539999999998 0.16771299294712666 9.528618 0.2142084355089715 -0.08265836 0.0005354471108150609 
72.0 0.0 0.725 0.0 5.116058e-112 6.703216211545027e-113 -256.296 0.12248657069893068 -251.3728 0.16089186430066235 9.528618 0.2142084355089715 -0.09270454 7.963281032135716e-05 
73.0 0.0 0.735 0.0 3.8427959999999997e-112 4.8392970913222555e-113 -256.578 0.11436188177290935 -251.65460000000002 0.15861969612290888 9.528618 0.2142084355089715 -0.1024702 0.0002291199511172965 
74.0 0.0 0.745 0.0 2.683802e-112 3.4332451118322436e-113 -256.939 0.11817749363105964 -252.0156 0.15486009169913065 9.528618 0.2142084355089715 -0.112097 7.638900444093795e-05 
75.0 0.0 0.755 0.0 2.483582e-112 3.087486330645042e-113 -257.0138 0.11252214003891088 -252.0902 0.15548849474850995 9.528618 0.2142084355089715 -0.1222768 0.00025765983776969496 
76.0 0.0 0.765 0.0 2.9838479999999996e-112 4.2438477145533906e-113 -256.8428 0.1344923492171891 -251.9196 0.1553706793473116 9.528618 0.2142084355089715 -0.13238060000000001 9.089624854642832e-05 
77.0 0.0 0.775 0.0 3.3566e-112 5.0734245765951835e-113 -256.729 0.13795129576416268 -251.80540000000002 0.15332830136436323 9.528618 0.2142084355089715 -0.1433184 0.0001076448233733806 
78.0 0.0 0.785 0.0 4.1222299999999996e-112 6.935653736051134e-113 -256.53959999999995 0.16116143460992946 -251.61599999999999 0.15717862450554115 9.528618 0.2142084355089715 -0.1544656 0.00010937517085200002 
79.0 0.0 0.795 0.0 4.50893e-112 7.808757016836925e-113 -256.45160000000004 0.16228187821580292 -251.52820000000003 0.1567449903426328 9.528618 0.2142084355089715 -0.164893 8.892288793963569e-05 
80.0 0.0 0.805 0.0 7.772462000000001e-112 1.3350222947064216e-112 -255.902 0.15296404807458036 -250.9786 0.1490681991602746 9.528618 0.2142084355089715 -0.17587199999999997 0.00026163287255602963 
81.0 0.0 0.8149999999999998 6.664001874625056e-09 1.186289e-111 2.0813037880405616e-112 -255.48319999999998 0.158988150507598 -250.56 0.15147884340879414 9.528618 0.2142084355089715 -0.18746259999999998 5.5178691567547456e-05 
82.0 0.0 0.825 0.0 1.886522e-111 3.059410843597176e-112 -255.00799999999998 0.14353006654160924 -250.08440000000002 0.14895303956994896 9.528618 0.2142084355089715 -0.19961420000000002 0.0001666379068476536 
83.0 0.0 0.835 0.0 2.394784e-111 3.996497238392637e-112 -254.7744 0.15110568486456155 -249.85100000000003 0.15061102216108752 9.528618 0.2142084355089715 -0.21042620000000004 0.00011315737711276921 
84.0 0.0 0.845 0.0 4.3530180000000004e-111 7.068919106477311e-112 -254.17299999999994 0.14601780714900556 -249.2498 0.1488871787707129 9.528618 0.2142084355089715 -0.222265 0.00011462251088412945 
85.0 0.0 0.8550000000000001 6.664001874625056e-09 6.416446e-111 1.0362041604417543e-111 -253.78580000000002 0.1483823169972717 -248.86260000000001 0.15553947408090876 9.528618 0.2142084355089715 -0.234884 0.00010061570453995514 
86.0 0.0 0.865 0.0 8.828737999999999e-111 1.378649185303934e-111 -253.4616 0.14015722599284106 -248.5384 0.15450426531668968 9.528618 0.2142084355089715 -0.24768239999999997 7.696523892427225e-05 
87.0 0.0 0.875 0.0 8.712635999999999e-111 1.3270873149377936e-111 -253.47380000000004 0.1400212555162449 -248.5502 0.15739057151601768 9.528618 0.2142084355089715 -0.259793 6.718392664326323e-05 
88.0 0.0 0.885 0.0 1.0734741999999999e-110 1.6040569311253263e-111 -253.26260000000002 0.13606751264612924 -248.339 0.1591628097283249 9.528618 0.2142084355089715 -0.2717634 7.332372058752803e-05 
89.0 0.0 0.8949999999999999 0.0 8.844735999999999e-111 1.3198315047689994e-111 -253.45659999999998 0.13708905135270114 -248.53320000000002 0.16168448286081802 9.528618 0.2142084355089715 -0.28486900000000004 7.293997529322556e-05 
90.0 0.0 0.905 4.712160915387242e-09 5.481234e-111 7.947789086159746e-112 -253.93179999999998 0.13154722346384254 -249.0082 0.16020322094450207 9.528618 0.2142084355089715 -0.29827919999999997 3.818837527079564e-05 
91.0 0.0 0.915 0.0 2.125378e-111 3.118823772437293e-112 -254.88139999999999 0.13592221305721144 -249.958 0.16248027572537688 9.528618 0.2142084355089715 -0.3109122 9.873819927820725e-05 
92.0 0.0 0.925 0.0 8.541998e-112 1.1849871783353614e-112 -255.7868 0.12608866721450837 -250.8634 0.1642823423233778 9.528618 0.2142084355089715 -0.3228344 0.00012171067332055435 
93.0 0.0 0.9350000000000002 0.0 1.5023652e-112 2.2447421911487302e-113 -257.5332 0.1393155841913942 -252.6096 0.16242723909532802 9.528618 0.2142084355089715 -0.33706920000000007 0.0005520274920611275 
94.0 0.0 0.945 0.0 1.4135779999999998e-113 1.6435806181383436e-114 -259.8764 0.10708486355622364 -254.95260000000002 0.16497335542452637 9.528618 0.2142084355089715 -0.3502234 0.0004026961733093231 
95.0 0.0 0.9549999999999998 8.161702118890972e-09 6.72792e-115 1.0804361068716647e-115 -262.9444 0.13869984861544202 -258.0206 0.16660026411291828 9.528618 0.2142084355089715 -0.3611526 0.0009976347467888526 
96.0 0.0 0.9650000000000001 8.161702118890972e-09 2.2928819999999996e-116 3.337760723287397e-117 -266.322 0.1435518025048348 -261.3986 0.23139915297740954 9.528618 0.2142084355089715 -0.37566439999999995 0.0008360209375386484 
97.0 0.0 0.975 0.0 6.052952e-119 1.263454544763364e-119 -272.3166 0.21134608583892064 -267.3929999999999 0.17611587097239403 9.528618 0.2142084355089715 -0.40160899999999994 0.0015181189413244745 
98.0 0.0 0.985 4.712160915387242e-09 2.8741245248e-120 2.5659950278611785e-120 -280.61019999999996 1.6884386017865762 -275.6868 1.5399494121548682 9.528618 0.2142084355089715 -0.42808340000000006 0.008626729589363084 
99.0 0.0 0.9949999999999999 4.712160915387242e-09 9.191043602e-129 7.702017986406474e-129 -298.1176 1.5109650584993788 -293.1942 1.359627666678267 9.528618 0.2142084355089715 -0.47504660000000004 0.004337395832523527 
