0 0.005 0.0640693 -2.74779 1.8356 9.18856 0.275276
1 0.015 10.0227 2.30485 6.88824 9.18856 0.271993
2 0.025 44.2596 3.79007 8.37347 9.18856 0.27026
3 0.035 36.9374 3.60923 8.19262 9.18856 0.26852
4 0.045 7.72659 2.04467 6.62806 9.18856 0.266783
5 0.055 0.920956 -0.082343 4.50105 9.18856 0.26388
6 0.065 0.0686543 -2.67867 1.90472 9.18856 0.267684
7 0.075 3.47939e-05 -10.2661 -5.68268 9.18856 0.238474
8 0.085 4.78159e-08 -16.8559 -12.2725 9.18856 0.224124
9 0.095 1.00919e-13 -29.9245 -25.3411 9.18856 0.206925
10 0.105 1.80257e-16 -36.2521 -31.6688 9.18856 0.1998
11 0.115 9.86903e-23 -50.6701 -46.0867 9.18856 0.185286
12 0.125 4.59435e-27 -60.645 -56.0616 9.18856 0.17606
13 0.135 2.94813e-26 -58.786 -54.2026 9.18856 0.178286
14 0.145 4.97308e-28 -62.8683 -58.285 9.18856 0.174648
15 0.155 4.60788e-35 -79.0627 -74.4793 9.18856 0.160184
16 0.165 1.71444e-36 -82.354 -77.7706 9.18856 0.158347
17 0.175 8.64097e-38 -85.3417 -80.7583 9.18856 0.156535
18 0.185 9.09951e-43 -96.8029 -92.2195 9.18856 0.14754
19 0.195 4.60371e-42 -95.1817 -90.5983 9.18856 0.149499
20 0.205 2.99316e-47 -107.125 -102.542 9.18856 0.140376
21 0.215 5.27848e-50 -113.466 -108.882 9.18856 0.134848
22 0.225 2.79097e-51 -116.405 -111.822 9.18856 0.132835
23 0.235 2.93448e-54 -123.263 -118.68 9.18856 0.127217
24 0.245 2.41634e-56 -128.063 -123.479 9.18856 0.123921
25 0.255 2.64265e-57 -130.276 -125.692 9.18856 0.122141
26 0.265 1.08618e-58 -133.467 -128.884 9.18856 0.1188
27 0.275 3.08295e-60 -137.029 -132.446 9.18856 0.116983
28 0.285 1.53806e-63 -144.632 -140.049 9.18856 0.109565
29 0.295 1.76455e-64 -146.798 -142.214 9.18856 0.107965
30 0.305 1.19312e-65 -149.491 -144.908 9.18856 0.10609
31 0.315 8.54278e-65 -147.523 -142.94 9.18856 0.108097
32 0.325 1.39224e-69 -158.547 -153.964 9.18856 0.0968781
33 0.335 1.18811e-71 -163.311 -158.728 9.18856 0.0912369
34 0.345 2.62265e-72 -164.822 -160.239 9.18856 0.0911545
35 0.355 1.48511e-73 -167.693 -163.11 9.18856 0.0876392
36 0.365 8.35409e-74 -168.269 -163.685 9.18856 0.0876622
37 0.375 1.03825e-76 -174.959 -170.376 9.18856 0.0795197
38 0.385 2.91062e-77 -176.231 -171.647 9.18856 0.0784785
39 0.395 4.38357e-79 -180.426 -175.843 9.18856 0.0722277
40 0.405 4.63204e-80 -182.674 -178.09 9.18856 0.0701371
41 0.415 5.34994e-81 -184.832 -180.249 9.18856 0.0692245
42 0.425 1.92989e-82 -188.155 -183.571 9.18856 0.0626486
43 0.435 2.75564e-83 -190.101 -185.518 9.18856 0.0599937
44 0.445 1.34306e-84 -193.122 -188.539 9.18856 0.0548814
45 0.455 7.43349e-85 -193.714 -189.13 9.18856 0.0559617
46 0.465 6.26763e-86 -196.187 -191.604 9.18856 0.051814
47 0.475 9.66576e-87 -198.056 -193.473 9.18856 0.0475238
48 0.485 3.50823e-88 -201.372 -196.789 9.18856 0.0399258
49 0.495 1.71782e-88 -202.086 -197.503 9.18856 0.0409624
50 0.505 2.20777e-89 -204.138 -199.555 9.18856 0.0393214
51 0.515 1.66382e-90 -206.724 -202.14 9.18856 0.0292261
52 0.525 5.35322e-91 -207.858 -203.274 9.18856 0.0268009
53 0.535 1.84944e-91 -208.92 -204.337 9.18856 0.0260229
54 0.545 6.90475e-92 -209.906 -205.322 9.18856 0.0264961
55 0.555 6.91676e-92 -209.904 -205.32 9.18856 0.0296234
56 0.565 1.10658e-93 -214.039 -209.456 9.18856 0.00601896
57 0.575 6.53939e-94 -214.565 -209.982 9.18856 0.00985392
58 0.585 7.59037e-95 -216.719 -212.135 9.18856 -0.00487446
59 0.595 5.21327e-95 -217.094 -212.511 9.18856 -0.00196759
60 0.605 1.48273e-95 -218.352 -213.768 9.18856 -0.0134146
61 0.615 5.92092e-96 -219.27 -214.686 9.18856 -0.0204534
62 0.625 2.46667e-96 -220.145 -215.562 9.18856 -0.0275096
63 0.635 1.44323e-96 -220.681 -216.098 9.18856 -0.0364419
64 0.645 1.01408e-96 -221.034 -216.451 9.18856 -0.0379139
65 0.655 5.8793e-97 -221.579 -216.996 9.18856 -0.0514398
66 0.665 3.48991e-97 -222.101 -217.517 9.18856 -0.0618135
67 0.675 3.7467e-97 -222.03 -217.446 9.18856 -0.0699771
68 0.685 3.62606e-97 -222.063 -217.479 9.18856 -0.0793006
69 0.695 3.95417e-97 -221.976 -217.393 9.18856 -0.0891146
70 0.705 4.07215e-97 -221.947 -217.363 9.18856 -0.0977613
71 0.715 7.1433e-97 -221.385 -216.801 9.18856 -0.107022
72 0.725 1.16256e-96 -220.898 -216.314 9.18856 -0.116577
73 0.735 2.33578e-96 -220.2 -215.616 9.18856 -0.127616
74 0.745 4.15492e-96 -219.624 -215.04 9.18856 -0.13733
75 0.755 9.55152e-96 -218.791 -214.208 9.18856 -0.145971
76 0.765 3.04039e-95 -217.634 -213.05 9.18856 -0.156317
77 0.775 8.84942e-95 -216.565 -211.982 9.18856 -0.166528
78 0.785 3.14227e-94 -215.298 -210.715 9.18856 -0.17826
79 0.795 8.75709e-94 -214.273 -209.69 9.18856 -0.18686
80 0.805 4.44958e-93 -212.648 -208.064 9.18856 -0.200772
81 0.815 1.9398e-92 -211.175 -206.592 9.18856 -0.211035
82 0.825 9.63745e-92 -209.572 -204.989 9.18856 -0.22291
83 0.835 3.322e-91 -208.335 -203.751 9.18856 -0.232345
84 0.845 1.92095e-90 -206.58 -201.996 9.18856 -0.245241
85 0.855 9.36659e-90 -204.996 -200.412 9.18856 -0.258087
86 0.865 4.20246e-89 -203.494 -198.911 9.18856 -0.270601
87 0.875 1.27729e-88 -202.383 -197.799 9.18856 -0.282333
88 0.885 4.9709e-88 -201.024 -196.44 9.18856 -0.294937
89 0.895 1.37924e-87 -200.003 -195.42 9.18856 -0.307986
90 0.905 3.03784e-87 -199.214 -194.63 9.18856 -0.321242
91 0.915 3.87697e-87 -198.97 -194.386 9.18856 -0.333503
92 0.925 4.83949e-87 -198.748 -194.165 9.18856 -0.34594
93 0.935 3.08938e-87 -199.197 -194.614 9.18856 -0.35924
94 0.945 1.05065e-87 -200.275 -195.692 9.18856 -0.372639
95 0.955 1.5216e-88 -202.208 -197.624 9.18856 -0.385583
96 0.965 1.53278e-89 -204.503 -199.92 9.18856 -0.397947
97 0.975 3.03319e-91 -208.426 -203.842 9.18856 -0.410538
98 0.985 3.84237e-94 -215.097 -210.514 9.18856 -0.438181
99 0.995 5.1113e-99 -226.324 -221.741 9.18856 -0.471432
