0 0.005 0 -821.289 -508.22 317.674 0.241305
1 0.015 0 -796.609 -483.54 317.674 0.209064
2 0.025 0 -788.721 -475.652 317.674 0.195711
3 0.035 0 -784.181 -471.112 317.674 0.189101
4 0.045 0 -781.416 -468.347 317.674 0.182063
5 0.055 0 -779.247 -466.178 317.674 0.177941
6 0.065 0 -777.707 -464.639 317.674 0.17348
7 0.075 0 -776.673 -463.604 317.674 0.169223
8 0.085 0 -776.185 -463.117 317.674 0.164936
9 0.095 0 -775.542 -462.473 317.674 0.160606
10 0.105 0 -775.22 -462.151 317.674 0.156067
11 0.115 0 -775.063 -461.994 317.674 0.151358
12 0.125 0 -775.16 -462.091 317.674 0.146839
13 0.135 0 -774.909 -461.84 317.674 0.142178
14 0.145 0 -774.771 -461.702 317.674 0.13683
15 0.155 0 -774.621 -461.552 317.674 0.131517
16 0.165 0 -774.575 -461.506 317.674 0.12663
17 0.175 0 -774.078 -461.009 317.674 0.121242
18 0.185 0 -773.607 -460.538 317.674 0.115444
19 0.195 0 -773.006 -459.937 317.674 0.10917
20 0.205 0 -772.511 -459.442 317.674 0.10495
21 0.215 0 -771.403 -458.334 317.674 0.0999187
22 0.225 0 -770.154 -457.085 317.674 0.0929323
23 0.235 0 -768.809 -455.74 317.674 0.0877207
24 0.245 0 -767.407 -454.339 317.674 0.0824704
25 0.255 0 -765.536 -452.467 317.674 0.0772029
26 0.265 0 -763.023 -449.955 317.674 0.0678314
27 0.275 0 -761.104 -448.036 317.674 0.0657866
28 0.285 0 -758.25 -445.181 317.674 0.0584398
29 0.295 0 -757.192 -444.123 317.674 0.0590649
30 0.305 0 -754.456 -441.388 317.674 0.0536518
31 0.315 0 -749.756 -436.688 317.674 0.0445959
32 0.325 0 -749.68 -436.611 317.674 0.04754
33 0.335 0 -745.548 -432.479 317.674 0.0406077
34 0.345 9.88131e-324 -743.547 -430.479 317.674 0.0383232
35 0.355 2.37152e-322 -740.564 -427.495 317.674 0.0346177
36 0.365 1.60374e-320 -736.355 -423.286 317.674 0.0284077
37 0.375 4.65943e-319 -732.986 -419.917 317.674 0.0246129
38 0.385 5.96507e-317 -728.134 -415.065 317.674 0.0188122
39 0.395 8.90129e-315 -723.128 -410.059 317.674 0.0129091
40 0.405 4.42358e-315 -723.827 -410.759 317.674 0.0157048
41 0.415 8.91425e-314 -720.824 -407.755 317.674 0.01232
42 0.425 1.89795e-308 -708.555 -395.487 317.674 -0.00169016
43 0.435 3.48336e-309 -710.251 -397.182 317.674 0.000798129
44 0.445 8.72669e-307 -704.727 -391.659 317.674 -0.00520217
45 0.455 4.46529e-305 -700.792 -387.723 317.674 -0.00864298
46 0.465 3.84255e-304 -698.64 -385.571 317.674 -0.0100345
47 0.475 1.45646e-301 -692.702 -379.633 317.674 -0.0155178
48 0.485 5.72354e-298 -684.426 -371.357 317.674 -0.0227691
49 0.495 6.84278e-297 -681.945 -368.876 317.674 -0.0250174
50 0.505 2.25338e-294 -676.148 -363.079 317.674 -0.0302367
51 0.515 2.41205e-292 -671.474 -358.406 317.674 -0.0333288
52 0.525 1.20609e-289 -665.26 -352.191 317.674 -0.0391783
53 0.535 7.88931e-286 -656.474 -343.405 317.674 -0.0466895
54 0.545 1.62518e-285 -655.751 -342.682 317.674 -0.0465808
55 0.555 7.75598e-283 -649.583 -336.514 317.674 -0.0518747
56 0.565 8.18669e-280 -642.621 -329.553 317.674 -0.0571559
57 0.575 8.09922e-275 -631.119 -318.05 317.674 -0.0664191
58 0.585 9.42159e-274 -628.665 -315.597 317.674 -0.0680772
59 0.595 1.15068e-269 -619.255 -306.186 317.674 -0.0754939
60 0.605 1.72933e-266 -611.94 -298.871 317.674 -0.0807512
61 0.615 1.94266e-266 -611.824 -298.755 317.674 -0.0804948
62 0.625 2.7839e-262 -602.253 -289.185 317.674 -0.0880072
63 0.635 1.11694e-253 -582.443 -269.375 317.674 -0.1025
64 0.645 9.63974e-256 -587.196 -274.127 317.674 -0.0984772
65 0.655 5.22946e-249 -571.689 -258.621 317.674 -0.109687
66 0.665 5.45194e-247 -567.043 -253.974 317.674 -0.112851
67 0.675 1.50687e-241 -554.513 -241.444 317.674 -0.122168
68 0.685 3.11197e-238 -546.88 -233.811 317.674 -0.127669
69 0.695 2.14866e-235 -540.343 -227.274 317.674 -0.131281
70 0.705 2.9741e-229 -526.202 -213.133 317.674 -0.142095
71 0.715 1.3741e-223 -513.159 -200.09 317.674 -0.1511
72 0.725 4.78361e-219 -502.701 -189.632 317.674 -0.158298
73 0.735 2.41943e-213 -489.567 -176.498 317.674 -0.1673
74 0.745 9.07651e-209 -479.035 -165.966 317.674 -0.174481
75 0.755 2.62484e-205 -471.065 -157.996 317.674 -0.179761
76 0.765 1.82891e-198 -455.308 -142.239 317.674 -0.1907
77 0.775 6.97642e-194 -444.759 -131.69 317.674 -0.19789
78 0.785 5.94165e-187 -428.801 -115.733 317.674 -0.208459
79 0.795 2.90054e-183 -420.308 -107.239 317.674 -0.214028
80 0.805 3.76964e-174 -399.323 -86.2541 317.674 -0.228468
81 0.815 3.07078e-164 -376.502 -63.4333 317.674 -0.244695
82 0.825 1.95629e-157 -360.835 -47.7661 317.674 -0.255357
83 0.835 1.27279e-149 -342.844 -29.7753 317.674 -0.2681
84 0.845 1.26956e-142 -326.728 -13.6597 317.674 -0.27882
85 0.855 1.01353e-132 -303.928 9.14091 317.674 -0.295098
86 0.865 3.11152e-123 -282.083 30.9859 317.674 -0.311275
87 0.875 1.35181e-113 -259.891 53.178 317.674 -0.327473
88 0.885 4.62296e-102 -233.333 79.7361 317.674 -0.347298
89 0.895 8.36971e-87 -198.2 114.868 317.674 -0.3743
90 0.905 7.11663e-81 -184.547 128.522 317.674 -0.385088
91 0.915 1.23155e-65 -149.46 163.609 317.674 -0.4139
92 0.925 1.15512e-61 -140.313 172.755 317.674 -0.421068
93 0.935 1.05455e-48 -110.471 202.598 317.674 -0.44775
94 0.945 1.39558e-36 -82.5598 230.509 317.674 -0.474831
95 0.955 3.02744e-21 -47.2466 265.822 317.674 -0.5147
96 0.965 1.26554e-17 -38.9084 274.16 317.674 -0.525215
97 0.975 1.18396e-07 -15.9492 297.119 317.674 -0.560782
98 0.985 0.242003 -1.4188 311.65 317.674 -0.591844
99 0.995 99.758 4.60275 317.671 317.674 -0.603548
