0 0.005 0 -833.511 -523.556 314.56 0.252363
1 0.015 0 -796.502 -486.547 314.56 0.2114
2 0.025 0 -786.658 -476.703 314.56 0.188466
3 0.035 0 -783.846 -473.891 314.56 0.187013
4 0.045 0 -781.066 -471.111 314.56 0.178648
5 0.055 0 -779.39 -469.435 314.56 0.178536
6 0.065 0 -777.936 -467.981 314.56 0.173082
7 0.075 0 -776.924 -466.97 314.56 0.169067
8 0.085 0 -776.704 -466.749 314.56 0.165919
9 0.095 0 -776.037 -466.082 314.56 0.161219
10 0.105 0 -775.817 -465.862 314.56 0.156919
11 0.115 0 -775.594 -465.639 314.56 0.151183
12 0.125 0 -775.447 -465.492 314.56 0.146554
13 0.135 0 -775.242 -465.287 314.56 0.141806
14 0.145 0 -774.853 -464.898 314.56 0.136276
15 0.155 0 -774.871 -464.916 314.56 0.132697
16 0.165 0 -774.809 -464.854 314.56 0.128551
17 0.175 0 -774.21 -464.255 314.56 0.121598
18 0.185 0 -773.489 -463.534 314.56 0.115196
19 0.195 0 -772.631 -462.676 314.56 0.110176
20 0.205 0 -771.947 -461.992 314.56 0.104752
21 0.215 0 -769.776 -459.821 314.56 0.0894576
22 0.225 0 -769.473 -459.518 314.56 0.09463
23 0.235 0 -768.337 -458.382 314.56 0.0884528
24 0.245 0 -767.277 -457.322 314.56 0.0859493
25 0.255 0 -765.876 -455.921 314.56 0.0809072
26 0.265 0 -762.844 -452.889 314.56 0.0706616
27 0.275 0 -759.678 -449.723 314.56 0.0643423
28 0.285 0 -755.426 -445.471 314.56 0.0564107
29 0.295 0 -757.982 -448.027 314.56 0.0650972
30 0.305 0 -754.92 -444.965 314.56 0.0583601
31 0.315 0 -749.345 -439.39 314.56 0.0469515
32 0.325 0 -750.092 -440.137 314.56 0.0503915
33 0.335 0 -748.872 -438.917 314.56 0.0503797
34 0.345 4.94066e-324 -744.621 -434.666 314.56 0.0430909
35 0.355 2.92981e-321 -738.056 -428.101 314.56 0.032671
36 0.365 1.80334e-321 -738.539 -428.584 314.56 0.0350178
37 0.375 1.75814e-318 -731.658 -421.703 314.56 0.0257583
38 0.385 1.24205e-318 -732.005 -422.05 314.56 0.0273459
39 0.395 5.88138e-318 -730.45 -420.495 314.56 0.0259432
40 0.405 2.99258e-314 -721.916 -411.961 314.56 0.0145445
41 0.415 3.68368e-314 -721.708 -411.753 314.56 0.01499
42 0.425 7.02347e-312 -716.457 -406.502 314.56 0.00955481
43 0.435 3.68858e-311 -714.799 -404.844 314.56 0.00754614
44 0.445 5.55884e-311 -714.389 -404.434 314.56 0.0083537
45 0.455 2.4112e-306 -703.711 -393.756 314.56 -0.00335181
46 0.465 2.41384e-306 -703.71 -393.755 314.56 -0.00334295
47 0.475 2.51697e-303 -696.76 -386.805 314.56 -0.00868312
48 0.485 2.1549e-300 -690.008 -380.053 314.56 -0.0159481
49 0.495 2.82446e-292 -671.317 -361.362 314.56 -0.0323
50 0.505 5.99892e-296 -679.774 -369.819 314.56 -0.0250978
51 0.515 7.62748e-296 -679.533 -369.578 314.56 -0.0246591
52 0.525 6.73737e-293 -672.75 -362.795 314.56 -0.0304964
53 0.535 4.34817e-290 -666.28 -356.325 314.56 -0.0357877
54 0.545 2.14491e-289 -664.684 -354.729 314.56 -0.0373981
55 0.555 1.31352e-285 -655.964 -346.009 314.56 -0.0448415
56 0.565 6.29826e-284 -652.094 -342.139 314.56 -0.0466339
57 0.575 1.06713e-279 -642.356 -332.401 314.56 -0.0556923
58 0.585 1.09038e-277 -637.73 -327.775 314.56 -0.0592757
59 0.595 1.57935e-272 -625.846 -315.891 314.56 -0.0680127
60 0.605 3.082e-270 -620.572 -310.617 314.56 -0.0718974
61 0.615 2.51769e-265 -609.262 -299.307 314.56 -0.0808993
62 0.625 4.97586e-260 -597.068 -287.113 314.56 -0.0898996
63 0.635 2.95157e-264 -606.8 -296.845 314.56 -0.0825692
64 0.645 5.01613e-260 -597.059 -287.105 314.56 -0.0898694
65 0.655 1.4412e-253 -582.189 -272.234 314.56 -0.100669
66 0.665 2.4854e-254 -583.946 -273.991 314.56 -0.0988149
67 0.675 3.33739e-249 -572.138 -262.184 314.56 -0.107896
68 0.685 2.97514e-239 -549.228 -239.273 314.56 -0.1241
69 0.695 3.85916e-238 -546.665 -236.71 314.56 -0.125879
70 0.705 6.40988e-239 -548.46 -238.505 314.56 -0.123969
71 0.715 3.69154e-229 -525.986 -216.031 314.56 -0.1403
72 0.725 2.4338e-222 -510.284 -200.329 314.56 -0.150977
73 0.735 1.50968e-215 -494.644 -184.689 314.56 -0.1619
74 0.745 7.71799e-210 -481.499 -171.544 314.56 -0.170898
75 0.755 4.57102e-212 -486.628 -176.673 314.56 -0.167073
76 0.765 2.06226e-206 -473.609 -163.654 314.56 -0.176297
77 0.775 2.11829e-198 -455.161 -145.206 314.56 -0.1889
78 0.785 8.15212e-194 -444.603 -134.648 314.56 -0.196061
79 0.795 1.15783e-184 -423.529 -113.574 314.56 -0.2105
80 0.805 8.26819e-178 -407.748 -97.7928 314.56 -0.221298
81 0.815 2.34448e-174 -399.798 -89.8428 314.56 -0.226578
82 0.825 1.62686e-158 -363.322 -53.3668 314.56 -0.2519
83 0.835 1.63799e-158 -363.315 -53.36 314.56 -0.251873
84 0.845 2.74077e-147 -337.472 -27.5168 314.56 -0.269858
85 0.855 3.34379e-136 -311.944 -1.98951 314.56 -0.287897
86 0.865 2.56683e-131 -300.696 9.25898 314.56 -0.295029
87 0.875 1.20693e-116 -266.912 43.0432 314.56 -0.3203
88 0.885 3.15414e-110 -252.136 57.8193 314.56 -0.330948
89 0.895 1.3069e-91 -209.268 100.687 314.56 -0.3635
90 0.905 1.55152e-85 -195.281 114.674 314.56 -0.374134
91 0.915 1.18314e-77 -177.131 132.824 314.56 -0.388491
92 0.925 2.96694e-66 -150.883 159.072 314.56 -0.410205
93 0.935 2.96531e-49 -111.74 198.215 314.56 -0.4445
94 0.945 6.14271e-41 -92.5907 217.364 314.56 -0.462496
95 0.955 1.22898e-32 -73.4765 236.478 314.56 -0.480395
96 0.965 2.15298e-19 -42.9823 266.973 314.56 -0.516423
97 0.975 6.22025e-08 -16.5929 293.362 314.56 -0.555565
98 0.985 0.29244 -1.2295 308.725 314.56 -0.590432
99 0.995 99.7076 4.60224 314.557 314.56 -0.603819
