0 0.005 0 -814.54 -501.502 317.643 0.234109
1 0.015 0 -795.772 -482.734 317.643 0.20718
2 0.025 0 -789.857 -476.819 317.643 0.197263
3 0.035 0 -785.127 -472.09 317.643 0.190444
4 0.045 0 -781.697 -468.66 317.643 0.181684
5 0.055 0 -779.547 -466.509 317.643 0.177406
6 0.065 0 -778.086 -465.048 317.643 0.17255
7 0.075 0 -777.177 -464.14 317.643 0.168931
8 0.085 0 -776.707 -463.669 317.643 0.164903
9 0.095 0 -775.956 -462.919 317.643 0.160082
10 0.105 0 -775.693 -462.655 317.643 0.155763
11 0.115 0 -775.514 -462.477 317.643 0.150767
12 0.125 0 -775.567 -462.53 317.643 0.146595
13 0.135 0 -775.29 -462.253 317.643 0.141582
14 0.145 0 -775.088 -462.05 317.643 0.135825
15 0.155 0 -774.941 -461.904 317.643 0.131234
16 0.165 0 -774.891 -461.853 317.643 0.126276
17 0.175 0 -774.42 -461.382 317.643 0.121292
18 0.185 0 -774.021 -460.983 317.643 0.115691
19 0.195 0 -773.227 -460.19 317.643 0.108547
20 0.205 0 -772.675 -459.637 317.643 0.104058
21 0.215 0 -771.624 -458.586 317.643 0.0993524
22 0.225 0 -770.56 -457.522 317.643 0.0946524
23 0.235 0 -769.075 -456.037 317.643 0.087333
24 0.245 0 -768.196 -455.158 317.643 0.085861
25 0.255 0 -764.599 -451.562 317.643 0.069764
26 0.265 0 -763.315 -450.277 317.643 0.0696782
27 0.275 0 -759.354 -446.316 317.643 0.0588727
28 0.285 0 -759.661 -446.624 317.643 0.0631763
29 0.295 0 -758.221 -445.183 317.643 0.0617454
30 0.305 0 -755.017 -441.98 317.643 0.0552333
31 0.315 0 -753.21 -440.172 317.643 0.0536561
32 0.325 0 -747.728 -434.69 317.643 0.0422925
33 0.335 9.14021e-322 -739.217 -426.179 317.643 0.0307078
34 0.345 2.12448e-322 -740.67 -427.632 317.643 0.0328377
35 0.355 7.90505e-323 -741.685 -428.647 317.643 0.0361338
36 0.365 3.03307e-320 -735.718 -422.68 317.643 0.0279655
37 0.375 2.58581e-318 -731.272 -418.234 317.643 0.0219988
38 0.385 8.02612e-317 -727.837 -414.799 317.643 0.018492
39 0.395 4.40578e-317 -728.437 -415.399 317.643 0.0212291
40 0.405 2.26481e-312 -717.589 -404.551 317.643 0.00737665
41 0.415 2.26929e-313 -719.89 -406.852 317.643 0.0114557
42 0.425 5.33379e-310 -712.127 -399.09 317.643 0.00197396
43 0.435 1.51576e-307 -706.478 -393.44 317.643 -0.00330538
44 0.445 1.28586e-306 -704.34 -391.302 317.643 -0.00481032
45 0.455 2.23664e-306 -703.786 -390.748 317.643 -0.00489622
46 0.465 1.96517e-302 -694.705 -381.667 317.643 -0.0140573
47 0.475 5.92852e-299 -686.693 -373.655 317.643 -0.0214368
48 0.485 8.89456e-299 -686.288 -373.25 317.643 -0.0208514
49 0.495 2.82485e-295 -678.224 -365.186 317.643 -0.0284541
50 0.505 1.81141e-293 -674.063 -361.026 317.643 -0.0321561
51 0.515 1.51296e-292 -671.941 -358.903 317.643 -0.0340054
52 0.525 1.03464e-289 -665.413 -352.375 317.643 -0.0393896
53 0.535 1.24831e-287 -660.62 -347.582 317.643 -0.0423996
54 0.545 1.5852e-285 -655.776 -342.738 317.643 -0.0464751
55 0.555 5.97814e-281 -645.238 -332.201 317.643 -0.0556529
56 0.565 6.88534e-278 -638.189 -325.152 317.643 -0.0608441
57 0.575 1.35977e-275 -632.904 -319.866 317.643 -0.0646045
58 0.585 1.22e-267 -614.591 -301.554 317.643 -0.0790999
59 0.595 1.64747e-272 -625.804 -312.766 317.643 -0.0699267
60 0.605 3.09775e-269 -618.265 -305.227 317.643 -0.0753654
61 0.615 2.74529e-262 -602.267 -289.23 317.643 -0.0878338
62 0.625 2.76126e-261 -599.959 -286.921 317.643 -0.0898523
63 0.635 5.43112e-257 -590.072 -277.035 317.643 -0.0970957
64 0.645 1.05902e-253 -582.497 -269.459 317.643 -0.102336
65 0.655 1.62962e-251 -577.461 -264.423 317.643 -0.105892
66 0.665 9.06643e-246 -564.231 -251.194 317.643 -0.1151
67 0.675 1.23605e-241 -554.711 -241.673 317.643 -0.122278
68 0.685 5.00494e-236 -541.8 -228.762 317.643 -0.131173
69 0.695 1.45006e-231 -531.526 -218.488 317.643 -0.1385
70 0.705 4.33606e-232 -532.733 -219.695 317.643 -0.136687
71 0.715 7.8016e-217 -497.607 -184.569 317.643 -0.1619
72 0.725 2.21229e-221 -508.077 -195.04 317.643 -0.154673
73 0.735 2.09534e-213 -489.711 -176.673 317.643 -0.167281
74 0.745 8.36482e-211 -483.721 -170.684 317.643 -0.170828
75 0.755 4.05631e-203 -466.025 -152.987 317.643 -0.1835
76 0.765 1.10771e-199 -458.112 -145.074 317.643 -0.18889
77 0.775 4.55963e-195 -447.487 -134.449 317.643 -0.195941
78 0.785 4.39271e-187 -429.103 -116.066 317.643 -0.20868
79 0.795 2.47014e-181 -415.864 -102.826 317.643 -0.217537
80 0.805 2.20773e-173 -397.555 -84.5176 317.643 -0.230257
81 0.815 1.6405e-166 -381.734 -68.6964 317.643 -0.240852
82 0.825 3.62792e-154 -353.309 -40.2718 317.643 -0.260895
83 0.835 1.43669e-148 -340.42 -27.3826 317.643 -0.269879
84 0.845 7.82671e-142 -324.91 -11.8719 317.643 -0.280419
85 0.855 7.3608e-131 -299.642 13.3952 317.643 -0.298542
86 0.865 3.50894e-122 -279.66 33.3776 317.643 -0.312954
87 0.875 1.35898e-112 -257.583 55.4549 317.643 -0.329273
88 0.885 4.71353e-100 -228.708 84.3296 317.643 -0.350899
89 0.895 7.06654e-92 -209.882 103.155 317.643 -0.365294
90 0.905 1.18727e-79 -181.733 131.305 317.643 -0.386879
91 0.915 1.09342e-65 -149.579 163.459 317.643 -0.4139
92 0.925 3.29162e-60 -136.964 176.074 317.643 -0.424678
93 0.935 3.70665e-47 -106.911 206.126 317.643 -0.45161
94 0.945 3.37931e-32 -72.4651 240.573 317.643 -0.4859
95 0.955 1.41913e-28 -64.1223 248.915 317.643 -0.49461
96 0.965 5.63669e-16 -35.1121 277.926 317.643 -0.530473
97 0.975 1.1692e-07 -15.9618 297.076 317.643 -0.559286
98 0.985 0.301844 -1.19785 311.84 317.643 -0.593018
99 0.995 99.6982 4.60215 317.64 317.643 -0.603529
