0 0.005 0.222433 -1.50313 4.28105 10.3893 0.287939
1 0.015 13.4624 2.5999 8.38408 10.3893 0.286021
2 0.025 49.5386 3.90275 9.68693 10.3893 0.284981
3 0.035 31.1784 3.43973 9.22391 10.3893 0.284038
4 0.045 5.05257 1.6199 7.40408 10.3893 0.283087
5 0.055 0.536901 -0.621941 5.16224 10.3893 0.282108
6 0.065 0.00867493 -4.74732 1.03686 10.3893 0.273809
7 0.075 3.75748e-07 -14.7943 -9.01017 10.3893 0.244346
8 0.085 1.95437e-13 -29.2635 -23.4794 10.3893 0.220512
9 0.095 7.57866e-21 -46.329 -40.5448 10.3893 0.203065
10 0.105 4.59048e-26 -58.3432 -52.559 10.3893 0.192326
11 0.115 5.18008e-28 -62.8276 -57.0434 10.3893 0.188975
12 0.125 7.00861e-32 -71.7356 -65.9514 10.3893 0.181557
13 0.135 1.27902e-36 -82.647 -76.8628 10.3893 0.172778
14 0.145 1.84213e-41 -93.7951 -88.0109 10.3893 0.165248
15 0.155 8.73516e-44 -99.1464 -93.3622 10.3893 0.161832
16 0.165 5.56521e-45 -101.9 -96.1156 10.3893 0.160296
17 0.175 1.44741e-49 -112.457 -106.673 10.3893 0.152786
18 0.185 5.28796e-53 -120.372 -114.587 10.3893 0.147444
19 0.195 2.62858e-55 -125.676 -119.892 10.3893 0.143848
20 0.205 7.1016e-59 -133.892 -128.108 10.3893 0.138626
21 0.215 9.78728e-60 -135.874 -130.09 10.3893 0.136786
22 0.225 1.45544e-63 -144.688 -138.903 10.3893 0.131125
23 0.235 6.20436e-66 -150.145 -144.361 10.3893 0.127561
24 0.245 1.87774e-62 -142.13 -136.346 10.3893 0.1333
25 0.255 2.11152e-69 -158.131 -152.347 10.3893 0.122309
26 0.265 1.19632e-71 -163.304 -157.52 10.3893 0.118823
27 0.275 1.78448e-74 -169.812 -164.028 10.3893 0.113104
28 0.285 7.98915e-75 -170.616 -164.832 10.3893 0.113343
29 0.295 6.39195e-79 -180.049 -174.265 10.3893 0.106025
30 0.305 6.1584e-79 -180.086 -174.302 10.3893 0.106171
31 0.315 1.32836e-80 -183.923 -178.139 10.3893 0.102534
32 0.325 1.58998e-84 -192.953 -187.169 10.3893 0.0945047
33 0.335 9.45935e-85 -193.473 -187.689 10.3893 0.0953063
34 0.345 7.13038e-83 -189.15 -183.366 10.3893 0.0990997
35 0.355 2.25854e-88 -201.813 -196.029 10.3893 0.088099
36 0.365 3.02772e-89 -203.822 -198.038 10.3893 0.0863609
37 0.375 8.73282e-92 -209.671 -203.887 10.3893 0.0809177
38 0.385 2.78437e-93 -213.116 -207.332 10.3893 0.0767634
39 0.395 9.38516e-95 -216.506 -210.722 10.3893 0.0728877
40 0.405 6.80618e-96 -219.13 -213.346 10.3893 0.0699629
41 0.415 2.91444e-98 -224.584 -218.799 10.3893 0.0644209
42 0.425 5.25563e-97 -221.691 -215.907 10.3893 0.068449
43 0.435 1.87203e-100 -229.631 -223.847 10.3893 0.0587089
44 0.445 8.35614e-102 -232.741 -226.957 10.3893 0.0544278
45 0.455 4.94116e-103 -235.569 -229.784 10.3893 0.0517373
46 0.465 6.9906e-101 -230.617 -224.832 10.3893 0.0594949
47 0.475 2.92604e-105 -240.698 -234.914 10.3893 0.0455356
48 0.485 4.19571e-107 -244.943 -239.158 10.3893 0.0397065
49 0.495 2.38321e-108 -247.811 -242.027 10.3893 0.0336272
50 0.505 2.61903e-108 -247.716 -241.932 10.3893 0.0371952
51 0.515 9.89811e-110 -250.992 -245.208 10.3893 0.0309285
52 0.525 6.18556e-110 -251.462 -245.678 10.3893 0.0316931
53 0.535 3.13267e-107 -245.235 -239.451 10.3893 0.0414993
54 0.545 6.68443e-112 -255.99 -250.206 10.3893 0.024259
55 0.555 7.21859e-113 -258.215 -252.431 10.3893 0.0204355
56 0.565 6.56337e-114 -260.613 -254.829 10.3893 0.0170485
57 0.575 2.36717e-115 -263.936 -258.151 10.3893 0.00797351
58 0.585 1.54672e-116 -266.664 -260.88 10.3893 -8.04949e-05
59 0.595 4.912e-117 -267.811 -262.027 10.3893 -0.0014613
60 0.605 8.47075e-118 -269.568 -263.784 10.3893 -0.00553591
61 0.615 7.90423e-119 -271.94 -266.156 10.3893 -0.0121811
62 0.625 4.20364e-119 -272.572 -266.787 10.3893 -0.0110503
63 0.635 7.08633e-120 -274.352 -268.568 10.3893 -0.0174522
64 0.645 1.80319e-119 -273.418 -267.634 10.3893 -0.00813061
65 0.655 2.23984e-121 -277.806 -272.022 10.3893 -0.0290931
66 0.665 4.45161e-122 -279.422 -273.638 10.3893 -0.03384
67 0.675 5.91849e-122 -279.137 -273.353 10.3893 -0.0251952
68 0.685 7.08472e-123 -281.26 -275.476 10.3893 -0.0364971
69 0.695 7.42308e-124 -283.516 -277.732 10.3893 -0.0517866
70 0.705 1.73502e-124 -284.97 -279.185 10.3893 -0.0619836
71 0.715 7.72749e-125 -285.778 -279.994 10.3893 -0.0664768
72 0.725 2.45842e-125 -286.924 -281.139 10.3893 -0.0732474
73 0.735 8.17445e-126 -288.025 -282.241 10.3893 -0.0822032
74 0.745 2.40892e-126 -289.247 -283.462 10.3893 -0.0931838
75 0.755 9.7822e-127 -290.148 -284.364 10.3893 -0.102099
76 0.765 5.84062e-127 -290.663 -284.879 10.3893 -0.108647
77 0.775 2.43112e-127 -291.54 -285.756 10.3893 -0.121036
78 0.785 1.1995e-127 -292.246 -286.462 10.3893 -0.130569
79 0.795 5.33488e-128 -293.057 -287.272 10.3893 -0.142552
80 0.805 3.6466e-128 -293.437 -287.653 10.3893 -0.152682
81 0.815 2.11594e-128 -293.981 -288.197 10.3893 -0.163696
82 0.825 1.18954e-128 -294.557 -288.773 10.3893 -0.176171
83 0.835 5.96946e-129 -295.247 -289.463 10.3893 -0.187937
84 0.845 4.0986e-129 -295.623 -289.839 10.3893 -0.198883
85 0.855 2.13901e-129 -296.273 -290.489 10.3893 -0.21143
86 0.865 1.00585e-129 -297.028 -291.243 10.3893 -0.223996
87 0.875 3.57585e-130 -298.062 -292.278 10.3893 -0.235916
88 0.885 1.57246e-130 -298.883 -293.099 10.3893 -0.249557
89 0.895 4.2656e-131 -300.188 -294.404 10.3893 -0.263042
90 0.905 8.8553e-132 -301.76 -295.976 10.3893 -0.275269
91 0.915 1.12714e-132 -303.822 -298.037 10.3893 -0.290397
92 0.925 1.71853e-133 -305.702 -299.918 10.3893 -0.301552
93 0.935 9.06223e-135 -308.645 -302.861 10.3893 -0.31736
94 0.945 2.40916e-136 -312.272 -306.488 10.3893 -0.331858
95 0.955 4.69318e-138 -316.211 -310.426 10.3893 -0.342253
96 0.965 4.61322e-140 -320.833 -315.049 10.3893 -0.36584
97 0.975 8.28728e-144 -329.458 -323.673 10.3893 -0.397507
98 0.985 1.69326e-148 -340.256 -334.472 10.3893 -0.426225
99 0.995 7.69042e-158 -361.768 -355.984 10.3893 -0.474138
