0 0.005 0.164643 -1.80398 3.37745 9.7866 0.28292
1 0.015 12.8234 2.55128 7.7327 9.7866 0.282832
2 0.025 47.9253 3.86964 9.05107 9.7866 0.2813
3 0.035 32.716 3.48786 8.66929 9.7866 0.27999
4 0.045 5.70922 1.74208 6.92351 9.7866 0.278664
5 0.055 0.64077 -0.445085 4.73634 9.7866 0.277487
6 0.065 0.0206421 -3.88042 1.301 9.7866 0.271832
7 0.075 2.03243e-05 -10.8037 -5.62226 9.7866 0.251985
8 0.085 1.00814e-13 -29.9255 -24.7441 9.7866 0.215692
9 0.095 5.85368e-17 -37.3769 -32.1954 9.7866 0.208674
10 0.105 1.36805e-22 -50.3435 -45.1621 9.7866 0.196224
11 0.115 2.87519e-24 -54.2059 -49.0245 9.7866 0.192696
12 0.125 7.76768e-32 -71.6328 -66.4513 9.7866 0.178297
13 0.135 8.53992e-38 -85.3535 -80.1721 9.7866 0.167349
14 0.145 9.00153e-38 -85.3008 -80.1194 9.7866 0.167324
15 0.155 3.68836e-44 -100.009 -94.8271 9.7866 0.156319
16 0.165 3.02798e-47 -107.114 -101.932 9.7866 0.151091
17 0.175 1.00651e-48 -110.518 -105.336 9.7866 0.149466
18 0.185 5.39784e-51 -115.746 -110.564 9.7866 0.145892
19 0.195 3.63285e-55 -125.352 -120.171 9.7866 0.138645
20 0.205 1.37774e-57 -130.927 -125.745 9.7866 0.134729
21 0.215 1.03763e-60 -138.118 -132.937 9.7866 0.129413
22 0.225 5.16247e-64 -145.724 -140.543 9.7866 0.124008
23 0.235 6.06786e-65 -147.865 -142.684 9.7866 0.122304
24 0.245 1.55957e-67 -153.829 -148.647 9.7866 0.118521
25 0.255 1.10354e-69 -158.78 -153.598 9.7866 0.114972
26 0.265 1.09377e-68 -156.486 -151.305 9.7866 0.117063
27 0.275 9.86569e-73 -165.8 -160.618 9.7866 0.109644
28 0.285 1.17364e-73 -167.929 -162.747 9.7866 0.107758
29 0.295 1.03401e-74 -170.358 -165.176 9.7866 0.106273
30 0.305 5.54343e-79 -180.192 -175.01 9.7866 0.0968661
31 0.315 1.49479e-77 -176.897 -171.716 9.7866 0.100877
32 0.325 7.88921e-81 -184.444 -179.262 9.7866 0.0935388
33 0.335 1.90382e-84 -192.773 -187.592 9.7866 0.0857108
34 0.345 4.71124e-85 -194.17 -188.988 9.7866 0.0841503
35 0.355 1.98206e-85 -195.036 -189.854 9.7866 0.0843472
36 0.365 2.82493e-86 -196.984 -191.802 9.7866 0.0828073
37 0.375 6.99445e-88 -200.682 -195.501 9.7866 0.0792913
38 0.385 9.25424e-91 -207.31 -202.129 9.7866 0.071191
39 0.395 1.3345e-92 -211.549 -206.368 9.7866 0.0664086
40 0.405 2.84298e-92 -210.793 -205.612 9.7866 0.0678365
41 0.415 4.15578e-95 -217.321 -212.14 9.7866 0.0608688
42 0.425 4.99165e-95 -217.138 -211.956 9.7866 0.0606296
43 0.435 4.55514e-97 -221.834 -216.653 9.7866 0.0553759
44 0.445 2.10556e-98 -224.909 -219.727 9.7866 0.0519051
45 0.455 1.93916e-98 -224.991 -219.81 9.7866 0.0522623
46 0.465 2.69505e-101 -231.57 -226.388 9.7866 0.0421342
47 0.475 1.16629e-99 -227.802 -222.621 9.7866 0.0486757
48 0.485 5.9586e-102 -233.079 -227.897 9.7866 0.0412977
49 0.495 1.49936e-103 -236.761 -231.58 9.7866 0.0358683
50 0.505 1.57772e-105 -241.315 -236.134 9.7866 0.025779
51 0.515 1.65414e-102 -234.36 -229.179 9.7866 0.0396951
52 0.525 9.15829e-107 -244.162 -238.981 9.7866 0.0205903
53 0.535 1.50102e-105 -241.365 -236.184 9.7866 0.0287242
54 0.545 1.17908e-107 -246.212 -241.03 9.7866 0.0187225
55 0.555 6.88118e-109 -249.053 -243.872 9.7866 0.0123658
56 0.565 5.77621e-110 -251.531 -246.349 9.7866 0.00664951
57 0.575 8.22199e-111 -253.48 -248.299 9.7866 0.00280844
58 0.585 6.26626e-112 -256.054 -250.873 9.7866 -0.00499397
59 0.595 1.47175e-111 -255.2 -250.019 9.7866 0.000117413
60 0.605 9.10343e-113 -257.983 -252.802 9.7866 -0.00924768
61 0.615 2.16575e-113 -259.419 -254.238 9.7866 -0.0127207
62 0.625 4.37995e-114 -261.018 -255.836 9.7866 -0.0173199
63 0.635 3.54952e-115 -263.53 -258.349 9.7866 -0.0287661
64 0.645 1.60019e-115 -264.327 -259.146 9.7866 -0.0297527
65 0.655 3.05679e-116 -265.983 -260.801 9.7866 -0.0381096
66 0.665 8.42133e-117 -267.272 -262.09 9.7866 -0.0429123
67 0.675 3.95828e-117 -268.027 -262.845 9.7866 -0.0485627
68 0.685 1.11668e-117 -269.292 -264.111 9.7866 -0.0567834
69 0.695 8.21998e-118 -269.598 -264.417 9.7866 -0.0531344
70 0.705 2.62248e-118 -270.741 -265.559 9.7866 -0.0613245
71 0.715 1.18754e-118 -271.533 -266.352 9.7866 -0.0700722
72 0.725 4.35122e-119 -272.537 -267.356 9.7866 -0.0849059
73 0.735 2.64859e-119 -273.034 -267.852 9.7866 -0.0896434
74 0.745 1.09383e-119 -273.918 -268.737 9.7866 -0.100636
75 0.755 7.14648e-120 -274.344 -269.162 9.7866 -0.109635
76 0.765 4.55379e-120 -274.794 -269.613 9.7866 -0.121408
77 0.775 3.23193e-120 -275.137 -269.956 9.7866 -0.131592
78 0.785 2.22077e-120 -275.512 -270.331 9.7866 -0.141166
79 0.795 1.50691e-120 -275.9 -270.719 9.7866 -0.153439
80 0.805 1.70722e-120 -275.775 -270.594 9.7866 -0.165019
81 0.815 1.58628e-120 -275.849 -270.667 9.7866 -0.175239
82 0.825 1.58771e-120 -275.848 -270.666 9.7866 -0.188445
83 0.835 1.20958e-120 -276.12 -270.939 9.7866 -0.199107
84 0.845 1.33577e-120 -276.021 -270.839 9.7866 -0.210821
85 0.855 1.13014e-120 -276.188 -271.006 9.7866 -0.222996
86 0.865 9.48844e-121 -276.363 -271.181 9.7866 -0.236114
87 0.875 5.25758e-121 -276.953 -271.772 9.7866 -0.249158
88 0.885 4.18423e-121 -277.181 -272 9.7866 -0.259402
89 0.895 1.89878e-121 -277.972 -272.79 9.7866 -0.273119
90 0.905 6.76205e-122 -279.004 -273.823 9.7866 -0.286946
91 0.915 1.49958e-122 -280.51 -275.329 9.7866 -0.297586
92 0.925 3.83661e-123 -281.873 -276.692 9.7866 -0.310397
93 0.935 2.69336e-124 -284.53 -279.348 9.7866 -0.331785
94 0.945 1.99363e-125 -287.133 -281.952 9.7866 -0.341456
95 0.955 6.14354e-127 -290.613 -285.431 9.7866 -0.351682
96 0.965 1.04749e-128 -294.684 -289.503 9.7866 -0.371729
97 0.975 3.52631e-132 -302.681 -297.5 9.7866 -0.40643
98 0.985 3.35616e-138 -316.546 -311.365 9.7866 -0.449045
99 0.995 5.417e-147 -336.79 -331.609 9.7866 -0.490468
