0 0.005 0.186486 -1.6794 3.32396 9.60853 0.289416
1 0.015 13.8752 2.63011 7.63347 9.60853 0.286147
2 0.025 49.6276 3.90455 8.90791 9.60853 0.285251
3 0.035 30.4312 3.41547 8.41883 9.60853 0.284209
4 0.045 5.22212 1.6529 6.65626 9.60853 0.283061
5 0.055 0.618586 -0.48032 4.52304 9.60853 0.281531
6 0.065 0.0352852 -3.34429 1.65907 9.60853 0.284853
7 0.075 0.0035181 -5.64983 -0.646473 9.60853 0.2737
8 0.085 1.78598e-12 -27.0511 -22.0477 9.60853 0.225036
9 0.095 7.57086e-19 -41.7248 -36.7214 9.60853 0.208799
10 0.105 4.05697e-18 -40.0461 -35.0427 9.60853 0.2107
11 0.115 2.9918e-21 -47.2584 -42.2551 9.60853 0.2035
12 0.125 4.26888e-32 -72.2314 -67.228 9.60853 0.181759
13 0.135 3.91967e-34 -76.9219 -71.9185 9.60853 0.178271
14 0.145 4.27839e-39 -88.3472 -83.3439 9.60853 0.169158
15 0.155 9.137e-44 -99.1014 -94.0981 9.60853 0.161924
16 0.165 5.04686e-46 -104.3 -99.2968 9.60853 0.158149
17 0.175 2.97879e-47 -107.13 -102.127 9.60853 0.156684
18 0.185 4.5199e-53 -120.529 -115.525 9.60853 0.147424
19 0.195 5.36423e-54 -122.66 -117.656 9.60853 0.145808
20 0.205 9.46866e-59 -133.605 -128.601 9.60853 0.138543
21 0.215 4.54531e-59 -134.338 -129.335 9.60853 0.138622
22 0.225 2.13391e-61 -139.7 -134.696 9.60853 0.135096
23 0.235 1.57966e-66 -151.513 -146.51 9.60853 0.12569
24 0.245 4.36017e-68 -155.103 -150.1 9.60853 0.123766
25 0.255 3.07205e-69 -157.756 -152.753 9.60853 0.122187
26 0.265 3.79168e-71 -162.151 -157.147 9.60853 0.118749
27 0.275 2.58126e-73 -167.14 -162.137 9.60853 0.115258
28 0.285 1.1783e-76 -174.832 -169.829 9.60853 0.109371
29 0.295 9.86178e-79 -179.616 -174.612 9.60853 0.105804
30 0.305 1.00331e-80 -184.204 -179.2 9.60853 0.102103
31 0.315 9.77052e-82 -186.533 -181.529 9.60853 0.100397
32 0.325 9.20249e-85 -193.5 -188.497 9.60853 0.0931905
33 0.335 4.44051e-86 -196.532 -191.528 9.60853 0.0910205
34 0.345 1.21658e-85 -195.524 -190.52 9.60853 0.0935926
35 0.355 1.98634e-87 -199.639 -194.635 9.60853 0.0898489
36 0.365 8.98974e-91 -207.339 -202.336 9.60853 0.0819585
37 0.375 8.66129e-92 -209.679 -204.676 9.60853 0.0808852
38 0.385 3.06752e-93 -213.02 -208.016 9.60853 0.0766627
39 0.395 2.0149e-93 -213.44 -208.436 9.60853 0.0773414
40 0.405 3.15146e-96 -219.9 -214.897 9.60853 0.0700342
41 0.415 3.64821e-97 -222.057 -217.053 9.60853 0.0676921
42 0.425 1.14438e-98 -225.518 -220.515 9.60853 0.0642626
43 0.435 6.8264e-100 -228.338 -223.334 9.60853 0.0601126
44 0.445 7.3575e-101 -230.565 -225.562 9.60853 0.0591994
45 0.455 4.02076e-103 -235.775 -230.771 9.60853 0.0513573
46 0.465 3.27335e-104 -238.283 -233.28 9.60853 0.0477877
47 0.475 2.93338e-105 -240.695 -235.692 9.60853 0.0455127
48 0.485 8.07931e-106 -241.985 -236.981 9.60853 0.0439399
49 0.495 4.48267e-107 -244.876 -239.873 9.60853 0.0404538
50 0.505 2.9251e-108 -247.606 -242.602 9.60853 0.0366263
51 0.515 2.36638e-109 -250.12 -245.117 9.60853 0.0310761
52 0.525 2.23806e-110 -252.479 -247.475 9.60853 0.0286751
53 0.535 8.71632e-112 -255.724 -250.721 9.60853 0.0207473
54 0.545 5.91234e-112 -256.112 -251.109 9.60853 0.023612
55 0.555 1.15965e-113 -260.044 -255.041 9.60853 0.0133814
56 0.565 3.96432e-114 -261.117 -256.114 9.60853 0.0131235
57 0.575 4.75045e-115 -263.239 -258.236 9.60853 0.0092388
58 0.585 4.51279e-116 -265.593 -260.59 9.60853 0.00304897
59 0.595 7.74683e-117 -267.355 -262.352 9.60853 -0.00093415
60 0.605 2.03562e-117 -268.692 -263.688 9.60853 -0.0025796
61 0.615 5.33526e-118 -270.031 -265.027 9.60853 -0.00328087
62 0.625 1.79974e-118 -271.117 -266.114 9.60853 -0.0061264
63 0.635 9.84296e-119 -271.721 -266.718 9.60853 -0.00577533
64 0.645 3.85736e-120 -274.96 -269.957 9.60853 -0.014734
65 0.655 4.52328e-121 -277.104 -272.1 9.60853 -0.0252061
66 0.665 1.22128e-121 -278.413 -273.41 9.60853 -0.0254391
67 0.675 2.19703e-122 -280.128 -275.125 9.60853 -0.035555
68 0.685 8.27504e-123 -281.105 -276.101 9.60853 -0.0370685
69 0.695 3.99772e-123 -281.832 -276.829 9.60853 -0.0344857
70 0.705 2.10036e-124 -284.778 -279.775 9.60853 -0.0604664
71 0.715 1.36854e-124 -285.207 -280.203 9.60853 -0.0579401
72 0.725 2.75217e-125 -286.811 -281.807 9.60853 -0.073031
73 0.735 8.54965e-126 -287.98 -282.976 9.60853 -0.0824021
74 0.745 2.97994e-126 -289.034 -284.03 9.60853 -0.0902995
75 0.755 1.06234e-126 -290.065 -285.062 9.60853 -0.101278
76 0.765 6.30748e-127 -290.587 -285.583 9.60853 -0.107924
77 0.775 2.57255e-127 -291.483 -286.48 9.60853 -0.120994
78 0.785 1.34824e-127 -292.13 -287.126 9.60853 -0.130107
79 0.795 5.60864e-128 -293.007 -288.003 9.60853 -0.142302
80 0.805 4.01733e-128 -293.34 -288.337 9.60853 -0.1516
81 0.815 2.22878e-128 -293.929 -288.926 9.60853 -0.164124
82 0.825 1.28015e-128 -294.484 -289.481 9.60853 -0.176302
83 0.835 6.12846e-129 -295.221 -290.217 9.60853 -0.188167
84 0.845 4.26833e-129 -295.582 -290.579 9.60853 -0.199143
85 0.855 2.14833e-129 -296.269 -291.265 9.60853 -0.21171
86 0.865 9.87822e-130 -297.046 -292.042 9.60853 -0.224653
87 0.875 3.49676e-130 -298.084 -293.081 9.60853 -0.237617
88 0.885 1.59668e-130 -298.868 -293.865 9.60853 -0.249287
89 0.895 4.40752e-131 -300.155 -295.152 9.60853 -0.262143
90 0.905 8.9167e-132 -301.753 -296.75 9.60853 -0.27427
91 0.915 1.2334e-132 -303.731 -298.728 9.60853 -0.287399
92 0.925 1.55407e-133 -305.803 -300.8 9.60853 -0.302921
93 0.935 8.17689e-135 -308.748 -303.744 9.60853 -0.318076
94 0.945 3.06396e-136 -312.032 -307.029 9.60853 -0.327499
95 0.955 4.01874e-138 -316.366 -311.362 9.60853 -0.345426
96 0.965 3.17831e-140 -321.206 -316.202 9.60853 -0.363978
97 0.975 6.58463e-144 -329.688 -324.684 9.60853 -0.39345
98 0.985 2.40511e-149 -342.208 -337.204 9.60853 -0.434902
99 0.995 1.83274e-158 -363.203 -358.199 9.60853 -0.477583
