0 0.005 4.5573e-207 -475.118 81.5882 561.312 0.234269
1 0.015 1.59652e-203 -466.957 89.7497 561.312 0.21315
2 0.025 7.78321e-202 -463.07 93.6364 561.312 0.211571
3 0.035 8.42485e-201 -460.688 96.0182 561.312 0.207076
4 0.045 2.16126e-200 -459.746 96.9603 561.312 0.203277
5 0.055 3.84667e-200 -459.17 97.5368 561.312 0.19999
6 0.065 3.2046e-200 -459.352 97.3542 561.312 0.196084
7 0.075 1.65561e-200 -460.013 96.6938 561.312 0.192061
8 0.085 4.88442e-201 -461.234 95.4731 561.312 0.188041
9 0.095 1.52487e-201 -462.398 94.3089 561.312 0.183747
10 0.105 3.14379e-202 -463.977 92.7298 561.312 0.178367
11 0.115 6.13695e-203 -465.61 91.0962 561.312 0.174357
12 0.125 1.38646e-203 -467.098 89.6086 561.312 0.173147
13 0.135 2.02743e-204 -469.021 87.686 561.312 0.166459
14 0.145 1.87896e-205 -471.399 85.3074 561.312 0.158075
15 0.155 2.91868e-206 -473.261 83.4452 561.312 0.153963
16 0.165 2.69404e-207 -475.644 81.0625 561.312 0.145589
17 0.175 1.08655e-207 -476.552 80.1545 561.312 0.144379
18 0.185 3.66917e-208 -477.638 79.0689 561.312 0.145921
19 0.195 4.44774e-209 -479.748 76.9587 561.312 0.136495
20 0.205 8.37998e-210 -481.417 75.2896 561.312 0.131805
21 0.215 2.41089e-210 -482.663 74.0437 561.312 0.124831
22 0.225 6.83297e-211 -483.924 72.7829 561.312 0.11929
23 0.235 2.10198e-211 -485.103 71.604 561.312 0.113338
24 0.245 7.87669e-212 -486.084 70.6225 561.312 0.10839
25 0.255 4.16578e-212 -486.721 69.9855 561.312 0.102897
26 0.265 3.15001e-212 -487.001 69.706 561.312 0.0971946
27 0.275 2.24978e-212 -487.337 69.3694 561.312 0.091207
28 0.285 2.00807e-212 -487.451 69.2557 561.312 0.0849134
29 0.295 1.81372e-212 -487.553 69.1539 561.312 0.0785282
30 0.305 2.98564e-212 -487.054 69.6524 561.312 0.072712
31 0.315 4.77228e-212 -486.585 70.1214 561.312 0.0670497
32 0.325 1.12875e-211 -485.724 70.9823 561.312 0.0586077
33 0.335 9.28445e-211 -483.617 73.0895 561.312 0.0363282
34 0.345 1.09912e-210 -483.448 73.2582 561.312 0.0435036
35 0.355 2.03597e-210 -482.832 73.8747 561.312 0.0449663
36 0.365 1.60513e-209 -480.767 75.9395 561.312 0.0346968
37 0.375 9.00604e-209 -479.042 77.6642 561.312 0.0269792
38 0.385 5.72792e-208 -477.192 79.5143 561.312 0.022231
39 0.395 1.188e-207 -476.463 80.2438 561.312 0.0251699
40 0.405 1.31223e-205 -471.758 84.9484 561.312 0.00891855
41 0.415 8.74746e-206 -472.164 84.5428 561.312 0.0140634
42 0.425 3.32536e-204 -468.526 88.1808 561.312 0.00352916
43 0.435 1.04663e-202 -465.077 91.63 561.312 -0.00220665
44 0.445 4.89075e-202 -463.535 93.1718 561.312 -0.00355978
45 0.455 9.22707e-202 -462.9 93.8066 561.312 -0.00286992
46 0.465 1.511e-199 -457.802 98.9049 561.312 -0.0133407
47 0.475 2.05551e-197 -452.889 103.818 561.312 -0.02111
48 0.485 4.23036e-197 -452.167 104.54 561.312 -0.0200958
49 0.495 5.51194e-195 -447.297 109.409 561.312 -0.0280267
50 0.505 7.94803e-194 -444.629 112.078 561.312 -0.0314279
51 0.515 3.05054e-193 -443.284 113.423 561.312 -0.0333036
52 0.525 2.21848e-191 -438.997 117.71 561.312 -0.0388428
53 0.535 8.23011e-190 -435.383 121.323 561.312 -0.0415756
54 0.545 1.79856e-188 -432.299 124.408 561.312 -0.0460449
55 0.555 1.47907e-185 -425.587 131.12 561.312 -0.0553982
56 0.565 2.07433e-183 -420.643 136.063 561.312 -0.060391
57 0.575 8.28977e-182 -416.955 139.751 561.312 -0.0643838
58 0.585 1.79826e-176 -404.668 152.038 561.312 -0.0790975
59 0.595 1.17e-179 -412.006 144.701 561.312 -0.069379
60 0.605 2.27086e-177 -406.737 149.969 561.312 -0.0749756
61 0.615 1.14163e-172 -395.912 160.794 561.312 -0.0876041
62 0.625 4.96187e-172 -394.443 162.264 561.312 -0.0895846
63 0.635 4.73545e-169 -387.582 169.125 561.312 -0.0970384
64 0.645 1.09623e-166 -382.137 174.569 561.312 -0.102082
65 0.655 3.96417e-165 -378.549 178.157 561.312 -0.105503
66 0.665 4.60117e-161 -369.19 187.517 561.312 -0.115093
67 0.675 3.26632e-158 -362.625 194.082 561.312 -0.122192
68 0.685 3.37966e-154 -353.38 203.326 561.312 -0.131047
69 0.695 4.6307e-151 -346.158 210.549 561.312 -0.138494
70 0.705 2.95511e-151 -346.607 210.1 561.312 -0.136623
71 0.715 1.56665e-140 -321.913 234.794 561.312 -0.1619
72 0.725 8.99261e-144 -329.376 227.331 561.312 -0.154532
73 0.735 4.59774e-138 -316.231 240.475 561.312 -0.167212
74 0.745 4.26562e-136 -311.701 245.006 561.312 -0.170726
75 0.755 1.07956e-130 -299.26 257.447 561.312 -0.183494
76 0.765 3.21112e-128 -293.564 263.142 561.312 -0.188802
77 0.775 7.40208e-125 -285.821 270.885 561.312 -0.195678
78 0.785 3.56586e-119 -272.736 283.97 561.312 -0.208595
79 0.795 5.32864e-115 -263.124 293.582 561.312 -0.217262
80 0.805 2.42876e-109 -250.094 306.612 561.312 -0.230086
81 0.815 2.30856e-104 -238.632 318.074 561.312 -0.240593
82 0.825 1.235e-95 -218.535 338.172 561.312 -0.260853
83 0.835 1.19987e-91 -209.353 347.354 561.312 -0.269803
84 0.845 8.7743e-87 -198.153 358.554 561.312 -0.280094
85 0.855 4.50363e-79 -180.399 376.307 561.312 -0.29833
86 0.865 5.52363e-73 -166.38 390.327 561.312 -0.312766
87 0.875 2.47277e-66 -151.065 405.641 561.312 -0.329173
88 0.885 1.10915e-57 -131.144 425.563 561.312 -0.350879
89 0.895 4.35432e-52 -118.263 438.443 561.312 -0.365229
90 0.905 9.80798e-44 -99.0305 457.676 561.312 -0.386781
91 0.915 1.25562e-34 -78.0603 478.646 561.312 -0.413892
92 0.925 4.52072e-31 -69.8715 486.835 561.312 -0.424435
93 0.935 7.6225e-23 -50.9284 505.778 561.312 -0.451248
94 0.945 4.59617e-14 -30.711 525.996 561.312 -0.485885
95 0.955 6.46851e-12 -25.7641 530.943 561.312 -0.493083
96 0.965 1.16445e-05 -11.3607 545.346 561.312 -0.527056
97 0.975 0.0470217 -3.05715 553.649 561.312 -0.546976
98 0.985 15.7981 2.75989 559.466 561.312 -0.560173
99 0.995 84.1549 4.43266 561.139 561.312 -0.569149
