0 0.005 0.0118681 -4.4339 0.994633 10.0337 0.247949
1 0.015 1.55779 0.443265 5.8718 10.0337 0.250341
2 0.025 13.5559 2.60682 8.03535 10.0337 0.247942
3 0.035 22.6191 3.11879 8.54732 10.0337 0.24504
4 0.045 8.94488 2.19108 7.61961 10.0337 0.242449
5 0.055 2.74703 1.01052 6.43905 10.0337 0.240162
6 0.065 0.214137 -1.54114 3.88739 10.0337 0.237049
7 0.075 0.0102906 -4.57652 0.852009 10.0337 0.231838
8 0.085 0.000701551 -7.26222 -1.83369 10.0337 0.222067
9 0.095 2.36711e-07 -15.2564 -9.8279 10.0337 0.205977
10 0.105 3.50036e-09 -19.4704 -14.0419 10.0337 0.199356
11 0.115 1.60905e-13 -29.458 -24.0294 10.0337 0.184686
12 0.125 1.28776e-16 -36.5885 -31.1599 10.0337 0.17518
13 0.135 3.78697e-16 -35.5098 -30.0813 10.0337 0.178211
14 0.145 1.93959e-17 -38.4815 -33.0529 10.0337 0.17454
15 0.155 1.46886e-22 -50.2724 -44.8439 10.0337 0.160002
16 0.165 9.58577e-24 -53.0018 -47.5732 10.0337 0.15814
17 0.175 8.32045e-25 -55.4459 -50.0174 10.0337 0.156385
18 0.185 1.36239e-28 -64.1631 -58.7346 10.0337 0.147293
19 0.195 3.68905e-28 -63.167 -57.7385 10.0337 0.149491
20 0.205 3.98251e-32 -72.3008 -66.8723 10.0337 0.140048
21 0.215 3.79073e-34 -76.9553 -71.5268 10.0337 0.134481
22 0.225 3.7175e-35 -79.2774 -73.8489 10.0337 0.13244
23 0.235 2.20415e-37 -84.4053 -78.9768 10.0337 0.126649
24 0.245 4.95912e-39 -88.1996 -82.7711 10.0337 0.12328
25 0.255 9.01252e-40 -89.9048 -84.4763 10.0337 0.121773
26 0.265 1.00746e-40 -92.096 -86.6674 10.0337 0.118535
27 0.275 5.04729e-42 -95.0897 -89.6612 10.0337 0.116562
28 0.285 2.48477e-44 -100.404 -94.975 10.0337 0.108863
29 0.295 4.50284e-45 -102.112 -96.6831 10.0337 0.10747
30 0.305 5.55462e-46 -104.204 -98.7758 10.0337 0.105306
31 0.315 1.99173e-45 -102.927 -97.4988 10.0337 0.108054
32 0.325 1.13017e-48 -110.402 -104.973 10.0337 0.0955662
33 0.335 5.33883e-50 -113.454 -108.026 10.0337 0.0899852
34 0.345 1.37219e-50 -114.813 -109.384 10.0337 0.0888288
35 0.355 2.09775e-51 -116.691 -111.262 10.0337 0.0858563
36 0.365 1.08921e-51 -117.346 -111.918 10.0337 0.0864842
37 0.375 2.06651e-53 -121.311 -115.883 10.0337 0.0763029
38 0.385 7.62636e-54 -122.308 -116.879 10.0337 0.0752434
39 0.395 8.15659e-55 -124.543 -119.115 10.0337 0.0685095
40 0.405 1.85542e-55 -126.024 -120.596 10.0337 0.0651851
41 0.415 3.65947e-56 -127.647 -122.219 10.0337 0.0616599
42 0.425 9.61028e-57 -128.985 -123.556 10.0337 0.0552901
43 0.435 3.1327e-57 -130.105 -124.677 10.0337 0.0518149
44 0.445 9.00753e-58 -131.352 -125.923 10.0337 0.0450484
45 0.455 3.94885e-58 -132.177 -126.748 10.0337 0.0436548
46 0.465 1.87536e-58 -132.921 -127.493 10.0337 0.0360346
47 0.475 1.00026e-58 -133.55 -128.121 10.0337 0.03083
48 0.485 4.97767e-59 -134.248 -128.819 10.0337 0.0215406
49 0.495 3.05798e-59 -134.735 -129.306 10.0337 0.0160677
50 0.505 2.30961e-59 -135.015 -129.587 10.0337 0.00728084
51 0.515 2.65248e-59 -134.877 -129.448 10.0337 -0.000581956
52 0.525 2.97789e-59 -134.761 -129.333 10.0337 -0.00726588
53 0.535 4.10148e-59 -134.441 -129.013 10.0337 -0.0157614
54 0.545 4.93455e-59 -134.256 -128.828 10.0337 -0.0228613
55 0.555 1.00806e-58 -133.542 -128.113 10.0337 -0.0291529
56 0.565 2.56164e-58 -132.609 -127.181 10.0337 -0.038094
57 0.575 8.50484e-58 -131.409 -125.981 10.0337 -0.0492396
58 0.585 1.73463e-57 -130.697 -125.268 10.0337 -0.0537769
59 0.595 6.37065e-57 -129.396 -123.967 10.0337 -0.0607462
60 0.605 2.76602e-56 -127.927 -122.499 10.0337 -0.0690557
61 0.615 8.97333e-56 -126.751 -121.322 10.0337 -0.0703826
62 0.625 3.89321e-55 -125.283 -119.854 10.0337 -0.078314
63 0.635 1.18007e-53 -121.871 -116.443 10.0337 -0.0986684
64 0.645 1.63532e-53 -121.545 -116.117 10.0337 -0.0920344
65 0.655 3.84739e-52 -118.387 -112.958 10.0337 -0.105859
66 0.665 1.96251e-51 -116.758 -111.329 10.0337 -0.109388
67 0.675 3.07247e-50 -114.007 -108.578 10.0337 -0.118524
68 0.685 2.5668e-49 -111.884 -106.455 10.0337 -0.123433
69 0.695 3.26705e-48 -109.34 -103.912 10.0337 -0.128381
70 0.705 5.81666e-47 -106.461 -101.032 10.0337 -0.139172
71 0.715 1.882e-45 -102.984 -97.5555 10.0337 -0.149652
72 0.725 4.25084e-44 -99.8666 -94.4381 10.0337 -0.156406
73 0.735 1.84677e-42 -96.0951 -90.6666 10.0337 -0.165687
74 0.745 4.57179e-41 -92.8861 -87.4576 10.0337 -0.172749
75 0.755 6.70794e-40 -90.2001 -84.7716 10.0337 -0.177809
76 0.765 4.38455e-38 -86.0201 -80.5916 10.0337 -0.189005
77 0.775 1.36571e-36 -82.5814 -77.1529 10.0337 -0.195026
78 0.785 2.1025e-34 -77.5448 -72.1162 10.0337 -0.206455
79 0.795 2.93399e-33 -74.9089 -69.4804 10.0337 -0.211738
80 0.805 1.43519e-30 -68.7163 -63.2877 10.0337 -0.225764
81 0.815 5.17817e-28 -62.8279 -57.3994 10.0337 -0.242381
82 0.825 5.95112e-26 -58.0836 -52.6551 10.0337 -0.253029
83 0.835 5.29754e-24 -53.5948 -48.1663 10.0337 -0.266372
84 0.845 1.08428e-21 -48.2734 -42.8448 10.0337 -0.276317
85 0.855 4.15376e-19 -42.3251 -36.8966 10.0337 -0.29201
86 0.865 9.45816e-17 -36.8971 -31.4685 10.0337 -0.306299
87 0.875 2.10154e-14 -31.4935 -26.065 10.0337 -0.322746
88 0.885 8.70377e-12 -25.4673 -20.0387 10.0337 -0.341881
89 0.895 7.51927e-09 -18.7058 -13.2773 10.0337 -0.371121
90 0.905 2.94923e-07 -15.0366 -9.60802 10.0337 -0.374292
91 0.915 2.95169e-05 -10.4305 -5.00202 10.0337 -0.400596
92 0.925 0.00112328 -6.7915 -1.36297 10.0337 -0.403314
93 0.935 0.0452249 -3.09611 2.33242 10.0337 -0.419118
94 0.945 0.874816 -0.133742 5.29479 10.0337 -0.431629
95 0.955 5.36644 1.68016 7.1087 10.0337 -0.443598
96 0.965 20.7264 3.03141 8.45994 10.0337 -0.456356
97 0.975 20.1033 3.00088 8.42942 10.0337 -0.468896
98 0.985 3.19118 1.16039 6.58892 10.0337 -0.481287
99 0.995 0.0298273 -3.51233 1.9162 10.0337 -0.493717
