0 0.005 0.00659042 -5.02214 -0.69337 8.93394 0.257543
1 0.015 1.66042 0.507073 4.83584 8.93394 0.249989
2 0.025 15.5505 2.74409 7.07286 8.93394 0.247622
3 0.035 25.0818 3.22214 7.55091 8.93394 0.24529
4 0.045 10.7088 2.37107 6.69983 8.93394 0.242714
5 0.055 2.87993 1.05777 5.38653 8.93394 0.240285
6 0.065 0.310887 -1.16833 3.16044 8.93394 0.237118
7 0.075 0.00929613 -4.67816 -0.34939 8.93394 0.231773
8 0.085 6.84176e-05 -9.58988 -5.26111 8.93394 0.214556
9 0.095 8.6721e-07 -13.958 -9.62922 8.93394 0.207565
10 0.105 4.37002e-10 -21.5511 -17.2223 8.93394 0.195877
11 0.115 4.18905e-11 -23.896 -19.5672 8.93394 0.192573
12 0.125 6.47057e-16 -34.9741 -30.6453 8.93394 0.178206
13 0.135 9.77479e-20 -43.7719 -39.4431 8.93394 0.166711
14 0.145 9.85914e-20 -43.7633 -39.4345 8.93394 0.167057
15 0.155 5.57156e-24 -53.5444 -49.2156 8.93394 0.15566
16 0.165 4.30865e-26 -58.4066 -54.0778 8.93394 0.150778
17 0.175 2.86749e-27 -61.1164 -56.7876 8.93394 0.149233
18 0.185 7.28702e-29 -64.7889 -60.4601 8.93394 0.145795
19 0.195 1.24011e-31 -71.1649 -66.8362 8.93394 0.138343
20 0.205 2.7596e-33 -74.9702 -70.6415 8.93394 0.134249
21 0.215 2.18439e-35 -79.8091 -75.4804 8.93394 0.128876
22 0.225 1.20484e-37 -85.0093 -80.6805 8.93394 0.123305
23 0.235 2.87559e-38 -86.442 -82.1132 8.93394 0.121871
24 0.245 4.18422e-40 -90.6721 -86.3433 8.93394 0.117709
25 0.255 1.43753e-41 -94.0431 -89.7143 8.93394 0.114059
26 0.265 5.04506e-41 -92.7876 -88.4588 8.93394 0.116804
27 0.275 1.40077e-43 -98.6741 -94.3454 8.93394 0.108468
28 0.285 3.48571e-44 -100.065 -95.7363 8.93394 0.107172
29 0.295 5.63781e-45 -101.887 -97.5581 8.93394 0.105892
30 0.305 2.17019e-47 -107.447 -103.118 8.93394 0.0958117
31 0.315 8.75255e-47 -106.052 -101.723 8.93394 0.100543
32 0.325 1.22547e-48 -110.321 -105.992 8.93394 0.09296
33 0.335 1.13005e-50 -115.007 -110.678 8.93394 0.0839972
34 0.345 5.33408e-51 -115.758 -111.429 8.93394 0.0827046
35 0.355 2.16172e-51 -116.661 -112.332 8.93394 0.0825185
36 0.365 5.54413e-52 -118.022 -113.693 8.93394 0.0812692
37 0.375 5.85937e-53 -120.269 -115.94 8.93394 0.0782311
38 0.385 3.82543e-54 -122.998 -118.669 8.93394 0.0684688
39 0.395 4.24902e-55 -125.195 -120.867 8.93394 0.0635816
40 0.405 4.83203e-55 -125.067 -120.738 8.93394 0.0653519
41 0.415 1.91627e-56 -128.294 -123.966 8.93394 0.0556564
42 0.425 2.06352e-56 -128.22 -123.892 8.93394 0.057152
43 0.435 2.72332e-57 -130.245 -125.917 8.93394 0.0488521
44 0.445 6.98509e-58 -131.606 -127.277 8.93394 0.0433412
45 0.455 3.56137e-58 -132.28 -127.951 8.93394 0.0450724
46 0.465 1.21574e-58 -133.355 -129.026 8.93394 0.0309877
47 0.475 1.2584e-58 -133.32 -128.991 8.93394 0.0372362
48 0.485 5.23631e-59 -134.197 -129.868 8.93394 0.0217006
49 0.495 2.91472e-59 -134.783 -130.454 8.93394 0.012111
50 0.505 2.3446e-59 -135 -130.672 8.93394 0.00608961
51 0.515 3.84877e-59 -134.505 -130.176 8.93394 0.00547393
52 0.525 3.55126e-59 -134.585 -130.256 8.93394 -0.00610232
53 0.535 5.09137e-59 -134.225 -129.896 8.93394 -0.0155087
54 0.545 5.14123e-59 -134.215 -129.886 8.93394 -0.0197063
55 0.555 1.05994e-58 -133.492 -129.163 8.93394 -0.0269984
56 0.565 2.57659e-58 -132.603 -128.275 8.93394 -0.0352554
57 0.575 5.57989e-58 -131.831 -127.502 8.93394 -0.0413882
58 0.585 1.39442e-57 -130.915 -126.586 8.93394 -0.048292
59 0.595 9.04811e-57 -129.045 -124.716 8.93394 -0.0616114
60 0.605 2.75731e-56 -127.931 -123.602 8.93394 -0.065352
61 0.615 1.97433e-55 -125.962 -121.633 8.93394 -0.0749787
62 0.625 2.38914e-54 -123.469 -119.14 8.93394 -0.0876301
63 0.635 1.03251e-54 -124.308 -119.979 8.93394 -0.0763297
64 0.645 4.39462e-54 -122.859 -118.53 8.93394 -0.0847406
65 0.655 1.53349e-52 -119.307 -114.978 8.93394 -0.0971558
66 0.665 1.71016e-52 -119.198 -114.869 8.93394 -0.0954262
67 0.675 1.88705e-51 -116.797 -112.468 8.93394 -0.103835
68 0.685 5.95091e-49 -111.043 -106.714 8.93394 -0.122893
69 0.695 1.48435e-48 -110.129 -105.8 8.93394 -0.123818
70 0.705 1.94941e-48 -109.857 -105.528 8.93394 -0.12176
71 0.715 3.88512e-46 -104.562 -100.233 8.93394 -0.13935
72 0.725 4.60617e-44 -99.7863 -95.4576 8.93394 -0.150204
73 0.735 2.85893e-42 -95.6581 -91.3294 8.93394 -0.161809
74 0.745 1.4753e-40 -91.7145 -87.3858 8.93394 -0.17024
75 0.755 5.7425e-41 -92.6581 -88.3293 8.93394 -0.165918
76 0.765 1.79186e-39 -89.2176 -84.8888 8.93394 -0.174233
77 0.775 3.3568e-37 -83.9847 -79.6559 8.93394 -0.18793
78 0.785 1.0854e-35 -80.5085 -76.1798 8.93394 -0.19421
79 0.795 3.68259e-33 -74.6817 -70.3529 8.93394 -0.209697
80 0.805 3.84138e-31 -70.0343 -65.7055 8.93394 -0.220398
81 0.815 5.5909e-30 -67.3564 -63.0276 8.93394 -0.224936
82 0.825 1.22087e-25 -57.3651 -53.0363 8.93394 -0.251808
83 0.835 2.13286e-25 -56.8072 -52.4784 8.93394 -0.249368
84 0.845 2.64564e-22 -49.684 -45.3552 8.93394 -0.268042
85 0.855 2.004e-19 -43.054 -38.7252 8.93394 -0.286879
86 0.865 1.27858e-17 -38.8982 -34.5694 8.93394 -0.293106
87 0.875 1.92753e-14 -31.58 -27.2512 8.93394 -0.319224
88 0.885 1.33164e-12 -27.3446 -23.0158 8.93394 -0.328184
89 0.895 8.57259e-09 -18.5747 -14.2459 8.93394 -0.361941
90 0.905 2.93933e-07 -15.0399 -10.7111 8.93394 -0.370264
91 0.915 1.1109e-05 -11.4078 -7.07899 8.93394 -0.382938
92 0.925 0.000803833 -7.12612 -2.79735 8.93394 -0.399929
93 0.935 0.0419655 -3.17091 1.15786 8.93394 -0.421852
94 0.945 0.731625 -0.312487 4.01628 8.93394 -0.431473
95 0.955 4.59665 1.52533 5.8541 8.93394 -0.443662
96 0.965 17.3332 2.85262 7.18139 8.93394 -0.456442
97 0.975 18.0325 2.89218 7.22094 8.93394 -0.468743
98 0.985 3.03748 1.11103 5.43979 8.93394 -0.480537
99 0.995 0.0174996 -4.04558 0.283192 8.93394 -0.499223
