0 0.005 0.00980645 -4.62471 1.56149 10.7914 0.252527
1 0.015 1.53626 0.429349 6.61555 10.7914 0.250029
2 0.025 12.2805 2.50801 8.69422 10.7914 0.247731
3 0.035 19.7732 2.98433 9.17053 10.7914 0.24514
4 0.045 8.24299 2.10936 8.29556 10.7914 0.242519
5 0.055 2.37752 0.866058 7.05226 10.7914 0.240185
6 0.065 0.216368 -1.53077 4.65543 10.7914 0.23749
7 0.075 0.0117264 -4.44592 1.74029 10.7914 0.234705
8 0.085 0.000177205 -8.6382 -2.452 10.7914 0.21935
9 0.095 3.40189e-08 -17.1963 -11.0101 10.7914 0.201294
10 0.105 3.56353e-11 -24.0577 -17.8715 10.7914 0.190825
11 0.115 1.70796e-12 -27.0957 -20.9095 10.7914 0.188326
12 0.125 8.16196e-15 -32.4393 -26.2531 10.7914 0.181068
13 0.135 9.80162e-18 -39.164 -32.9778 10.7914 0.172493
14 0.145 5.83285e-21 -46.5908 -40.4046 10.7914 0.164538
15 0.155 1.3538e-22 -50.354 -44.1678 10.7914 0.161399
16 0.165 1.67795e-23 -52.4419 -46.2557 10.7914 0.160227
17 0.175 1.81211e-26 -59.2727 -53.0865 10.7914 0.152193
18 0.185 8.40001e-29 -64.6467 -58.4605 10.7914 0.147032
19 0.195 2.38973e-30 -68.2064 -62.0202 10.7914 0.143372
20 0.205 7.88012e-33 -73.921 -67.7348 10.7914 0.138161
21 0.215 2.53787e-33 -75.054 -68.8678 10.7914 0.136591
22 0.225 6.36591e-36 -81.0421 -74.8559 10.7914 0.130421
23 0.235 1.55655e-37 -84.7532 -78.567 10.7914 0.126666
24 0.245 2.52229e-35 -79.6653 -73.4791 10.7914 0.133293
25 0.255 6.30467e-40 -90.2621 -84.0759 10.7914 0.121677
26 0.265 1.93534e-41 -93.7457 -87.5595 10.7914 0.11802
27 0.275 4.83167e-43 -97.436 -91.2498 10.7914 0.11212
28 0.285 1.72627e-43 -98.4652 -92.279 10.7914 0.112939
29 0.295 6.0195e-46 -104.124 -97.9377 10.7914 0.104117
30 0.305 4.73971e-46 -104.363 -98.1767 10.7914 0.10496
31 0.315 5.53874e-47 -106.51 -100.324 10.7914 0.101777
32 0.325 4.03614e-49 -111.431 -105.245 10.7914 0.0925269
33 0.335 1.5166e-49 -112.41 -106.224 10.7914 0.0934259
34 0.345 1.39438e-48 -110.192 -104.005 10.7914 0.0990291
35 0.355 1.24472e-51 -117.213 -111.027 10.7914 0.085537
36 0.365 3.6105e-52 -118.451 -112.264 10.7914 0.0841627
37 0.375 1.67295e-53 -121.522 -115.336 10.7914 0.0774156
38 0.385 4.25275e-54 -122.892 -116.706 10.7914 0.0732568
39 0.395 9.14969e-55 -124.428 -118.242 10.7914 0.0694432
40 0.405 2.51263e-55 -125.721 -119.535 10.7914 0.0665691
41 0.415 2.5012e-56 -128.028 -121.842 10.7914 0.0580984
42 0.425 3.58908e-56 -127.667 -121.481 10.7914 0.0648408
43 0.435 3.04994e-57 -130.132 -123.946 10.7914 0.0503881
44 0.445 1.01975e-57 -131.228 -125.042 10.7914 0.0457074
45 0.455 3.14143e-58 -132.405 -126.219 10.7914 0.040104
46 0.465 4.26311e-58 -132.1 -125.914 10.7914 0.0499809
47 0.475 8.16685e-59 -133.752 -127.566 10.7914 0.0283461
48 0.485 4.23393e-59 -134.409 -128.223 10.7914 0.0203408
49 0.495 2.42496e-59 -134.967 -128.781 10.7914 0.014508
50 0.505 1.92711e-59 -135.196 -129.01 10.7914 0.00735337
51 0.515 2.15168e-59 -135.086 -128.9 10.7914 0.000634555
52 0.525 2.36828e-59 -134.99 -128.804 10.7914 -0.00734778
53 0.535 3.23096e-59 -134.68 -128.494 10.7914 -0.0143354
54 0.545 3.97961e-59 -134.471 -128.285 10.7914 -0.0222238
55 0.555 9.05845e-59 -133.649 -127.463 10.7914 -0.0311177
56 0.565 1.94789e-58 -132.883 -126.697 10.7914 -0.0385747
57 0.575 4.73774e-58 -131.994 -125.808 10.7914 -0.044385
58 0.585 1.1477e-57 -131.11 -124.923 10.7914 -0.0523619
59 0.595 4.81064e-57 -129.677 -123.49 10.7914 -0.0610049
60 0.605 1.27166e-56 -128.704 -122.518 10.7914 -0.0631404
61 0.615 8.71433e-56 -126.78 -120.594 10.7914 -0.0733426
62 0.625 6.11701e-55 -124.831 -118.645 10.7914 -0.0833371
63 0.635 2.38478e-54 -123.47 -117.284 10.7914 -0.0858995
64 0.645 4.94173e-53 -120.439 -114.253 10.7914 -0.100059
65 0.655 5.20062e-52 -118.086 -111.899 10.7914 -0.108256
66 0.665 1.58688e-51 -116.97 -110.784 10.7914 -0.108558
67 0.675 1.04523e-49 -112.782 -106.596 10.7914 -0.12449
68 0.685 5.54881e-50 -113.416 -107.229 10.7914 -0.114818
69 0.695 2.35634e-48 -109.667 -103.481 10.7914 -0.129406
70 0.705 7.96588e-47 -106.146 -99.9601 10.7914 -0.13997
71 0.715 9.27268e-46 -103.692 -97.5056 10.7914 -0.145041
72 0.725 1.58103e-44 -100.856 -94.6695 10.7914 -0.150802
73 0.735 4.77723e-43 -97.4473 -91.2611 10.7914 -0.158275
74 0.745 3.41396e-42 -95.4807 -89.2945 10.7914 -0.16222
75 0.755 2.81174e-40 -91.0696 -84.8834 10.7914 -0.173727
76 0.765 3.97505e-38 -86.1182 -79.932 10.7914 -0.185421
77 0.775 2.51756e-36 -81.9698 -75.7836 10.7914 -0.196254
78 0.785 1.5872e-33 -75.5233 -69.3371 10.7914 -0.213571
79 0.795 3.72413e-32 -72.3679 -66.1817 10.7914 -0.220191
80 0.805 2.22795e-31 -70.5791 -64.3929 10.7914 -0.21988
81 0.815 2.4601e-26 -58.967 -52.7808 10.7914 -0.253646
82 0.825 1.00172e-25 -57.5629 -51.3767 10.7914 -0.253015
83 0.835 5.9294e-24 -53.4821 -47.2959 10.7914 -0.263283
84 0.845 5.06384e-22 -49.0347 -42.8485 10.7914 -0.27346
85 0.855 1.12344e-19 -43.6327 -37.4465 10.7914 -0.284448
86 0.865 1.56182e-16 -36.3955 -30.2093 10.7914 -0.306951
87 0.875 1.44033e-14 -31.8713 -25.6851 10.7914 -0.318898
88 0.885 7.4998e-12 -25.6161 -19.4299 10.7914 -0.337837
89 0.895 9.70643e-10 -20.7531 -14.5669 10.7914 -0.350734
90 0.905 2.82105e-07 -15.081 -8.89479 10.7914 -0.372423
91 0.915 1.61021e-05 -11.0366 -4.85036 10.7914 -0.388712
92 0.925 0.0011221 -6.79256 -0.606355 10.7914 -0.402064
93 0.935 0.0491756 -3.01236 3.17384 10.7914 -0.417626
94 0.945 0.970639 -0.0298009 6.1564 10.7914 -0.432117
95 0.955 5.83957 1.76466 7.95086 10.7914 -0.443679
96 0.965 22.923 3.13214 9.31834 10.7914 -0.456451
97 0.975 22.1406 3.09741 9.28362 10.7914 -0.469011
98 0.985 3.60152 1.28135 7.46756 10.7914 -0.481136
99 0.995 0.025758 -3.65901 2.52719 10.7914 -0.496773
