0.0 0.0 0.005 0.0 0.0 0.0 -inf nan -inf nan 213.62939999999998 0.5113078602975968 nan nan 
1.0 0.0 0.015 0.0 0.0 0.0 -933.711 0.43484424794736903 -724.6868 0.8122292976777544 213.62939999999998 0.5113078602975968 0.208115 0.0010954109731056581 
2.0 0.0 0.025 0.0 0.0 0.0 -923.6972 0.8003291023137357 -714.673 0.5175577262466414 213.62939999999998 0.5113078602975968 0.19239499999999998 0.0017150874263434275 
3.0 0.0 0.035 0.0 0.0 0.0 -917.7601999999999 0.5511204877486253 -708.7362 0.6658551433893803 213.62939999999998 0.5113078602975968 0.1822512 0.0025369118455319346 
4.0 0.0 0.045 0.0 0.0 0.0 -913.9958 0.29514815262254646 -704.9716000000001 0.2906437819422659 213.62939999999998 0.5113078602975968 0.1744332 0.0014954202994476005 
5.0 0.0 0.05500000000000001 4.16500117164066e-10 0.0 0.0 -911.3777999999999 0.08052994495472558 -702.3534 0.5357976185252642 213.62939999999998 0.5113078602975968 0.17110399999999998 0.00044043505764402923 
6.0 0.0 0.065 0.0 0.0 0.0 -908.945 0.09923547747828772 -699.9208000000001 0.4920545010168129 213.62939999999998 0.5113078602975968 0.1639672 0.0010284670300984464 
7.0 0.0 0.075 0.0 0.0 0.0 -907.2609999999999 0.09021884528611915 -698.2367999999999 0.5535115825557453 213.62939999999998 0.5113078602975968 0.1605648 0.0006507137865449674 
8.0 0.0 0.085 4.16500117164066e-10 0.0 0.0 -906.2182 0.13666174296158112 -697.1938 0.62705019893992 213.62939999999998 0.5113078602975968 0.15677259999999998 0.0006240256789589631 
9.0 0.0 0.095 0.0 0.0 0.0 -904.7918 0.11671483212732708 -695.7676 0.6123038853274266 213.62939999999998 0.5113078602975968 0.1521546 0.00048633343294521064 
10.0 0.0 0.10500000000000001 8.33000234328132e-10 0.0 0.0 -903.7598 0.11641903625420985 -694.7360000000001 0.6146934845719684 213.62939999999998 0.5113078602975968 0.1475496 0.00026505540552780956 
11.0 0.0 0.11500000000000002 8.33000234328132e-10 0.0 0.0 -902.6998 0.07761154561423066 -693.6758000000001 0.5508523141259721 213.62939999999998 0.5113078602975968 0.14225020000000002 0.00049588300232862 
12.0 0.0 0.125 0.0 0.0 0.0 -901.9559999999999 0.05386427427641191 -692.9316 0.5207336056146787 213.62939999999998 0.5113078602975968 0.13757959999999997 0.0005698660614580615 
13.0 0.0 0.135 0.0 0.0 0.0 -900.8884 0.05262136425604057 -691.8642 0.537486848208512 213.62939999999998 0.5113078602975968 0.1330566 0.00024811136209472115 
14.0 0.0 0.145 0.0 0.0 0.0 -899.6986 0.08228613474843813 -690.6742000000002 0.454460594516053 213.62939999999998 0.5113078602975968 0.126749 0.000961871134820605 
15.0 0.0 0.155 0.0 0.0 0.0 -898.7782 0.11114545431371507 -689.754 0.6032257288794641 213.62939999999998 0.5113078602975968 0.122434 0.0008694475027277586 
16.0 0.0 0.165 8.33000234328132e-10 0.0 0.0 -897.9176 0.13463360645067501 -688.8934 0.6295955273022741 213.62939999999998 0.5113078602975968 0.1181106 0.0008573899742824725 
17.0 0.0 0.175 0.0 0.0 0.0 -896.3933999999999 0.06960321844695665 -687.3694 0.5269029967641359 213.62939999999998 0.5113078602975968 0.11168059999999999 9.40963761287918e-05 
18.0 0.0 0.185 0.0 0.0 0.0 -894.8824000000001 0.13453017490582647 -685.8581999999999 0.5095939874243905 213.62939999999998 0.5113078602975968 0.10652959999999997 0.0006959043957336483 
19.0 0.0 0.195 0.0 0.0 0.0 -893.1496 0.07993527382602147 -684.1258 0.5677359527099531 213.62939999999998 0.5113078602975968 0.10068977999999999 0.0012258572414111408 
20.0 0.0 0.205 0.0 0.0 0.0 -891.8452000000001 0.10135379608171656 -682.821 0.47114396948524445 213.62939999999998 0.5113078602975968 0.09685476 0.000653584943890121 
21.0 0.0 0.215 0.0 0.0 0.0 -889.3114000000002 0.5831357028519815 -680.2873999999999 0.14607849949111035 213.62939999999998 0.5113078602975968 0.09018590000000001 0.0016767528144600136 
22.0 0.0 0.225 1.1780402288468105e-09 0.0 0.0 -887.848 0.17756508668211218 -678.8235999999999 0.4973595560592724 213.62939999999998 0.5113078602975968 0.08814506 0.0009675702916481073 
23.0 0.0 0.23499999999999996 1.1780402288468105e-09 0.0 0.0 -885.2173999999999 0.3788969887076008 -676.1934 0.6736091804613918 213.62939999999998 0.5113078602975968 0.08152825999999999 0.00151718740901713 
24.0 0.0 0.24500000000000002 1.666000468656264e-09 0.0 0.0 -883.8846 0.28835181292431766 -674.8606 0.6248795467958654 213.62939999999998 0.5113078602975968 0.08030151999999999 0.001098954011922363 
25.0 0.0 0.255 0.0 0.0 0.0 -880.2872 0.4665010525201096 -671.263 0.9090430132839133 213.62939999999998 0.5113078602975968 0.07250934 0.0015239857124264265 
26.0 0.0 0.265 0.0 0.0 0.0 -877.4162 0.3298113885434486 -668.3918000000001 0.6141457416495278 213.62939999999998 0.5113078602975968 0.06776144 0.0010666077976838556 
27.0 0.0 0.275 0.0 0.0 0.0 -873.3104000000001 0.4736118748303901 -664.286 0.6466419720625607 213.62939999999998 0.5113078602975968 0.061892 0.001082176211529379 
28.0 0.0 0.285 0.0 0.0 0.0 -871.191 0.9757917810626553 -662.167 0.6879767438007103 213.62939999999998 0.5113078602975968 0.059648599999999996 0.0014710232533852493 
29.0 0.0 0.295 0.0 0.0 0.0 -869.9986000000001 0.5381384654074112 -660.9745999999999 0.9244621614842065 213.62939999999998 0.5113078602975968 0.058780900000000004 0.0013980228161227732 
30.0 0.0 0.305 0.0 0.0 0.0 -866.7382 0.22195322027803568 -657.7144 0.6800325051080871 213.62939999999998 0.5113078602975968 0.054453699999999994 0.0007758969663557935 
31.0 0.0 0.315 0.0 0.0 0.0 -862.1850000000001 0.9611145613214978 -653.1610000000001 0.874353841401003 213.62939999999998 0.5113078602975968 0.04867112 0.001499452630635631 
32.0 0.0 0.325 0.0 0.0 0.0 -859.1812 0.7129558415498883 -650.1572 1.100024777900928 213.62939999999998 0.5113078602975968 0.04526798 0.0013351202362034552 
33.0 0.0 0.335 0.0 0.0 0.0 -854.2252000000001 1.869418142626568 -645.2008 2.269260027407314 213.62939999999998 0.5113078602975968 0.039741280000000004 0.002726508255685251 
34.0 0.0 0.345 0.0 0.0 0.0 -851.9341999999999 0.8251700624998772 -642.91 1.2385825123878071 213.62939999999998 0.5113078602975968 0.037592440000000005 0.001415305798928268 
35.0 0.0 0.355 0.0 0.0 0.0 -848.7266 0.6578878688597389 -639.7028 0.3637072888831371 213.62939999999998 0.5113078602975968 0.034308519999999995 0.0006551726889302458 
36.0 0.0 0.365 0.0 0.0 0.0 -844.5222 0.7537630609187128 -635.4982 1.1871729916030105 213.62939999999998 0.5113078602975968 0.029870840000000003 0.0013332280505899848 
37.0 0.0 0.375 0.0 0.0 0.0 -839.5366 0.587819332769637 -630.5124 0.6930275377010646 213.62939999999998 0.5113078602975968 0.024641939999999998 0.0006861124669323642 
38.0 0.0 0.385 0.0 0.0 0.0 -836.5808000000001 1.1139084127437826 -627.5564 1.5144245534131249 213.62939999999998 0.5113078602975968 0.02245618 0.0016313203441139347 
39.0 0.0 0.395 0.0 0.0 0.0 -831.7428 1.627259030396846 -622.7184 2.037204704489745 213.62939999999998 0.5113078602975968 0.01767438 0.0021739718492013666 
40.0 0.0 0.4050000000000001 2.356080457693621e-09 0.0 0.0 -825.3147999999999 1.4768479244814128 -616.2908 1.6754031490953243 213.62939999999998 0.5113078602975968 0.011828556 0.0016388286735534 
41.0 0.0 0.4149999999999999 3.332000937312528e-09 0.0 0.0 -824.5446 0.6595678949227052 -615.5202 1.0622754972129183 213.62939999999998 0.5113078602975968 0.011422826 0.0008468176538433742 
42.0 0.0 0.425 0.0 0.0 0.0 -816.8924000000001 1.602919551311371 -607.8684000000001 1.9907509055576527 213.62939999999998 0.5113078602975968 0.004576036 0.0017868053490598236 
43.0 0.0 0.43499999999999994 3.332000937312528e-09 0.0 0.0 -812.4228 2.066333901381828 -603.3986 2.4504411129424692 213.62939999999998 0.5113078602975968 0.0007153118000000002 0.0020959465597565675 
44.0 0.0 0.445 0.0 0.0 0.0 -809.2998 2.059797434698653 -600.2756 2.5694343906769577 213.62939999999998 0.5113078602975968 -0.001739502 0.002212253531579778 
45.0 0.0 0.45499999999999996 3.332000937312528e-09 0.0 0.0 -803.4326000000001 0.9416607711655991 -594.4084 1.286207280337533 213.62939999999998 0.5113078602975968 -0.006635968000000001 0.0009464850817097953 
46.0 0.0 0.465 0.0 0.0 0.0 -798.8004 1.795902772428115 -589.7760000000001 2.2459658412301815 213.62939999999998 0.5113078602975968 -0.010466216 0.00174710249454484 
47.0 0.0 0.475 2.356080457693621e-09 0.0 0.0 -791.5982 1.7999098732998144 -582.5740000000001 2.2288197414757014 213.62939999999998 0.5113078602975968 -0.015943966 0.0018555274103620224 
48.0 0.0 0.485 2.356080457693621e-09 0.0 0.0 -785.8518 1.1786302015522778 -576.8278 1.633193960313937 213.62939999999998 0.5113078602975968 -0.02056022 0.001172122087292958 
49.0 0.0 0.495 0.0 0.0 0.0 -778.7678 2.7525887364451562 -569.7436 2.4112184239510928 213.62939999999998 0.5113078602975968 -0.02561934 0.0020205013903682365 
50.0 0.0 0.505 0.0 0.0 0.0 -774.4418 1.0620658134078902 -565.4177999999999 1.5087186192299 213.62939999999998 0.5113078602975968 -0.0293066 0.0010861736535195585 
51.0 0.0 0.515 0.0 0.0 0.0 -770.929 1.6329212840788 -561.9051999999999 2.1396458847248523 213.62939999999998 0.5113078602975968 -0.031694120000000006 0.0015712040810537348 
52.0 0.0 0.525 0.0 0.0 0.0 -761.9788000000001 2.382377206066892 -552.9548 2.78634384669431 213.62939999999998 0.5113078602975968 -0.03834472 0.002070479685754014 
53.0 0.0 0.535 0.0 0.0 0.0 -755.879 1.7603785501983327 -546.8548 2.2302998076499403 213.62939999999998 0.5113078602975968 -0.04251896 0.0016385134305461314 
54.0 0.0 0.545 0.0 0.0 0.0 -753.2092 1.8037620330790716 -544.1852 2.311328438801258 213.62939999999998 0.5113078602975968 -0.04428666 0.0015580801598377397 
55.0 0.0 0.555 0.0 1.4516e-320 0.0 -741.6755999999999 2.439822167294558 -532.6518 2.8638048034050283 213.62939999999998 0.5113078602975968 -0.052766579999999993 0.0019489017074034607 
56.0 0.0 0.565 0.0 1.218124e-318 0.0 -736.6400000000001 2.5239268293598114 -527.6156 2.9884920291021726 213.62939999999998 0.5113078602975968 -0.05594964 0.0022267875878224192 
57.0 0.0 0.575 0.0 3.699881087e-315 0.0 -728.5704 2.178678087286495 -519.5464 2.6272101339665443 213.62939999999998 0.5113078602975968 -0.06166908 0.0017429311241468932 
58.0 0.0 0.585 0.0 4.178298951739932e-307 0.0 -717.0450000000001 4.24147109385355 -508.0209999999999 4.626812137964092 213.62939999999998 0.5113078602975968 -0.0697022 0.0031188213592958022 
59.0 0.0 0.595 0.0 2.511133515999997e-309 0.0 -713.187 1.3874152370436315 -504.16279999999995 1.7421971048093148 213.62939999999998 0.5113078602975968 -0.07218931999999999 0.0012190996196867797 
60.0 0.0 0.605 0.0 8.39183439e-306 0.0 -706.8824000000001 1.7953945661035995 -497.8586 2.154142921906466 213.62939999999998 0.5113078602975968 -0.07613104 0.001480659319249272 
61.0 0.0 0.615 0.0 4.0953349874e-301 0.0 -697.4196000000001 1.7213092133537073 -488.39519999999993 1.8633670899807735 213.62939999999998 0.5113078602975968 -0.0825515 0.001236213665350803 
62.0 0.0 0.625 0.0 1.0744206999999999e-298 0.0 -688.481 1.1054942424072878 -479.45679999999993 0.7893921408279468 213.62939999999998 0.5113078602975968 -0.0884075 0.0006223847800195695 
63.0 0.0 0.635 3.332000937312528e-09 1.9605260972977223e-291 0.0 -681.1708 4.08439284496489 -472.14660000000003 4.544071360354479 213.62939999999998 0.5113078602975968 -0.09310384000000001 0.0029542090196328246 
64.0 0.0 0.645 0.0 5.208519481965879e-290 0.0 -672.6515999999999 3.043182302790631 -463.62780000000004 3.4654708009158464 213.62939999999998 0.5113078602975968 -0.09876305999999999 0.0022134635763166296 
65.0 0.0 0.655 0.0 4.316438775366e-285 0.0 -660.085 2.296441020360054 -451.06100000000004 2.678232446967123 213.62939999999998 0.5113078602975968 -0.10677359999999998 0.0016631006127112646 
66.0 0.0 0.665 3.332000937312528e-09 1.4511683982229599e-282 0.0 -654.8062 3.584118227960262 -445.78180000000003 4.072604860773654 213.62939999999998 0.5113078602975968 -0.10996192 0.0026090935416576483 
67.0 0.0 0.675 0.0 3.3401808940137925e-275 0.0 -639.8906 3.957120383310282 -430.8664 4.4168305432740445 213.62939999999998 0.5113078602975968 -0.119736 0.0027649862929136726 
68.0 0.0 0.685 0.0 1.1050612945136002e-271 0.0 -630.0118 2.3960967492996694 -420.9878 2.5762711720633824 213.62939999999998 0.5113078602975968 -0.12582179999999998 0.0016251428589513614 
69.0 0.0 0.695 0.0 1.738108926671132e-261 0.0 -615.4816 4.46898295902061 -406.45760000000007 4.7847040501989895 213.62939999999998 0.5113078602975968 -0.1348956 0.003013888831393838 
70.0 0.0 0.705 0.0 1.07870236200398e-263 0.0 -612.296 4.223187260824242 -403.27200000000005 4.694655446354985 213.62939999999998 0.5113078602975968 -0.13666660000000003 0.002983686841476258 
71.0 0.0 0.715 0.0 3.024960092918438e-250 0.0 -591.3689999999999 4.680907228307145 -382.3448 5.064625248919905 213.62939999999998 0.5113078602975968 -0.1500156 0.0031223031576065774 
72.0 0.0 0.725 0.0 2.6031837027e-251 0.0 -582.4738 2.0807311099723793 -373.44980000000004 2.4109228341024145 213.62939999999998 0.5113078602975968 -0.1553976 0.0015042904134505133 
73.0 0.0 0.735 0.0 4.3588692232e-246 0.0 -568.3576 1.7233379842583643 -359.3334 1.9893266318039045 213.62939999999998 0.5113078602975968 -0.164057 0.0012874730599121312 
74.0 0.0 0.745 0.0 7.0194458013e-241 0.0 -556.6852000000001 2.3508401970319217 -347.6612 2.4132106646537816 213.62939999999998 0.5113078602975968 -0.1712228 0.001493945792858168 
75.0 0.0 0.755 0.0 5.999156330404192e-235 0.0 -547.9894 3.470640201458069 -338.9656 3.9425039211137607 213.62939999999998 0.5113078602975968 -0.176583 0.002431926923244455 
76.0 0.0 0.765 0.0 2.21318900085841e-229 0.0 -531.4221999999999 3.486819965531074 -322.3984 3.9863642242031174 213.62939999999998 0.5113078602975968 -0.1867234 0.0024073660560866425 
77.0 0.0 0.775 0.0 4.885018963119999e-224 0.0 -516.8446000000001 2.1271661824998565 -307.82039999999995 2.60127784905895 213.62939999999998 0.5113078602975968 -0.1956928 0.001553109381852568 
78.0 0.0 0.785 0.0 6.000062123069481e-213 0.0 -499.2048000000001 3.981616660601666 -290.18039999999996 4.38899919890688 213.62939999999998 0.5113078602975968 -0.2064934 0.0026626958158979335 
79.0 0.0 0.795 0.0 7.482412457590001e-208 0.0 -483.2144 2.342750974389343 -274.1902 2.6649678782305264 213.62939999999998 0.5113078602975968 -0.2162268 0.0016407106119001081 
80.0 0.0 0.805 0.0 1.0412580693800002e-201 0.0 -466.7988 2.1900737777504586 -257.7746 2.6001804491218583 213.62939999999998 0.5113078602975968 -0.2262886 0.0015729499572453755 
81.0 0.0 0.8149999999999998 6.664001874625056e-09 4.5686232226010796e-185 0.0 -441.2646 6.00013890905879 -232.2406 6.3940000850797745 213.62939999999998 0.5113078602975968 -0.24212440000000002 0.0039468566388960475 
82.0 0.0 0.825 0.0 2.451875087052e-180 0.0 -420.79839999999996 2.3685343755175743 -211.77460000000002 2.583998414859587 213.62939999999998 0.5113078602975968 -0.254741 0.0016611682154445534 
83.0 0.0 0.835 0.0 6.520687255048e-169 0.0 -401.93460000000005 5.492219198829193 -192.91060000000002 5.932654256570083 213.62939999999998 0.5113078602975968 -0.2666548000000001 0.003687247769270811 
84.0 0.0 0.845 0.0 5.977795785968301e-164 0.0 -383.38980000000004 3.0066641634858073 -174.3658 3.442299735932417 213.62939999999998 0.5113078602975968 -0.27811739999999996 0.00212804373263362 
85.0 0.0 0.8550000000000001 6.664001874625056e-09 1.870113150209012e-150 1.6723612620322452e-150 -356.704 3.857428397261034 -147.68040000000002 4.17243164210031 213.62939999999998 0.5113078602975968 -0.29506639999999995 0.002643673634926496 
86.0 0.0 0.865 0.0 1.9353166000517738e-144 1.281069145782244e-144 -335.8234 4.008372064566346 -126.7992 4.50924172250727 213.62939999999998 0.5113078602975968 -0.3083594 0.0029909133802226836 
87.0 0.0 0.875 0.0 9.9037171688e-134 8.112241746315862e-134 -310.5168 1.7593663723067596 -101.49256 2.1765765950408573 213.62939999999998 0.5113078602975968 -0.3249668 0.0014017245777971817 
88.0 0.0 0.885 0.0 1.3540854326027013e-119 1.0660727697303594e-119 -281.0926 4.290103267754852 -72.06838 4.781231751371186 213.62939999999998 0.5113078602975968 -0.3443938 0.0031820828197889556 
89.0 0.0 0.8949999999999999 0.0 1.1164360608235092e-104 9.978977787178638e-105 -249.1044 3.3907695244590754 -40.08016 3.5611741517202002 213.62939999999998 0.5113078602975968 -0.36598800000000004 0.0024410935909951453 
90.0 0.0 0.905 4.712160915387242e-09 1.3815940295296e-96 1.163991987349e-96 -225.5516 2.3814432027661314 -16.527362000000004 2.868284116198251 213.62939999999998 0.5113078602975968 -0.38216479999999997 0.0019662940654953387 
91.0 0.0 0.915 0.0 2.4411008218858565e-80 1.341048954094635e-80 -195.9864 5.562583842783879 13.03793 5.997037603613304 213.62939999999998 0.5113078602975968 -0.403402 0.004359982119229179 
92.0 0.0 0.925 0.0 4.290741651183422e-69 3.8377317956589173e-69 -171.6978 4.339592039812068 37.326080000000005 4.689962287046659 213.62939999999998 0.5113078602975968 -0.4210452 0.0035820525668940604 
93.0 0.0 0.9350000000000002 0.0 2.27773146954e-59 1.9933470305561395e-59 -139.5896 1.8581711352833412 69.43442 2.0108083334618714 213.62939999999998 0.5113078602975968 -0.445773 0.0016892264975437142 
94.0 0.0 0.945 0.0 6.548373311079568e-42 5.856916460835824e-42 -105.47397999999998 3.4262174408990336 103.55004000000001 3.855790233049491 213.62939999999998 0.5113078602975968 -0.4742482 0.0033192421231340117 
95.0 0.0 0.9549999999999998 8.161702118890972e-09 7.50619463764579e-29 6.713705858848954e-29 -79.59058 4.678688900655833 129.43339999999998 5.099636838834847 213.62939999999998 0.5113078602975968 -0.4976668 0.004968839014498528 
96.0 0.0 0.9650000000000001 8.161702118890972e-09 5.7043026518e-22 3.3059270225479643e-22 -52.39110000000001 1.7964954534871354 156.6328 2.2198563989589832 213.62939999999998 0.5113078602975968 -0.5253456 0.002349429098312085 
97.0 0.0 0.975 0.0 2.0882168e-11 5.803249949466179e-12 -24.92466 0.41494935748834805 184.0994 0.8129587246595489 213.62939999999998 0.5113078602975968 -0.5589018000000001 0.0009689726270514783 
98.0 0.0 0.985 4.712160915387242e-09 0.03814084 0.0059978982976105835 -3.3380320000000006 0.1761688465399027 205.686 0.6601301083874488 213.62939999999998 0.5113078602975968 -0.6010868 0.001368977381838596 
99.0 0.0 0.9949999999999999 4.712160915387242e-09 99.96186 0.005989497467475959 4.604788 6.068937203846892e-05 213.629 0.5112598556524155 213.62939999999998 0.5113078602975968 -0.6145552000000001 6.967317974620484e-05 
