0 0.005 1.07974e-208 -478.861 77.76 561.226 0.241423
1 0.015 1.55055e-203 -466.986 89.6348 561.226 0.21391
2 0.025 1.20066e-201 -462.637 93.9842 561.226 0.210475
3 0.035 1.33543e-200 -460.228 96.3932 561.226 0.206608
4 0.045 3.72286e-200 -459.203 97.4184 561.226 0.203504
5 0.055 6.60024e-200 -458.63 97.991 561.226 0.199884
6 0.065 5.60934e-200 -458.793 97.8284 561.226 0.195897
7 0.075 2.69743e-200 -459.525 97.0962 561.226 0.19192
8 0.085 8.32144e-201 -460.701 95.9202 561.226 0.188193
9 0.095 3.04896e-201 -461.705 94.9161 561.226 0.184212
10 0.105 5.52519e-202 -463.413 93.2081 561.226 0.179507
11 0.115 8.45304e-203 -465.29 91.3307 561.226 0.172985
12 0.125 1.28769e-203 -467.172 89.449 561.226 0.167583
13 0.135 3.99681e-204 -468.342 88.2791 561.226 0.167946
14 0.145 1.06083e-204 -469.668 86.9526 561.226 0.168303
15 0.155 7.32898e-206 -472.341 84.2802 561.226 0.155142
16 0.165 1.53679e-206 -473.903 82.7181 561.226 0.152938
17 0.175 3.71138e-207 -475.324 81.2972 561.226 0.15074
18 0.185 2.54013e-208 -478.005 78.6155 561.226 0.140129
19 0.195 1.01279e-208 -478.925 77.6959 561.226 0.142724
20 0.205 1.05254e-209 -481.189 75.4319 561.226 0.130536
21 0.215 3.15517e-210 -482.394 74.2271 561.226 0.124894
22 0.225 1.10709e-210 -483.441 73.1798 561.226 0.121627
23 0.235 3.40468e-211 -484.62 72.0006 561.226 0.114782
24 0.245 1.18228e-211 -485.678 70.9429 561.226 0.108708
25 0.255 6.33218e-212 -486.302 70.3185 561.226 0.103904
26 0.265 5.02584e-212 -486.533 70.0875 561.226 0.0991702
27 0.275 3.26554e-212 -486.965 69.6563 561.226 0.0917451
28 0.285 2.80764e-212 -487.116 69.5052 561.226 0.0847566
29 0.295 2.59991e-212 -487.193 69.4284 561.226 0.0789469
30 0.305 4.11705e-212 -486.733 69.888 561.226 0.0730265
31 0.315 7.23778e-212 -486.169 70.4522 561.226 0.0649921
32 0.325 1.32499e-211 -485.564 71.0569 561.226 0.0604382
33 0.335 2.95346e-211 -484.762 71.8585 561.226 0.0524637
34 0.345 8.49618e-211 -483.706 72.9151 561.226 0.0484209
35 0.355 2.99844e-210 -482.445 74.1762 561.226 0.0429907
36 0.365 1.43673e-209 -480.878 75.743 561.226 0.0363166
37 0.375 6.44936e-209 -479.376 77.2446 561.226 0.0306268
38 0.385 6.15462e-208 -477.12 79.5004 561.226 0.0235419
39 0.395 6.48935e-207 -474.765 81.856 561.226 0.0162428
40 0.405 1.26026e-206 -474.101 82.5197 561.226 0.0194414
41 0.415 6.08009e-206 -472.528 84.0934 561.226 0.0157639
42 0.425 2.4043e-203 -466.548 90.0734 561.226 -0.0011509
43 0.435 1.74515e-203 -466.868 89.753 561.226 0.00333574
44 0.445 2.99321e-202 -464.026 92.5951 561.226 -0.00351186
45 0.455 3.70499e-201 -461.51 95.111 561.226 -0.00718922
46 0.465 1.98875e-200 -459.83 96.7914 561.226 -0.00809132
47 0.475 7.37863e-199 -456.216 100.405 561.226 -0.0139421
48 0.485 1.26008e-196 -451.076 105.545 561.226 -0.0221207
49 0.495 5.7877e-196 -449.551 107.07 561.226 -0.0244311
50 0.505 2.24475e-194 -445.893 110.728 561.226 -0.0295911
51 0.515 6.92967e-193 -442.463 114.158 561.226 -0.0325733
52 0.525 3.0439e-191 -438.681 117.94 561.226 -0.0384464
53 0.535 8.09762e-189 -433.097 123.524 561.226 -0.0465267
54 0.545 1.85165e-188 -432.27 124.351 561.226 -0.0460494
55 0.555 9.86473e-187 -428.294 128.326 561.226 -0.0513937
56 0.565 1.17941e-184 -423.511 133.11 561.226 -0.0566718
57 0.575 2.46533e-181 -415.866 140.755 561.226 -0.0660748
58 0.585 1.47123e-180 -414.079 142.542 561.226 -0.0676436
59 0.595 7.88741e-178 -407.795 148.826 561.226 -0.0754129
60 0.605 1.37507e-175 -402.634 153.987 561.226 -0.0805848
61 0.615 1.86301e-175 -402.33 154.291 561.226 -0.0798406
62 0.625 1.13402e-172 -395.919 160.702 561.226 -0.0876283
63 0.635 1.07492e-166 -382.157 174.464 561.226 -0.102496
64 0.645 5.30597e-168 -385.165 171.455 561.226 -0.0980256
65 0.655 2.60163e-163 -374.365 182.256 561.226 -0.109626
66 0.665 7.74316e-162 -370.972 185.649 561.226 -0.11252
67 0.675 4.3829e-158 -362.331 194.29 561.226 -0.122016
68 0.685 9.27138e-156 -356.976 199.645 561.226 -0.127516
69 0.695 1.42503e-153 -351.941 204.68 561.226 -0.131192
70 0.705 2.2399e-149 -342.279 214.342 561.226 -0.142052
71 0.715 2.48876e-145 -332.963 223.658 561.226 -0.151095
72 0.725 4.42934e-142 -325.479 231.142 561.226 -0.158278
73 0.735 5.41132e-138 -316.068 240.553 561.226 -0.167293
74 0.745 1.05227e-134 -308.495 248.125 561.226 -0.174418
75 0.755 3.50593e-132 -302.687 253.934 561.226 -0.179581
76 0.765 2.57463e-127 -291.483 265.138 561.226 -0.190692
77 0.775 5.0785e-124 -283.896 272.725 561.226 -0.197807
78 0.785 5.65714e-119 -272.275 284.346 561.226 -0.208221
79 0.795 2.6939e-116 -266.109 290.512 561.226 -0.213919
80 0.805 8.95464e-110 -251.092 305.529 561.226 -0.22834
81 0.815 8.79091e-103 -234.993 321.628 561.226 -0.244646
82 0.825 6.99634e-98 -223.708 332.913 561.226 -0.25518
83 0.835 2.27398e-92 -211.016 345.605 561.226 -0.268099
84 0.845 2.75333e-87 -199.312 357.309 561.226 -0.278699
85 0.855 2.58508e-80 -183.257 373.364 561.226 -0.295066
86 0.865 9.99923e-74 -168.089 388.532 561.226 -0.311175
87 0.875 5.37494e-67 -152.591 404.029 561.226 -0.327366
88 0.885 5.01037e-59 -134.241 422.38 561.226 -0.347261
89 0.895 1.28224e-48 -110.275 446.345 561.226 -0.3743
90 0.905 1.27996e-44 -101.067 455.554 561.226 -0.384975
91 0.915 1.46582e-34 -77.9055 478.715 561.226 -0.4139
92 0.925 7.38271e-32 -71.6836 484.937 561.226 -0.420772
93 0.935 1.16156e-23 -52.8097 503.811 561.226 -0.447143
94 0.945 2.03656e-16 -36.1301 520.491 561.226 -0.474397
95 0.955 2.89703e-08 -17.357 539.264 561.226 -0.514624
96 0.965 2.5579e-06 -12.8763 543.745 561.226 -0.521125
97 0.975 0.0404039 -3.20883 553.412 561.226 -0.545217
98 0.985 15.2041 2.72156 559.342 561.226 -0.559871
99 0.995 84.7555 4.43977 561.061 561.226 -0.569207
