0 0.005 0 -inf -inf 214.515 -nan
1 0.015 0 -934.396 -724.486 214.515 0.208942
2 0.025 0 -924.124 -714.214 214.515 0.194203
3 0.035 0 -918.378 -708.468 214.515 0.186567
4 0.045 0 -914.103 -704.193 214.515 0.175734
5 0.055 0 -911.117 -701.207 214.515 0.169806
6 0.065 0 -908.78 -698.87 214.515 0.164605
7 0.075 0 -907.001 -697.091 214.515 0.159729
8 0.085 0 -905.781 -695.871 214.515 0.155256
9 0.095 0 -904.378 -694.469 214.515 0.150856
10 0.105 0 -903.372 -693.462 214.515 0.147615
11 0.115 0 -902.421 -692.512 214.515 0.142917
12 0.125 0 -901.756 -691.846 214.515 0.13854
13 0.135 0 -900.666 -690.757 214.515 0.133123
14 0.145 0 -899.688 -689.778 214.515 0.128718
15 0.155 0 -898.566 -688.656 214.515 0.122258
16 0.165 0 -897.661 -687.751 214.515 0.117034
17 0.175 0 -896.234 -686.324 214.515 0.111383
18 0.185 0 -894.96 -685.051 214.515 0.107996
19 0.195 0 -893.015 -683.105 214.515 0.0983866
20 0.205 0 -892.112 -682.202 214.515 0.0976128
21 0.215 0 -890.301 -680.391 214.515 0.0944019
22 0.225 0 -887.821 -677.911 214.515 0.0869702
23 0.235 0 -885.668 -675.758 214.515 0.0823777
24 0.245 0 -883.487 -673.577 214.515 0.0782764
25 0.255 0 -880.804 -670.894 214.515 0.0738365
26 0.265 0 -876.684 -666.774 214.515 0.0644181
27 0.275 0 -874.554 -664.644 214.515 0.0635529
28 0.285 0 -870.536 -660.626 214.515 0.057024
29 0.295 0 -869.588 -659.678 214.515 0.0576044
30 0.305 0 -865.934 -656.025 214.515 0.0521157
31 0.315 0 -859.785 -649.875 214.515 0.0438652
32 0.325 0 -860.18 -650.27 214.515 0.0465336
33 0.335 0 -854.935 -645.025 214.515 0.0401832
34 0.345 0 -852.51 -642.6 214.515 0.0374405
35 0.355 0 -848.908 -638.998 214.515 0.0337956
36 0.365 0 -843.666 -633.756 214.515 0.027746
37 0.375 0 -839.679 -629.769 214.515 0.0241717
38 0.385 0 -833.863 -623.953 214.515 0.0185129
39 0.395 0 -827.879 -617.969 214.515 0.0127781
40 0.405 0 -829.016 -619.106 214.515 0.0152069
41 0.415 0 -825.441 -615.531 214.515 0.0117996
42 0.425 0 -810.86 -600.95 214.515 -0.00169765
43 0.435 0 -812.944 -603.034 214.515 0.000467009
44 0.445 0 -806.434 -596.524 214.515 -0.0052664
45 0.455 0 -801.914 -592.004 214.515 -0.00876731
46 0.465 0 -799.516 -589.606 214.515 -0.0102922
47 0.475 0 -792.658 -582.748 214.515 -0.0157343
48 0.485 0 -783.17 -573.26 214.515 -0.022891
49 0.495 0 -780.317 -570.407 214.515 -0.02506
50 0.505 0 -773.637 -563.727 214.515 -0.0303196
51 0.515 0 -768.436 -558.526 214.515 -0.0334987
52 0.525 0 -761.241 -551.331 214.515 -0.0392882
53 0.535 0 -751.199 -541.289 214.515 -0.0466963
54 0.545 0 -750.49 -540.58 214.515 -0.0466379
55 0.555 1.4822e-323 -743.43 -533.52 214.515 -0.0519446
56 0.565 3.49255e-320 -735.577 -525.667 214.515 -0.0572462
57 0.575 1.63733e-314 -722.519 -512.609 214.515 -0.0664579
58 0.585 2.525e-313 -719.783 -509.873 214.515 -0.068147
59 0.595 1.06907e-308 -709.129 -499.22 214.515 -0.0754978
60 0.605 3.90594e-305 -700.926 -491.016 214.515 -0.0807883
61 0.615 4.23473e-305 -700.845 -490.935 214.515 -0.0806167
62 0.625 2.13596e-300 -690.017 -480.107 214.515 -0.088051
63 0.635 9.80071e-291 -667.77 -457.86 214.515 -0.1025
64 0.645 4.33661e-293 -673.19 -463.281 214.515 -0.0985841
65 0.655 1.54029e-285 -655.805 -445.895 214.515 -0.109693
66 0.665 2.7583e-283 -650.617 -440.707 214.515 -0.11295
67 0.675 3.64062e-277 -636.524 -426.614 214.515 -0.122201
68 0.685 1.89617e-273 -627.966 -418.056 214.515 -0.127685
69 0.695 2.40391e-270 -620.821 -410.911 214.515 -0.13129
70 0.705 2.05529e-263 -604.859 -394.95 214.515 -0.142098
71 0.715 4.32568e-257 -590.3 -380.39 214.515 -0.1511
72 0.725 5.06216e-252 -578.63 -368.72 214.515 -0.158299
73 0.735 1.16596e-245 -563.98 -354.07 214.515 -0.1673
74 0.745 1.46731e-240 -552.237 -342.327 214.515 -0.17449
75 0.755 1.03521e-236 -543.375 -333.466 214.515 -0.179799
76 0.765 4.53667e-229 -525.78 -315.87 214.515 -0.1907
77 0.775 5.81239e-224 -514.019 -304.109 214.515 -0.197896
78 0.785 2.94945e-216 -496.277 -286.367 214.515 -0.208519
79 0.795 3.66539e-212 -486.849 -276.939 214.515 -0.214048
80 0.805 5.41994e-202 -463.432 -253.522 214.515 -0.228483
81 0.815 6.78215e-191 -437.879 -227.97 214.515 -0.244698
82 0.825 2.61092e-183 -420.413 -210.504 214.515 -0.255396
83 0.835 1.44773e-174 -400.28 -190.37 214.515 -0.2681
84 0.845 8.80253e-167 -382.357 -172.447 214.515 -0.278843
85 0.855 1.08782e-155 -356.817 -146.907 214.515 -0.295099
86 0.865 5.09764e-145 -332.246 -122.336 214.515 -0.311286
87 0.875 3.38944e-134 -307.326 -97.4159 214.515 -0.327485
88 0.885 3.26437e-121 -277.43 -67.5199 214.515 -0.347299
89 0.895 5.57917e-104 -237.75 -27.84 214.515 -0.3743
90 0.905 2.9208e-97 -222.279 -12.3691 214.515 -0.385095
91 0.915 6.46885e-80 -182.34 27.57 214.515 -0.4139
92 0.925 2.03297e-75 -171.984 37.9254 214.515 -0.421088
93 0.935 1.67351e-60 -137.64 72.2696 214.515 -0.447859
94 0.945 2.11092e-46 -105.172 104.738 214.515 -0.474898
95 0.955 3.75308e-28 -63.1498 146.76 214.515 -0.5147
96 0.965 9.38881e-24 -53.0225 156.887 214.515 -0.525399
97 0.975 3.58543e-11 -24.0516 185.858 214.515 -0.561169
98 0.985 0.0307451 -3.48203 206.428 214.515 -0.601697
99 0.995 99.9693 4.60486 214.515 214.515 -0.614522
