0 0.005 0.0849847 -2.46528 2.16247 9.23292 0.279276
1 0.015 11.2102 2.41683 7.04458 9.23292 0.275577
2 0.025 45.8688 3.82579 8.45354 9.23292 0.274158
3 0.035 35.2344 3.56202 8.18977 9.23292 0.272474
4 0.045 6.81546 1.91919 6.54694 9.23292 0.270978
5 0.055 0.720622 -0.32764 4.30011 9.23292 0.268945
6 0.065 0.0655249 -2.72533 1.90243 9.23292 0.273175
7 0.075 7.09973e-06 -11.8555 -7.2277 9.23292 0.238767
8 0.085 4.85283e-09 -19.1437 -14.516 9.23292 0.224271
9 0.095 4.44357e-15 -33.0473 -28.4196 9.23292 0.206968
10 0.105 5.61891e-18 -39.7204 -35.0926 9.23292 0.199823
11 0.115 1.52444e-24 -54.8404 -50.2127 9.23292 0.185325
12 0.125 4.54432e-29 -65.2611 -60.6333 9.23292 0.176133
13 0.135 3.24226e-28 -63.2961 -58.6684 9.23292 0.17829
14 0.145 4.58673e-30 -67.5544 -62.9266 9.23292 0.174657
15 0.155 2.11052e-37 -84.4487 -79.821 9.23292 0.160199
16 0.165 7.18497e-39 -87.8288 -83.2011 9.23292 0.158365
17 0.175 3.31702e-40 -90.9043 -86.2766 9.23292 0.15655
18 0.185 2.2603e-45 -102.801 -98.1731 9.23292 0.14756
19 0.195 1.25669e-44 -101.085 -96.4575 9.23292 0.1495
20 0.205 5.25657e-50 -113.47 -108.842 9.23292 0.140398
21 0.215 7.09521e-53 -120.078 -115.45 9.23292 0.134878
22 0.225 3.40402e-54 -123.115 -118.487 9.23292 0.132874
23 0.235 2.72809e-57 -130.244 -125.616 9.23292 0.127274
24 0.245 1.91486e-59 -135.203 -130.575 9.23292 0.123971
25 0.255 1.92037e-60 -137.503 -132.875 9.23292 0.122172
26 0.265 6.71223e-62 -140.856 -136.229 9.23292 0.118817
27 0.275 1.74505e-63 -144.506 -139.878 9.23292 0.117007
28 0.285 6.08353e-67 -152.468 -147.84 9.23292 0.109614
29 0.295 6.45543e-68 -154.711 -150.083 9.23292 0.107991
30 0.305 3.98782e-69 -157.495 -152.867 9.23292 0.106132
31 0.315 3.1434e-68 -155.43 -150.803 9.23292 0.108098
32 0.325 2.98174e-73 -166.996 -162.368 9.23292 0.0969516
33 0.335 1.93695e-75 -172.033 -167.405 9.23292 0.0913192
34 0.345 4.26559e-76 -173.546 -168.918 9.23292 0.0913014
35 0.355 2.03527e-77 -176.588 -171.961 9.23292 0.0877427
36 0.365 1.14505e-77 -177.164 -172.536 9.23292 0.0877273
37 0.375 9.63291e-81 -184.244 -179.616 9.23292 0.0797412
38 0.385 2.56303e-81 -185.568 -180.94 9.23292 0.0786241
39 0.395 2.85588e-83 -190.065 -185.437 9.23292 0.0724247
40 0.405 2.73193e-84 -192.412 -187.784 9.23292 0.0704015
41 0.415 3.02206e-85 -194.614 -189.986 9.23292 0.069523
42 0.425 7.93708e-87 -198.253 -193.626 9.23292 0.0629878
43 0.435 9.9558e-88 -200.329 -195.702 9.23292 0.0602889
44 0.445 3.80238e-89 -203.594 -198.967 9.23292 0.0553222
45 0.455 2.21248e-89 -204.136 -199.508 9.23292 0.0563094
46 0.465 1.53394e-90 -206.805 -202.177 9.23292 0.0523599
47 0.475 1.91927e-91 -208.883 -204.256 9.23292 0.0480184
48 0.485 4.8379e-93 -212.564 -207.936 9.23292 0.040542
49 0.495 2.48953e-93 -213.228 -208.601 9.23292 0.0415511
50 0.505 2.98044e-94 -215.351 -210.723 9.23292 0.0402155
51 0.515 1.3851e-95 -218.42 -213.792 9.23292 0.03035
52 0.525 3.98073e-96 -219.667 -215.039 9.23292 0.0281047
53 0.535 1.32694e-96 -220.765 -216.138 9.23292 0.0273691
54 0.545 5.04943e-97 -221.731 -217.104 9.23292 0.027653
55 0.555 5.81137e-97 -221.591 -216.963 9.23292 0.0302874
56 0.565 3.06474e-99 -226.836 -222.208 9.23292 0.00799569
57 0.575 2.28605e-99 -227.129 -222.501 9.23292 0.01355
58 0.585 1.29838e-100 -229.997 -225.37 9.23292 -0.00110012
59 0.595 1.11259e-100 -230.152 -225.524 9.23292 0.00468377
60 0.605 1.77498e-101 -231.987 -227.36 9.23292 -0.00755064
61 0.615 5.31149e-102 -233.194 -228.566 9.23292 -0.0123837
62 0.625 1.58837e-102 -234.401 -229.773 9.23292 -0.0189873
63 0.635 5.99532e-103 -235.375 -230.748 9.23292 -0.0280701
64 0.645 4.92792e-103 -235.571 -230.944 9.23292 -0.0205191
65 0.655 1.2976e-103 -236.906 -232.278 9.23292 -0.0392916
66 0.665 4.43126e-104 -237.98 -233.352 9.23292 -0.0516541
67 0.675 3.2852e-104 -238.279 -233.652 9.23292 -0.0586231
68 0.685 2.0408e-104 -238.756 -234.128 9.23292 -0.0675143
69 0.695 1.39765e-104 -239.134 -234.506 9.23292 -0.0770328
70 0.705 9.50289e-105 -239.52 -234.892 9.23292 -0.0852435
71 0.715 1.05287e-104 -239.417 -234.79 9.23292 -0.0951097
72 0.725 1.08301e-104 -239.389 -234.761 9.23292 -0.104454
73 0.735 1.29057e-104 -239.214 -234.586 9.23292 -0.114968
74 0.745 1.43997e-104 -239.104 -234.476 9.23292 -0.124602
75 0.755 2.11458e-104 -238.72 -234.092 9.23292 -0.134371
76 0.765 4.08323e-104 -238.062 -233.434 9.23292 -0.144616
77 0.775 7.20019e-104 -237.495 -232.867 9.23292 -0.155086
78 0.785 1.47319e-103 -236.779 -232.151 9.23292 -0.166247
79 0.795 2.59259e-103 -236.214 -231.586 9.23292 -0.176467
80 0.805 7.13825e-103 -235.201 -230.573 9.23292 -0.187976
81 0.815 1.86001e-102 -234.243 -229.615 9.23292 -0.199139
82 0.825 5.15185e-102 -233.224 -228.597 9.23292 -0.21129
83 0.835 1.09951e-101 -232.466 -227.838 9.23292 -0.221638
84 0.845 3.45576e-101 -231.321 -226.693 9.23292 -0.233903
85 0.855 9.10906e-101 -230.352 -225.724 9.23292 -0.246506
86 0.865 2.22234e-100 -229.46 -224.832 9.23292 -0.259194
87 0.875 3.81742e-100 -228.919 -224.291 9.23292 -0.27106
88 0.885 8.09866e-100 -228.167 -223.539 9.23292 -0.283511
89 0.895 1.20363e-99 -227.771 -223.143 9.23292 -0.296316
90 0.905 1.38778e-99 -227.628 -223 9.23292 -0.309783
91 0.915 9.7245e-100 -227.984 -223.356 9.23292 -0.322311
92 0.925 6.67967e-100 -228.359 -223.732 9.23292 -0.334543
93 0.935 2.2433e-100 -229.451 -224.823 9.23292 -0.347802
94 0.945 3.96994e-101 -231.182 -226.555 9.23292 -0.361402
95 0.955 3.05379e-102 -233.747 -229.12 9.23292 -0.374659
96 0.965 1.65568e-103 -236.662 -232.034 9.23292 -0.387917
97 0.975 1.6937e-105 -241.245 -236.617 9.23292 -0.403055
98 0.985 4.94202e-109 -249.384 -244.756 9.23292 -0.435797
99 0.995 1.2503e-114 -262.271 -257.644 9.23292 -0.470979
