0 0.005 0 -828.347 -515.689 317.263 0.248502
1 0.015 0 -795.044 -482.387 317.263 0.204595
2 0.025 0 -787.902 -475.244 317.263 0.19166
3 0.035 0 -783.918 -471.26 317.263 0.186199
4 0.045 0 -781.802 -469.145 317.263 0.18358
5 0.055 0 -779.484 -466.826 317.263 0.178363
6 0.065 0 -777.897 -465.24 317.263 0.173379
7 0.075 0 -776.824 -464.166 317.263 0.169286
8 0.085 0 -776.434 -463.776 317.263 0.165138
9 0.095 0 -775.771 -463.113 317.263 0.160738
10 0.105 0 -775.488 -462.83 317.263 0.156066
11 0.115 0 -775.261 -462.604 317.263 0.151595
12 0.125 0 -775.312 -462.654 317.263 0.147161
13 0.135 0 -775.037 -462.38 317.263 0.142475
14 0.145 0 -774.835 -462.178 317.263 0.13684
15 0.155 0 -774.648 -461.99 317.263 0.131257
16 0.165 0 -774.537 -461.879 317.263 0.126333
17 0.175 0 -774.003 -461.346 317.263 0.121106
18 0.185 0 -773.435 -460.778 317.263 0.11442
19 0.195 0 -772.764 -460.106 317.263 0.109117
20 0.205 0 -772.225 -459.568 317.263 0.104207
21 0.215 0 -771.037 -458.379 317.263 0.097663
22 0.225 0 -769.861 -457.203 317.263 0.0933313
23 0.235 0 -767.894 -455.237 317.263 0.0815688
24 0.245 0 -767.148 -454.49 317.263 0.081519
25 0.255 0 -765.203 -452.545 317.263 0.0757134
26 0.265 0 -762.997 -450.34 317.263 0.0692996
27 0.275 0 -760.913 -448.255 317.263 0.0659721
28 0.285 0 -758.644 -445.986 317.263 0.0600534
29 0.295 0 -756.159 -443.502 317.263 0.0559633
30 0.305 0 -754.78 -442.122 317.263 0.0548331
31 0.315 0 -751.306 -438.649 317.263 0.048498
32 0.325 0 -747.488 -434.831 317.263 0.0424933
33 0.335 4.94066e-324 -744.812 -432.154 317.263 0.0383056
34 0.345 1.4822e-323 -743.242 -430.584 317.263 0.0386387
35 0.355 4.24896e-322 -739.986 -427.328 317.263 0.0339157
36 0.365 3.17684e-321 -737.973 -425.316 317.263 0.0324382
37 0.375 1.49307e-319 -734.124 -421.466 317.263 0.0261048
38 0.385 4.82143e-318 -730.649 -417.991 317.263 0.0227574
39 0.395 2.44548e-315 -724.42 -411.762 317.263 0.0147109
40 0.405 2.63579e-312 -717.437 -404.78 317.263 0.00744148
41 0.415 5.9903e-313 -718.919 -406.261 317.263 0.00998598
42 0.425 5.20036e-311 -714.455 -401.798 317.263 0.00583738
43 0.435 1.22991e-306 -704.384 -391.726 317.263 -0.00512058
44 0.445 3.90894e-307 -705.53 -392.873 317.263 -0.00316426
45 0.455 2.22399e-304 -699.187 -386.529 317.263 -0.0088348
46 0.465 2.31709e-302 -694.54 -381.883 317.263 -0.0140334
47 0.475 2.26971e-300 -689.956 -377.298 317.263 -0.0178705
48 0.485 5.46278e-298 -684.472 -371.815 317.263 -0.0232139
49 0.495 1.20918e-297 -683.678 -371.02 317.263 -0.0229639
50 0.505 3.50134e-295 -678.009 -365.352 317.263 -0.0282127
51 0.515 2.05392e-292 -671.635 -358.977 317.263 -0.0337603
52 0.525 9.78686e-287 -658.561 -345.903 317.263 -0.0448967
53 0.535 1.41829e-287 -660.492 -347.835 317.263 -0.042597
54 0.545 1.2828e-285 -655.988 -343.33 317.263 -0.0460904
55 0.555 1.57966e-279 -641.964 -329.306 317.263 -0.057475
56 0.565 1.61062e-280 -644.247 -331.59 317.263 -0.0555851
57 0.575 9.92234e-277 -635.521 -322.864 317.263 -0.0625516
58 0.585 1.27182e-269 -619.155 -306.497 317.263 -0.0754995
59 0.595 1.17966e-270 -621.533 -308.875 317.263 -0.0736653
60 0.605 1.72855e-267 -614.243 -301.585 317.263 -0.0789366
61 0.615 3.89979e-266 -611.127 -298.469 317.263 -0.080717
62 0.625 5.79577e-263 -603.823 -291.165 317.263 -0.0861027
63 0.635 1.29377e-259 -596.112 -283.454 317.263 -0.0915961
64 0.645 1.00914e-255 -587.15 -274.492 317.263 -0.0985966
65 0.655 4.0172e-251 -576.558 -263.901 317.263 -0.106
66 0.665 6.28153e-249 -571.506 -258.848 317.263 -0.109605
67 0.675 1.39365e-242 -556.894 -244.236 317.263 -0.120351
68 0.685 5.95623e-239 -548.533 -235.876 317.263 -0.1258
69 0.695 6.88018e-227 -520.758 -208.101 317.263 -0.1457
70 0.705 4.29489e-231 -530.44 -217.782 317.263 -0.138412
71 0.715 1.29684e-224 -515.519 -202.861 317.263 -0.149281
72 0.725 8.75932e-218 -499.793 -187.136 317.263 -0.1601
73 0.735 1.67618e-215 -494.539 -181.882 317.263 -0.163697
74 0.745 1.22109e-208 -478.738 -166.08 317.263 -0.174496
75 0.755 1.70534e-207 -476.101 -163.444 317.263 -0.176297
76 0.765 2.56049e-198 -454.972 -142.314 317.263 -0.190644
77 0.775 9.70216e-194 -444.429 -131.772 317.263 -0.197861
78 0.785 3.73201e-189 -433.872 -121.214 317.263 -0.20506
79 0.795 3.75772e-181 -415.444 -102.786 317.263 -0.217698
80 0.805 2.63149e-174 -399.682 -87.0246 317.263 -0.228459
81 0.815 4.22971e-164 -376.182 -63.5242 317.263 -0.2447
82 0.825 2.14972e-160 -367.648 -54.9906 317.263 -0.250022
83 0.835 6.31919e-144 -329.729 -17.071 317.263 -0.2771
84 0.845 1.72305e-139 -319.515 -6.85759 317.263 -0.284278
85 0.855 1.91984e-127 -291.776 20.8816 317.263 -0.3041
86 0.865 4.46432e-123 -281.722 30.9358 317.263 -0.311137
87 0.875 1.31594e-115 -264.523 48.1349 317.263 -0.323869
88 0.885 6.72727e-101 -230.655 82.0027 317.263 -0.349099
89 0.895 1.11664e-89 -204.82 107.838 317.263 -0.3689
90 0.905 1.00562e-81 -186.504 126.154 317.263 -0.383293
91 0.915 6.34035e-74 -168.544 144.113 317.263 -0.397513
92 0.925 1.46045e-55 -126.263 186.394 317.263 -0.4337
93 0.935 4.76959e-50 -113.567 199.091 317.263 -0.444451
94 0.945 2.18598e-36 -82.111 230.547 317.263 -0.474575
95 0.955 1.16779e-25 -57.4095 255.248 317.263 -0.502071
96 0.965 1.02474e-15 -34.5143 278.143 317.263 -0.530491
97 0.975 1.0915e-07 -16.0305 296.627 317.263 -0.559941
98 0.985 0.299688 -1.20501 311.453 317.263 -0.59393
99 0.995 99.7003 4.60217 317.26 317.263 -0.603538
