0 0.005 7.46314e-253 -580.544 -95.7198 489.429 0.241348
1 0.015 4.11181e-246 -565.022 -80.1978 489.429 0.210774
2 0.025 5.67198e-244 -560.095 -75.271 489.429 0.204588
3 0.035 1.07411e-242 -557.154 -72.3299 489.429 0.19996
4 0.045 4.42188e-242 -555.739 -70.9148 489.429 0.196714
5 0.055 1.25251e-241 -554.698 -69.8736 489.429 0.192855
6 0.065 1.75255e-241 -554.362 -69.5377 489.429 0.188846
7 0.075 1.41405e-241 -554.577 -69.7523 489.429 0.184554
8 0.085 7.00073e-242 -555.28 -70.4553 489.429 0.180693
9 0.095 4.15475e-242 -555.801 -70.9771 489.429 0.176821
10 0.105 1.41739e-242 -556.877 -72.0525 489.429 0.171675
11 0.115 4.28445e-243 -558.073 -73.2489 489.429 0.16682
12 0.125 1.16628e-243 -559.374 -74.5501 489.429 0.16272
13 0.135 4.39907e-244 -560.349 -75.5251 489.429 0.159569
14 0.145 1.29231e-244 -561.574 -76.7501 489.429 0.156875
15 0.155 3.20486e-245 -562.969 -78.1444 489.429 0.149721
16 0.165 9.44471e-246 -564.19 -79.3662 489.429 0.146331
17 0.175 3.38832e-246 -565.216 -80.3914 489.429 0.142029
18 0.185 7.88164e-247 -566.674 -81.8497 489.429 0.13343
19 0.195 3.27905e-247 -567.551 -82.7267 489.429 0.130152
20 0.205 1.13351e-247 -568.613 -83.789 489.429 0.123144
21 0.215 6.89492e-248 -569.11 -84.2861 489.429 0.117446
22 0.225 4.13047e-248 -569.623 -84.7985 489.429 0.112265
23 0.235 2.8668e-248 -569.988 -85.1637 489.429 0.106008
24 0.245 2.13186e-248 -570.284 -85.4599 489.429 0.0999223
25 0.255 2.33155e-248 -570.195 -85.3703 489.429 0.0935236
26 0.265 3.56314e-248 -569.77 -84.9462 489.429 0.0879593
27 0.275 5.65605e-248 -569.308 -84.4841 489.429 0.080971
28 0.285 1.12487e-247 -568.621 -83.7966 489.429 0.0741887
29 0.295 2.11634e-247 -567.989 -83.1646 489.429 0.0691692
30 0.305 6.84791e-247 -566.815 -81.9903 489.429 0.0636346
31 0.315 3.95077e-246 -565.062 -80.2378 489.429 0.0528765
32 0.325 9.12911e-246 -564.224 -79.4002 489.429 0.0536092
33 0.335 5.89642e-245 -562.359 -77.5348 489.429 0.0448627
34 0.345 2.45194e-244 -560.934 -76.1096 489.429 0.0427124
35 0.355 1.57472e-243 -559.074 -74.2499 489.429 0.0384045
36 0.365 1.70738e-242 -556.691 -71.8664 489.429 0.031958
37 0.375 1.47007e-241 -554.538 -69.7135 489.429 0.0271459
38 0.385 3.26165e-240 -551.438 -66.614 489.429 0.0206679
39 0.395 8.16026e-239 -548.219 -63.3943 489.429 0.0140585
40 0.405 1.02469e-238 -547.991 -63.1666 489.429 0.0176361
41 0.415 7.71195e-238 -545.972 -61.1482 489.429 0.0141518
42 0.425 2.32337e-234 -537.962 -53.1377 489.429 -0.00155543
43 0.435 1.0145e-234 -538.791 -53.9663 489.429 0.00212539
44 0.445 4.06718e-233 -535.099 -50.2751 489.429 -0.00458867
45 0.455 7.79872e-232 -532.146 -47.3215 489.429 -0.00799777
46 0.465 4.71555e-231 -530.346 -45.5221 489.429 -0.00902699
47 0.475 3.58723e-229 -526.015 -41.1904 489.429 -0.0147054
48 0.485 1.64603e-226 -519.886 -35.0616 489.429 -0.0224234
49 0.495 1.0114e-225 -518.07 -33.2461 489.429 -0.0247667
50 0.505 7.45703e-224 -513.77 -28.9457 489.429 -0.0299201
51 0.515 3.33352e-222 -509.97 -25.1456 489.429 -0.032891
52 0.525 3.0507e-220 -505.453 -20.6291 489.429 -0.038787
53 0.535 2.18824e-217 -498.878 -14.0536 489.429 -0.0466295
54 0.545 4.76643e-217 -498.099 -13.2751 489.429 -0.046318
55 0.555 4.93173e-215 -493.46 -8.63586 489.429 -0.0516259
56 0.565 1.1372e-212 -488.019 -3.19523 489.429 -0.0568887
57 0.575 7.65322e-209 -479.205 5.61908 489.429 -0.0662449
58 0.585 5.56383e-208 -477.221 7.60283 489.429 -0.0678421
59 0.595 7.78115e-205 -469.978 14.846 489.429 -0.0754623
60 0.605 2.58767e-202 -464.171 20.6528 489.429 -0.0806533
61 0.615 3.24028e-202 -463.947 20.8777 489.429 -0.0801206
62 0.625 5.17716e-199 -456.57 28.2541 489.429 -0.0878145
63 0.635 3.09371e-192 -440.967 43.8573 489.429 -0.102499
64 0.645 8.8447e-194 -444.522 40.3025 489.429 -0.0982011
65 0.655 1.82484e-188 -432.285 52.5397 489.429 -0.109657
66 0.665 7.83196e-187 -428.525 56.299 489.429 -0.112635
67 0.675 1.44363e-182 -418.703 66.1209 489.429 -0.122077
68 0.685 6.07008e-180 -412.662 72.1623 489.429 -0.127594
69 0.695 1.47211e-177 -407.171 77.6534 489.429 -0.131237
70 0.705 8.94893e-173 -396.156 88.6686 489.429 -0.142076
71 0.715 3.06577e-168 -385.714 99.1102 489.429 -0.151098
72 0.725 1.33674e-164 -377.334 107.491 489.429 -0.158289
73 0.735 5.0228e-160 -366.8 118.025 489.429 -0.167297
74 0.745 2.37844e-156 -358.337 126.487 489.429 -0.174448
75 0.755 1.51261e-153 -351.882 132.943 489.429 -0.179654
76 0.765 4.41904e-148 -339.297 145.528 489.429 -0.190697
77 0.775 2.12229e-144 -330.82 154.004 489.429 -0.197853
78 0.785 8.68325e-139 -317.898 166.926 489.429 -0.20831
79 0.795 8.39113e-136 -311.024 173.8 489.429 -0.213966
80 0.805 1.68591e-128 -294.209 190.616 489.429 -0.228403
81 0.815 1.26106e-120 -276.078 208.746 489.429 -0.244674
82 0.825 3.7417e-115 -263.478 221.346 489.429 -0.25525
83 0.835 6.06082e-109 -249.18 235.644 489.429 -0.2681
84 0.845 2.7607e-103 -236.151 248.673 489.429 -0.278751
85 0.855 1.99032e-95 -218.057 266.767 489.429 -0.295085
86 0.865 5.74855e-88 -200.879 283.946 489.429 -0.311225
87 0.875 2.32645e-80 -183.362 301.462 489.429 -0.327418
88 0.885 2.58585e-71 -162.533 322.291 489.429 -0.347284
89 0.895 1.92321e-59 -135.199 349.626 489.429 -0.3743
90 0.905 7.29785e-55 -124.655 360.17 489.429 -0.385039
91 0.915 3.06417e-43 -97.8914 386.933 489.429 -0.4139
92 0.925 3.67808e-40 -90.801 394.023 489.429 -0.420939
93 0.935 1.55954e-30 -68.6332 416.191 489.429 -0.44741
94 0.945 8.15764e-22 -48.5579 436.266 489.429 -0.47462
95 0.955 1.73013e-11 -24.7802 460.044 489.429 -0.514685
96 0.965 4.0746e-09 -19.3185 465.506 489.429 -0.523605
97 0.975 0.00198343 -6.22293 478.601 489.429 -0.554332
98 0.985 5.07739 1.6248 486.449 489.429 -0.570801
99 0.995 94.9206 4.55304 489.377 489.429 -0.580846
