0 0.005 0.110006 -2.20722 2.47604 9.28843 0.282743
1 0.015 12.2358 2.50437 7.18763 9.28843 0.279047
2 0.025 47.2253 3.85493 8.53819 9.28843 0.277908
3 0.035 33.6573 3.51623 8.19949 9.28843 0.276326
4 0.045 6.10821 1.80963 6.4929 9.28843 0.27502
5 0.055 0.598125 -0.513956 4.16931 9.28843 0.273627
6 0.065 0.0653211 -2.72844 1.95482 9.28843 0.277253
7 0.075 1.33743e-06 -13.5248 -8.84149 9.28843 0.238969
8 0.085 4.70192e-10 -21.4779 -16.7946 9.28843 0.224384
9 0.095 1.94829e-16 -36.1744 -31.4911 9.28843 0.206999
10 0.105 1.77657e-19 -43.1744 -38.4912 9.28843 0.19984
11 0.115 2.48508e-26 -58.9569 -54.2736 9.28843 0.185356
12 0.125 4.86941e-31 -69.7972 -65.1139 9.28843 0.176191
13 0.135 3.82922e-30 -67.7349 -63.0516 9.28843 0.178292
14 0.145 4.5886e-32 -72.1591 -67.4759 9.28843 0.174663
15 0.155 1.09038e-39 -89.7143 -85.031 9.28843 0.16021
16 0.165 3.4138e-41 -93.1782 -88.4949 9.28843 0.15838
17 0.175 1.45044e-42 -96.3367 -91.6534 9.28843 0.156562
18 0.185 6.55358e-48 -108.644 -103.961 9.28843 0.147576
19 0.195 3.97999e-47 -106.84 -102.157 9.28843 0.1495
20 0.205 1.09858e-52 -119.64 -114.957 9.28843 0.140415
21 0.215 1.15233e-55 -126.5 -121.817 9.28843 0.134902
22 0.225 5.04556e-57 -129.629 -124.946 9.28843 0.132907
23 0.235 3.1315e-60 -137.014 -132.33 9.28843 0.127323
24 0.245 1.88961e-62 -142.124 -137.441 9.28843 0.124011
25 0.255 1.74486e-63 -144.506 -139.823 9.28843 0.122199
26 0.265 5.23006e-65 -148.014 -143.33 9.28843 0.118831
27 0.275 1.25183e-66 -151.746 -147.063 9.28843 0.117025
28 0.285 3.11417e-70 -160.045 -155.362 9.28843 0.109653
29 0.295 3.06682e-71 -162.363 -157.68 9.28843 0.108011
30 0.305 1.74061e-72 -165.232 -160.549 9.28843 0.106163
31 0.315 1.5e-71 -163.078 -158.395 9.28843 0.108099
32 0.325 8.55917e-77 -175.152 -170.469 9.28843 0.0970069
33 0.335 4.29888e-79 -180.446 -175.763 9.28843 0.0913846
34 0.345 9.46975e-80 -181.959 -177.275 9.28843 0.0914125
35 0.355 3.83715e-81 -185.165 -180.481 9.28843 0.0878231
36 0.365 2.15585e-81 -185.741 -181.058 9.28843 0.0877798
37 0.375 1.26257e-84 -193.184 -188.501 9.28843 0.0799168
38 0.385 3.18703e-85 -194.561 -189.877 9.28843 0.0787311
39 0.395 2.67767e-87 -199.34 -194.657 9.28843 0.0725781
40 0.405 2.33803e-88 -201.778 -197.095 9.28843 0.0706067
41 0.415 2.48462e-89 -204.02 -199.337 9.28843 0.0697255
42 0.425 4.84535e-91 -207.957 -203.274 9.28843 0.063237
43 0.435 5.36734e-92 -210.157 -205.474 9.28843 0.0604982
44 0.445 1.63806e-93 -213.647 -208.964 9.28843 0.0556492
45 0.455 9.95202e-94 -214.145 -209.462 9.28843 0.0565528
46 0.465 5.7785e-95 -216.991 -212.308 9.28843 0.0527355
47 0.475 5.92631e-96 -219.269 -214.586 9.28843 0.0483827
48 0.485 1.06314e-97 -223.29 -218.606 9.28843 0.040972
49 0.495 5.72298e-98 -223.909 -219.226 9.28843 0.0419324
50 0.505 6.46421e-99 -226.09 -221.406 9.28843 0.0407021
51 0.515 1.9249e-100 -229.604 -224.92 9.28843 0.0310963
52 0.525 5.00933e-101 -230.95 -226.267 9.28843 0.0289954
53 0.535 1.61171e-101 -232.084 -227.401 9.28843 0.0281687
54 0.545 6.17668e-102 -233.043 -228.36 9.28843 0.0281926
55 0.555 7.95766e-102 -232.79 -228.106 9.28843 0.0305177
56 0.565 1.55027e-104 -239.03 -234.347 9.28843 0.00919633
57 0.575 1.51655e-104 -239.052 -234.369 9.28843 0.015393
58 0.585 4.46599e-106 -242.578 -237.894 9.28843 0.00134633
59 0.595 5.09031e-106 -242.447 -237.763 9.28843 0.00780847
60 0.605 4.64852e-107 -244.84 -240.157 9.28843 -0.00427146
61 0.615 1.16543e-107 -246.224 -241.54 9.28843 -0.007294
62 0.625 2.61636e-108 -247.717 -243.034 9.28843 -0.0131911
63 0.635 6.56302e-109 -249.1 -244.417 9.28843 -0.0219186
64 0.645 8.37448e-109 -248.857 -244.173 9.28843 -0.0112666
65 0.655 8.98343e-110 -251.089 -246.406 9.28843 -0.0310933
66 0.665 1.71009e-110 -252.748 -248.065 9.28843 -0.0440246
67 0.675 9.65059e-111 -253.32 -248.637 9.28843 -0.0488412
68 0.685 4.0592e-111 -254.186 -249.503 9.28843 -0.0569994
69 0.695 1.78445e-111 -255.008 -250.325 9.28843 -0.0670144
70 0.705 8.83899e-112 -255.71 -251.027 9.28843 -0.0720802
71 0.715 5.96718e-112 -256.103 -251.42 9.28843 -0.0843123
72 0.725 4.07292e-112 -256.485 -251.802 9.28843 -0.0927557
73 0.735 3.03461e-112 -256.779 -252.096 9.28843 -0.102829
74 0.745 2.19475e-112 -257.103 -252.42 9.28843 -0.111876
75 0.755 2.02314e-112 -257.185 -252.502 9.28843 -0.122587
76 0.765 2.46111e-112 -256.989 -252.306 9.28843 -0.132502
77 0.775 2.67839e-112 -256.904 -252.221 9.28843 -0.143156
78 0.785 3.2991e-112 -256.696 -252.013 9.28843 -0.15423
79 0.795 3.57516e-112 -256.616 -251.932 9.28843 -0.16512
80 0.805 5.999e-112 -256.098 -251.415 9.28843 -0.175505
81 0.815 9.19382e-112 -255.671 -250.988 9.28843 -0.187446
82 0.825 1.46185e-111 -255.207 -250.524 9.28843 -0.199577
83 0.835 1.91536e-111 -254.937 -250.254 9.28843 -0.210523
84 0.845 3.48331e-111 -254.339 -249.656 9.28843 -0.222235
85 0.855 5.16869e-111 -253.944 -249.261 9.28843 -0.234802
86 0.865 7.02269e-111 -253.638 -248.955 9.28843 -0.247709
87 0.875 6.98811e-111 -253.643 -248.959 9.28843 -0.259719
88 0.885 8.442e-111 -253.454 -248.77 9.28843 -0.271877
89 0.895 6.98095e-111 -253.644 -248.96 9.28843 -0.284761
90 0.905 4.34577e-111 -254.118 -249.434 9.28843 -0.298224
91 0.915 1.70083e-111 -255.056 -250.373 9.28843 -0.31123
92 0.925 6.71869e-112 -255.985 -251.301 9.28843 -0.323199
93 0.935 1.22832e-112 -257.684 -253.001 9.28843 -0.33659
94 0.945 1.16122e-113 -260.043 -255.359 9.28843 -0.350433
95 0.955 4.8008e-115 -263.229 -258.545 9.28843 -0.364419
96 0.965 1.38891e-116 -266.771 -262.088 9.28843 -0.378696
97 0.975 6.44724e-119 -272.144 -267.461 9.28843 -0.398351
98 0.985 3.88695e-123 -281.86 -277.177 9.28843 -0.434369
99 0.995 1.91386e-129 -296.384 -291.701 9.28843 -0.470707
