0 0.005 0.210746 -1.5571 2.572 8.73427 0.276778
1 0.015 11.83 2.47064 6.59975 8.73427 0.275499
2 0.025 46.7538 3.8449 7.974 8.73427 0.273946
3 0.035 33.7818 3.51992 7.64903 8.73427 0.272712
4 0.045 6.44316 1.86302 5.99212 8.73427 0.271351
5 0.055 0.955755 -0.0452538 4.08385 8.73427 0.269453
6 0.065 0.0246836 -3.70162 0.427488 8.73427 0.25781
7 0.075 5.48904e-06 -12.1128 -7.98365 8.73427 0.237585
8 0.085 1.59104e-11 -24.864 -20.7349 8.73427 0.215517
9 0.095 3.77364e-14 -30.9082 -26.779 8.73427 0.208685
10 0.105 2.63861e-22 -49.6866 -45.5575 8.73427 0.188232
11 0.115 3.4992e-24 -54.0095 -49.8804 8.73427 0.18532
12 0.125 5.98609e-26 -58.0778 -53.9487 8.73427 0.181638
13 0.135 2.28725e-30 -68.2502 -64.1211 8.73427 0.172854
14 0.145 2.38967e-35 -79.7193 -75.5902 8.73427 0.163628
15 0.155 1.06552e-37 -85.1322 -81.0031 8.73427 0.159899
16 0.165 4.99623e-42 -95.0999 -90.9708 8.73427 0.152847
17 0.175 4.49685e-43 -97.5078 -93.3787 8.73427 0.150933
18 0.185 4.04751e-43 -97.6131 -93.484 8.73427 0.151153
19 0.195 1.95623e-47 -107.55 -103.421 8.73427 0.143854
20 0.205 1.34593e-49 -112.53 -108.4 8.73427 0.140327
21 0.215 8.30215e-53 -119.92 -115.791 8.73427 0.134929
22 0.225 5.93348e-55 -124.862 -120.732 8.73427 0.131388
23 0.235 8.78576e-58 -131.377 -127.248 8.73427 0.125914
24 0.245 4.05194e-59 -134.453 -130.324 8.73427 0.124112
25 0.255 7.86623e-62 -140.698 -136.569 8.73427 0.118542
26 0.265 3.63064e-63 -143.773 -139.644 8.73427 0.116835
27 0.275 9.13546e-66 -149.758 -145.629 8.73427 0.111126
28 0.285 1.18387e-67 -154.104 -149.975 8.73427 0.107454
29 0.295 2.33927e-70 -160.331 -156.202 8.73427 0.101849
30 0.305 2.22903e-71 -162.682 -158.553 8.73427 0.0993992
31 0.315 1.59048e-70 -160.717 -156.588 8.73427 0.10269
32 0.325 1.50189e-72 -165.379 -161.25 8.73427 0.0988314
33 0.335 5.61038e-76 -173.272 -169.143 8.73427 0.0893002
34 0.345 4.82519e-75 -171.12 -166.991 8.73427 0.0932184
35 0.355 2.00029e-77 -176.606 -172.477 8.73427 0.0875034
36 0.365 1.82435e-79 -181.303 -177.174 8.73427 0.0813535
37 0.375 2.7309e-78 -178.597 -174.468 8.73427 0.0864196
38 0.385 1.68961e-80 -183.682 -179.553 8.73427 0.0807793
39 0.395 4.62634e-83 -189.583 -185.454 8.73427 0.0725853
40 0.405 2.3001e-84 -192.584 -188.455 8.73427 0.0687573
41 0.415 1.09904e-85 -195.625 -191.496 8.73427 0.0646978
42 0.425 2.22183e-86 -197.224 -193.095 8.73427 0.0633724
43 0.435 1.55752e-87 -199.882 -195.753 8.73427 0.0595016
44 0.445 1.0062e-87 -200.319 -196.19 8.73427 0.060648
45 0.455 1.51319e-89 -204.516 -200.387 8.73427 0.0530865
46 0.465 2.05486e-90 -206.512 -202.383 8.73427 0.0506561
47 0.475 3.89036e-92 -210.479 -206.35 8.73427 0.0426057
48 0.485 1.57445e-92 -211.384 -207.255 8.73427 0.0424902
49 0.495 3.66108e-93 -212.843 -208.714 8.73427 0.0415411
50 0.505 4.79076e-94 -214.876 -210.747 8.73427 0.0375382
51 0.515 5.65069e-95 -217.014 -212.885 8.73427 0.0316802
52 0.525 4.01928e-96 -219.657 -215.528 8.73427 0.0261345
53 0.535 6.25748e-97 -221.517 -217.388 8.73427 0.0217362
54 0.545 1.99121e-97 -222.662 -218.533 8.73427 0.0223429
55 0.555 2.59875e-98 -224.698 -220.569 8.73427 0.0131978
56 0.565 1.36629e-98 -225.341 -221.212 8.73427 0.0154365
57 0.575 2.40835e-99 -227.077 -222.948 8.73427 0.00852784
58 0.585 4.21428e-100 -228.82 -224.691 8.73427 0.0031054
59 0.595 9.05634e-101 -230.358 -226.229 8.73427 -0.00486626
60 0.605 2.0484e-101 -231.844 -227.715 8.73427 -0.013014
61 0.615 7.85881e-102 -232.802 -228.673 8.73427 -0.0164509
62 0.625 2.7351e-102 -233.858 -229.728 8.73427 -0.0205832
63 0.635 1.40492e-102 -234.524 -230.395 8.73427 -0.0240082
64 0.645 4.87147e-103 -235.583 -231.454 8.73427 -0.033618
65 0.655 1.91475e-103 -236.517 -232.388 8.73427 -0.0438545
66 0.665 9.8343e-104 -237.183 -233.054 8.73427 -0.0476654
67 0.675 6.3541e-104 -237.62 -233.491 8.73427 -0.0572606
68 0.685 4.04825e-104 -238.071 -233.941 8.73427 -0.0661563
69 0.695 2.81079e-104 -238.435 -234.306 8.73427 -0.0759653
70 0.705 1.94529e-104 -238.803 -234.674 8.73427 -0.0844834
71 0.715 2.05701e-104 -238.748 -234.618 8.73427 -0.0946727
72 0.725 2.07475e-104 -238.739 -234.61 8.73427 -0.104249
73 0.735 2.47825e-104 -238.561 -234.432 8.73427 -0.114682
74 0.745 2.68808e-104 -238.48 -234.351 8.73427 -0.124308
75 0.755 3.98704e-104 -238.086 -233.957 8.73427 -0.134661
76 0.765 7.83752e-104 -237.41 -233.281 8.73427 -0.144598
77 0.775 1.49031e-103 -236.767 -232.638 8.73427 -0.155336
78 0.785 3.15661e-103 -236.017 -231.888 8.73427 -0.166452
79 0.795 5.64083e-103 -235.436 -231.307 8.73427 -0.17676
80 0.805 1.60986e-102 -234.388 -230.258 8.73427 -0.187683
81 0.815 4.14917e-102 -233.441 -229.312 8.73427 -0.198929
82 0.825 1.11196e-101 -232.455 -228.326 8.73427 -0.211022
83 0.835 2.34997e-101 -231.707 -227.578 8.73427 -0.221767
84 0.845 7.21865e-101 -230.584 -226.455 8.73427 -0.233591
85 0.855 1.91778e-100 -229.607 -225.478 8.73427 -0.246638
86 0.865 4.65194e-100 -228.721 -224.592 8.73427 -0.259332
87 0.875 7.74879e-100 -228.211 -224.082 8.73427 -0.271023
88 0.885 1.66947e-99 -227.443 -223.314 8.73427 -0.283407
89 0.895 2.50335e-99 -227.038 -222.909 8.73427 -0.296485
90 0.905 2.83146e-99 -226.915 -222.786 8.73427 -0.309801
91 0.915 1.94161e-99 -227.292 -223.163 8.73427 -0.322162
92 0.925 1.31535e-99 -227.682 -223.553 8.73427 -0.334178
93 0.935 4.38223e-100 -228.781 -224.652 8.73427 -0.347604
94 0.945 7.41882e-101 -230.557 -226.428 8.73427 -0.361997
95 0.955 6.08698e-102 -233.058 -228.928 8.73427 -0.372956
96 0.965 3.48059e-103 -235.919 -231.79 8.73427 -0.385016
97 0.975 3.1238e-105 -240.632 -236.503 8.73427 -0.404675
98 0.985 2.60213e-106 -243.118 -238.989 8.73427 -0.392507
99 0.995 1.829e-113 -259.588 -255.459 8.73427 -0.46126
