0 0.005 0.270201 -1.30859 2.85696 8.77072 0.283038
1 0.015 13.7306 2.61962 6.78517 8.77072 0.282435
2 0.025 48.1239 3.87378 8.03933 8.77072 0.28134
3 0.035 31.6938 3.45612 7.62167 8.77072 0.280442
4 0.045 5.50442 1.70555 5.8711 8.77072 0.27961
5 0.055 0.672171 -0.397242 3.76831 8.77072 0.277327
6 0.065 0.00488203 -5.32219 -1.15664 8.77072 0.260085
7 0.075 1.61473e-07 -15.6389 -11.4734 8.77072 0.237659
8 0.085 6.58003e-14 -30.3522 -26.1866 8.77072 0.215626
9 0.095 8.48185e-17 -37.006 -32.8405 8.77072 0.208749
10 0.105 9.64833e-26 -57.6004 -53.4349 8.77072 0.188375
11 0.115 9.83399e-28 -62.1865 -58.021 8.77072 0.185371
12 0.125 1.21183e-29 -66.5828 -62.4173 8.77072 0.181679
13 0.135 2.11694e-34 -77.5379 -73.3724 8.77072 0.172868
14 0.145 9.74744e-40 -89.8264 -85.6608 8.77072 0.163672
15 0.155 3.12036e-42 -95.5706 -91.4051 8.77072 0.159951
16 0.165 7.81465e-47 -106.165 -102 8.77072 0.152901
17 0.175 5.93394e-48 -108.743 -104.578 8.77072 0.150994
18 0.185 5.43645e-48 -108.831 -104.665 8.77072 0.151173
19 0.195 1.37443e-52 -119.416 -115.251 8.77072 0.143902
20 0.205 6.90309e-55 -124.71 -120.545 8.77072 0.140355
21 0.215 2.63727e-58 -132.58 -128.415 8.77072 0.13498
22 0.225 1.37451e-60 -137.837 -133.671 8.77072 0.131422
23 0.235 1.25123e-63 -144.839 -140.673 8.77072 0.125959
24 0.245 4.91325e-65 -148.076 -143.911 8.77072 0.124146
25 0.255 5.82079e-68 -154.814 -150.649 8.77072 0.11861
26 0.265 2.30743e-69 -158.042 -153.877 8.77072 0.116896
27 0.275 3.50232e-72 -164.533 -160.367 8.77072 0.111239
28 0.285 3.27564e-74 -169.205 -165.039 8.77072 0.10758
29 0.295 3.93997e-77 -175.928 -171.762 8.77072 0.102022
30 0.305 3.02903e-78 -178.493 -174.328 8.77072 0.0996455
31 0.315 2.8646e-77 -176.247 -172.081 8.77072 0.102695
32 0.325 1.92625e-79 -181.249 -177.083 8.77072 0.0989152
33 0.335 3.09188e-83 -189.986 -185.82 8.77072 0.0894541
34 0.345 3.76009e-82 -187.488 -183.322 8.77072 0.093326
35 0.355 9.43426e-85 -193.475 -189.31 8.77072 0.0877434
36 0.365 4.98765e-87 -198.718 -194.552 8.77072 0.0816353
37 0.375 1.15837e-85 -195.573 -191.407 8.77072 0.0864531
38 0.385 4.35347e-88 -201.157 -196.991 8.77072 0.0808815
39 0.395 5.79678e-91 -207.778 -203.612 8.77072 0.0728581
40 0.405 2.05508e-92 -211.118 -206.952 8.77072 0.0690803
41 0.415 6.89814e-94 -214.512 -210.346 8.77072 0.0651953
42 0.425 1.23475e-94 -216.232 -212.067 8.77072 0.0637815
43 0.435 6.14688e-96 -219.232 -215.067 8.77072 0.0599538
44 0.445 4.34382e-96 -219.579 -215.414 8.77072 0.0608364
45 0.455 3.35868e-98 -224.442 -220.276 8.77072 0.05343
46 0.465 3.6995e-99 -226.648 -222.482 8.77072 0.0511389
47 0.475 3.47346e-101 -231.316 -227.15 8.77072 0.0434001
48 0.485 1.39981e-101 -232.225 -228.059 8.77072 0.0434126
49 0.495 2.98004e-102 -233.772 -229.606 8.77072 0.0423592
50 0.505 2.73516e-103 -236.16 -231.995 8.77072 0.0383913
51 0.515 1.9225e-104 -238.815 -234.65 8.77072 0.0326073
52 0.525 8.44925e-106 -241.94 -237.774 8.77072 0.0272805
53 0.535 9.09686e-107 -244.169 -240.003 8.77072 0.0233407
54 0.545 3.07576e-107 -245.253 -241.088 8.77072 0.023994
55 0.555 1.79858e-108 -248.092 -243.927 8.77072 0.0151358
56 0.565 1.19809e-108 -248.498 -244.333 8.77072 0.0180369
57 0.575 1.15344e-109 -250.839 -246.673 8.77072 0.0113543
58 0.585 1.27068e-110 -253.045 -248.879 8.77072 0.00625765
59 0.595 1.45933e-111 -255.209 -251.043 8.77072 9.76635e-05
60 0.605 1.59255e-112 -257.424 -253.259 8.77072 -0.00817713
61 0.615 4.80583e-113 -258.622 -254.457 8.77072 -0.0103854
62 0.625 1.2898e-113 -259.938 -255.772 8.77072 -0.0123084
63 0.635 5.62228e-114 -260.768 -256.602 8.77072 -0.0132665
64 0.645 8.73918e-115 -262.629 -258.464 8.77072 -0.0214727
65 0.655 1.31044e-115 -264.527 -260.361 8.77072 -0.0327848
66 0.665 6.63011e-116 -265.208 -261.043 8.77072 -0.0300165
67 0.675 1.88846e-116 -266.464 -262.299 8.77072 -0.0382684
68 0.685 6.02993e-117 -267.606 -263.44 8.77072 -0.0445326
69 0.695 2.10861e-117 -268.656 -264.491 8.77072 -0.0485532
70 0.705 6.74647e-118 -269.796 -265.63 8.77072 -0.058026
71 0.715 2.24301e-118 -270.897 -266.732 8.77072 -0.0744887
72 0.725 1.00119e-118 -271.704 -267.538 8.77072 -0.0831913
73 0.735 5.12918e-119 -272.373 -268.207 8.77072 -0.0904851
74 0.745 2.31799e-119 -273.167 -269.001 8.77072 -0.10118
75 0.755 1.39738e-119 -273.673 -269.507 8.77072 -0.110335
76 0.765 1.11253e-119 -273.901 -269.735 8.77072 -0.121124
77 0.775 8.17797e-120 -274.209 -270.043 8.77072 -0.131563
78 0.785 6.3013e-120 -274.469 -270.304 8.77072 -0.143042
79 0.795 4.474e-120 -274.812 -270.646 8.77072 -0.153574
80 0.805 4.90943e-120 -274.719 -270.554 8.77072 -0.164119
81 0.815 4.55914e-120 -274.793 -270.628 8.77072 -0.175827
82 0.825 4.20813e-120 -274.873 -270.708 8.77072 -0.187778
83 0.835 3.31557e-120 -275.112 -270.946 8.77072 -0.199012
84 0.845 3.62662e-120 -275.022 -270.856 8.77072 -0.210476
85 0.855 3.02366e-120 -275.204 -271.038 8.77072 -0.223431
86 0.865 2.39527e-120 -275.437 -271.271 8.77072 -0.236165
87 0.875 1.38662e-120 -275.983 -271.818 8.77072 -0.248126
88 0.885 1.00082e-120 -276.309 -272.144 8.77072 -0.260324
89 0.895 4.61901e-121 -277.083 -272.917 8.77072 -0.27378
90 0.905 1.60401e-121 -278.14 -273.975 8.77072 -0.286883
91 0.915 3.55001e-122 -279.648 -275.483 8.77072 -0.300128
92 0.925 8.70972e-123 -281.054 -276.888 8.77072 -0.310689
93 0.935 8.77272e-124 -283.349 -279.183 8.77072 -0.323658
94 0.945 3.79706e-125 -286.489 -282.323 8.77072 -0.340969
95 0.955 1.66647e-126 -289.615 -285.449 8.77072 -0.344743
96 0.965 2.29248e-128 -293.901 -289.736 8.77072 -0.366135
97 0.975 2.04913e-131 -300.921 -296.756 8.77072 -0.397253
98 0.985 3.51006e-132 -302.686 -298.52 8.77072 -0.392306
99 0.995 5.49377e-142 -325.263 -321.098 8.77072 -0.460847
