0 0.005 0 -inf -inf 211.394 -nan
1 0.015 0 -934.723 -727.935 211.394 0.211133
2 0.025 0 -920.849 -714.06 211.394 0.186534
3 0.035 0 -917.674 -710.886 211.394 0.183755
4 0.045 0 -912.815 -706.027 211.394 0.168064
5 0.055 0 -911.457 -704.668 211.394 0.171351
6 0.065 0 -908.751 -701.962 211.394 0.16145
7 0.075 0 -907.436 -700.647 211.394 0.162428
8 0.085 0 -906.701 -699.912 211.394 0.159291
9 0.095 0 -905.173 -698.384 211.394 0.15375
10 0.105 0 -904.171 -697.383 211.394 0.148623
11 0.115 0 -902.798 -696.009 211.394 0.140708
12 0.125 0 -901.972 -695.183 211.394 0.13761
13 0.135 0 -900.976 -694.187 211.394 0.133022
14 0.145 0 -899.387 -692.598 211.394 0.122849
15 0.155 0 -899.195 -692.406 211.394 0.125226
16 0.165 0 -898.454 -691.665 211.394 0.121286
17 0.175 0 -896.436 -689.647 211.394 0.111747
18 0.185 0 -894.838 -688.049 211.394 0.107609
19 0.195 0 -893.409 -686.62 211.394 0.105901
20 0.205 0 -891.705 -684.916 211.394 0.0990929
21 0.215 0 -886.827 -680.039 211.394 0.0836277
22 0.225 0 -887.752 -680.963 211.394 0.0915769
23 0.235 0 -885.589 -678.801 211.394 0.0855754
24 0.245 0 -884.17 -677.382 211.394 0.0836261
25 0.255 0 -881.856 -675.067 211.394 0.0778909
26 0.265 0 -877.206 -670.417 211.394 0.068991
27 0.275 0 -873.078 -666.289 211.394 0.063602
28 0.285 0 -867.538 -660.75 211.394 0.0561133
29 0.295 0 -871.501 -664.712 211.394 0.0641851
30 0.305 0 -867.276 -660.488 211.394 0.0571391
31 0.315 0 -859.889 -653.101 211.394 0.0469054
32 0.325 0 -861.149 -654.361 211.394 0.0496352
33 0.335 0 -859.945 -653.156 211.394 0.0497815
34 0.345 0 -854.472 -647.683 211.394 0.0425622
35 0.355 0 -846.188 -639.4 211.394 0.0325532
36 0.365 0 -847.054 -640.265 211.394 0.0347567
37 0.375 0 -838.625 -631.836 211.394 0.0256131
38 0.385 0 -839.242 -632.453 211.394 0.0272307
39 0.395 0 -837.444 -630.655 211.394 0.025746
40 0.405 0 -827.004 -620.215 211.394 0.0145123
41 0.415 0 -826.858 -620.069 211.394 0.0148085
42 0.425 0 -820.694 -613.905 211.394 0.00939404
43 0.435 0 -818.7 -611.911 211.394 0.00742315
44 0.445 0 -818.407 -611.618 211.394 0.00801084
45 0.455 0 -805.781 -598.993 211.394 -0.00342863
46 0.465 0 -805.781 -598.992 211.394 -0.00342638
47 0.475 0 -797.934 -591.145 211.394 -0.00875053
48 0.485 0 -789.957 -583.169 211.394 -0.0160202
49 0.495 0 -768.519 -561.73 211.394 -0.0323
50 0.505 0 -778.189 -571.4 211.394 -0.0250994
51 0.515 0 -778.011 -571.223 211.394 -0.0247817
52 0.525 0 -770.255 -563.467 211.394 -0.030499
53 0.535 0 -762.89 -556.101 211.394 -0.0358409
54 0.545 0 -761.019 -554.23 211.394 -0.0374939
55 0.555 0 -751.051 -544.263 211.394 -0.0448707
56 0.565 0 -746.88 -540.091 211.394 -0.0466574
57 0.575 3.35026e-320 -735.618 -528.83 211.394 -0.0556972
58 0.585 6.26584e-318 -730.387 -523.598 211.394 -0.0592905
59 0.595 3.97034e-312 -717.028 -510.239 211.394 -0.0680789
60 0.605 1.4821e-309 -711.105 -504.317 211.394 -0.071899
61 0.615 5.51369e-304 -698.279 -491.49 211.394 -0.0808998
62 0.625 4.96154e-298 -684.569 -477.78 211.394 -0.0898999
63 0.635 8.61215e-303 -695.53 -488.741 211.394 -0.0826309
64 0.645 4.98294e-298 -684.564 -477.776 211.394 -0.0898839
65 0.655 8.82683e-291 -667.874 -461.086 211.394 -0.100684
66 0.665 1.1148e-291 -669.944 -463.155 211.394 -0.0988396
67 0.675 6.89592e-286 -656.608 -449.82 211.394 -0.107899
68 0.685 9.41452e-275 -630.969 -424.18 211.394 -0.1241
69 0.695 1.64924e-273 -628.105 -421.317 211.394 -0.125888
70 0.705 1.99001e-274 -630.22 -423.432 211.394 -0.124002
71 0.715 1.78826e-263 -604.999 -398.21 211.394 -0.1403
72 0.725 7.13965e-256 -587.496 -380.707 211.394 -0.151008
73 0.735 2.77998e-248 -570.019 -363.23 211.394 -0.1619
74 0.745 6.46941e-242 -555.359 -348.57 211.394 -0.170899
75 0.755 2.02096e-244 -561.127 -354.339 211.394 -0.167126
76 0.765 4.29205e-238 -546.558 -339.77 211.394 -0.176299
77 0.775 3.68156e-229 -525.989 -319.2 211.394 -0.1889
78 0.785 4.74069e-224 -514.223 -307.434 211.394 -0.196079
79 0.795 7.64895e-214 -490.719 -283.93 211.394 -0.2105
80 0.805 3.36701e-206 -473.119 -266.33 211.394 -0.221299
81 0.815 2.32928e-202 -464.277 -257.488 211.394 -0.226609
82 0.825 1.14683e-184 -423.539 -216.75 211.394 -0.2519
83 0.835 1.15089e-184 -423.535 -216.746 211.394 -0.251886
84 0.845 3.98415e-172 -394.662 -187.874 211.394 -0.269877
85 0.855 1.01265e-159 -366.098 -159.31 211.394 -0.287899
86 0.865 2.58869e-154 -353.647 -146.858 211.394 -0.295052
87 0.875 8.56844e-138 -315.609 -108.82 211.394 -0.3203
88 0.885 1.35052e-130 -299.036 -92.2469 211.394 -0.330988
89 0.895 1.3406e-109 -250.689 -43.9 211.394 -0.3635
90 0.905 9.57648e-103 -234.907 -28.1183 211.394 -0.374175
91 0.915 8.20931e-94 -214.338 -7.54907 211.394 -0.388549
92 0.925 7.9668e-81 -184.434 22.3545 211.394 -0.410248
93 0.935 2.55751e-61 -139.519 67.27 211.394 -0.4445
94 0.945 1.09784e-51 -117.338 89.4502 211.394 -0.462499
95 0.955 4.48684e-42 -95.2074 111.581 211.394 -0.480424
96 0.965 3.40059e-26 -58.6433 148.145 211.394 -0.51647
97 0.975 7.31075e-12 -25.6417 181.147 211.394 -0.555822
98 0.985 0.0183603 -3.99756 202.791 211.394 -0.595139
99 0.995 99.9816 4.60499 211.394 211.394 -0.614836
