0 0.005 0.178435 -1.72353 3.51382 9.84252 0.2865
1 0.015 13.7991 2.6246 7.86196 9.84252 0.28619
2 0.025 48.631 3.88426 9.12161 9.84252 0.284871
3 0.035 31.5732 3.45231 8.68966 9.84252 0.283735
4 0.045 5.23977 1.65628 6.89363 9.84252 0.282606
5 0.055 0.564179 -0.572384 4.66497 9.84252 0.281761
6 0.065 0.0143009 -4.24744 0.989917 9.84252 0.275853
7 0.075 5.77636e-06 -12.0617 -6.82438 9.84252 0.252031
8 0.085 6.47713e-15 -32.6705 -27.4331 9.84252 0.215735
9 0.095 2.82055e-18 -40.4096 -35.1722 9.84252 0.208707
10 0.105 3.95628e-24 -53.8867 -48.6494 9.84252 0.196234
11 0.115 7.19455e-26 -57.8939 -52.6565 9.84252 0.192697
12 0.125 1.07756e-33 -75.9106 -70.6733 9.84252 0.178298
13 0.135 7.56858e-40 -90.0794 -84.842 9.84252 0.167371
14 0.145 7.9682e-40 -90.0279 -84.7906 9.84252 0.167338
15 0.155 2.08091e-46 -105.186 -99.9488 9.84252 0.156352
16 0.165 1.37847e-49 -112.506 -107.268 9.84252 0.151107
17 0.175 4.28609e-51 -115.976 -110.739 9.84252 0.149472
18 0.185 1.98534e-53 -121.351 -116.114 9.84252 0.145894
19 0.195 9.9307e-58 -131.254 -126.017 9.84252 0.138653
20 0.205 3.20916e-60 -136.989 -131.752 9.84252 0.134755
21 0.215 1.94388e-63 -144.398 -139.161 9.84252 0.129437
22 0.225 7.75091e-67 -152.225 -146.988 9.84252 0.124035
23 0.235 8.4941e-68 -154.436 -149.199 9.84252 0.122321
24 0.245 1.87036e-70 -160.555 -155.317 9.84252 0.118554
25 0.255 1.14442e-72 -165.651 -160.414 9.84252 0.115007
26 0.265 1.23496e-71 -163.273 -158.035 9.84252 0.117068
27 0.275 8.22528e-76 -172.889 -167.652 9.84252 0.109682
28 0.285 9.05464e-77 -175.096 -169.858 9.84252 0.107782
29 0.295 7.5037e-78 -177.586 -172.349 9.84252 0.106278
30 0.305 2.73827e-82 -187.805 -182.567 9.84252 0.0969059
31 0.315 8.69597e-81 -184.347 -179.109 9.84252 0.100882
32 0.325 3.39873e-84 -192.194 -186.956 9.84252 0.0935547
33 0.335 5.95741e-88 -200.843 -195.605 9.84252 0.0857734
34 0.345 1.38261e-88 -202.304 -197.066 9.84252 0.0842016
35 0.355 5.86413e-89 -203.161 -197.924 9.84252 0.0844003
36 0.365 7.84151e-90 -205.173 -199.936 9.84252 0.0828276
37 0.375 1.68046e-91 -209.016 -203.779 9.84252 0.0792942
38 0.385 1.5983e-94 -215.974 -210.737 9.84252 0.0712779
39 0.395 1.89301e-96 -220.41 -215.173 9.84252 0.0664513
40 0.405 4.27807e-96 -219.595 -214.357 9.84252 0.0679056
41 0.415 4.69896e-99 -226.409 -221.171 9.84252 0.0609198
42 0.425 5.58863e-99 -226.235 -220.998 9.84252 0.060678
43 0.435 4.114e-101 -231.147 -225.909 9.84252 0.0554424
44 0.445 1.64988e-102 -234.363 -229.126 9.84252 0.0519795
45 0.455 1.53981e-102 -234.432 -229.195 9.84252 0.0522732
46 0.465 1.41965e-105 -241.421 -236.184 9.84252 0.0423577
47 0.475 7.99516e-104 -237.39 -232.153 9.84252 0.0486841
48 0.485 3.02213e-106 -242.968 -237.731 9.84252 0.0413503
49 0.495 6.0916e-108 -246.872 -241.635 9.84252 0.035947
50 0.505 4.25081e-110 -251.837 -246.6 9.84252 0.0259815
51 0.515 7.84792e-107 -244.316 -239.079 9.84252 0.0396975
52 0.525 1.99539e-111 -254.896 -249.659 9.84252 0.0208001
53 0.535 4.54862e-110 -251.77 -246.532 9.84252 0.0287795
54 0.545 2.38066e-112 -257.022 -251.785 9.84252 0.0189497
55 0.555 1.07532e-113 -260.119 -254.882 9.84252 0.0127904
56 0.565 7.15461e-115 -262.83 -257.592 9.84252 0.00715306
57 0.575 8.74404e-116 -264.931 -259.694 9.84252 0.00353549
58 0.585 4.83551e-117 -267.826 -262.589 9.84252 -0.00431824
59 0.595 1.394e-116 -266.768 -261.53 9.84252 0.00058038
60 0.605 5.9455e-118 -269.922 -264.685 9.84252 -0.0082285
61 0.615 1.2268e-118 -271.501 -266.263 9.84252 -0.011715
62 0.625 2.05088e-119 -273.289 -268.052 9.84252 -0.0164118
63 0.635 1.05932e-120 -276.253 -271.015 9.84252 -0.0269658
64 0.645 4.60866e-121 -277.085 -271.848 9.84252 -0.0277712
65 0.655 6.2825e-122 -279.078 -273.84 9.84252 -0.0358999
66 0.665 1.44283e-122 -280.549 -275.311 9.84252 -0.0400445
67 0.675 5.36001e-123 -281.539 -276.302 9.84252 -0.0458667
68 0.685 1.10623e-123 -283.117 -277.88 9.84252 -0.0529081
69 0.695 9.66556e-124 -283.252 -278.015 9.84252 -0.0485201
70 0.705 2.33832e-124 -284.671 -279.434 9.84252 -0.0539814
71 0.715 7.32925e-125 -285.831 -280.594 9.84252 -0.0631802
72 0.725 1.41627e-125 -287.475 -282.238 9.84252 -0.0792102
73 0.735 7.54872e-126 -288.104 -282.867 9.84252 -0.0812598
74 0.745 1.97197e-126 -289.447 -284.209 9.84252 -0.0925107
75 0.755 9.27897e-127 -290.201 -284.963 9.84252 -0.0992132
76 0.765 3.46127e-127 -291.187 -285.949 9.84252 -0.113878
77 0.775 1.78087e-127 -291.851 -286.614 9.84252 -0.118604
78 0.785 8.2548e-128 -292.62 -287.383 9.84252 -0.128628
79 0.795 3.21196e-128 -293.564 -288.327 9.84252 -0.143668
80 0.805 2.34862e-128 -293.877 -288.64 9.84252 -0.153295
81 0.815 1.44026e-128 -294.366 -289.129 9.84252 -0.163438
82 0.825 8.47906e-129 -294.896 -289.659 9.84252 -0.175827
83 0.835 3.98147e-129 -295.652 -290.414 9.84252 -0.189059
84 0.845 2.7905e-129 -296.007 -290.77 9.84252 -0.199427
85 0.855 1.43433e-129 -296.673 -291.435 9.84252 -0.211622
86 0.865 6.94194e-130 -297.398 -292.161 9.84252 -0.225434
87 0.875 2.23653e-130 -298.531 -293.294 9.84252 -0.238763
88 0.885 1.19757e-130 -299.156 -293.918 9.84252 -0.248136
89 0.895 3.11549e-131 -300.502 -295.265 9.84252 -0.261228
90 0.905 6.23314e-132 -302.111 -296.874 9.84252 -0.275531
91 0.915 9.58576e-133 -303.984 -298.746 9.84252 -0.282757
92 0.925 1.38302e-133 -305.92 -300.682 9.84252 -0.29827
93 0.935 3.56528e-135 -309.578 -304.34 9.84252 -0.325845
94 0.945 1.72218e-136 -312.608 -307.371 9.84252 -0.337136
95 0.955 3.4276e-138 -316.525 -311.288 9.84252 -0.348377
96 0.965 2.50211e-140 -321.445 -316.207 9.84252 -0.369502
97 0.975 1.97872e-144 -330.89 -325.652 9.84252 -0.405346
98 0.985 3.25263e-151 -346.511 -341.274 9.84252 -0.448414
99 0.995 9.52094e-161 -368.463 -363.225 9.84252 -0.490321
