0 0.005 0.164621 -1.80411 2.95178 9.36106 0.288728
1 0.015 13.7715 2.6226 7.37849 9.36106 0.285733
2 0.025 49.2346 3.8966 8.65249 9.36106 0.285033
3 0.035 31.2073 3.44065 8.19654 9.36106 0.283878
4 0.045 5.11235 1.63166 6.38755 9.36106 0.282721
5 0.055 0.450111 -0.798261 3.95763 9.36106 0.281421
6 0.065 0.0594632 -2.8224 1.93349 9.36106 0.281972
7 0.075 3.94203e-08 -17.049 -12.2931 9.36106 0.239208
8 0.085 4.04215e-12 -26.2342 -21.4784 9.36106 0.224543
9 0.095 3.85366e-19 -42.4001 -37.6442 9.36106 0.207038
10 0.105 1.92163e-22 -50.0037 -45.2478 9.36106 0.199863
11 0.115 7.94454e-30 -67.0051 -62.2492 9.36106 0.185398
12 0.125 7.2083e-35 -78.6152 -73.8594 9.36106 0.176275
13 0.135 6.74147e-34 -76.3796 -71.6237 9.36106 0.178295
14 0.145 5.95303e-36 -81.1092 -76.3533 9.36106 0.174673
15 0.155 4.18995e-44 -99.8811 -95.1252 9.36106 0.160228
16 0.165 1.12464e-45 -103.499 -98.743 9.36106 0.158402
17 0.175 4.09971e-47 -106.811 -102.055 9.36106 0.156582
18 0.185 8.69336e-53 -119.874 -115.119 9.36106 0.147601
19 0.195 6.20105e-52 -117.91 -113.154 9.36106 0.1495
20 0.205 7.97331e-58 -131.474 -126.718 9.36106 0.140439
21 0.215 5.26015e-61 -138.798 -134.042 9.36106 0.134939
22 0.225 1.94845e-62 -142.093 -137.337 9.36106 0.132961
23 0.235 7.56449e-66 -149.947 -145.191 9.36106 0.127403
24 0.245 3.45084e-68 -155.337 -150.581 9.36106 0.124071
25 0.255 2.73321e-69 -157.873 -153.117 9.36106 0.122241
26 0.265 6.16352e-71 -161.665 -156.909 9.36106 0.11885
27 0.275 1.26739e-72 -165.549 -160.793 9.36106 0.117049
28 0.285 1.69719e-76 -174.467 -169.712 9.36106 0.10971
29 0.295 1.4536e-77 -176.925 -172.169 9.36106 0.108037
30 0.305 7.06599e-79 -179.949 -175.193 9.36106 0.106205
31 0.315 7.15415e-78 -177.634 -172.878 9.36106 0.108099
32 0.325 1.60959e-83 -190.639 -185.883 9.36106 0.097083
33 0.335 5.03962e-86 -196.405 -191.649 9.36106 0.0914817
34 0.345 1.11558e-86 -197.913 -193.157 9.36106 0.0915642
35 0.355 3.3355e-88 -201.423 -196.667 9.36106 0.0879382
36 0.365 1.86423e-88 -202.005 -197.249 9.36106 0.0878604
37 0.375 5.67519e-92 -210.102 -205.346 9.36106 0.0801744
38 0.385 1.29004e-92 -211.583 -206.827 9.36106 0.0788744
39 0.395 6.47803e-95 -216.877 -212.121 9.36106 0.0728024
40 0.405 4.80671e-96 -219.478 -214.722 9.36106 0.0709037
41 0.415 4.73307e-97 -221.796 -217.04 9.36106 0.0699661
42 0.425 5.36596e-99 -226.276 -221.52 9.36106 0.0635739
43 0.435 4.70593e-100 -228.71 -223.954 9.36106 0.0607663
44 0.445 9.62244e-102 -232.6 -227.844 9.36106 0.056097
45 0.455 6.27142e-102 -233.028 -228.272 9.36106 0.0568653
46 0.465 2.65927e-103 -236.188 -231.432 9.36106 0.0532023
47 0.475 1.89268e-104 -238.831 -234.075 9.36106 0.0488887
48 0.485 1.82365e-106 -243.473 -238.717 9.36106 0.0415257
49 0.495 1.05978e-106 -244.016 -239.26 9.36106 0.0423823
50 0.505 1.08027e-107 -246.299 -241.544 9.36106 0.0411495
51 0.515 1.4612e-109 -250.603 -245.847 9.36106 0.0320031
52 0.525 3.21682e-110 -252.116 -247.36 9.36106 0.030121
53 0.535 9.55103e-111 -253.33 -248.574 9.36106 0.0290341
54 0.545 3.5983e-111 -254.306 -249.551 9.36106 0.0286218
55 0.555 5.5589e-111 -253.872 -249.116 9.36106 0.0306524
56 0.565 1.90124e-114 -261.852 -257.096 9.36106 0.0105581
57 0.575 3.16907e-114 -261.341 -256.585 9.36106 0.016888
58 0.585 3.01275e-116 -265.997 -261.241 9.36106 0.00403634
59 0.595 5.80612e-116 -265.341 -260.585 9.36106 0.00989368
60 0.605 1.9871e-117 -268.716 -263.96 9.36106 -0.00132007
61 0.615 4.1739e-118 -270.276 -265.52 9.36106 -0.00284245
62 0.625 6.07412e-119 -272.204 -267.448 9.36106 -0.00730561
63 0.635 7.66408e-120 -274.274 -269.518 9.36106 -0.014875
64 0.645 2.21308e-119 -273.213 -268.457 9.36106 -0.00666647
65 0.655 4.92221e-121 -277.019 -272.263 9.36106 -0.0241302
66 0.665 3.34863e-122 -279.707 -274.951 9.36106 -0.0353499
67 0.675 1.5213e-122 -280.496 -275.74 9.36106 -0.0360539
68 0.685 3.38202e-123 -281.999 -277.244 9.36106 -0.0431392
69 0.695 5.88926e-124 -283.747 -278.992 9.36106 -0.0550735
70 0.705 2.95186e-124 -284.438 -279.682 9.36106 -0.0500964
71 0.715 5.16756e-125 -286.181 -281.425 9.36106 -0.0694646
72 0.725 1.98675e-125 -287.137 -282.381 9.36106 -0.0744721
73 0.735 6.37352e-126 -288.274 -283.518 9.36106 -0.0845779
74 0.745 2.93608e-126 -289.049 -284.293 9.36106 -0.0844424
75 0.755 8.80709e-127 -290.253 -285.497 9.36106 -0.101457
76 0.765 5.29908e-127 -290.761 -286.005 9.36106 -0.106932
77 0.775 2.30038e-127 -291.595 -286.839 9.36106 -0.117799
78 0.785 1.13221e-127 -292.304 -287.548 9.36106 -0.128086
79 0.795 4.58911e-128 -293.207 -288.451 9.36106 -0.141657
80 0.805 3.2383e-128 -293.556 -288.8 9.36106 -0.152006
81 0.815 1.77216e-128 -294.159 -289.403 9.36106 -0.164625
82 0.825 1.02174e-128 -294.709 -289.953 9.36106 -0.176469
83 0.835 5.22293e-129 -295.38 -290.625 9.36106 -0.187539
84 0.845 3.58145e-129 -295.758 -291.002 9.36106 -0.199261
85 0.855 1.83547e-129 -296.426 -291.67 9.36106 -0.211861
86 0.865 8.402e-130 -297.208 -292.452 9.36106 -0.224682
87 0.875 3.04216e-130 -298.223 -293.468 9.36106 -0.236578
88 0.885 1.33894e-130 -299.044 -294.288 9.36106 -0.248773
89 0.895 3.72548e-131 -300.323 -295.568 9.36106 -0.261439
90 0.905 7.37747e-132 -301.943 -297.187 9.36106 -0.275678
91 0.915 9.29038e-133 -304.015 -299.259 9.36106 -0.289184
92 0.925 1.32197e-133 -305.965 -301.209 9.36106 -0.302225
93 0.935 7.35433e-135 -308.854 -304.098 9.36106 -0.317634
94 0.945 2.13634e-136 -312.392 -307.637 9.36106 -0.331542
95 0.955 2.45833e-138 -316.857 -312.101 9.36106 -0.348369
96 0.965 1.87159e-140 -321.735 -316.979 9.36106 -0.366151
97 0.975 1.16106e-143 -329.12 -324.364 9.36106 -0.393557
98 0.985 2.87749e-149 -342.028 -337.272 9.36106 -0.432898
99 0.995 6.28415e-157 -359.668 -354.912 9.36106 -0.470406
