0 0.005 1.05511e-299 -688.419 -284.267 408.757 0.234126
1 0.015 2.55925e-293 -673.718 -269.566 408.757 0.207478
2 0.025 2.71304e-291 -669.054 -264.902 408.757 0.201226
3 0.035 1.14809e-289 -665.309 -261.157 408.757 0.19515
4 0.045 1.15432e-288 -663.001 -258.849 408.757 0.18872
5 0.055 5.1389e-288 -661.508 -257.356 408.757 0.184653
6 0.065 1.16407e-287 -660.69 -256.538 408.757 0.180759
7 0.075 1.6716e-287 -660.328 -256.176 408.757 0.177089
8 0.085 1.45268e-287 -660.469 -256.317 408.757 0.173021
9 0.095 1.49517e-287 -660.44 -256.288 408.757 0.168297
10 0.105 1.00338e-287 -660.839 -256.687 408.757 0.163902
11 0.115 5.90879e-288 -661.368 -257.216 408.757 0.15948
12 0.125 2.92347e-288 -662.072 -257.92 408.757 0.155305
13 0.135 1.794e-288 -662.56 -258.408 408.757 0.150184
14 0.145 9.49816e-289 -663.196 -259.044 408.757 0.144706
15 0.155 5.3073e-289 -663.778 -259.626 408.757 0.139702
16 0.165 2.61969e-289 -664.484 -260.332 408.757 0.134646
17 0.175 2.09631e-289 -664.707 -260.555 408.757 0.130536
18 0.185 1.36893e-289 -665.133 -260.981 408.757 0.125245
19 0.195 1.10649e-289 -665.346 -261.194 408.757 0.119183
20 0.205 8.92808e-290 -665.56 -261.409 408.757 0.113662
21 0.215 1.18475e-289 -665.278 -261.126 408.757 0.108332
22 0.225 1.54399e-289 -665.013 -260.861 408.757 0.10262
23 0.235 2.41759e-289 -664.564 -260.412 408.757 0.0962602
24 0.245 3.627e-289 -664.159 -260.007 408.757 0.0916113
25 0.255 1.41411e-288 -662.798 -258.646 408.757 0.0794871
26 0.265 4.18942e-288 -661.712 -257.56 408.757 0.0762728
27 0.275 3.61169e-287 -659.558 -255.406 408.757 0.0633478
28 0.285 5.29107e-287 -659.176 -255.024 408.757 0.0674617
29 0.295 1.67883e-286 -658.021 -253.869 408.757 0.0648238
30 0.305 1.5045e-285 -655.828 -251.676 408.757 0.0580543
31 0.315 6.85778e-285 -654.311 -250.159 408.757 0.0556568
32 0.325 2.7958e-283 -650.603 -246.452 408.757 0.0436743
33 0.335 2.21939e-280 -643.927 -239.775 408.757 0.0307564
34 0.345 7.43047e-281 -645.021 -240.869 408.757 0.0334779
35 0.355 4.755e-281 -645.467 -241.315 408.757 0.0377301
36 0.365 5.05294e-279 -640.801 -236.649 408.757 0.0286551
37 0.375 1.71229e-277 -637.278 -233.126 408.757 0.0224111
38 0.385 3.10236e-276 -634.381 -230.229 408.757 0.0187934
39 0.395 2.66089e-276 -634.535 -230.383 408.757 0.0219622
40 0.405 1.60596e-272 -625.829 -221.678 408.757 0.0075069
41 0.415 3.05245e-273 -627.49 -223.338 408.757 0.0119014
42 0.425 1.66774e-270 -621.187 -217.035 408.757 0.00210685
43 0.435 2.13539e-268 -616.334 -212.182 408.757 -0.0031384
44 0.445 1.44629e-267 -614.421 -210.269 408.757 -0.00460391
45 0.455 2.50491e-267 -613.872 -209.72 408.757 -0.00455338
46 0.465 5.40354e-264 -606.195 -202.044 408.757 -0.0139525
47 0.475 5.3068e-261 -599.306 -195.154 408.757 -0.0213856
48 0.485 8.77388e-261 -598.803 -194.651 408.757 -0.0206859
49 0.495 8.75597e-258 -591.897 -187.745 408.757 -0.0283605
50 0.505 3.21023e-256 -588.295 -184.144 408.757 -0.0320267
51 0.515 2.02179e-255 -586.455 -182.303 408.757 -0.0339036
52 0.525 6.11051e-253 -580.744 -176.592 408.757 -0.0392964
53 0.535 4.71418e-251 -576.398 -172.246 408.757 -0.0421857
54 0.545 3.19893e-249 -572.181 -168.029 408.757 -0.0463832
55 0.555 2.99049e-245 -563.038 -158.886 408.757 -0.0556106
56 0.565 1.57589e-242 -556.771 -152.619 408.757 -0.0607337
57 0.575 1.75148e-240 -552.06 -147.908 408.757 -0.064562
58 0.585 1.74097e-233 -535.948 -131.796 408.757 -0.0790998
59 0.595 9.51332e-238 -545.763 -141.611 408.757 -0.0698188
60 0.605 7.82961e-235 -539.05 -134.898 408.757 -0.0752846
61 0.615 1.04778e-228 -524.943 -120.791 408.757 -0.0877645
62 0.625 7.74544e-228 -522.942 -118.79 408.757 -0.0898063
63 0.635 5.06803e-224 -514.156 -110.004 408.757 -0.0970891
64 0.645 4.48307e-221 -507.371 -103.219 408.757 -0.102275
65 0.655 4.03255e-219 -502.872 -98.7198 408.757 -0.105801
66 0.665 5.52094e-214 -491.045 -86.8928 408.757 -0.115099
67 0.675 2.53843e-210 -482.611 -78.4594 408.757 -0.122261
68 0.685 2.6733e-205 -471.047 -66.8947 408.757 -0.131136
69 0.695 2.54417e-201 -461.886 -57.7339 408.757 -0.138499
70 0.705 1.0021e-201 -462.818 -58.6656 408.757 -0.136676
71 0.715 3.94358e-188 -431.514 -27.362 408.757 -0.1619
72 0.725 3.34975e-192 -440.887 -36.7355 408.757 -0.154649
73 0.735 4.68961e-185 -424.433 -20.281 408.757 -0.167267
74 0.745 1.0946e-182 -418.98 -14.8282 408.757 -0.170802
75 0.755 7.76143e-176 -403.206 0.946098 408.757 -0.183499
76 0.765 9.37053e-173 -396.11 8.04226 408.757 -0.188877
77 0.775 1.3296e-168 -386.549 17.6025 408.757 -0.195876
78 0.785 1.85076e-161 -370.101 34.0513 408.757 -0.208665
79 0.795 2.72822e-156 -358.2 45.9523 408.757 -0.217471
80 0.805 3.5374e-149 -341.822 62.3301 408.757 -0.230224
81 0.815 5.2914e-143 -327.604 76.5483 408.757 -0.240779
82 0.825 5.58079e-132 -302.222 101.93 408.757 -0.260889
83 0.835 5.66628e-127 -290.694 113.458 408.757 -0.269863
84 0.845 6.28102e-121 -276.775 127.377 408.757 -0.280329
85 0.855 3.77778e-111 -254.258 149.894 408.757 -0.298486
86 0.865 2.02529e-103 -236.461 167.691 408.757 -0.312906
87 0.875 6.59766e-95 -216.859 187.293 408.757 -0.329253
88 0.885 8.61643e-84 -191.263 212.888 408.757 -0.350897
89 0.895 1.45789e-76 -174.619 229.532 408.757 -0.365286
90 0.905 9.29869e-66 -149.741 254.411 408.757 -0.386862
91 0.915 1.4236e-53 -121.684 282.468 408.757 -0.413899
92 0.925 8.38178e-49 -110.701 293.451 408.757 -0.424647
93 0.935 1.59658e-37 -84.7278 319.424 408.757 -0.451539
94 0.945 8.01052e-25 -55.4839 348.668 408.757 -0.4859
95 0.955 9.12983e-22 -48.4453 355.707 408.757 -0.49437
96 0.965 1.60094e-11 -24.8578 379.294 408.757 -0.530025
97 0.975 4.4832e-05 -10.0126 394.139 408.757 -0.55787
98 0.985 1.46175 0.379631 404.532 408.757 -0.581879
99 0.995 98.5382 4.59044 408.742 408.757 -0.592258
