0 0.005 0 -inf -inf 214.048 -nan
1 0.015 0 -932.031 -722.588 214.048 0.203939
2 0.025 0 -922.544 -713.101 214.048 0.189288
3 0.035 0 -917.365 -707.923 214.048 0.180712
4 0.045 0 -914.809 -705.366 214.048 0.177939
5 0.055 0 -911.55 -702.107 214.048 0.171913
6 0.065 0 -908.84 -699.398 214.048 0.162134
7 0.075 0 -907.245 -697.803 214.048 0.161256
8 0.085 0 -906.128 -696.685 214.048 0.156756
9 0.095 0 -904.733 -695.29 214.048 0.152513
10 0.105 0 -903.644 -694.202 214.048 0.147496
11 0.115 0 -902.652 -693.21 214.048 0.142773
12 0.125 0 -901.938 -692.495 214.048 0.138358
13 0.135 0 -900.887 -691.444 214.048 0.133924
14 0.145 0 -899.73 -690.287 214.048 0.128313
15 0.155 0 -898.558 -689.116 214.048 0.122093
16 0.165 0 -897.699 -688.257 214.048 0.11843
17 0.175 0 -896.197 -686.755 214.048 0.112002
18 0.185 0 -894.348 -684.905 214.048 0.103652
19 0.195 0 -892.944 -683.502 214.048 0.100539
20 0.205 0 -891.596 -682.154 214.048 0.0954728
21 0.215 0 -889.23 -679.788 214.048 0.0887938
22 0.225 0 -887.62 -678.177 214.048 0.0875074
23 0.235 0 -883.551 -674.108 214.048 0.0752461
24 0.245 0 -883.065 -673.623 214.048 0.0775321
25 0.255 0 -880.188 -670.746 214.048 0.0720946
26 0.265 0 -876.952 -667.509 214.048 0.0662599
27 0.275 0 -874.441 -664.998 214.048 0.0642154
28 0.285 0 -871.2 -661.758 214.048 0.0585866
29 0.295 0 -868.083 -658.641 214.048 0.0550244
30 0.305 0 -866.484 -657.042 214.048 0.0535767
31 0.315 0 -861.982 -652.54 214.048 0.0476386
32 0.325 0 -857.18 -647.738 214.048 0.0419078
33 0.335 0 -853.825 -644.382 214.048 0.0380004
34 0.345 0 -852.308 -642.866 214.048 0.0382858
35 0.355 0 -848.232 -638.79 214.048 0.0332896
36 0.365 0 -845.984 -636.542 214.048 0.0319433
37 0.375 0 -841.072 -631.629 214.048 0.025671
38 0.385 0 -837.038 -627.595 214.048 0.0223592
39 0.395 0 -829.478 -620.035 214.048 0.0145753
40 0.405 0 -821.277 -611.835 214.048 0.00737054
41 0.415 0 -823.161 -613.718 214.048 0.00962723
42 0.425 0 -818.017 -608.575 214.048 0.00568327
43 0.435 0 -806.107 -596.665 214.048 -0.00520553
44 0.445 0 -807.578 -598.136 214.048 -0.00330054
45 0.455 0 -800.289 -590.846 214.048 -0.00886904
46 0.465 0 -794.763 -585.32 214.048 -0.0141156
47 0.475 0 -789.538 -580.095 214.048 -0.0178894
48 0.485 0 -783.152 -573.709 214.048 -0.0232578
49 0.495 0 -782.391 -572.949 214.048 -0.0230988
50 0.505 0 -775.834 -566.392 214.048 -0.0283951
51 0.515 0 -768.531 -559.089 214.048 -0.0338828
52 0.525 0 -753.592 -544.15 214.048 -0.044899
53 0.535 0 -755.9 -546.458 214.048 -0.042722
54 0.545 0 -750.803 -541.361 214.048 -0.0462589
55 0.555 7.03648e-320 -734.876 -525.434 214.048 -0.0574875
56 0.565 5.2371e-321 -737.474 -528.031 214.048 -0.0556404
57 0.575 1.04689e-316 -727.571 -518.129 214.048 -0.0626463
58 0.585 1.17792e-308 -709.032 -499.59 214.048 -0.0754998
59 0.595 8.03446e-310 -711.718 -502.275 214.048 -0.073682
60 0.605 2.86778e-306 -703.538 -494.095 214.048 -0.0789824
61 0.615 8.73844e-305 -700.121 -490.678 214.048 -0.0807705
62 0.625 3.2187e-301 -691.909 -482.467 214.048 -0.0861624
63 0.635 1.80884e-297 -683.275 -473.833 214.048 -0.0916338
64 0.645 4.60475e-293 -673.13 -463.688 214.048 -0.0986783
65 0.655 6.35081e-288 -661.296 -451.853 214.048 -0.106033
66 0.665 1.82199e-285 -655.637 -446.194 214.048 -0.109635
67 0.675 2.47187e-278 -639.214 -429.771 214.048 -0.120392
68 0.685 2.64298e-274 -629.936 -420.494 214.048 -0.125832
69 0.695 8.69049e-261 -598.812 -389.37 214.048 -0.1457
70 0.705 1.59377e-265 -609.719 -400.276 214.048 -0.13844
71 0.715 2.99633e-258 -592.97 -383.527 214.048 -0.149289
72 0.725 1.25081e-250 -575.422 -365.98 214.048 -0.1601
73 0.735 4.38769e-248 -569.562 -360.12 214.048 -0.163699
74 0.745 1.97041e-240 -551.942 -342.5 214.048 -0.174498
75 0.755 3.72679e-239 -549.002 -339.56 214.048 -0.176299
76 0.765 6.28345e-229 -525.454 -316.012 214.048 -0.19067
77 0.775 8.02299e-224 -513.697 -304.254 214.048 -0.197879
78 0.785 1.03753e-218 -501.927 -292.484 214.048 -0.205079
79 0.795 8.76308e-210 -481.372 -271.93 214.048 -0.217699
80 0.805 3.76485e-202 -463.796 -254.354 214.048 -0.228478
81 0.815 9.31181e-191 -437.562 -228.12 214.048 -0.2447
82 0.825 1.16226e-186 -428.13 -218.688 214.048 -0.250045
83 0.835 3.26032e-168 -385.652 -176.21 214.048 -0.2771
84 0.845 2.98085e-163 -374.229 -164.787 214.048 -0.284288
85 0.855 9.34914e-150 -343.152 -133.71 214.048 -0.3041
86 0.865 7.14026e-145 -331.909 -122.467 214.048 -0.311182
87 0.875 1.79208e-136 -312.568 -103.126 214.048 -0.323884
88 0.885 6.40934e-120 -274.452 -65.01 214.048 -0.3491
89 0.895 2.98657e-107 -245.282 -35.84 214.048 -0.3689
90 0.905 3.03842e-98 -224.542 -15.0995 214.048 -0.383297
91 0.915 2.1092e-89 -204.184 5.25872 214.048 -0.397561
92 0.925 2.14536e-68 -155.812 53.63 214.048 -0.4337
93 0.935 4.29395e-62 -141.303 68.1394 214.048 -0.444475
94 0.945 3.17016e-46 -104.765 104.677 214.048 -0.474697
95 0.955 1.72281e-33 -75.4414 134.001 214.048 -0.502092
96 0.965 1.82416e-21 -47.7532 161.689 214.048 -0.530587
97 0.975 2.95073e-11 -24.2464 185.196 214.048 -0.560687
98 0.985 0.0555425 -2.89061 206.552 214.048 -0.603371
99 0.995 99.9445 4.60461 214.047 214.048 -0.614555
