0 0.005 0.180826 -1.71022 2.4202 8.73559 0.272446
1 0.015 10.6623 2.36672 6.49714 8.73559 0.271781
2 0.025 45.5299 3.81837 7.94879 8.73559 0.270158
3 0.035 35.1792 3.56045 7.69088 8.73559 0.268606
4 0.045 7.23431 1.97884 6.10926 8.73559 0.266865
5 0.055 1.16354 0.151471 4.28189 8.73559 0.265407
6 0.065 0.049922 -2.99729 1.13313 8.73559 0.256005
7 0.075 2.83857e-05 -10.4696 -6.3392 8.73559 0.237498
8 0.085 2.39395e-10 -22.1529 -18.0225 8.73559 0.215443
9 0.095 7.89799e-13 -27.867 -23.7366 8.73559 0.208639
10 0.105 1.4878e-20 -45.6544 -41.524 8.73559 0.188142
11 0.115 2.26876e-22 -49.8376 -45.7072 8.73559 0.185284
12 0.125 4.63722e-24 -53.7279 -49.5975 8.73559 0.181613
13 0.135 2.70969e-28 -63.4755 -59.3451 8.73559 0.172844
14 0.145 4.42675e-33 -74.4976 -70.3672 8.73559 0.1636
15 0.155 2.36448e-35 -79.7299 -75.5995 8.73559 0.159867
16 0.165 1.55996e-39 -89.3562 -85.2257 8.73559 0.152809
17 0.175 1.54039e-40 -91.6714 -87.5409 8.73559 0.150894
18 0.185 1.37092e-40 -91.7879 -87.6575 8.73559 0.15114
19 0.195 9.43781e-45 -101.372 -97.2412 8.73559 0.143822
20 0.205 7.69993e-47 -106.18 -102.05 8.73559 0.140309
21 0.215 6.17045e-50 -113.309 -109.179 8.73559 0.134892
22 0.225 5.23287e-52 -118.079 -113.949 8.73559 0.131363
23 0.235 1.01006e-54 -124.33 -120.199 8.73559 0.125883
24 0.245 5.08205e-56 -127.319 -123.189 8.73559 0.124088
25 0.255 1.29255e-58 -133.293 -129.163 8.73559 0.118497
26 0.265 6.47957e-60 -136.286 -132.156 8.73559 0.11679
27 0.275 2.15087e-62 -141.994 -137.864 8.73559 0.11105
28 0.285 3.33019e-64 -146.162 -142.032 8.73559 0.10737
29 0.295 8.63811e-67 -152.117 -147.987 8.73559 0.101731
30 0.305 9.27557e-68 -154.348 -150.218 8.73559 0.0992442
31 0.315 5.62369e-67 -152.546 -148.416 8.73559 0.102685
32 0.325 6.40961e-69 -157.021 -152.89 8.73559 0.0987687
33 0.335 3.80175e-72 -164.451 -160.32 8.73559 0.0891953
34 0.345 2.70295e-71 -162.489 -158.359 8.73559 0.0931426
35 0.355 1.48091e-73 -167.696 -163.566 8.73559 0.0873318
36 0.365 1.81973e-75 -172.095 -167.965 8.73559 0.081165
37 0.375 2.12354e-74 -169.638 -165.508 8.73559 0.0863911
38 0.385 1.72834e-76 -174.449 -170.319 8.73559 0.080699
39 0.395 7.05574e-79 -179.95 -175.82 8.73559 0.072386
40 0.405 4.22554e-80 -182.766 -178.635 8.73559 0.0685224
41 0.415 2.46368e-81 -185.608 -181.477 8.73559 0.0643577
42 0.425 5.30615e-82 -187.143 -183.013 8.73559 0.0630634
43 0.435 4.48959e-83 -189.613 -185.482 8.73559 0.0591593
44 0.445 2.7326e-83 -190.109 -185.979 8.73559 0.0604782
45 0.455 5.94195e-85 -193.938 -189.807 8.73559 0.0527988
46 0.465 9.10254e-86 -195.814 -191.683 8.73559 0.0502403
47 0.475 2.55805e-87 -199.386 -195.255 8.73559 0.0419634
48 0.485 1.04338e-87 -200.282 -196.152 8.73559 0.0417516
49 0.495 2.54066e-88 -201.695 -197.565 8.73559 0.0407806
50 0.505 4.03699e-89 -203.535 -199.404 8.73559 0.03676
51 0.515 6.33022e-90 -205.387 -201.257 8.73559 0.0308508
52 0.525 5.92804e-91 -207.756 -203.625 8.73559 0.0249989
53 0.535 1.15192e-91 -209.394 -205.263 8.73559 0.0202225
54 0.545 3.59417e-92 -210.559 -206.428 8.73559 0.0203391
55 0.555 7.29824e-93 -212.153 -208.022 8.73559 0.0112646
56 0.565 3.52223e-93 -212.881 -208.751 8.73559 0.0124399
57 0.575 8.69641e-94 -214.28 -210.15 8.73559 0.00542444
58 0.585 2.00617e-94 -215.747 -211.616 8.73559 -0.000655771
59 0.595 6.47768e-95 -216.877 -212.747 8.73559 -0.00943278
60 0.605 2.1772e-95 -217.968 -213.837 8.73559 -0.0176776
61 0.615 1.01786e-95 -218.728 -214.597 8.73559 -0.0224931
62 0.625 4.49847e-96 -219.544 -215.414 8.73559 -0.0282483
63 0.635 2.90502e-96 -219.982 -215.851 8.73559 -0.0342727
64 0.645 1.60761e-96 -220.573 -216.443 8.73559 -0.0439054
65 0.655 1.02034e-96 -221.028 -216.898 8.73559 -0.0534976
66 0.665 6.866e-97 -221.424 -217.294 8.73559 -0.0604919
67 0.675 6.95329e-97 -221.412 -217.281 8.73559 -0.0694039
68 0.685 6.91292e-97 -221.417 -217.287 8.73559 -0.0788591
69 0.695 7.72482e-97 -221.306 -217.176 8.73559 -0.0885652
70 0.705 8.13346e-97 -221.255 -217.124 8.73559 -0.0973461
71 0.715 1.38904e-96 -220.72 -216.589 8.73559 -0.107554
72 0.725 2.21082e-96 -220.255 -216.124 8.73559 -0.116437
73 0.735 4.40162e-96 -219.566 -215.436 8.73559 -0.127166
74 0.745 7.5934e-96 -219.021 -214.89 8.73559 -0.136643
75 0.755 1.85207e-95 -218.129 -213.999 8.73559 -0.146832
76 0.765 5.82508e-95 -216.983 -212.853 8.73559 -0.156198
77 0.775 1.85131e-94 -215.827 -211.697 8.73559 -0.166589
78 0.785 6.67565e-94 -214.545 -210.414 8.73559 -0.177519
79 0.795 1.98037e-93 -213.457 -209.327 8.73559 -0.188232
80 0.805 9.60102e-93 -211.879 -207.748 8.73559 -0.199186
81 0.815 4.24119e-92 -210.393 -206.263 8.73559 -0.210197
82 0.825 2.07274e-91 -208.806 -204.676 8.73559 -0.223129
83 0.835 7.18906e-91 -207.563 -203.432 8.73559 -0.232696
84 0.845 3.95073e-90 -205.859 -201.728 8.73559 -0.244919
85 0.855 1.97546e-89 -204.249 -200.119 8.73559 -0.258019
86 0.865 8.95422e-89 -202.738 -198.608 8.73559 -0.271163
87 0.875 2.60819e-88 -201.669 -197.538 8.73559 -0.282595
88 0.885 1.02259e-87 -200.303 -196.172 8.73559 -0.294913
89 0.895 2.8781e-87 -199.268 -195.137 8.73559 -0.307884
90 0.905 6.19751e-87 -198.501 -194.37 8.73559 -0.321165
91 0.915 7.69299e-87 -198.285 -194.154 8.73559 -0.333344
92 0.925 9.40605e-87 -198.084 -193.953 8.73559 -0.345704
93 0.935 5.99429e-87 -198.534 -194.404 8.73559 -0.359092
94 0.945 2.0091e-87 -199.627 -195.497 8.73559 -0.372943
95 0.955 2.9498e-88 -201.546 -197.415 8.73559 -0.385581
96 0.965 2.97556e-89 -203.84 -199.709 8.73559 -0.397265
97 0.975 5.99542e-91 -207.744 -203.614 8.73559 -0.411633
98 0.985 2.41964e-92 -210.954 -206.824 8.73559 -0.39397
99 0.995 4.69136e-98 -224.108 -219.977 8.73559 -0.461876
