0 0.005 0 -inf -inf 340.725 -nan
1 0.015 0 -inf -inf 340.725 -nan
2 0.025 0 -inf -inf 340.725 -nan
3 0.035 3.19557e-199 -457.053 -120.933 340.725 0.35025
4 0.045 1.68312e-187 -430.063 -93.9432 340.725 0.309345
5 0.055 6.65574e-182 -417.175 -81.0555 340.725 0.284839
6 0.065 4.6078e-178 -408.332 -72.2129 340.725 0.264262
7 0.075 2.23064e-175 -402.15 -66.0306 340.725 0.245484
8 0.085 1.79047e-174 -400.067 -63.9478 340.725 0.245334
9 0.095 3.66614e-173 -397.048 -60.9286 340.725 0.236964
10 0.105 7.65368e-172 -394.009 -57.8899 340.725 0.226259
11 0.115 2.88153e-170 -390.381 -54.2616 340.725 0.212116
12 0.125 3.95553e-169 -387.762 -51.6423 340.725 0.202209
13 0.135 1.19022e-168 -386.66 -50.5406 340.725 0.204512
14 0.145 9.87192e-168 -384.545 -48.4251 340.725 0.197327
15 0.155 1.09395e-166 -382.139 -46.0198 340.725 0.185643
16 0.165 1.40033e-165 -379.59 -43.4703 340.725 0.16863
17 0.175 3.42201e-165 -378.696 -42.5768 340.725 0.175343
18 0.185 7.5442e-164 -375.603 -39.4837 340.725 0.155388
19 0.195 2.59456e-163 -374.368 -38.2484 340.725 0.153687
20 0.205 8.2539e-163 -373.211 -37.0912 340.725 0.149027
21 0.215 3.21815e-162 -371.85 -35.7305 340.725 0.147557
22 0.225 2.90784e-161 -369.649 -33.5293 340.725 0.138104
23 0.235 2.79781e-160 -367.385 -31.2653 340.725 0.125579
24 0.245 1.69947e-159 -365.581 -29.4612 340.725 0.117875
25 0.255 1.82005e-158 -363.21 -27.0901 340.725 0.106447
26 0.265 1.04156e-157 -361.465 -25.3456 340.725 0.100546
27 0.275 2.50549e-157 -360.587 -24.4679 340.725 0.104272
28 0.285 2.93164e-156 -358.128 -22.0082 340.725 0.0922214
29 0.295 4.10442e-155 -355.489 -19.3691 340.725 0.078265
30 0.305 2.23088e-154 -353.796 -17.6762 340.725 0.0752202
31 0.315 2.13289e-153 -351.538 -15.4185 340.725 0.067537
32 0.325 1.42993e-152 -349.635 -13.5158 340.725 0.060963
33 0.335 6.4976e-152 -348.122 -12.002 340.725 0.0580065
34 0.345 2.09468e-150 -344.648 -8.52885 340.725 0.045986
35 0.355 2.45582e-149 -342.187 -6.06721 340.725 0.0359858
36 0.365 2.41919e-148 -339.899 -3.77965 340.725 0.0290438
37 0.375 2.17383e-147 -337.704 -1.58401 340.725 0.0249118
38 0.385 2.5975e-145 -332.92 3.19922 340.725 0.00988682
39 0.395 1.89244e-145 -333.237 2.88254 340.725 0.0139553
40 0.405 7.62951e-143 -327.238 8.88187 340.725 -0.00647839
41 0.415 2.01934e-141 -323.962 12.1578 340.725 -0.0167395
42 0.425 4.93939e-141 -323.067 13.0523 340.725 -0.0185091
43 0.435 3.12704e-140 -321.222 14.8977 340.725 -0.0189536
44 0.445 4.34759e-139 -318.59 17.5298 340.725 -0.0259672
45 0.455 2.43506e-136 -312.262 23.8579 340.725 -0.0471404
46 0.465 7.01879e-136 -311.203 24.9165 340.725 -0.0482722
47 0.475 1.2632e-133 -306.01 30.1093 340.725 -0.0596252
48 0.485 3.45581e-132 -302.701 33.4183 340.725 -0.0668575
49 0.495 1.09647e-131 -301.547 34.573 340.725 -0.0707699
50 0.505 2.59735e-129 -296.079 40.0405 340.725 -0.086209
51 0.515 6.3893e-128 -292.876 43.2432 340.725 -0.0892766
52 0.525 5.07223e-126 -288.502 47.6176 340.725 -0.0986835
53 0.535 1.21371e-123 -283.024 53.0952 340.725 -0.115155
54 0.545 1.26621e-120 -276.074 60.0453 340.725 -0.132122
55 0.555 5.85611e-121 -276.845 59.2742 340.725 -0.127969
56 0.565 2.27054e-116 -266.28 69.8397 340.725 -0.153427
57 0.575 2.21398e-115 -264.002 72.117 340.725 -0.157373
58 0.585 7.05942e-113 -258.238 77.8818 340.725 -0.17066
59 0.595 1.4798e-112 -257.498 78.6219 340.725 -0.170208
60 0.605 2.19541e-109 -250.195 85.9241 340.725 -0.189708
61 0.615 1.24357e-106 -243.856 92.2635 340.725 -0.203524
62 0.625 8.52106e-105 -239.629 96.4906 340.725 -0.213032
63 0.635 4.96296e-101 -230.959 105.16 340.725 -0.230831
64 0.645 1.26259e-100 -230.025 106.094 340.725 -0.230054
65 0.655 2.75074e-96 -220.036 116.083 340.725 -0.253774
66 0.665 1.98252e-95 -218.061 118.058 340.725 -0.258049
67 0.675 2.11249e-89 -204.182 131.937 340.725 -0.289146
68 0.685 2.12052e-89 -204.178 131.941 340.725 -0.285679
69 0.695 1.04903e-84 -193.369 142.75 340.725 -0.312065
70 0.705 4.81042e-85 -194.149 141.971 340.725 -0.307901
71 0.715 4.12777e-81 -185.092 151.028 340.725 -0.328038
72 0.725 1.01748e-76 -174.979 161.14 340.725 -0.350861
73 0.735 7.3882e-74 -168.391 167.728 340.725 -0.363914
74 0.745 2.64333e-69 -157.906 178.213 340.725 -0.388023
75 0.755 5.2098e-69 -157.228 178.892 340.725 -0.386247
76 0.765 6.98693e-65 -147.724 188.396 340.725 -0.406627
77 0.775 1.63993e-60 -137.66 198.459 340.725 -0.430302
78 0.785 3.54546e-56 -127.679 208.44 340.725 -0.45469
79 0.795 2.63973e-54 -123.369 212.751 340.725 -0.46244
80 0.805 9.37069e-50 -112.892 223.228 340.725 -0.485254
81 0.815 1.63146e-44 -100.824 235.295 340.725 -0.516795
82 0.825 1.36662e-41 -94.0936 242.026 340.725 -0.532607
83 0.835 9.87264e-39 -87.5111 248.608 340.725 -0.548577
84 0.845 5.20568e-34 -76.6381 259.481 340.725 -0.576547
85 0.855 1.90209e-31 -70.7372 265.382 340.725 -0.588334
86 0.865 8.06847e-26 -57.7792 278.34 340.725 -0.626415
87 0.875 1.6667e-22 -50.146 285.973 340.725 -0.647522
88 0.885 5.81048e-19 -41.9895 294.13 340.725 -0.675284
89 0.895 7.47682e-16 -34.8296 301.29 340.725 -0.695609
90 0.905 1.03402e-12 -27.5976 308.522 340.725 -0.715425
91 0.915 8.89021e-10 -20.8409 315.279 340.725 -0.745234
92 0.925 1.87761e-06 -13.1855 322.934 340.725 -0.783161
93 0.935 0.000145112 -8.838 327.282 340.725 -0.792184
94 0.945 0.0251065 -3.68463 332.435 340.725 -0.820677
95 0.955 0.705046 -0.349493 335.77 340.725 -0.836889
96 0.965 12.5579 2.53035 338.65 340.725 -0.854406
97 0.975 52.7651 3.96585 340.085 340.725 -0.871943
98 0.985 32.7956 3.49029 339.61 340.725 -0.888038
99 0.995 1.15105 0.140674 336.26 340.725 -0.904111
