0 0.005 0 -inf -inf 302.432 -nan
1 0.015 0 -inf -inf 302.432 -nan
2 0.025 0 -inf -inf 302.432 -nan
3 0.035 2.12966e-222 -510.418 -212.591 302.432 0.35025
4 0.045 6.58338e-210 -481.658 -183.831 302.432 0.309307
5 0.055 7.54694e-204 -467.706 -169.879 302.432 0.284595
6 0.065 1.27303e-199 -457.973 -160.146 302.432 0.263989
7 0.075 1.39342e-196 -450.975 -153.148 302.432 0.24506
8 0.085 1.13148e-195 -448.881 -151.054 302.432 0.244668
9 0.095 3.35548e-194 -445.491 -147.664 302.432 0.235936
10 0.105 1.13135e-192 -441.973 -144.146 302.432 0.224534
11 0.115 7.88574e-191 -437.729 -139.902 302.432 0.210235
12 0.125 1.66874e-189 -434.677 -136.85 302.432 0.200127
13 0.135 4.52835e-189 -433.678 -135.851 302.432 0.202542
14 0.145 5.17559e-188 -431.242 -133.415 302.432 0.194895
15 0.155 9.67181e-187 -428.314 -130.487 302.432 0.182493
16 0.165 2.61686e-185 -425.016 -127.189 302.432 0.165098
17 0.175 4.63269e-185 -424.445 -126.618 302.432 0.173036
18 0.185 2.47016e-183 -420.469 -122.642 302.432 0.152325
19 0.195 9.28448e-183 -419.145 -121.318 302.432 0.149856
20 0.205 3.62038e-182 -417.784 -119.957 302.432 0.145105
21 0.215 1.47062e-181 -416.382 -118.555 302.432 0.144563
22 0.225 1.97576e-180 -413.784 -115.957 302.432 0.13568
23 0.235 3.30903e-179 -410.966 -113.139 302.432 0.122641
24 0.245 2.75038e-178 -408.848 -111.021 302.432 0.115801
25 0.255 4.82958e-177 -405.983 -108.156 302.432 0.104401
26 0.265 3.57526e-176 -403.981 -106.154 302.432 0.0984004
27 0.275 7.19317e-176 -403.282 -105.455 302.432 0.102808
28 0.285 1.42703e-174 -400.294 -102.467 302.432 0.0904775
29 0.295 3.63539e-173 -397.057 -99.2296 302.432 0.0767677
30 0.305 2.25701e-172 -395.231 -97.4037 302.432 0.0736312
31 0.315 2.99177e-171 -392.646 -94.8193 302.432 0.0661895
32 0.325 2.68308e-170 -390.452 -92.6256 302.432 0.0593173
33 0.335 1.37591e-169 -388.818 -90.9908 302.432 0.056656
34 0.345 7.38755e-168 -384.834 -87.0076 302.432 0.0450515
35 0.355 1.33982e-166 -381.937 -84.1097 302.432 0.0349024
36 0.365 1.79018e-165 -379.344 -81.5173 302.432 0.0277692
37 0.375 1.9024e-164 -376.981 -79.1539 302.432 0.0240805
38 0.385 4.31801e-162 -371.556 -73.7291 302.432 0.00940532
39 0.395 2.66601e-162 -372.038 -74.2113 302.432 0.0130205
40 0.405 2.57526e-159 -365.165 -67.3381 302.432 -0.00699022
41 0.415 1.05811e-157 -361.449 -63.6224 302.432 -0.0170733
42 0.425 2.81612e-157 -360.47 -62.6436 302.432 -0.0191697
43 0.435 1.81407e-156 -358.608 -60.7808 302.432 -0.0195581
44 0.445 3.41598e-155 -355.672 -57.8453 302.432 -0.0265742
45 0.455 4.7392e-152 -348.437 -50.6101 302.432 -0.0473642
46 0.465 1.4484e-151 -347.32 -49.493 302.432 -0.0489093
47 0.475 4.22671e-149 -341.644 -43.8168 302.432 -0.0599451
48 0.485 1.58013e-147 -338.023 -40.1956 302.432 -0.0671549
49 0.495 5.97334e-147 -336.693 -38.8658 302.432 -0.0713272
50 0.505 2.7392e-144 -330.565 -32.7377 302.432 -0.086449
51 0.515 7.71469e-143 -327.227 -29.3996 302.432 -0.0896473
52 0.525 9.17405e-141 -322.448 -24.6212 302.432 -0.0989388
53 0.535 4.48681e-138 -316.256 -18.4287 302.432 -0.11552
54 0.545 9.69655e-135 -308.577 -10.7503 302.432 -0.132249
55 0.555 3.79081e-135 -309.516 -11.6895 302.432 -0.128605
56 0.565 4.35741e-130 -297.864 -0.0372545 302.432 -0.153439
57 0.575 5.05252e-129 -295.414 2.41334 302.432 -0.1575
58 0.585 2.86482e-126 -289.073 8.75371 302.432 -0.170835
59 0.595 5.90792e-126 -288.349 9.4775 302.432 -0.170523
60 0.605 2.03111e-122 -280.207 17.6201 302.432 -0.189894
61 0.615 2.09161e-119 -273.27 24.5572 302.432 -0.203722
62 0.625 2.15666e-117 -268.634 29.193 302.432 -0.213121
63 0.635 2.71869e-113 -259.192 38.635 302.432 -0.23103
64 0.645 6.70569e-113 -258.289 39.5378 302.432 -0.230372
65 0.655 4.05724e-108 -247.279 50.5482 302.432 -0.253903
66 0.665 3.53592e-107 -245.114 52.7133 302.432 -0.2584
67 0.675 1.43427e-100 -229.898 67.9291 302.432 -0.289148
68 0.685 1.24458e-100 -230.04 67.7872 302.432 -0.28587
69 0.695 1.92045e-95 -218.093 79.7339 302.432 -0.312101
70 0.705 7.42818e-96 -219.043 78.784 302.432 -0.308376
71 0.715 1.50958e-91 -209.123 88.7035 302.432 -0.328128
72 0.725 9.99591e-87 -198.023 99.8042 302.432 -0.351004
73 0.735 1.27948e-83 -190.868 106.959 302.432 -0.36417
74 0.745 1.29135e-78 -179.346 118.481 302.432 -0.388036
75 0.755 2.36987e-78 -178.739 119.088 302.432 -0.386503
76 0.765 7.67624e-74 -168.353 129.474 302.432 -0.406908
77 0.775 5.01505e-69 -157.266 140.561 302.432 -0.430578
78 0.785 3.096e-64 -146.235 151.592 302.432 -0.454722
79 0.795 3.2472e-62 -141.582 156.244 302.432 -0.462807
80 0.805 3.08188e-57 -130.122 167.705 302.432 -0.485484
81 0.815 2.08925e-51 -116.695 181.132 302.432 -0.516822
82 0.825 3.47667e-48 -109.278 188.549 302.432 -0.532746
83 0.835 5.017e-45 -102.003 195.823 302.432 -0.548772
84 0.845 8.83837e-40 -89.9243 207.903 302.432 -0.576604
85 0.855 5.41694e-37 -83.5061 214.321 302.432 -0.588723
86 0.865 1.18652e-30 -68.9065 228.92 302.432 -0.626581
87 0.875 6.10771e-27 -60.3602 237.467 302.432 -0.647696
88 0.885 7.07484e-23 -51.0029 246.824 302.432 -0.675456
89 0.895 2.23474e-19 -42.945 254.882 302.432 -0.696615
90 0.905 7.27531e-16 -34.8569 262.97 302.432 -0.716406
91 0.915 2.3284e-12 -26.7858 271.041 302.432 -0.747296
92 0.925 2.54154e-08 -17.4879 280.339 302.432 -0.785183
93 0.935 3.05399e-06 -12.6991 285.128 302.432 -0.796559
94 0.945 0.00208985 -6.17067 291.656 302.432 -0.831677
95 0.955 0.118077 -2.13642 295.691 302.432 -0.847831
96 0.965 4.54229 1.51343 299.34 302.432 -0.866107
97 0.975 41.0376 3.71449 301.541 302.432 -0.883959
98 0.985 50.7494 3.9269 301.754 302.432 -0.899723
99 0.995 3.55055 1.2671 299.094 302.432 -0.915426
