0 0.005 9.47614e-305 -700.04 -296.314 408.331 0.248507
1 0.015 3.94247e-293 -673.286 -269.56 408.331 0.206286
2 0.025 8.71718e-291 -667.887 -264.161 408.331 0.196457
3 0.035 2.44694e-289 -664.552 -260.826 408.331 0.192983
4 0.045 1.33278e-288 -662.857 -259.131 408.331 0.190063
5 0.055 6.47259e-288 -661.277 -257.551 408.331 0.185606
6 0.065 1.58794e-287 -660.379 -256.654 408.331 0.181295
7 0.075 2.436e-287 -659.952 -256.226 408.331 0.176925
8 0.085 1.95682e-287 -660.171 -256.445 408.331 0.173019
9 0.095 1.95766e-287 -660.17 -256.444 408.331 0.168701
10 0.105 1.28645e-287 -660.59 -256.864 408.331 0.164163
11 0.115 8.05647e-288 -661.058 -257.332 408.331 0.159379
12 0.125 4.04489e-288 -661.747 -258.021 408.331 0.155339
13 0.135 2.71029e-288 -662.147 -258.422 408.331 0.15127
14 0.145 1.40718e-288 -662.803 -259.077 408.331 0.145495
15 0.155 7.54556e-289 -663.426 -259.7 408.331 0.140424
16 0.165 3.90506e-289 -664.085 -260.359 408.331 0.135294
17 0.175 3.13208e-289 -664.305 -260.58 408.331 0.13049
18 0.185 2.18438e-289 -664.666 -260.94 408.331 0.12471
19 0.195 1.84911e-289 -664.832 -261.107 408.331 0.119179
20 0.205 1.42986e-289 -665.09 -261.364 408.331 0.113623
21 0.215 1.95158e-289 -664.778 -261.053 408.331 0.108309
22 0.225 2.75535e-289 -664.434 -260.708 408.331 0.102262
23 0.235 4.74705e-289 -663.89 -260.164 408.331 0.0950413
24 0.245 6.72301e-289 -663.542 -259.816 408.331 0.0903356
25 0.255 1.79064e-288 -662.562 -258.836 408.331 0.0834528
26 0.265 6.117e-288 -661.333 -257.608 408.331 0.0771724
27 0.275 2.41568e-287 -659.96 -256.234 408.331 0.0710069
28 0.285 9.39366e-287 -658.602 -254.876 408.331 0.064966
29 0.295 5.39303e-286 -656.854 -253.128 408.331 0.0590281
30 0.305 1.83687e-285 -655.629 -251.903 408.331 0.0579848
31 0.315 2.15882e-284 -653.165 -249.439 408.331 0.0509659
32 0.325 3.75732e-283 -650.308 -246.582 408.331 0.0441246
33 0.335 2.8043e-282 -648.298 -244.572 408.331 0.0394747
34 0.345 1.39675e-281 -646.692 -242.966 408.331 0.0394853
35 0.355 1.81327e-280 -644.129 -240.403 408.331 0.0350673
36 0.365 1.06109e-279 -642.362 -238.636 408.331 0.0332552
37 0.375 1.91777e-278 -639.467 -235.742 408.331 0.0270255
38 0.385 3.68712e-277 -636.511 -232.785 408.331 0.023493
39 0.395 5.37771e-275 -631.529 -227.803 408.331 0.0150647
40 0.405 1.90098e-272 -625.661 -221.935 408.331 0.00758225
41 0.415 6.55136e-273 -626.726 -223 408.331 0.0105682
42 0.425 2.97127e-271 -622.912 -219.186 408.331 0.00613027
43 0.435 1.32217e-267 -614.511 -210.785 408.331 -0.0049741
44 0.445 5.68739e-268 -615.355 -211.629 408.331 -0.00292553
45 0.455 1.35425e-265 -609.882 -206.156 408.331 -0.00876586
46 0.465 6.44436e-264 -606.019 -202.293 408.331 -0.0139026
47 0.475 3.50809e-262 -602.022 -198.296 408.331 -0.0178223
48 0.485 3.76595e-260 -597.346 -193.62 408.331 -0.0231292
49 0.495 8.73704e-260 -596.505 -192.779 408.331 -0.0227501
50 0.505 1.14656e-257 -591.628 -187.902 408.331 -0.0279416
51 0.515 2.88486e-255 -586.1 -182.374 408.331 -0.0335662
52 0.525 2.50884e-250 -574.726 -171.001 408.331 -0.0448899
53 0.535 5.20824e-251 -576.299 -172.573 408.331 -0.042439
54 0.545 2.78517e-249 -572.319 -168.594 408.331 -0.0458773
55 0.555 6.02353e-244 -560.035 -156.309 408.331 -0.0574521
56 0.565 8.21946e-245 -562.027 -158.301 408.331 -0.0554895
57 0.575 1.76545e-241 -554.355 -150.629 408.331 -0.0624279
58 0.585 3.15157e-235 -539.96 -136.234 408.331 -0.0754984
59 0.595 3.86767e-236 -542.057 -138.332 408.331 -0.073635
60 0.605 2.55493e-233 -535.564 -131.838 408.331 -0.0788746
61 0.615 4.4041e-232 -532.717 -128.991 408.331 -0.0806448
62 0.625 2.89479e-229 -526.229 -122.503 408.331 -0.0860233
63 0.635 2.80525e-226 -519.353 -115.627 408.331 -0.0915404
64 0.645 7.59849e-223 -511.449 -107.723 408.331 -0.0984942
65 0.655 9.8068e-219 -501.983 -98.2572 408.331 -0.105954
66 0.665 8.87669e-217 -497.478 -93.7517 408.331 -0.109563
67 0.675 3.8657e-211 -484.493 -80.7675 408.331 -0.120301
68 0.685 7.23089e-208 -476.959 -73.2335 408.331 -0.125754
69 0.695 4.07733e-197 -452.204 -48.478 408.331 -0.1457
70 0.705 7.70224e-201 -460.778 -57.0523 408.331 -0.138375
71 0.715 4.47068e-195 -447.507 -43.7807 408.331 -0.149266
72 0.725 5.85192e-189 -433.422 -29.696 408.331 -0.1601
73 0.735 6.49306e-187 -428.713 -24.9869 408.331 -0.163693
74 0.745 9.20515e-181 -414.548 -10.8223 408.331 -0.174491
75 0.755 9.78406e-180 -412.185 -8.45874 408.331 -0.176292
76 0.765 1.67361e-171 -393.227 10.4988 408.331 -0.190603
77 0.775 2.12195e-167 -383.779 19.9464 408.331 -0.197832
78 0.785 2.74139e-163 -374.313 29.4129 408.331 -0.205029
79 0.795 4.05672e-156 -357.803 45.9229 408.331 -0.217695
80 0.805 5.57116e-150 -343.67 60.0557 408.331 -0.228427
81 0.815 7.62006e-141 -322.634 81.0921 408.331 -0.244699
82 0.825 1.7321e-137 -314.905 88.821 408.331 -0.249992
83 0.835 8.3834e-123 -281.092 122.634 408.331 -0.277099
84 0.845 7.70883e-119 -271.965 131.761 408.331 -0.284262
85 0.855 4.25192e-108 -247.232 156.494 408.331 -0.3041
86 0.865 3.41711e-104 -238.24 165.486 408.331 -0.311079
87 0.875 1.45839e-97 -222.973 180.752 408.331 -0.323844
88 0.885 1.62517e-84 -192.932 210.794 408.331 -0.349098
89 0.895 1.34109e-74 -170.098 233.628 408.331 -0.3689
90 0.905 1.36382e-67 -153.963 249.763 408.331 -0.383283
91 0.915 9.99955e-61 -138.155 265.571 408.331 -0.397451
92 0.925 9.5116e-45 -101.364 302.362 408.331 -0.4337
93 0.935 6.10743e-40 -90.2939 313.432 408.331 -0.444405
94 0.945 2.93099e-28 -63.397 340.329 408.331 -0.474436
95 0.955 2.40957e-19 -42.8697 360.856 408.331 -0.502009
96 0.965 2.86137e-11 -24.2771 379.449 408.331 -0.530359
97 0.975 3.85436e-05 -10.1637 393.562 408.331 -0.558358
98 0.985 1.35536 0.304069 404.03 408.331 -0.581925
99 0.995 98.6446 4.59152 408.317 408.331 -0.5923
