0 0.005 0.137268 -1.98582 2.73159 9.32258 0.285817
1 0.015 13.0891 2.57178 7.28918 9.32258 0.282426
2 0.025 48.3466 3.8784 8.5958 9.32258 0.281528
3 0.035 32.2956 3.47493 8.19234 9.32258 0.280129
4 0.045 5.55276 1.7143 6.4317 9.32258 0.278923
5 0.055 0.514635 -0.664296 4.05311 9.32258 0.277704
6 0.065 0.0640311 -2.74839 1.96902 9.32258 0.280007
7 0.075 2.35874e-07 -15.26 -10.5426 9.32258 0.239109
8 0.085 4.40813e-11 -23.845 -19.1276 9.32258 0.224473
9 0.095 8.6e-18 -39.2948 -34.5774 9.32258 0.207021
10 0.105 5.75298e-21 -46.6046 -41.8872 9.32258 0.199853
11 0.115 4.30256e-28 -63.0132 -58.2958 9.32258 0.185379
12 0.125 5.67501e-33 -74.2492 -69.5318 9.32258 0.176237
13 0.135 4.88239e-32 -72.0971 -67.3797 9.32258 0.178294
14 0.145 5.00135e-34 -76.6782 -71.9608 9.32258 0.174669
15 0.155 6.36199e-42 -94.8582 -90.1408 9.32258 0.16022
16 0.165 1.84035e-43 -98.4012 -93.6838 9.32258 0.158392
17 0.175 7.22794e-45 -101.638 -96.921 9.32258 0.156573
18 0.185 2.21442e-50 -114.334 -109.617 9.32258 0.14759
19 0.195 1.46102e-49 -112.448 -107.73 9.32258 0.1495
20 0.205 2.72348e-55 -125.64 -120.923 9.32258 0.140429
21 0.215 2.25111e-58 -132.739 -128.021 9.32258 0.134922
22 0.225 9.04378e-60 -135.953 -131.236 9.32258 0.132936
23 0.235 4.41008e-63 -143.579 -138.862 9.32258 0.127366
24 0.245 2.30557e-65 -148.833 -144.115 9.32258 0.124044
25 0.255 1.968e-66 -151.294 -146.576 9.32258 0.122221
26 0.265 5.09812e-68 -154.947 -150.23 9.32258 0.118841
27 0.275 1.12865e-69 -158.757 -154.04 9.32258 0.117038
28 0.285 2.04213e-73 -167.375 -162.657 9.32258 0.109684
29 0.295 1.87253e-74 -169.764 -165.047 9.32258 0.108026
30 0.305 9.81345e-76 -172.713 -167.995 9.32258 0.106186
31 0.315 9.1906e-75 -170.476 -165.758 9.32258 0.108099
32 0.325 3.24929e-80 -183.028 -178.311 9.32258 0.0970495
33 0.335 1.28003e-82 -188.565 -183.848 9.32258 0.0914378
34 0.345 2.82517e-83 -190.076 -185.359 9.32258 0.0914978
35 0.355 9.79696e-85 -193.438 -188.72 9.32258 0.0878868
36 0.365 5.49151e-85 -194.017 -189.299 9.32258 0.0878235
37 0.375 2.29407e-88 -201.797 -197.08 9.32258 0.0800585
38 0.385 5.49402e-89 -203.226 -198.509 9.32258 0.0788119
39 0.395 3.54082e-91 -208.271 -203.553 9.32258 0.0727012
40 0.405 2.84163e-92 -210.793 -206.076 9.32258 0.0707704
41 0.415 2.90559e-93 -213.074 -208.356 9.32258 0.0698661
42 0.425 4.28445e-95 -217.291 -212.573 9.32258 0.0634261
43 0.435 4.21264e-96 -219.61 -214.893 9.32258 0.0606514
44 0.445 1.0447e-97 -223.307 -218.59 9.32258 0.0558997
45 0.455 6.58949e-98 -223.768 -219.05 9.32258 0.0567308
46 0.465 3.25057e-99 -226.777 -222.06 9.32258 0.053004
47 0.475 2.76231e-100 -229.242 -224.525 9.32258 0.048664
48 0.485 3.59956e-102 -233.583 -228.865 9.32258 0.0412865
49 0.495 2.01757e-102 -234.162 -229.444 9.32258 0.0421941
50 0.505 2.16205e-103 -236.395 -231.678 9.32258 0.0409813
51 0.515 4.27234e-105 -240.319 -235.602 9.32258 0.0316192
52 0.525 1.01796e-105 -241.754 -237.036 9.32258 0.0296381
53 0.535 3.15158e-106 -242.926 -238.209 9.32258 0.0286821
54 0.545 1.20277e-106 -243.889 -239.172 9.32258 0.0284688
55 0.555 1.70618e-106 -243.54 -238.822 9.32258 0.0306105
56 0.565 1.34306e-109 -250.687 -245.969 9.32258 0.00999096
57 0.575 1.72549e-109 -250.436 -245.719 9.32258 0.0163523
58 0.585 2.80747e-111 -254.555 -249.837 9.32258 0.00295456
59 0.595 4.21999e-111 -254.147 -249.43 9.32258 0.00921764
60 0.605 2.30646e-112 -257.054 -252.336 9.32258 -0.00242734
61 0.615 5.20003e-113 -258.543 -253.826 9.32258 -0.00442359
62 0.625 9.20195e-114 -260.275 -255.558 9.32258 -0.00953411
63 0.635 1.60189e-114 -262.024 -257.306 9.32258 -0.0176828
64 0.645 3.2e-114 -261.332 -256.614 9.32258 -0.00790792
65 0.655 1.4902e-115 -264.398 -259.681 9.32258 -0.0265627
66 0.665 1.64074e-116 -266.605 -261.887 9.32258 -0.0388241
67 0.675 7.92377e-117 -267.333 -262.615 9.32258 -0.0412424
68 0.685 2.3753e-117 -268.537 -263.82 9.32258 -0.0487744
69 0.695 6.62923e-118 -269.814 -265.096 9.32258 -0.0598135
70 0.705 2.95685e-118 -270.621 -265.904 9.32258 -0.0594143
71 0.715 1.08054e-118 -271.628 -266.91 9.32258 -0.0756795
72 0.725 5.29181e-119 -272.341 -267.624 9.32258 -0.0824925
73 0.735 2.55959e-119 -273.068 -268.35 9.32258 -0.0924566
74 0.745 1.32788e-119 -273.724 -269.007 9.32258 -0.0981733
75 0.755 7.3705e-120 -274.313 -269.595 9.32258 -0.111296
76 0.765 5.96451e-120 -274.524 -269.807 9.32258 -0.119953
77 0.775 4.06821e-120 -274.907 -270.19 9.32258 -0.130933
78 0.785 3.10825e-120 -275.176 -270.459 9.32258 -0.141915
79 0.795 2.08259e-120 -275.577 -270.859 9.32258 -0.153354
80 0.805 2.24083e-120 -275.503 -270.786 9.32258 -0.163608
81 0.815 2.03637e-120 -275.599 -270.882 9.32258 -0.175812
82 0.825 1.91761e-120 -275.659 -270.942 9.32258 -0.187888
83 0.835 1.55325e-120 -275.87 -271.152 9.32258 -0.199144
84 0.845 1.71172e-120 -275.773 -271.055 9.32258 -0.210662
85 0.855 1.47267e-120 -275.923 -271.206 9.32258 -0.223307
86 0.865 1.14325e-120 -276.176 -271.459 9.32258 -0.236252
87 0.875 6.75983e-121 -276.702 -271.984 9.32258 -0.248288
88 0.885 4.85943e-121 -277.032 -272.314 9.32258 -0.26018
89 0.895 2.29404e-121 -277.782 -273.065 9.32258 -0.273193
90 0.905 7.98442e-122 -278.838 -274.12 9.32258 -0.286678
91 0.915 1.75764e-122 -280.351 -275.634 9.32258 -0.300258
92 0.925 4.14812e-123 -281.795 -277.078 9.32258 -0.312207
93 0.935 4.20499e-124 -284.084 -279.367 9.32258 -0.326217
94 0.945 2.17221e-125 -287.047 -282.33 9.32258 -0.340303
95 0.955 4.79527e-127 -290.861 -286.143 9.32258 -0.355417
96 0.965 7.25826e-129 -295.051 -290.334 9.32258 -0.371225
97 0.975 1.30213e-131 -301.375 -296.657 9.32258 -0.395428
98 0.985 1.57774e-136 -312.696 -307.978 9.32258 -0.433481
99 0.995 1.58771e-143 -328.807 -324.09 9.32258 -0.47053
