0 0.005 0.149719 -1.89899 3.3644 9.86856 0.279561
1 0.015 11.7239 2.46163 7.72502 9.86856 0.279333
2 0.025 46.9691 3.84949 9.11288 9.86856 0.277662
3 0.035 34.0534 3.52793 8.79132 9.86856 0.276191
4 0.045 6.32207 1.84405 7.10744 9.86856 0.274657
5 0.055 0.751487 -0.285702 4.97769 9.86856 0.273193
6 0.065 0.0303229 -3.49585 1.76754 9.86856 0.268518
7 0.075 6.54875e-05 -9.63365 -4.37026 9.86856 0.251902
8 0.085 1.55957e-12 -27.1866 -21.9232 9.86856 0.215642
9 0.095 1.22642e-15 -34.3347 -29.0713 9.86856 0.208633
10 0.105 4.90764e-21 -46.7635 -41.5001 9.86856 0.196211
11 0.115 1.20112e-22 -50.4736 -45.2102 9.86856 0.192694
12 0.125 6.04819e-30 -67.2778 -62.0144 9.86856 0.178296
13 0.135 1.06811e-35 -80.5246 -75.2612 9.86856 0.167323
14 0.145 1.12681e-35 -80.4711 -75.2077 9.86856 0.167309
15 0.155 7.43449e-42 -94.7024 -89.4391 9.86856 0.156281
16 0.165 7.64847e-45 -101.582 -96.3184 9.86856 0.151073
17 0.175 2.72679e-46 -104.916 -99.6524 9.86856 0.149459
18 0.185 1.70661e-48 -109.99 -104.726 9.86856 0.14589
19 0.195 1.57161e-52 -119.282 -114.019 9.86856 0.138634
20 0.205 7.06276e-55 -124.687 -119.424 9.86856 0.1347
21 0.215 6.69411e-58 -131.649 -126.385 9.86856 0.129384
22 0.225 4.20753e-61 -139.021 -133.757 9.86856 0.123976
23 0.235 5.32247e-62 -141.088 -135.825 9.86856 0.122283
24 0.245 1.61177e-64 -146.888 -141.625 9.86856 0.118481
25 0.255 1.32968e-66 -151.686 -146.422 9.86856 0.114931
26 0.265 1.20313e-65 -149.483 -144.22 9.86856 0.117055
27 0.275 1.49695e-69 -158.475 -153.212 9.86856 0.109596
28 0.285 1.93136e-70 -160.523 -155.259 9.86856 0.10773
29 0.295 1.81366e-71 -162.888 -157.625 9.86856 0.106265
30 0.305 1.46161e-75 -172.314 -167.051 9.86856 0.0968186
31 0.315 3.31084e-74 -169.194 -163.931 9.86856 0.10087
32 0.325 2.40056e-77 -176.423 -171.16 9.86856 0.0935196
33 0.335 8.13628e-81 -184.413 -179.15 9.86856 0.0856366
34 0.345 2.15339e-81 -185.742 -180.479 9.86856 0.0840888
35 0.355 8.98355e-82 -186.617 -181.353 9.86856 0.0842806
36 0.365 1.36742e-82 -188.499 -183.236 9.86856 0.0827793
37 0.375 3.93978e-84 -192.046 -186.783 9.86856 0.0792865
38 0.385 7.41486e-87 -198.321 -193.058 9.86856 0.0710863
39 0.395 1.31354e-88 -202.355 -197.091 9.86856 0.0663525
40 0.405 2.63233e-88 -201.66 -196.396 9.86856 0.067753
41 0.415 5.1991e-91 -207.887 -202.623 9.86856 0.0607996
42 0.425 6.30854e-91 -207.693 -202.43 9.86856 0.0605711
43 0.435 7.22976e-93 -212.162 -206.899 9.86856 0.055286
44 0.445 3.88402e-94 -215.086 -209.823 9.86856 0.0518028
45 0.455 3.51601e-94 -215.186 -209.922 9.86856 0.0522453
46 0.465 7.61582e-97 -221.321 -216.057 9.86856 0.041841
47 0.475 2.4693e-95 -217.842 -212.578 9.86856 0.0486617
48 0.485 1.73807e-97 -222.798 -217.535 9.86856 0.0412157
49 0.495 5.53639e-99 -226.245 -220.981 9.86856 0.0357355
50 0.505 9.04046e-101 -230.359 -225.096 9.86856 0.0254984
51 0.515 5.16321e-98 -224.012 -218.748 9.86856 0.0396898
52 0.525 6.5714e-102 -232.981 -227.718 9.86856 0.0202794
53 0.535 7.54271e-101 -230.541 -225.277 9.86856 0.0286316
54 0.545 9.17827e-103 -234.949 -229.686 9.86856 0.0183761
55 0.555 7.08974e-104 -237.51 -232.247 9.86856 0.0117561
56 0.565 7.64233e-105 -239.738 -234.474 9.86856 0.00589162
57 0.575 1.29373e-105 -241.514 -236.251 9.86856 0.00169111
58 0.585 1.37972e-106 -243.752 -238.489 9.86856 -0.0060451
59 0.595 2.58429e-106 -243.125 -237.861 9.86856 -0.000694657
60 0.605 2.43465e-107 -245.487 -240.223 9.86856 -0.0108162
61 0.615 6.74369e-108 -246.771 -241.507 9.86856 -0.0144173
62 0.625 1.66079e-108 -248.172 -242.909 9.86856 -0.0189407
63 0.635 2.25354e-109 -250.169 -244.906 9.86856 -0.0313113
64 0.645 1.07296e-109 -250.911 -245.648 9.86856 -0.0329431
65 0.655 2.96099e-110 -252.199 -246.935 9.86856 -0.0416056
66 0.665 1.02779e-110 -253.257 -247.994 9.86856 -0.0475739
67 0.675 6.13785e-111 -253.772 -248.509 9.86856 -0.0530037
68 0.685 2.53098e-111 -254.658 -249.395 9.86856 -0.0622647
69 0.695 1.7001e-111 -255.056 -249.793 9.86856 -0.0622252
70 0.705 8.21456e-112 -255.784 -250.52 9.86856 -0.0728938
71 0.715 5.39754e-112 -256.204 -250.94 9.86856 -0.0814644
72 0.725 3.50864e-112 -256.634 -251.371 9.86856 -0.0929631
73 0.735 2.85076e-112 -256.842 -251.579 9.86856 -0.101527
74 0.745 1.87645e-112 -257.26 -251.997 9.86856 -0.112285
75 0.755 1.82245e-112 -257.289 -252.026 9.86856 -0.121147
76 0.765 1.88212e-112 -257.257 -251.994 9.86856 -0.132043
77 0.775 2.16781e-112 -257.116 -251.852 9.86856 -0.143752
78 0.785 2.29283e-112 -257.06 -251.796 9.86856 -0.154174
79 0.795 2.53477e-112 -256.959 -251.696 9.86856 -0.164685
80 0.805 4.84198e-112 -256.312 -251.049 9.86856 -0.176984
81 0.815 7.03203e-112 -255.939 -250.676 9.86856 -0.187387
82 0.825 1.24001e-111 -255.372 -250.108 9.86856 -0.200339
83 0.835 1.45656e-111 -255.211 -249.947 9.86856 -0.209942
84 0.845 2.73342e-111 -254.581 -249.318 9.86856 -0.222725
85 0.855 3.89172e-111 -254.228 -248.965 9.86856 -0.234494
86 0.865 5.71946e-111 -253.843 -248.58 9.86856 -0.247387
87 0.875 5.50409e-111 -253.881 -248.618 9.86856 -0.259901
88 0.885 7.03701e-111 -253.636 -248.372 9.86856 -0.271447
89 0.895 5.71361e-111 -253.844 -248.581 9.86856 -0.284616
90 0.905 3.67175e-111 -254.286 -249.023 9.86856 -0.298139
91 0.915 1.36178e-111 -255.278 -250.015 9.86856 -0.310915
92 0.925 5.90106e-112 -256.114 -250.851 9.86856 -0.322643
93 0.935 9.36106e-113 -257.956 -252.692 9.86856 -0.339481
94 0.945 1.03821e-113 -260.155 -254.891 9.86856 -0.348832
95 0.955 4.99112e-115 -263.19 -257.926 9.86856 -0.359541
96 0.965 1.90108e-116 -266.457 -261.194 9.86856 -0.376218
97 0.975 2.72349e-119 -273.006 -267.742 9.86856 -0.408163
98 0.985 1.60854e-124 -285.045 -279.782 9.86856 -0.449886
99 0.995 1.53601e-132 -303.512 -298.249 9.86856 -0.490657
