0 0.005 0.243196 -1.41389 2.74938 8.76844 0.280225
1 0.015 12.8645 2.55447 6.71774 8.76844 0.279026
2 0.025 47.5497 3.86178 8.02504 8.76844 0.277669
3 0.035 32.6391 3.48551 7.64878 8.76844 0.276644
4 0.045 5.89701 1.77445 5.93771 8.76844 0.275621
5 0.055 0.795132 -0.229247 3.93402 8.76844 0.273379
6 0.065 0.0113875 -4.47524 -0.311975 8.76844 0.259134
7 0.075 9.74433e-07 -13.8414 -9.67814 8.76844 0.237633
8 0.085 1.03014e-12 -27.6013 -23.4381 8.76844 0.215577
9 0.095 1.78692e-15 -33.9583 -29.795 8.76844 0.208721
10 0.105 4.90976e-24 -53.6708 -49.5075 8.76844 0.188309
11 0.115 5.69315e-26 -58.1279 -53.9647 8.76844 0.185348
12 0.125 8.22932e-28 -62.3647 -58.2014 8.76844 0.18166
13 0.135 2.10374e-32 -72.939 -68.7757 8.76844 0.172862
14 0.145 1.44214e-37 -84.8295 -80.6663 8.76844 0.163652
15 0.155 5.42297e-40 -90.4128 -86.2495 8.76844 0.159927
16 0.165 1.8422e-44 -100.703 -96.5395 8.76844 0.152877
17 0.175 1.51925e-45 -103.198 -99.0348 8.76844 0.150966
18 0.185 1.38057e-45 -103.294 -99.1306 8.76844 0.151164
19 0.195 4.7812e-50 -113.565 -109.401 8.76844 0.14388
20 0.205 2.79895e-52 -118.705 -114.542 8.76844 0.140342
21 0.215 1.34938e-55 -126.343 -122.179 8.76844 0.134957
22 0.225 8.20101e-58 -131.446 -127.282 8.76844 0.131407
23 0.235 9.45611e-61 -138.211 -134.048 8.76844 0.125939
24 0.245 4.0156e-62 -141.37 -137.207 8.76844 0.12413
25 0.255 6.04598e-65 -147.869 -143.705 8.76844 0.118579
26 0.265 2.58084e-66 -151.023 -146.859 8.76844 0.116869
27 0.275 5.00555e-69 -157.268 -153.105 8.76844 0.111188
28 0.285 5.48505e-71 -161.782 -157.618 8.76844 0.107522
29 0.295 8.39354e-74 -168.264 -164.101 8.76844 0.101944
30 0.305 7.15682e-75 -170.726 -166.563 8.76844 0.0995316
31 0.315 5.9179e-74 -168.613 -164.45 8.76844 0.102693
32 0.325 4.68945e-76 -173.451 -169.288 8.76844 0.0988787
33 0.335 1.13402e-79 -181.778 -177.615 8.76844 0.0893847
34 0.345 1.16596e-78 -179.448 -175.285 8.76844 0.093278
35 0.355 3.72873e-81 -185.193 -181.03 8.76844 0.0876374
36 0.365 2.56845e-83 -190.171 -186.008 8.76844 0.0815075
37 0.375 4.83159e-82 -187.237 -183.074 8.76844 0.0864392
38 0.385 2.31201e-84 -192.579 -188.416 8.76844 0.0808377
39 0.395 4.36237e-87 -198.852 -194.689 8.76844 0.0727379
40 0.405 1.82187e-88 -202.028 -197.864 8.76844 0.0689377
41 0.415 7.24652e-90 -205.252 -201.089 8.76844 0.0649717
42 0.425 1.37752e-90 -206.912 -202.749 8.76844 0.0636034
43 0.435 8.09519e-92 -209.747 -205.583 8.76844 0.0597571
44 0.445 5.49253e-92 -210.134 -205.971 8.76844 0.0607591
45 0.455 5.85826e-94 -214.675 -210.512 8.76844 0.0532859
46 0.465 7.13305e-95 -216.781 -212.618 8.76844 0.0509382
47 0.475 9.38559e-97 -221.112 -216.948 8.76844 0.0430639
48 0.485 3.78481e-97 -222.02 -217.856 8.76844 0.0430202
49 0.495 8.42077e-98 -223.523 -219.359 8.76844 0.0420311
50 0.505 9.17957e-99 -225.739 -221.576 8.76844 0.0380437
51 0.515 8.29153e-100 -228.143 -223.98 8.76844 0.0322265
52 0.525 4.59425e-101 -231.036 -226.873 8.76844 0.0268289
53 0.535 5.88785e-102 -233.091 -228.928 8.76844 0.0227006
54 0.545 1.93244e-102 -234.205 -230.042 8.76844 0.0234078
55 0.555 1.6639e-103 -236.657 -232.494 8.76844 0.0143759
56 0.565 9.8104e-104 -237.185 -233.022 8.76844 0.017089
57 0.575 1.26409e-104 -239.234 -235.071 8.76844 0.0102914
58 0.585 1.73807e-105 -241.219 -237.055 8.76844 0.00512182
59 0.595 2.65212e-106 -243.099 -238.935 8.76844 -0.0018831
60 0.605 4.13118e-107 -244.958 -240.795 8.76844 -0.010069
61 0.615 1.38242e-107 -246.053 -241.89 8.76844 -0.0126893
62 0.625 4.10798e-108 -247.266 -243.103 8.76844 -0.0155259
63 0.635 1.88803e-108 -248.044 -243.88 8.76844 -0.0171579
64 0.645 4.26433e-109 -249.531 -245.368 8.76844 -0.0262127
65 0.655 1.03402e-109 -250.948 -246.785 8.76844 -0.0370916
66 0.665 4.88785e-110 -251.698 -247.534 8.76844 -0.036969
67 0.675 2.03916e-110 -252.572 -248.409 8.76844 -0.0463049
68 0.685 8.83708e-111 -253.408 -249.245 8.76844 -0.0541346
69 0.695 4.03222e-111 -254.193 -250.029 8.76844 -0.0622111
70 0.705 1.89718e-111 -254.947 -250.783 8.76844 -0.0707101
71 0.715 1.19332e-111 -255.41 -251.247 8.76844 -0.0836326
72 0.725 7.83267e-112 -255.831 -251.668 8.76844 -0.0927928
73 0.735 5.86606e-112 -256.12 -251.957 8.76844 -0.102601
74 0.745 4.09564e-112 -256.48 -252.316 8.76844 -0.112299
75 0.755 3.78424e-112 -256.559 -252.395 8.76844 -0.122578
76 0.765 4.70705e-112 -256.34 -252.177 8.76844 -0.132654
77 0.775 5.47629e-112 -256.189 -252.026 8.76844 -0.143377
78 0.785 6.92867e-112 -255.954 -251.791 8.76844 -0.154787
79 0.795 7.73005e-112 -255.844 -251.681 8.76844 -0.165145
80 0.805 1.34374e-111 -255.291 -251.128 8.76844 -0.175888
81 0.815 2.06045e-111 -254.864 -250.701 8.76844 -0.187369
82 0.825 3.1897e-111 -254.427 -250.264 8.76844 -0.199333
83 0.835 4.0797e-111 -254.181 -250.018 8.76844 -0.210478
84 0.845 7.34364e-111 -253.593 -249.43 8.76844 -0.222062
85 0.855 1.07462e-110 -253.212 -249.049 8.76844 -0.235104
86 0.865 1.46717e-110 -252.901 -248.738 8.76844 -0.247617
87 0.875 1.42395e-110 -252.931 -248.768 8.76844 -0.25953
88 0.885 1.74485e-110 -252.728 -248.564 8.76844 -0.271822
89 0.895 1.4335e-110 -252.924 -248.761 8.76844 -0.285065
90 0.905 8.82033e-111 -253.41 -249.247 8.76844 -0.29837
91 0.915 3.41506e-111 -254.359 -250.195 8.76844 -0.311049
92 0.925 1.35097e-111 -255.286 -251.123 8.76844 -0.322512
93 0.935 2.42913e-112 -257.002 -252.839 8.76844 -0.336066
94 0.945 2.0983e-113 -259.451 -255.288 8.76844 -0.351193
95 0.955 1.14102e-114 -262.363 -258.2 8.76844 -0.35793
96 0.965 3.51149e-116 -265.844 -261.681 8.76844 -0.373702
97 0.975 1.09828e-118 -271.611 -267.448 8.76844 -0.400105
98 0.985 1.43496e-119 -273.646 -269.483 8.76844 -0.392331
99 0.995 4.36076e-128 -293.258 -289.095 8.76844 -0.46098
