0 0.005 0.0185059 -3.98966 1.25861 9.85345 0.249928
1 0.015 1.27305 0.241417 5.48969 9.85345 0.24986
2 0.025 9.4987 2.25115 7.49943 9.85345 0.247506
3 0.035 15.462 2.73838 7.98666 9.85345 0.244759
4 0.045 6.15867 1.81786 7.06614 9.85345 0.242427
5 0.055 1.55365 0.44061 5.68889 9.85345 0.240113
6 0.065 0.253727 -1.3715 3.87678 9.85345 0.239181
7 0.075 0.00620749 -5.082 0.166278 9.85345 0.231712
8 0.085 2.93133e-05 -10.4375 -5.18919 9.85345 0.214406
9 0.095 7.32946e-07 -14.1262 -8.87792 9.85345 0.207982
10 0.105 7.2547e-12 -25.6494 -20.4011 9.85345 0.187282
11 0.115 2.48862e-13 -29.0219 -23.7736 9.85345 0.184805
12 0.125 1.5129e-14 -31.8222 -26.5739 9.85345 0.181367
13 0.135 1.24872e-17 -38.9218 -33.6735 9.85345 0.172703
14 0.145 3.45549e-21 -47.1143 -41.866 9.85345 0.16331
15 0.155 5.73115e-23 -51.2135 -45.9653 9.85345 0.1596
16 0.165 3.29725e-26 -58.6741 -53.4258 9.85345 0.152335
17 0.175 5.78736e-27 -60.4141 -55.1658 9.85345 0.1505
18 0.185 4.60661e-27 -60.6423 -55.394 9.85345 0.151031
19 0.195 3.01622e-30 -67.9735 -62.7253 9.85345 0.14348
20 0.205 7.01568e-32 -71.7346 -66.4863 9.85345 0.14012
21 0.215 3.02626e-34 -77.1806 -71.9323 9.85345 0.134379
22 0.225 7.37783e-36 -80.8946 -75.6463 9.85345 0.130966
23 0.235 7.5715e-38 -85.4738 -80.2256 9.85345 0.12545
24 0.245 6.48104e-39 -87.9319 -82.6837 9.85345 0.123765
25 0.255 9.28292e-41 -92.1778 -86.9295 9.85345 0.117952
26 0.265 7.92948e-42 -94.638 -89.3897 9.85345 0.116075
27 0.275 1.55491e-43 -98.5697 -93.3215 9.85345 0.110127
28 0.285 7.43444e-45 -101.61 -96.3619 9.85345 0.106373
29 0.295 1.12915e-46 -105.797 -100.549 9.85345 0.100301
30 0.305 2.63717e-47 -107.252 -102.004 9.85345 0.0977377
31 0.315 4.70337e-47 -106.673 -101.425 9.85345 0.102427
32 0.325 1.95415e-48 -109.854 -104.606 9.85345 0.0976217
33 0.335 2.22853e-50 -114.328 -109.08 9.85345 0.0877154
34 0.345 4.60025e-50 -113.603 -108.355 9.85345 0.0919258
35 0.355 1.71921e-51 -116.89 -111.642 9.85345 0.0848631
36 0.365 1.38048e-52 -119.412 -114.164 9.85345 0.0787067
37 0.375 2.67462e-52 -118.751 -113.502 9.85345 0.0854186
38 0.385 1.39591e-53 -121.703 -116.455 9.85345 0.0783434
39 0.395 8.66389e-55 -124.483 -119.235 9.85345 0.068502
40 0.405 1.81081e-55 -126.048 -120.8 9.85345 0.0638946
41 0.415 4.04852e-56 -127.546 -122.298 9.85345 0.0593542
42 0.425 1.47443e-56 -128.556 -123.308 9.85345 0.0562487
43 0.435 4.40492e-57 -129.765 -124.516 9.85345 0.0515867
44 0.445 1.82293e-57 -130.647 -125.399 9.85345 0.0504937
45 0.455 4.75482e-58 -131.991 -126.742 9.85345 0.042199
46 0.465 2.39216e-58 -132.678 -127.429 9.85345 0.0359114
47 0.475 1.01353e-58 -133.536 -128.288 9.85345 0.0270745
48 0.485 6.58956e-59 -133.967 -128.719 9.85345 0.0222029
49 0.495 3.91581e-59 -134.487 -129.239 9.85345 0.0157164
50 0.505 3.09342e-59 -134.723 -129.475 9.85345 0.00771944
51 0.515 3.36256e-59 -134.64 -129.392 9.85345 0.000853364
52 0.525 3.66063e-59 -134.555 -129.307 9.85345 -0.00753844
53 0.535 5.11404e-59 -134.221 -128.972 9.85345 -0.0162807
54 0.545 6.19932e-59 -134.028 -128.78 9.85345 -0.022677
55 0.555 1.43215e-58 -133.191 -127.942 9.85345 -0.0307615
56 0.565 3.58003e-58 -132.275 -127.026 9.85345 -0.0408434
57 0.575 9.63604e-58 -131.284 -126.036 9.85345 -0.0481975
58 0.585 5.9655e-57 -129.461 -124.213 9.85345 -0.0703057
59 0.595 6.47095e-57 -129.38 -124.132 9.85345 -0.057493
60 0.605 2.585e-56 -127.995 -122.747 9.85345 -0.0648221
61 0.615 2.50697e-55 -125.723 -120.475 9.85345 -0.0801338
62 0.625 5.97117e-55 -124.855 -119.607 9.85345 -0.0802126
63 0.635 4.22254e-54 -122.899 -117.651 9.85345 -0.0879999
64 0.645 3.69991e-53 -120.729 -115.48 9.85345 -0.0954662
65 0.655 1.77956e-52 -119.158 -113.91 9.85345 -0.0990586
66 0.665 2.68489e-51 -116.444 -111.196 9.85345 -0.111678
67 0.675 2.81351e-50 -114.095 -108.847 9.85345 -0.118073
68 0.685 9.19175e-49 -110.608 -105.36 9.85345 -0.12915
69 0.695 1.18097e-47 -108.055 -102.807 9.85345 -0.136589
70 0.705 2.92343e-47 -107.149 -101.9 9.85345 -0.133859
71 0.715 1.68087e-43 -98.4918 -93.2436 9.85345 -0.161836
72 0.725 1.74954e-44 -100.754 -95.5061 9.85345 -0.150555
73 0.735 2.40818e-42 -95.8297 -90.5814 9.85345 -0.165187
74 0.745 2.41598e-41 -93.5239 -88.2756 9.85345 -0.16906
75 0.755 2.03468e-39 -89.0905 -83.8422 9.85345 -0.182016
76 0.765 3.15269e-38 -86.35 -81.1017 9.85345 -0.185635
77 0.775 1.10348e-36 -82.7946 -77.5463 9.85345 -0.192417
78 0.785 1.57981e-34 -77.8306 -72.5823 9.85345 -0.205417
79 0.795 1.16745e-32 -73.5279 -68.2796 9.85345 -0.214554
80 0.805 1.90872e-30 -68.4311 -63.1828 9.85345 -0.226936
81 0.815 2.3812e-28 -63.6048 -58.3565 9.85345 -0.238064
82 0.825 3.73565e-25 -56.2467 -50.9984 9.85345 -0.259095
83 0.835 1.4271e-23 -52.6038 -47.3555 9.85345 -0.267907
84 0.845 2.15901e-21 -47.5846 -42.3364 9.85345 -0.27751
85 0.855 1.27933e-18 -41.2002 -35.9519 9.85345 -0.295718
86 0.865 2.42889e-16 -35.9539 -30.7056 9.85345 -0.308517
87 0.875 3.90371e-14 -30.8743 -25.626 9.85345 -0.3245
88 0.885 2.12854e-11 -24.573 -19.3247 9.85345 -0.346829
89 0.895 2.13342e-09 -19.9655 -14.7173 9.85345 -0.356382
90 0.905 6.63703e-07 -14.2254 -8.97715 9.85345 -0.378667
91 0.915 3.85604e-05 -10.1633 -4.91501 9.85345 -0.400714
92 0.925 0.00145349 -6.53379 -1.28551 9.85345 -0.403688
93 0.935 0.0588346 -2.83303 2.41525 9.85345 -0.418736
94 0.945 1.16445 0.152247 5.40052 9.85345 -0.432247
95 0.955 6.98567 1.94386 7.19214 9.85345 -0.443612
96 0.965 27.0419 3.29739 8.54566 9.85345 -0.456362
97 0.975 26.226 3.26675 8.51503 9.85345 -0.468901
98 0.985 4.25751 1.44868 6.69696 9.85345 -0.481264
99 0.995 0.039612 -3.22862 2.01966 9.85345 -0.493318
