0 0.005 0.0120402 -4.4195 1.42525 10.4499 0.253317
1 0.015 1.51669 0.41653 6.26129 10.4499 0.25062
2 0.025 12.5873 2.53269 8.37745 10.4499 0.247842
3 0.035 19.6457 2.97786 8.82262 10.4499 0.245161
4 0.045 8.28859 2.11488 7.95964 10.4499 0.24258
5 0.055 2.18372 0.781031 6.62579 10.4499 0.239831
6 0.065 0.199987 -1.6095 4.23525 10.4499 0.236386
7 0.075 0.00531029 -5.23811 0.606649 10.4499 0.227787
8 0.085 0.000185853 -8.59056 -2.7458 10.4499 0.223457
9 0.095 2.15277e-07 -15.3513 -9.50658 10.4499 0.206865
10 0.105 3.54572e-07 -14.8524 -9.0076 10.4499 0.210682
11 0.115 8.40653e-09 -18.5943 -12.7495 10.4499 0.203495
12 0.125 4.79752e-15 -32.9707 -27.1259 10.4499 0.181107
13 0.135 2.17988e-16 -36.0621 -30.2173 10.4499 0.178052
14 0.145 1.94396e-19 -43.0844 -37.2396 10.4499 0.168943
15 0.155 1.4278e-22 -50.3007 -44.456 10.4499 0.161399
16 0.165 4.85529e-24 -53.682 -47.8372 10.4499 0.157718
17 0.175 5.39382e-25 -55.8794 -50.0346 10.4499 0.156588
18 0.185 7.91225e-29 -64.7066 -58.8618 10.4499 0.146742
19 0.195 1.90227e-29 -66.1319 -60.2872 10.4499 0.145529
20 0.205 1.17328e-32 -73.5229 -67.6782 10.4499 0.13797
21 0.215 5.28067e-33 -74.3213 -68.4765 10.4499 0.138177
22 0.225 1.28018e-34 -78.0409 -72.1961 10.4499 0.134967
23 0.235 1.0014e-37 -85.1942 -79.3495 10.4499 0.124938
24 0.245 7.14206e-39 -87.8348 -81.9901 10.4499 0.122919
25 0.255 1.02897e-39 -89.7723 -83.9275 10.4499 0.121556
26 0.265 6.53914e-41 -92.5282 -86.6834 10.4499 0.118164
27 0.275 2.30506e-42 -95.8735 -90.0287 10.4499 0.114839
28 0.285 2.18298e-44 -100.533 -94.6883 10.4499 0.107991
29 0.295 1.01478e-45 -103.602 -97.7569 10.4499 0.104384
30 0.305 6.63112e-47 -106.33 -100.485 10.4499 0.100247
31 0.315 1.38147e-47 -107.898 -102.054 10.4499 0.0988403
32 0.325 4.12723e-49 -111.409 -105.564 10.4499 0.0917385
33 0.335 6.05683e-50 -113.328 -107.483 10.4499 0.0893056
34 0.345 4.29852e-50 -113.671 -107.826 10.4499 0.0920589
35 0.355 4.20056e-51 -115.997 -110.152 10.4499 0.0884295
36 0.365 1.2049e-52 -119.548 -113.703 10.4499 0.0786628
37 0.375 2.07996e-53 -121.305 -115.46 10.4499 0.0764863
38 0.385 5.31624e-54 -122.669 -116.824 10.4499 0.0729377
39 0.395 2.13033e-54 -123.583 -117.739 10.4499 0.0739508
40 0.405 1.6262e-55 -126.156 -120.311 10.4499 0.064109
41 0.415 5.44296e-56 -127.25 -121.406 10.4499 0.0625131
42 0.425 1.28915e-56 -128.691 -122.846 10.4499 0.0560659
43 0.435 4.71718e-57 -129.696 -123.851 10.4499 0.0527921
44 0.445 1.28061e-57 -131 -125.155 10.4499 0.0470441
45 0.455 3.68e-58 -132.247 -126.402 10.4499 0.0394305
46 0.465 2.21308e-58 -132.756 -126.911 10.4499 0.0336188
47 0.475 1.13008e-58 -133.428 -127.583 10.4499 0.0275837
48 0.485 6.87112e-59 -133.925 -128.08 10.4499 0.0222651
49 0.495 3.8003e-59 -134.517 -128.673 10.4499 0.0151341
50 0.505 3.09942e-59 -134.721 -128.877 10.4499 0.00750383
51 0.515 3.5838e-59 -134.576 -128.731 10.4499 0.000583201
52 0.525 4.1807e-59 -134.422 -128.577 10.4499 -0.00807969
53 0.535 5.68859e-59 -134.114 -128.269 10.4499 -0.0156301
54 0.545 7.08622e-59 -133.894 -128.05 10.4499 -0.0227341
55 0.555 1.80586e-58 -132.959 -127.114 10.4499 -0.0348283
56 0.565 3.01637e-58 -132.446 -126.601 10.4499 -0.0365047
57 0.575 8.48239e-58 -131.412 -125.567 10.4499 -0.0460937
58 0.585 3.16188e-57 -130.096 -124.251 10.4499 -0.0624031
59 0.595 6.84102e-57 -129.324 -123.48 10.4499 -0.058579
60 0.605 3.01817e-56 -127.84 -121.995 10.4499 -0.066789
61 0.615 1.02238e-55 -126.62 -120.775 10.4499 -0.070362
62 0.625 4.18462e-55 -125.211 -119.366 10.4499 -0.077846
63 0.635 2.69408e-54 -123.349 -117.504 10.4499 -0.0843997
64 0.645 1.83597e-53 -121.429 -115.585 10.4499 -0.0912878
65 0.655 2.2147e-52 -118.939 -113.095 10.4499 -0.100729
66 0.665 7.81774e-52 -117.678 -111.833 10.4499 -0.104542
67 0.675 2.09045e-50 -114.392 -108.547 10.4499 -0.116523
68 0.685 3.38444e-49 -111.607 -105.763 10.4499 -0.122566
69 0.695 2.42543e-46 -105.033 -99.1881 10.4499 -0.145529
70 0.705 4.76942e-47 -106.659 -100.815 10.4499 -0.135714
71 0.715 1.5206e-45 -103.197 -97.3525 10.4499 -0.14729
72 0.725 1.10821e-43 -98.9084 -93.0637 10.4499 -0.159439
73 0.735 7.17434e-43 -97.0406 -91.1959 10.4499 -0.160743
74 0.745 6.36131e-41 -92.5558 -86.711 10.4499 -0.172934
75 0.755 1.69119e-40 -91.578 -85.7332 10.4499 -0.173055
76 0.765 1.01522e-37 -85.1805 -79.3358 10.4499 -0.188489
77 0.775 2.11186e-36 -82.1455 -76.3007 10.4499 -0.195474
78 0.785 5.96978e-35 -78.8038 -72.959 10.4499 -0.201347
79 0.795 7.63423e-33 -73.9527 -68.1079 10.4499 -0.216107
80 0.805 1.12221e-30 -68.9623 -63.1175 10.4499 -0.225841
81 0.815 6.21832e-28 -62.6449 -56.8001 10.4499 -0.243208
82 0.825 1.76719e-26 -59.2978 -53.4531 10.4499 -0.247494
83 0.835 2.46367e-22 -49.7552 -43.9105 10.4499 -0.276418
84 0.845 5.28537e-21 -46.6893 -40.8446 10.4499 -0.282098
85 0.855 5.47975e-18 -39.7455 -33.9007 10.4499 -0.30337
86 0.865 1.76437e-16 -36.2736 -30.4288 10.4499 -0.307103
87 0.875 1.14038e-14 -32.1048 -26.2601 10.4499 -0.318131
88 0.885 1.81678e-11 -24.7314 -18.8866 10.4499 -0.344574
89 0.895 3.54859e-09 -19.4567 -13.612 10.4499 -0.363793
90 0.905 2.7671e-07 -15.1003 -9.25554 10.4499 -0.372577
91 0.915 1.34383e-05 -11.2174 -5.37264 10.4499 -0.384597
92 0.925 0.00127565 -6.6643 -0.819542 10.4499 -0.407906
93 0.935 0.0462694 -3.07327 2.77148 10.4499 -0.417282
94 0.945 0.977046 -0.0232212 5.82154 10.4499 -0.432351
95 0.955 5.9651 1.78593 7.63068 10.4499 -0.443616
96 0.965 22.9205 3.13203 8.97679 10.4499 -0.456198
97 0.975 22.0779 3.09458 8.93933 10.4499 -0.468875
98 0.985 3.54305 1.26499 7.10974 10.4499 -0.481089
99 0.995 0.0293064 -3.52995 2.31481 10.4499 -0.496545
